tree
version=v4
num_class=1
num_tree_per_iteration=1
label_index=0
max_feature_idx=24
objective=binary sigmoid:1
feature_names=BAREI SEIBETSU_CODE BATAIJU BATAIJU_DIFF FUTAN_JURYO FUTAN_JURYO_DIFF KISHU_CODE CHOKYOSHI_CODE KYORI TRACK_CODE SHUSSO_TOSU KISHU_3IN_RATE CHOKYOSHI_3IN_RATE UMA_5R_3IN_RATE RACE_KANKAKU SHUSSO_KAISU TENKO_JOTAI_GENZAI BABA_JOTAI_SHIBA_GENZAI BABA_JOTAI_DIRT_GENZAI COURSE_3IN_RATE COURSE_CHAKUJUN_MEAN KYORI_3IN_RATE KYORI_CHAKUJUN_MEAN ZEN_5R_CHAKUJUN_SLOPE ZEN_5R_BATAIJU_SLOPE
feature_infos=[3:10] [0:2] [0:588] [-478:14] [500:610] [-50:50] [0:138] [0:195] [1000:3900] [11:55] [8:18] [0:1] [0:1] [0:18] [0:23] [0:2] none none none [0:1] [0:18] [0:1] [0:18] none none
tree_sizes=6079

Tree=0
num_leaves=58
num_cat=0
split_feature=11 10 0 0 4 0 0 10 10 0 13 10 10 2 6 2 2 7 2 6 0 2 4 0 0 2 2 0 7 4 0 0 4 11 7 2 9 9 7 7 6 0 7 11 7 6 7 7 2 6 7 2 2 11 10 6 4
split_gain=246.614 181.401 123.447 122.767 70.3141 69.6388 76.1679 65.991 106.943 54.7691 45.3981 45.3077 94.536 57.1786 42.8375 36.9152 29.0529 28.7595 26.5528 30.5807 23.8111 21.9505 20.7761 20.0234 18.934 29.7298 16.3019 15.9315 14.862 12.591 12.5018 25.9815 12.2047 11.899 11.8984 15.4674 11.5541 35.2158 22.1757 19.812 15.678 9.45792 9.38739 8.4666 7.7704 7.35145 7.12302 10.6292 7.01598 6.44882 6.01965 4.08006 3.4998 1.7071 1.10114 0.883022 0.693277
threshold=1.0000000180025095e-35 15.994539848988856 4.9981669580283716 3.0010895721590116 526.91151119657695 3.9995988542897991 4.0013536257154696 15.000008704409206 14.999303663485852 4.9981669580283716 7.9466890549716682 16.000011634755371 17.998434894808529 431.72519396445193 58.993106092839319 485.92594380218941 410.50000000000006 86.05142844502447 486.25125928277521 11.00610224840703 5.9939396126780542 485.92594380218941 558.56902542884666 5.9939396126780542 3.0579682007637556 499.89646010093821 484.01214606837669 5.9939396126780542 94.000163701186764 567.91673256833872 5.9939396126780542 5.0830519606687306 579.98090038670728 0.1816984986922979 77.03815209553224 483.97825803447324 23.998090038670714 18.015688840628744 159.0876062801149 84.007597689172556 110.03605023531841 6.2786185292613723 143.99966074895261 0.20839668921161886 131.69451972749428 3.0936646075717871 50.022384177706407 26.048745022150396 509.8927844538577 32.015844948061591 118.03736497636842 446.02079781045239 503.82116246457309 0.14272998973418569 15.994539848988856 32.974234704994593 579.98090038670728
decision_type=2 2 2 2 2 2 2 2 2 2 2 2 2 2 2 2 2 2 2 2 2 2 2 2 2 2 2 2 2 2 2 2 2 2 2 2 2 2 2 2 2 2 2 2 2 2 2 2 2 2 2 2 2 2 2 2 2
left_child=4 7 3 11 -1 -5 22 8 9 10 16 13 45 43 -14 23 -2 -15 20 -20 36 -12 -7 29 25 54 33 56 -27 50 31 48 -22 -11 46 42 37 40 39 -38 -6 -29 -36 -3 52 -13 47 -10 -17 -28 -4 -39 -32 -25 -21 -40 -26
right_child=1 2 15 5 18 6 -8 -9 34 26 21 12 14 17 -16 30 -18 -19 19 24 32 -23 -24 53 27 28 49 41 -30 -31 44 -33 -34 -35 35 -37 38 51 55 -41 -42 -43 -44 -45 -46 -47 -48 -49 -50 -51 -52 -53 -54 -55 -56 -57 -58
leaf_value=-0.039103095276011614 -0.020848916345957459 -0.032520036677854101 -0.0056350949886326603 0.05951663699305311 0.0028497774188166259 -0.0076845635023222768 0.05879518453251624 0.059657443427367916 -0.017345468081239303 0.032869089483949718 -0.028759587899535113 -0.0085714285714285701 0.028128649657301986 0.0077863536864917742 -0.018719197162570977 0.016679096261348798 0.04957811191693684 0.027205520013709027 -0.017467823844303208 0.043486283263315759 -0.048749999999999981 0.029881258555301698 0.025077413713534558 -0.017133871550590974 0.046863195223220286 0.0026998177298674809 0.0256360921191853 -0.0051391039296566493 -0.047586206896551728 0.013817973934291232 -0.025341506080029413 0.054725389721080063 0 0.0078542215321549293 0.01359047626894291 0.033434514472749928 0.0085602165871631886 0.019353030948790574 0.042445658061044389 -0.021713223839934039 0.029823828476219671 0.028297529238398955 -0.020298122234576638 0 0.017789888664903955 0.050999937867230845 -0.027139192492647013 0.024734600785834979 -0.01071943878171611 0.043350358697909382 -0.045600000000000002 0.050050203314265025 0 -0.052340425531914897 0.019257193472170427 0.019116983976199736 0.030849936087578217
leaf_weight=19.584624469280243 4.1948748230934134 18.779499292373657 13.169248938560488 185.1954653263092 82.464241862297058 18.058998584747314 73.700236201286316 261.73032599687576 9.0846244692802482 31.066745400428772 9.1397496461868304 0.749999999999999 36.651369869709015 108.16686350107193 31.393623054027557 26.007746815681458 879.83847445249557 220.37871992588043 11.779499292373655 13.533372700214388 7.0000000000000027 11.948748230934141 131.29260748624802 6.3897496461868313 62.942489385604858 15.753873407840731 47.015493631362915 10.974374115467073 6.2499999999999991 17.838497877120972 8.1397496461868304 16.062871992588043 11.419248938560484 47.901369869709015 20.978247523307804 27.232120931148529 57.320618808269501 10.808998584747313 9.2538734078407305 28.003873407840729 25.8423712849617 16.033372700214386 9.8346244692802411 13.614123761653898 12.503873407840727 128.99910253286362 8.6397496461868268 10.058998584747313 10.029499292373655 78.28098726272583 5.2499999999999991 29.151369869709015 11.419248938560484 10.749999999999998 12.253873407840727 15.143623054027556 26.787246108055115
leaf_count=70 14 64 36 196 202 50 78 277 28 52 31 3 66 252 95 54 1154 409 36 18 28 20 250 20 85 38 88 30 25 38 27 17 29 111 45 45 132 21 12 87 45 28 31 35 25 163 29 18 29 113 21 36 29 43 24 30 46
internal_value=0.0348714 0.0385521 0.0292549 0.0330366 0.0148068 0.0456322 0.0337561 0.045555 0.0423945 0.0448971 0.0481473 0.0237149 0.0354017 0.0171475 0.00612209 0.00240782 0.0491868 0.0209462 0.0172861 0.026499 0.0112271 0.00295674 0.0208917 -0.0166579 0.0299146 0.0126553 0.0301848 0.036558 -0.0117271 -0.00280573 0.01491 0.0238419 -0.0203327 0.0183584 0.00955566 0.0173207 0.013666 0.0192006 0.00581022 -0.00116456 0.00977431 0.0139413 0.0015331 -0.0199554 0 0.0503632 -0.00566291 0.00340641 0.00816029 0.0371965 -0.0203327 0.0431544 -0.0115015 -0.0425372 0.0342415 0.0304695 0.0428061
internal_weight=3033.79 2561.49 1104.54 966.981 472.301 408.247 223.052 1456.95 1195.21 1109.39 905.122 558.733 197.794 360.939 68.045 137.56 884.033 328.546 452.716 176.308 276.408 21.0885 149.352 53.3975 164.529 47.7911 204.265 116.737 22.0039 36.2577 84.163 52.1001 18.4192 78.9681 85.8284 58.045 257.989 148.267 109.722 85.3245 108.307 27.0077 30.8129 32.3936 32.0629 129.749 27.7834 19.1436 36.0372 125.296 18.4192 39.9604 19.559 17.1397 25.7872 24.3975 89.7297
internal_count=5078 4056 2000 1661 1022 574 378 2056 1779 1583 1219 1087 327 760 161 339 1168 661 952 330 622 51 300 158 294 105 364 189 63 95 181 100 57 163 196 121 565 304 261 219 247 58 76 99 81 166 75 46 83 201 57 57 56 63 42 42 131
is_linear=0
shrinkage=0.03


end of trees

feature_importances:
BAREI=12
BATAIJU=11
CHOKYOSHI_CODE=10
KISHU_CODE=6
SHUSSO_TOSU=6
FUTAN_JURYO=5
KISHU_3IN_RATE=4
TRACK_CODE=2
UMA_5R_3IN_RATE=1

parameters:
[boosting: gbdt]
[objective: binary]
[metric: binary_logloss]
[tree_learner: serial]
[device_type: cpu]
[data_sample_strategy: bagging]
[data: ]
[valid: ]
[num_iterations: 200]
[learning_rate: 0.03]
[num_leaves: 63]
[num_threads: 0]
[seed: 0]
[deterministic: 0]
[force_col_wise: 0]
[force_row_wise: 0]
[histogram_pool_size: -1]
[max_depth: 7]
[min_data_in_leaf: 20]
[min_sum_hessian_in_leaf: 0.001]
[bagging_fraction: 1]
[pos_bagging_fraction: 1]
[neg_bagging_fraction: 1]
[bagging_freq: 0]
[bagging_seed: 3]
[bagging_by_query: 0]
[feature_fraction: 0.9]
[feature_fraction_bynode: 1]
[feature_fraction_seed: 2]
[extra_trees: 0]
[extra_seed: 6]
[early_stopping_round: 0]
[early_stopping_min_delta: 0]
[first_metric_only: 0]
[max_delta_step: 0]
[lambda_l1: 1]
[lambda_l2: 1]
[linear_lambda: 0]
[min_gain_to_split: 0]
[drop_rate: 0.1]
[max_drop: 50]
[skip_drop: 0.5]
[xgboost_dart_mode: 0]
[uniform_drop: 0]
[drop_seed: 4]
[top_rate: 0.2]
[other_rate: 0.1]
[min_data_per_group: 100]
[max_cat_threshold: 32]
[cat_l2: 10]
[cat_smooth: 10]
[max_cat_to_onehot: 4]
[top_k: 20]
[monotone_constraints: ]
[monotone_constraints_method: basic]
[monotone_penalty: 0]
[feature_contri: ]
[forcedsplits_filename: ]
[refit_decay_rate: 0.9]
[cegb_tradeoff: 1]
[cegb_penalty_split: 0]
[cegb_penalty_feature_lazy: ]
[cegb_penalty_feature_coupled: ]
[path_smooth: 0]
[interaction_constraints: ]
[verbosity: -1]
[saved_feature_importance_type: 0]
[use_quantized_grad: 0]
[num_grad_quant_bins: 4]
[quant_train_renew_leaf: 0]
[stochastic_rounding: 1]
[linear_tree: 0]
[max_bin: 255]
[max_bin_by_feature: ]
[min_data_in_bin: 3]
[bin_construct_sample_cnt: 200000]
[data_random_seed: 1]
[is_enable_sparse: 1]
[enable_bundle: 1]
[use_missing: 1]
[zero_as_missing: 0]
[feature_pre_filter: 1]
[pre_partition: 0]
[two_round: 0]
[header: 0]
[label_column: ]
[weight_column: ]
[group_column: ]
[ignore_column: ]
[categorical_feature: ]
[forcedbins_filename: ]
[precise_float_parser: 0]
[parser_config_file: ]
[objective_seed: 5]
[num_class: 1]
[is_unbalance: 0]
[scale_pos_weight: 3.7795]
[sigmoid: 1]
[boost_from_average: 1]
[reg_sqrt: 0]
[alpha: 0.9]
[fair_c: 1]
[poisson_max_delta_step: 0.7]
[tweedie_variance_power: 1.5]
[lambdarank_truncation_level: 30]
[lambdarank_norm: 1]
[label_gain: ]
[lambdarank_position_bias_regularization: 0]
[eval_at: ]
[multi_error_top_k: 1]
[auc_mu_weights: ]
[num_machines: 1]
[local_listen_port: 12400]
[time_out: 120]
[machine_list_filename: ]
[machines: ]
[gpu_platform_id: -1]
[gpu_device_id: -1]
[gpu_use_dp: 0]
[num_gpu: 1]

end of parameters

pandas_categorical:[]
