tree
version=v4
num_class=1
num_tree_per_iteration=1
label_index=0
max_feature_idx=18
objective=binary sigmoid:1
feature_names=BAREI SEIBETSU_CODE BATAIJU FUTAN_JURYO KISHU_CODE CHOKYOSHI_CODE WAKUBAN TANSHO_NINKIJUN TANSHO_ODDS TANSHO_ODDS_NINKI FUKUSHO_ODDS_SAITEI FUKUSHO_ODDS_SAIKOU FUKUSHO_ODDS_NINKI KEITO_ID KEITO_MEI BATAIJU_LATEST KISHU_WIN_RATE KISHU_RENTAI_RATE KISHU_FUKUSHO_RATE
feature_infos=[3:10] [0:2] [0:604] [500:620] [0:145] [0:199] [0:8] [0:18] [0:7459] [0:18] [0:1380] [0:4132] [0:18] none none none [0:0.28723404255319152] [0:0.48936170212765956] [0:0.62765957446808507]
tree_sizes=2617 1611 2144 1910 1825 1992 3149

Tree=0
num_leaves=24
num_cat=0
split_feature=12 10 7 10 18 7 0 0 3 17 2 3 4 4 2 12 2 3 0 2 9 0 2
split_gain=2251.68 341.758 168.021 153.401 63.7575 52.537 22.0496 14.1608 13.2322 26.9866 11.6452 10.7508 8.32789 8.20275 22.2274 7.78451 5.43234 4.22244 3.14408 3.10069 2.65078 0.893952 0.20854
threshold=7.2934965328941024 175.50000000000003 5.3047226954926598 96.500000000000014 0.12539501957105839 3.293467513825981 4.0537716035877827 4.4202684920076196 549.10296659588937 0.084447306749436152 451.98647682889782 560.68912678179481 13.031409715112177 95.994612623612696 434.01833041971634 6.7473944743919274 472.008780041325 538.43170961507337 3.5029308765428717 449.69981041718285 6.8615090238169314 4.3863785956004477 490.1025335165404
decision_type=2 2 2 2 2 2 2 2 2 2 2 2 2 2 2 2 2 2 2 2 2 2 2
left_child=2 3 5 8 7 -1 17 -4 9 -2 -8 -12 22 14 -14 19 -15 -5 -3 -6 -9 -17 -10
right_child=1 18 4 6 15 -7 10 20 12 -11 11 -13 13 16 -16 21 -18 -19 -20 -21 -22 -23 -24
leaf_value=-0.62293864635336982 -0.68930698267327417 -0.73143953064226452 -0.69206352099572332 -0.73246545570955346 -0.65410435523512955 -0.63630884480831162 -0.66818077591590808 -0.6532702537792997 -0.69279251378384032 -0.6510580103045559 -0.71652584663403041 -0.68923757478006964 -0.70188175405686448 -0.69285848565661723 -0.66769945220593874 -0.656536627641779 -0.67634416948803011 -0.71051897439703127 -0.72003304229319276 -0.63688783638333801 -0.68364273272378828 -0.64385338619361943 -0.6862009028985262
leaf_weight=1013.1708402037621 24.81996214389801 108.82502716779709 36.188688158988953 11.777028381824492 35.630405306816101 448.332390666008 13.802605152130125 15.218491017818453 21.802096128463745 65.622971177101135 18.081492066383362 36.364372670650482 16.65519642829895 31.837573647499084 227.82318013906479 93.719121217727661 56.109662711620331 91.637251913547516 77.658962249755859 161.68780887126923 7.5911886096000663 44.895801663398743 16.737833797931671
leaf_count=1688 81 473 121 53 85 893 37 35 73 153 73 119 61 107 629 232 166 351 316 323 23 96 53
internal_value=-0.650013 -0.691474 -0.631737 -0.68092 -0.649547 -0.626978 -0.70497 -0.679329 -0.671902 -0.661068 -0.692137 -0.698014 -0.674704 -0.673147 -0.670176 -0.644462 -0.681913 -0.713656 -0.727017 -0.639632 -0.661287 -0.651889 -0.689063
internal_weight=2675.99 819.555 1856.43 633.071 394.932 1461.5 171.663 58.9984 461.408 90.4429 68.2485 54.4459 370.966 332.426 244.478 335.933 87.9472 103.414 186.484 197.318 22.8097 138.615 38.5399
internal_count=6241 2745 3496 1956 915 2581 633 179 1323 234 229 192 1089 963 690 736 273 404 789 408 58 328 126
is_linear=0
shrinkage=1


Tree=1
num_leaves=14
num_cat=0
split_feature=8 11 11 12 12 6 0 6 17 0 0 0 6
split_gain=2322.64 412.412 113.526 36.1622 23.2533 17.8492 13.7271 9.70498 9.13807 4.46923 45.8208 3.15401 0.912201
threshold=454.00355314058316 44.950841312642083 197.50000000000003 9.8776691223892499 4.1289922006193303 2.1604157655014409 4.0018042835468615 5.7546182746739936 0.23245972541860918 4.0382515970434687 4.8735635153260253 3.8856431617862843 6.2247870026621781
decision_type=2 2 2 2 2 2 2 2 2 2 2 2 2
left_child=1 4 8 5 -1 -3 -4 -5 9 -2 -11 -9 -7
right_child=2 3 6 7 -6 12 -8 11 -10 10 -12 -13 -14
leaf_value=0.065601965647377636 0.0003088798125699901 0.024712366058753654 -0.030174868846261398 0.023238621216888262 0.054183560682662252 0.042482071028335733 -0.015174436277827792 0.016162912360665679 -0.019302515846308505 0.074887780669923312 0.00088221932520707671 -0.0040019460151682808 0.035608229384817426
leaf_weight=1297.9207554459572 124.45576572418213 99.57783031463623 224.51042076945305 48.965772554278374 265.21828347444534 288.42565560340881 89.964158326387405 8.4948567152023333 15.049992397427557 7.6393762230873099 65.935131207108498 22.870003968477249 157.49453370273113
leaf_count=2160 419 270 941 135 520 657 343 24 59 9 220 80 385
internal_value=0.0418322 0.0554484 -0.014606 0.0346725 0.0637197 0.0374834 -0.0260404 0.0149891 0.00217199 0.00404354 0.0098698 0.000863222 0.0402065
internal_weight=2716.52 2188.97 527.555 625.829 1563.14 545.498 314.475 80.3306 213.08 198.03 73.5745 31.3649 445.92
internal_count=6222 4231 1991 1551 2680 1312 1284 239 707 648 229 104 1042
is_linear=0
shrinkage=0.03


Tree=2
num_leaves=19
num_cat=0
split_feature=12 11 7 11 2 17 8 10 10 3 3 0 8 2 0 17 3 3
split_gain=1963.06 301.938 249.676 193.17 14.5131 14.3437 56.4576 12.1338 40.6664 18.317 16.9182 18.8646 7.8707 5.8076 4.45696 1.50273 0.587375 0.0223239
threshold=7.091275170829765 242.00660304731284 3.9064569944709229 114.50000000000001 435.02334044647085 0.28585217881847391 227.12914398178347 436.50000000000006 182.50000000000003 549.95060019065602 561.31411255056457 3.6091194380521818 562.50000000000011 482.44297060066532 3.6556239394112144 0.19315444899989409 558.95203303209053 569.86297376044502
decision_type=2 2 2 2 2 2 2 2 2 2 2 2 2 2 2 2 2 2
left_child=2 3 13 4 15 6 -4 8 9 -3 16 -12 -8 -1 -5 -2 -11 -10
right_child=1 7 5 14 -6 -7 12 -9 17 10 11 -13 -14 -15 -16 -17 -18 -19
leaf_value=0.061982248596472278 -0.00025488951236733167 -0.033997910582978227 0.047928601555982754 -0.0024427672897196929 0.030716332688704651 0.028761025469221935 0.025670067724718238 -0.042196419195373501 -0.028764943118064355 -0.019165544453170678 -0.0065837949061478759 0.03133233780805135 -0.0043665132709001615 0.068903663968514425 -0.01105082339996017 0.016179768250117008 -0.0039643909729764207 -0.038421822301564809
leaf_weight=637.85397045314312 15.703181937336923 17.045890912413597 647.23649448156357 120.98121631145477 287.41367609798908 76.088327661156654 102.17145761847496 38.054670408368111 85.249849453568459 24.511558040976524 22.023136153817177 21.616349712014198 6.3932879120111457 493.96745856106281 117.99303935468197 4.7895814627408972 9.2809523046016675 51.535624042153358
leaf_count=1045 53 75 1316 419 730 189 268 175 361 98 81 56 23 725 432 13 34 231
internal_value=0.0395866 0.000442794 0.0558326 0.0132793 0.0289681 0.0431418 0.04451 -0.0254649 -0.0224128 -0.00676785 -3.38779e-05 0.0118067 0.0236037 0.0650876 -0.00684633 0.00276449 -0.0160868 -0.0328735
internal_weight=2779.91 816.199 1963.71 546.881 307.906 831.89 755.801 269.318 231.263 94.4779 77.432 43.6395 108.565 1131.82 238.974 20.4928 33.7925 136.785
internal_count=6324 2758 3566 1647 796 1796 1607 1111 936 344 269 137 291 1770 851 66 132 592
is_linear=0
shrinkage=0.03


Tree=3
num_leaves=17
num_cat=0
split_feature=8 11 7 10 9 16 3 18 6 7 16 16 3 16 5 7
split_gain=1814.31 241.863 145.078 53.6792 52.5932 28.3885 10.1904 7.98571 4.7497 4.66746 3.57799 20.2397 8.65662 3.15063 0.665014 0.584642
threshold=387.50000000000006 27.01008385749256 12.246049656890142 105.2139410495903 4.9363166054507976 0.040589895688835545 570.93142447950083 0.19370050014438392 3.7618861174026388 3.5624524982770791 0.017962724177214506 0.1040316745974891 551.34980177304283 0.036019859499725602 97.999108730444107 9.7701303579242325
decision_type=2 2 2 2 2 2 2 2 2 2 2 2 2 2 2 2
left_child=1 7 3 10 -3 15 -5 9 -8 -1 12 -12 -2 -4 -14 -6
right_child=2 4 13 6 5 -7 8 -9 -10 -11 11 -13 14 -15 -16 -17
leaf_value=0.057374997136780938 -0.016286030315726535 0.051290491613318348 -0.033157979884632698 -0.017637556454601914 0.023116810217346805 0.038324151261471984 0.021879557910315185 0.062117375867130523 -0.0048375437152138549 0.043945435453182191 0.015278697796043659 -0.012236323818521088 0.017678759691139041 -0.023202853411239528 0 0.0089115546821513132
leaf_weight=201.43055266141891 13.440521359443666 282.42365545034409 80.428851261734962 95.971682816743851 122.73864071071148 611.56626564264297 7.7403278499841717 867.52243822813034 15.175725311040877 78.678156241774559 206.91358283162117 25.230914458632469 13.599534183740618 144.43295140564442 4.6134941577911368 11.725468426942824
leaf_count=331 52 518 353 379 321 1373 21 1335 55 159 612 93 38 593 15 35
internal_value=0.037839 0.0506334 -0.00794572 0.00322953 0.0399016 0.0354871 -0.0133238 0.0601814 0.00346979 0.0538793 0.0108252 0.0121199 0.000330964 -0.0270275 0.0143645 0.0221745
internal_weight=2783.63 2176.09 607.548 382.686 1028.45 746.03 118.888 1147.63 22.9161 280.109 263.798 232.144 31.6535 224.862 18.213 134.464
internal_count=6283 4072 2211 1265 2247 1729 455 1825 76 490 810 705 105 946 53 356
is_linear=0
shrinkage=0.03


Tree=4
num_leaves=16
num_cat=0
split_feature=12 12 7 16 9 10 9 7 10 18 18 18 6 6 6
split_gain=1776.4 292.333 96.9815 55.133 51.2459 50.6809 15.2273 13.5516 11.8386 13.4704 4.13997 3.96941 3.94374 2.85024 2.08562
threshold=7.8558362476371331 10.610825549042152 5.2239965626684688 0.023342576268424578 2.2020418230763559 139.50000000000003 4.3441878650140513 8.6707788429580805 114.03182858345123 0.22185263970821681 0.19876875089405846 0.17923554040395412 5.3018900066817967 4.5358658123916662 5.7208450810149651
decision_type=2 2 2 2 2 2 2 2 2 2 2 2 2 2 2
left_child=2 8 4 7 -1 -3 -6 -4 9 11 -10 13 -13 -2 -7
right_child=1 5 3 -5 6 14 -8 -9 10 -11 -12 12 -14 -15 -16
leaf_value=0.060264796946708221 0.0092561627162582056 -0.0070182633204021834 0.014901584996432071 0.042291500008192519 0.051756679913127594 -0.025212081685872249 0.040455161503785142 -0.025599119038853285 0.0011245460601090511 0.024611310074223389 -0.028879529731908403 0.010835327765370394 -0.0036394205448638303 0.01924969411497118 -0.034201185976900798
leaf_weight=848.00011371076107 62.878293439745903 165.99859631061554 41.431635245680809 388.74925030767918 548.48235495388508 133.45897671580315 203.06656992435455 7.6519450098276129 16.879649728536609 159.36127363145351 3.9003691077232352 44.885578468441963 22.276889219880104 87.755409017205238 92.70109549164772
leaf_count=1268 190 596 115 809 950 565 420 30 58 419 18 132 76 243 414
internal_value=0.0366326 -0.00151584 0.0514347 0.0384973 0.054931 -0.0199073 0.0488007 0.00760362 0.0165378 0.0177676 -0.00419714 0.0125334 0.00561117 0.0153645 -0.029163
internal_weight=2827.48 790.096 2037.38 437.833 1599.55 392.159 751.549 49.0836 397.937 377.157 20.78 217.796 67.1625 150.634 226.16
internal_count=6303 2711 3592 954 2638 1575 1370 145 1136 1060 76 641 208 433 979
is_linear=0
shrinkage=0.03


Tree=5
num_leaves=18
num_cat=0
split_feature=11 7 8 7 9 2 6 9 8 3 3 6 2 6 6 3 3
split_gain=1702.11 188.741 165.992 93.9806 35.207 113.948 28.8855 20.5523 6.24789 4.96775 10.8773 4.52076 4.01147 21.1881 6.57952 3.3398 1.40816
threshold=82.217770301463062 4.9720293418669277 419.50000000000006 11.710367393072122 2.9866182088717941 436.0677721688545 7.8351441759481943 4.3441878650140513 19.160890808833454 574.5151919984379 559.38946171591749 4.2803911634983756 408.36131487798713 5.6918426638941879 4.0416989551710039 579.03546064446584 558.09043927428081
decision_type=2 2 2 2 2 2 2 2 2 2 2 2 2 2 2 2 2
left_child=1 4 9 12 5 -1 8 -6 -3 10 -2 -10 -4 14 16 -11 -14
right_child=2 6 3 -5 7 -7 -8 -9 11 15 -12 -13 13 -15 -16 -17 -18
leaf_value=0.02595901904306417 0.026274475897976875 0.019400546784532131 -0.020953111941887419 -0.024889973516950326 0.046284010785777555 0.062554678802986916 0.018568578429849481 0.073450809193478225 0.035250403247529156 0.061533608603786628 0.0069278136247282341 0.042423044497158044 0 -0.0098617054048216607 0.018435812757139437 0.026105284589373851 0.0065884054105404691
leaf_weight=89.858114525675774 64.291473791003227 24.440751641988754 6.829749956727027 284.48026910424232 479.63776254653931 820.80327285826206 84.542196556925774 33.424596786499023 302.63041523098946 4.3870800137519828 53.867553785443306 311.42885965108871 45.528221219778061 97.55472719669342 40.154812276363373 35.055269345641136 64.872200965881348
leaf_count=202 161 62 28 1204 862 1116 221 37 664 5 160 630 154 354 115 88 206
internal_value=0.0355691 0.0487902 -0.00511932 -0.0130671 0.0551901 0.059009 0.036088 0.0482517 0.0383281 0.0218052 0.0178384 0.0389999 5.42015e-05 0.000834691 0.00798288 0.0322118 0.00378028
internal_weight=2843.79 2146.77 697.021 539.42 1423.72 910.661 723.042 513.062 638.5 157.601 118.159 614.059 254.94 248.11 150.555 39.4423 110.4
internal_count=6269 3794 2475 2061 2217 1318 1577 899 1356 414 321 1294 857 829 475 93 360
is_linear=0
shrinkage=0.03


Tree=6
num_leaves=29
num_cat=0
split_feature=11 7 8 11 8 8 8 11 3 3 6 6 6 16 1 1 17 3 5 1 8 8 8 6 6 1 12 17
split_gain=1499.05 248.5 78.8837 32.5702 31.2507 21.3661 71.0999 16.5629 13.0128 12.1039 17.6498 8.80385 7.43085 6.05678 5.27987 9.46025 4.80924 4.2305 4.02889 7.83736 3.45578 1.99692 10.7062 0.628355 2.19174 0.574377 0.526561 0.0850282
threshold=128.2521799294187 6.128363441246238 50.035300325791489 82.217770301463062 279.44572009040695 2405.0000000000005 979.50000000000011 37.991168626136982 566.76486353594055 569.86297376044502 4.7593432495333987 3.7618861174026388 2.2990912773614349 0.040760688111423936 1.1259682749811142 0.50361453694314051 0.091928735932149633 559.92907606758627 122.90248095125123 0.85687995732205702 3776.5000000000005 122.03493859774996 31.022332656748038 6.6815846166175552 7.4316866295693442 0.78445590899472828 5.7403968613403213 0.20515182789935046
decision_type=2 2 2 2 2 2 2 2 2 2 2 2 2 2 2 2 2 2 2 2 2 2 2 2 2 2 2 2
left_child=1 2 -1 7 -4 6 8 21 14 17 11 12 -11 -5 15 -2 18 -8 19 -10 -7 22 -3 -12 -25 -18 -9 -17
right_child=5 3 4 13 -6 20 9 26 16 10 23 -13 -14 -15 -16 27 25 -19 -20 -21 -22 -23 -24 24 -26 -27 -28 -29
leaf_value=0.055785314949423757 0.020302255459690367 -0.0098989752359857509 0.043501708164343816 0.006619499579262624 -0.0043797960311397818 -0.022072845081061557 -0.035263004029908222 0.012126779781003027 -0.01518232450782638 -0.021371341607210576 -0.038693360440743743 0.020547246729900038 0.0084321415123662473 0.019585944413168993 0.036196017921417856 0.0010114761026300697 -0.014217047432255161 -0.016082956871876976 0.01827707512172224 0.027081803096168026 -0.039467316592258002 0.023653474832714891 0.038585886905162486 -0.02917925618096219 -0.0048089652063936419 0 0.034062541551195216 -0.00096389977117268034
leaf_weight=925.75339852273464 28.674574568867683 15.939214989542966 895.72748355567455 52.914868906140327 11.108831465244291 68.90143159031868 80.375900074839592 6.7123719900846472 16.71309061348439 17.645111128687862 14.305058941245077 11.56235435605049 10.13451239466667 151.38740013539791 4.8312743604183188 80.886257901787758 49.08032451570034 22.300126567482948 8.3023517578840238 3.801804155111312 23.219155415892601 3.9181081503629676 4.3595282882452002 12.114825785160065 9.7041720002889633 5.4574401676654807 326.02546755969524 10.963005661964415
leaf_count=1350 81 54 1657 162 36 297 366 17 64 74 67 34 33 409 11 273 184 90 24 8 112 8 7 54 37 19 723 38
internal_value=0.0343741 0.0440676 0.0494415 0.0264111 0.0428779 -0.0140015 -0.0107297 0.0319825 0.00102794 -0.0246012 -0.0144224 0 -0.00954089 0.0164223 0.00724011 0.00554423 -0.00793378 -0.031582 0.00104421 -0.00506088 -0.0271561 0.00616459 0.000428255 -0.029263 -0.0203408 -0.0131512 0.0337476 0.000444752
internal_weight=2872.82 2393.85 1832.59 561.257 906.836 478.973 386.852 356.955 208.71 178.142 75.466 39.342 27.7796 204.302 125.355 120.524 83.355 102.676 28.8172 20.5149 92.1206 24.2169 20.2987 36.1241 21.819 54.5378 332.738 91.8493
internal_count=6289 4423 3043 1380 1693 1866 1457 809 702 755 299 141 107 571 403 392 299 456 96 72 409 69 61 158 91 203 740 311
is_linear=0
shrinkage=0.03


end of trees

feature_importances:
FUTAN_JURYO=16
WAKUBAN=16
TANSHO_ODDS=13
TANSHO_NINKIJUN=11
BAREI=10
BATAIJU=9
FUKUSHO_ODDS_SAIKOU=9
FUKUSHO_ODDS_NINKI=8
FUKUSHO_ODDS_SAITEI=7
TANSHO_ODDS_NINKI=6
KISHU_WIN_RATE=6
KISHU_RENTAI_RATE=6
KISHU_FUKUSHO_RATE=5
SEIBETSU_CODE=4
KISHU_CODE=2
CHOKYOSHI_CODE=2

parameters:
[boosting: gbdt]
[objective: binary]
[metric: binary_logloss,auc,average_precision]
[tree_learner: serial]
[device_type: cpu]
[data_sample_strategy: bagging]
[data: ]
[valid: ]
[num_iterations: 200]
[learning_rate: 0.03]
[num_leaves: 63]
[num_threads: 4]
[seed: 42]
[deterministic: 1]
[force_col_wise: 0]
[force_row_wise: 0]
[histogram_pool_size: -1]
[max_depth: 7]
[min_data_in_leaf: 10]
[min_sum_hessian_in_leaf: 0.001]
[bagging_fraction: 0.8]
[pos_bagging_fraction: 1]
[neg_bagging_fraction: 1]
[bagging_freq: 1]
[bagging_seed: 400]
[bagging_by_query: 0]
[feature_fraction: 0.9]
[feature_fraction_bynode: 1]
[feature_fraction_seed: 30056]
[extra_trees: 1]
[extra_seed: 12879]
[early_stopping_round: 0]
[early_stopping_min_delta: 0]
[first_metric_only: 0]
[max_delta_step: 0]
[lambda_l1: 1]
[lambda_l2: 1]
[linear_lambda: 0]
[min_gain_to_split: 0.01]
[drop_rate: 0.1]
[max_drop: 50]
[skip_drop: 0.5]
[xgboost_dart_mode: 0]
[uniform_drop: 0]
[drop_seed: 17869]
[top_rate: 0.2]
[other_rate: 0.1]
[min_data_per_group: 100]
[max_cat_threshold: 32]
[cat_l2: 10]
[cat_smooth: 10]
[max_cat_to_onehot: 4]
[top_k: 20]
[monotone_constraints: ]
[monotone_constraints_method: basic]
[monotone_penalty: 0]
[feature_contri: ]
[forcedsplits_filename: ]
[refit_decay_rate: 0.9]
[cegb_tradeoff: 1]
[cegb_penalty_split: 0]
[cegb_penalty_feature_lazy: ]
[cegb_penalty_feature_coupled: ]
[path_smooth: 0]
[interaction_constraints: ]
[verbosity: -1]
[saved_feature_importance_type: 0]
[use_quantized_grad: 0]
[num_grad_quant_bins: 4]
[quant_train_renew_leaf: 0]
[stochastic_rounding: 1]
[linear_tree: 0]
[max_bin: 255]
[max_bin_by_feature: ]
[min_data_in_bin: 3]
[bin_construct_sample_cnt: 200000]
[data_random_seed: 175]
[is_enable_sparse: 1]
[enable_bundle: 1]
[use_missing: 1]
[zero_as_missing: 0]
[feature_pre_filter: 1]
[pre_partition: 0]
[two_round: 0]
[header: 0]
[label_column: ]
[weight_column: ]
[group_column: ]
[ignore_column: ]
[categorical_feature: ]
[forcedbins_filename: ]
[precise_float_parser: 0]
[parser_config_file: ]
[objective_seed: 16083]
[num_class: 1]
[is_unbalance: 0]
[scale_pos_weight: 3.79063]
[sigmoid: 1]
[boost_from_average: 1]
[reg_sqrt: 0]
[alpha: 0.9]
[fair_c: 1]
[poisson_max_delta_step: 0.7]
[tweedie_variance_power: 1.5]
[lambdarank_truncation_level: 30]
[lambdarank_norm: 1]
[label_gain: ]
[lambdarank_position_bias_regularization: 0]
[eval_at: ]
[multi_error_top_k: 1]
[auc_mu_weights: ]
[num_machines: 1]
[local_listen_port: 12400]
[time_out: 120]
[machine_list_filename: ]
[machines: ]
[gpu_platform_id: -1]
[gpu_device_id: -1]
[gpu_use_dp: 0]
[num_gpu: 1]

end of parameters

pandas_categorical:[]
