{"learner":{"attributes":{"scikit_learn":"{\"_estimator_type\": \"classifier\"}"},"feature_names":["BAREI","SEIBETSU_CODE","BATAIJU","FUTAN_JURYO","KISHU_CODE","CHOKYOSHI_CODE","WAKUBAN","TANSHO_NINKIJUN","TANSHO_ODDS","TANSHO_ODDS_NINKI","FUKUSHO_ODDS_SAITEI","FUKUSHO_ODDS_SAIKOU","FUKUSHO_ODDS_NINKI","KEITO_ID","KEITO_MEI","BATAIJU_LATEST","KISHU_WIN_RATE","KISHU_RENTAI_RATE","KISHU_FUKUSHO_RATE","KYORI","TRACK_CODE","SHIBA_BABAJOTAI_CODE","DIRT_BABAJOTAI_CODE","TENKO_CODE","COURSE_KUBUN","prev_chaku","prev_ninki","prev_bataiju","prev_kishu","prev_course","prev_days","syussou_count"],"feature_types":["float","float","float","float","float","float","float","float","float","float","float","float","float","float","float","float","float","float","float","float","float","float","float","float","float","float","float","float","float","float","float","float"],"gradient_booster":{"model":{"gbtree_model_param":{"num_parallel_tree":"1","num_trees":"200"},"iteration_indptr":[0,1,2,3,4,5,6,7,8,9,10,11,12,13,14,15,16,17,18,19,20,21,22,23,24,25,26,27,28,29,30,31,32,33,34,35,36,37,38,39,40,41,42,43,44,45,46,47,48,49,50,51,52,53,54,55,56,57,58,59,60,61,62,63,64,65,66,67,68,69,70,71,72,73,74,75,76,77,78,79,80,81,82,83,84,85,86,87,88,89,90,91,92,93,94,95,96,97,98,99,100,101,102,103,104,105,106,107,108,109,110,111,112,113,114,115,116,117,118,119,120,121,122,123,124,125,126,127,128,129,130,131,132,133,134,135,136,137,138,139,140,141,142,143,144,145,146,147,148,149,150,151,152,153,154,155,156,157,158,159,160,161,162,163,164,165,166,167,168,169,170,171,172,173,174,175,176,177,178,179,180,181,182,183,184,185,186,187,188,189,190,191,192,193,194,195,196,197,198,199,200],"tree_info":[0,0,0,0,0,0,0,0,0,0,0,0,0,0,0,0,0,0,0,0,0,0,0,0,0,0,0,0,0,0,0,0,0,0,0,0,0,0,0,0,0,0,0,0,0,0,0,0,0,0,0,0,0,0,0,0,0,0,0,0,0,0,0,0,0,0,0,0,0,0,0,0,0,0,0,0,0,0,0,0,0,0,0,0,0,0,0,0,0,0,0,0,0,0,0,0,0,0,0,0,0,0,0,0,0,0,0,0,0,0,0,0,0,0,0,0,0,0,0,0,0,0,0,0,0,0,0,0,0,0,0,0,0,0,0,0,0,0,0,0,0,0,0,0,0,0,0,0,0,0,0,0,0,0,0,0,0,0,0,0,0,0,0,0,0,0,0,0,0,0,0,0,0,0,0,0,0,0,0,0,0,0,0,0,0,0,0,0,0,0,0,0,0,0,0,0,0,0,0,0],"trees":[{"base_weights":[4.1623753E-1,-3.9138653E0,3.6415257E-2,3.5162274E-2,-5.4183536E0,-5.5506573E0,2.108205E-2,4.9153087E-3,-1.6787817E-1],"categories":[],"categories_nodes":[],"categories_segments":[],"categories_sizes":[],"default_left":[0,0,0,0,0,0,0,0,0],"id":0,"left_children":[1,3,-1,-1,5,7,-1,-1,-1],"loss_changes":[4.8759883E3,1.6905659E3,0E0,0E0,1.4622998E2,4.941797E1,0E0,0E0,0E0],"parents":[2147483647,0,0,1,1,4,4,5,5],"right_children":[2,4,-1,-1,6,8,-1,-1,-1],"split_conditions":[1E0,7E0,3.6415257E-2,3.5162274E-2,4E0,4.38E2,2.108205E-2,4.9153087E-3,-1.6787817E-1],"split_indices":[5,7,0,0,0,2,0,0,0],"split_type":[0,0,0,0,0,0,0,0,0],"sum_hessian":[1.4102184E3,2.1855383E2,1.1916646E3,4.9791E1,1.6876283E2,1.6544344E2,3.3193998E0,1.1064667E0,1.6433698E2],"tree_param":{"num_deleted":"0","num_feature":"32","num_nodes":"9","size_leaf_vector":"1"}},{"base_weights":[4.2680648E-1,-3.6330278E0,3.618345E-2,3.471308E-2,-4.741725E0,2.0884687E-2,-4.8498836E0,-1.4660034E-1,4.618274E-3],"categories":[],"categories_nodes":[],"categories_segments":[],"categories_sizes":[],"default_left":[0,0,0,0,0,0,0,0,0],"id":1,"left_children":[1,3,-1,-1,5,-1,7,-1,-1],"loss_changes":[4.4479644E3,1.2111567E3,0E0,0E0,1.15851074E2,0E0,3.8788574E1,0E0,0E0],"parents":[2147483647,0,0,1,1,4,4,6,6],"right_children":[2,4,-1,-1,6,-1,8,-1,-1],"split_conditions":[1E0,7E0,3.618345E-2,3.471308E-2,6E0,2.0884687E-2,4E0,-1.4660034E-1,4.618274E-3],"split_indices":[5,7,0,0,6,0,0,0,0],"split_type":[0,0,0,0,0,0,0,0,0],"sum_hessian":[1.4042468E3,2.253473E2,1.1788995E3,4.217677E1,1.8317055E2,3.2858577E0,1.7988469E2,1.7879323E2,1.091449E0],"tree_param":{"num_deleted":"0","num_feature":"32","num_nodes":"9","size_leaf_vector":"1"}},{"base_weights":[3.954475E-1,-3.2571657E0,3.5958927E-2,3.4544826E-2,-4.2095203E0,-4.327673E0,2.3824185E-2,-1.3073549E-1,4.324154E-3],"categories":[],"categories_nodes":[],"categories_segments":[],"categories_sizes":[],"default_left":[0,0,0,0,0,0,0,0,0],"id":2,"left_children":[1,3,-1,-1,5,7,-1,-1,-1],"loss_changes":[4.0081272E3,1.0416104E3,0E0,0E0,1.2690381E2,3.16333E1,0E0,0E0,0E0],"parents":[2147483647,0,0,1,1,4,4,5,5],"right_children":[2,4,-1,-1,6,8,-1,-1,-1],"split_conditions":[1E0,7E0,3.5958927E-2,3.4544826E-2,8E0,1E0,2.3824185E-2,-1.3073549E-1,4.324154E-3],"split_indices":[5,7,0,0,7,1,0,0,0],"split_type":[0,0,0,0,0,0,0,0,0],"sum_hessian":[1.3645985E3,2.4520172E2,1.1193969E3,4.333506E1,2.0186665E2,1.9753712E2,4.3295393E0,1.9646048E2,1.0766373E0],"tree_param":{"num_deleted":"0","num_feature":"32","num_nodes":"9","size_leaf_vector":"1"}},{"base_weights":[3.999819E-1,-2.9154222E0,3.5746787E-2,3.4527704E-2,-3.8467462E0,-1.1841304E-1,2.3545729E-2],"categories":[],"categories_nodes":[],"categories_segments":[],"categories_sizes":[],"default_left":[0,0,0,0,0,0,0],"id":3,"left_children":[1,3,-1,-1,5,-1,-1],"loss_changes":[3.6547686E3,1.0233093E3,0E0,0E0,1.0793872E2,0E0,0E0],"parents":[2147483647,0,0,1,1,4,4],"right_children":[2,4,-1,-1,6,-1,-1],"split_conditions":[1E0,7E0,3.5746787E-2,3.4527704E-2,8E0,-1.1841304E-1,2.3545729E-2],"split_indices":[5,7,0,0,7,0,0],"split_type":[0,0,0,0,0,0,0],"sum_hessian":[1.3909443E3,2.673293E2,1.123615E3,4.957323E1,2.1775609E2,2.1349393E2,4.262168E0],"tree_param":{"num_deleted":"0","num_feature":"32","num_nodes":"7","size_leaf_vector":"1"}},{"base_weights":[4.0457714E-1,-2.6999779E0,3.5541844E-2,3.427593E-2,-3.5050375E0,-3.5952199E0,2.3725612E-2,3.8849574E-3,-1.08535126E-1],"categories":[],"categories_nodes":[],"categories_segments":[],"categories_sizes":[],"default_left":[0,0,0,0,0,0,0,0,0],"id":4,"left_children":[1,3,-1,-1,5,7,-1,-1,-1],"loss_changes":[3.3344165E3,8.6135657E2,0E0,0E0,9.435425E1,2.2884277E1,0E0,0E0,0E0],"parents":[2147483647,0,0,1,1,4,4,5,5],"right_children":[2,4,-1,-1,6,8,-1,-1,-1],"split_conditions":[1E0,7E0,3.5541844E-2,3.427593E-2,4E0,4.38E2,2.3725612E-2,3.8849574E-3,-1.08535126E-1],"split_indices":[5,7,0,0,0,2,0,0,0],"split_type":[0,0,0,0,0,0,0,0,0],"sum_hessian":[1.3750128E3,2.753871E2,1.0996257E3,4.741524E1,2.2797183E2,2.2367224E2,4.2995925E0,1.0546381E0,2.2261761E2],"tree_param":{"num_deleted":"0","num_feature":"32","num_nodes":"9","size_leaf_vector":"1"}},{"base_weights":[3.7257338E-1,-2.6679957E0,3.5344563E-2,3.3860967E-2,-3.3102584E0,-1.0047011E-1,1.4348886E-2],"categories":[],"categories_nodes":[],"categories_segments":[],"categories_sizes":[],"default_left":[0,0,0,0,0,0,0],"id":5,"left_children":[1,3,-1,-1,5,-1,-1],"loss_changes":[3.30504E3,6.9483655E2,0E0,0E0,4.0013184E1,0E0,0E0],"parents":[2147483647,0,0,1,1,4,4],"right_children":[2,4,-1,-1,6,-1,-1],"split_conditions":[1E0,7E0,3.5344563E-2,3.3860967E-2,4E0,-1.0047011E-1,1.4348886E-2],"split_indices":[5,7,0,0,0,0,0],"split_type":[0,0,0,0,0,0,0],"sum_hessian":[1.3476414E3,2.8152032E2,1.066121E3,4.0397675E1,2.4112265E2,2.390578E2,2.0648546E0],"tree_param":{"num_deleted":"0","num_feature":"32","num_nodes":"7","size_leaf_vector":"1"}},{"base_weights":[3.8548127E-1,-2.4701097E0,3.5155714E-2,3.3684913E-2,-3.0663373E0,1.617473E-2,-3.1058128E0,-9.3718134E-2,3.3508427E-3],"categories":[],"categories_nodes":[],"categories_segments":[],"categories_sizes":[],"default_left":[0,0,0,0,0,0,0,0,0],"id":6,"left_children":[1,3,-1,-1,5,-1,7,-1,-1],"loss_changes":[2.991487E3,6.2135254E2,0E0,0E0,3.941333E1,0E0,1.7641357E1,0E0,0E0],"parents":[2147483647,0,0,1,1,4,4,6,6],"right_children":[2,4,-1,-1,6,-1,8,-1,-1],"split_conditions":[1E0,7E0,3.5155714E-2,3.3684913E-2,6E0,1.617473E-2,4E0,-9.3718134E-2,3.3508427E-3],"split_indices":[5,7,0,0,6,0,0,0,0],"split_type":[0,0,0,0,0,0,0,0,0],"sum_hessian":[1.3304631E3,2.8653757E2,1.0439257E3,4.041734E1,2.4612022E2,2.2540646E0,2.4386617E2,2.4283806E2,1.0280949E0],"tree_param":{"num_deleted":"0","num_feature":"32","num_nodes":"9","size_leaf_vector":"1"}},{"base_weights":[3.7937185E-1,-2.3082168E0,3.4974348E-2,3.354937E-2,-2.865471E0,2.0618722E-2,-2.9172196E0,-8.8014916E-2,3.3037355E-3],"categories":[],"categories_nodes":[],"categories_segments":[],"categories_sizes":[],"default_left":[0,0,0,0,0,0,0,0,0],"id":7,"left_children":[1,3,-1,-1,5,-1,7,-1,-1],"loss_changes":[2.7964324E3,5.766205E2,0E0,0E0,5.167627E1,0E0,1.5960449E1,0E0,0E0],"parents":[2147483647,0,0,1,1,4,4,6,6],"right_children":[2,4,-1,-1,6,-1,8,-1,-1],"split_conditions":[1E0,7E0,3.4974348E-2,3.354937E-2,6E0,2.0618722E-2,4E0,-8.8014916E-2,3.3037355E-3],"split_indices":[5,7,0,0,6,0,0,0,0],"split_type":[0,0,0,0,0,0,0,0,0],"sum_hessian":[1.3213167E3,2.9838968E2,1.022927E3,4.134708E1,2.570426E2,3.2365227E0,2.5380608E2,2.527803E2,1.0257657E0],"tree_param":{"num_deleted":"0","num_feature":"32","num_nodes":"9","size_leaf_vector":"1"}},{"base_weights":[3.697303E-1,-2.1843128E0,3.47991E-2,3.338329E-2,-2.7072468E0,2.0358924E-2,-2.7550712E0,-8.3117984E-2,3.2572898E-3],"categories":[],"categories_nodes":[],"categories_segments":[],"categories_sizes":[],"default_left":[0,0,0,0,0,0,0,0,0],"id":8,"left_children":[1,3,-1,-1,5,-1,7,-1,-1],"loss_changes":[2.6116296E3,5.315635E2,0E0,0E0,4.67511E1,0E0,1.4575806E1,0E0,0E0],"parents":[2147483647,0,0,1,1,4,4,6,6],"right_children":[2,4,-1,-1,6,-1,8,-1,-1],"split_conditions":[1E0,7E0,3.47991E-2,3.338329E-2,6E0,2.0358924E-2,4E0,-8.3117984E-2,3.2572898E-3],"split_indices":[5,7,0,0,6,0,0,0,0],"split_type":[0,0,0,0,0,0,0,0,0],"sum_hessian":[1.292223E3,3.0463092E2,9.875921E2,4.128561E1,2.633453E2,3.1929126E0,2.6015237E2,2.591289E2,1.023471E0],"tree_param":{"num_deleted":"0","num_feature":"32","num_nodes":"9","size_leaf_vector":"1"}},{"base_weights":[3.6984405E-1,-2.1284735E0,3.4631345E-2,3.2998487E-2,-2.5691793E0,-2.6131945E0,1.9729747E-2,4.4400403E-3,-7.8867674E-2],"categories":[],"categories_nodes":[],"categories_segments":[],"categories_sizes":[],"default_left":[0,0,0,0,0,0,0,0,0],"id":9,"left_children":[1,3,-1,-1,5,7,-1,-1,-1],"loss_changes":[2.4863523E3,4.354281E2,0E0,0E0,4.16239E1,1.4339966E1,0E0,0E0,0E0],"parents":[2147483647,0,0,1,1,4,4,5,5],"right_children":[2,4,-1,-1,6,8,-1,-1,-1],"split_conditions":[1E0,7E0,3.4631345E-2,3.2998487E-2,4E0,4.38E2,1.9729747E-2,4.4400403E-3,-7.8867674E-2],"split_indices":[5,7,0,0,0,2,0,0,0],"split_type":[0,0,0,0,0,0,0,0,0],"sum_hessian":[1.2667804E3,3.020205E2,9.647598E2,3.582401E1,2.661965E2,2.631077E2,3.0888042E0,1.0824659E0,2.620252E2],"tree_param":{"num_deleted":"0","num_feature":"32","num_nodes":"9","size_leaf_vector":"1"}},{"base_weights":[3.4960008E-1,-1.9803674E0,3.4468126E-2,3.3067808E-2,-2.450957E0,-7.5154155E-2,2.2534696E-2],"categories":[],"categories_nodes":[],"categories_segments":[],"categories_sizes":[],"default_left":[0,0,0,0,0,0,0],"id":10,"left_children":[1,3,-1,-1,5,-1,-1],"loss_changes":[2.295841E3,4.606123E2,0E0,0E0,5.1110718E1,0E0,0E0],"parents":[2147483647,0,0,1,1,4,4],"right_children":[2,4,-1,-1,6,-1,-1],"split_conditions":[1E0,7E0,3.4468126E-2,3.3067808E-2,8E0,-7.5154155E-2,2.2534696E-2],"split_indices":[5,7,0,0,7,0,0],"split_type":[0,0,0,0,0,0,0],"sum_hessian":[1.2309371E3,3.1372882E2,9.1720825E2,4.1091164E1,2.7263766E2,2.6862238E2,4.015294E0],"tree_param":{"num_deleted":"0","num_feature":"32","num_nodes":"7","size_leaf_vector":"1"}},{"base_weights":[3.5747057E-1,-1.9020948E0,3.431405E-2,3.2884754E-2,-2.3437583E0,-7.1873546E-2,2.258767E-2],"categories":[],"categories_nodes":[],"categories_segments":[],"categories_sizes":[],"default_left":[0,0,0,0,0,0,0],"id":11,"left_children":[1,3,-1,-1,5,-1,-1],"loss_changes":[2.183319E3,4.2369116E2,0E0,0E0,4.8069702E1,0E0,0E0],"parents":[2147483647,0,0,1,1,4,4],"right_children":[2,4,-1,-1,6,-1,-1],"split_conditions":[1E0,7E0,3.431405E-2,3.2884754E-2,4E0,-7.1873546E-2,2.258767E-2],"split_indices":[5,7,0,0,0,0,0],"split_type":[0,0,0,0,0,0,0],"sum_hessian":[1.2270182E3,3.1607336E2,9.109449E2,4.0100834E1,2.7597253E2,2.719528E2,4.019752E0],"tree_param":{"num_deleted":"0","num_feature":"32","num_nodes":"7","size_leaf_vector":"1"}},{"base_weights":[3.4752867E-1,-1.8261777E0,3.4164134E-2,3.2738935E-2,-2.2473369E0,2.0215161E-2,-2.2864923E0,-6.896047E-2,2.300737E-3],"categories":[],"categories_nodes":[],"categories_segments":[],"categories_sizes":[],"default_left":[0,0,0,0,0,0,0,0,0],"id":12,"left_children":[1,3,-1,-1,5,-1,7,-1,-1],"loss_changes":[2.074833E3,3.989618E2,0E0,0E0,3.538513E1,0E0,1.0425171E1,0E0,0E0],"parents":[2147483647,0,0,1,1,4,4,6,6],"right_children":[2,4,-1,-1,6,-1,8,-1,-1],"split_conditions":[1E0,7E0,3.4164134E-2,3.2738935E-2,6E0,2.0215161E-2,4E0,-6.896047E-2,2.300737E-3],"split_indices":[5,7,0,0,6,0,0,0,0],"split_type":[0,0,0,0,0,0,0,0,0],"sum_hessian":[1.2044877E3,3.2075983E2,8.837279E2,3.9962685E1,2.8079715E2,3.1618097E0,2.7763535E2,2.7665866E2,9.7666615E-1],"tree_param":{"num_deleted":"0","num_feature":"32","num_nodes":"9","size_leaf_vector":"1"}},{"base_weights":[3.4871167E-1,-1.7591381E0,3.4020584E-2,3.262435E-2,-2.1756942E0,-6.635208E-2,1.9188974E-2],"categories":[],"categories_nodes":[],"categories_segments":[],"categories_sizes":[],"default_left":[0,0,0,0,0,0,0],"id":13,"left_children":[1,3,-1,-1,5,-1,-1],"loss_changes":[1.9708561E3,3.8646057E2,0E0,0E0,3.1642578E1,0E0,0E0],"parents":[2147483647,0,0,1,1,4,4],"right_children":[2,4,-1,-1,6,-1,-1],"split_conditions":[1E0,7E0,3.4020584E-2,3.262435E-2,4E0,-6.635208E-2,1.9188974E-2],"split_indices":[4,7,0,0,0,0,0],"split_type":[0,0,0,0,0,0,0],"sum_hessian":[1.1887983E3,3.2200073E2,8.667976E2,4.0592545E1,2.814082E2,2.7841354E2,2.9946437E0],"tree_param":{"num_deleted":"0","num_feature":"32","num_nodes":"7","size_leaf_vector":"1"}},{"base_weights":[3.605131E-1,-1.6947554E0,3.3882894E-2,3.2428443E-2,-2.084892E0,-2.1203823E0,1.9377995E-2,-6.4002186E-2,4.4972897E-3],"categories":[],"categories_nodes":[],"categories_segments":[],"categories_sizes":[],"default_left":[0,0,0,0,0,0,0,0,0],"id":14,"left_children":[1,3,-1,-1,5,7,-1,-1,-1],"loss_changes":[1.860928E3,3.5023798E2,0E0,0E0,3.013501E1,1.0540039E1,0E0,0E0,0E0],"parents":[2147483647,0,0,1,1,4,4,5,5],"right_children":[2,4,-1,-1,6,8,-1,-1,-1],"split_conditions":[1E0,7E0,3.3882894E-2,3.2428443E-2,8E0,4E0,1.9377995E-2,-6.4002186E-2,4.4972897E-3],"split_indices":[5,7,0,0,7,0,0,0,0],"split_type":[0,0,0,0,0,0,0,0,0],"sum_hessian":[1.1757029E3,3.1941666E2,8.5628625E2,3.882866E1,2.8058798E2,2.7757037E2,3.0176108E0,2.7648505E2,1.085349E0],"tree_param":{"num_deleted":"0","num_feature":"32","num_nodes":"9","size_leaf_vector":"1"}},{"base_weights":[3.461289E-1,-1.7324E0,3.374965E-2,3.1748414E-2,-2.0188985E0,-6.188595E-2,2.2002894E-2],"categories":[],"categories_nodes":[],"categories_segments":[],"categories_sizes":[],"default_left":[0,0,0,0,0,0,0],"id":15,"left_children":[1,3,-1,-1,5,-1,-1],"loss_changes":[1.8681615E3,2.5444214E2,0E0,0E0,3.7423218E1,0E0,0E0],"parents":[2147483647,0,0,1,1,4,4],"right_children":[2,4,-1,-1,6,-1,-1],"split_conditions":[1E0,7E0,3.374965E-2,3.1748414E-2,8E0,-6.188595E-2,2.2002894E-2],"split_indices":[5,7,0,0,7,0,0],"split_type":[0,0,0,0,0,0,0],"sum_hessian":[1.1521539E3,3.1336743E2,8.3878644E2,2.860007E1,2.8476736E2,2.808941E2,3.8732538E0],"tree_param":{"num_deleted":"0","num_feature":"32","num_nodes":"7","size_leaf_vector":"1"}},{"base_weights":[3.381097E-1,-1.5963356E0,3.3618357E-2,3.2070845E-2,-1.9431698E0,2.2616878E-2,-1.9879947E0,-5.9956662E-2,1.4194299E-3],"categories":[],"categories_nodes":[],"categories_segments":[],"categories_sizes":[],"default_left":[0,0,0,0,0,0,0,0,0],"id":16,"left_children":[1,3,-1,-1,5,-1,7,-1,-1],"loss_changes":[1.684972E3,2.9913092E2,0E0,0E0,3.7089355E1,0E0,8.068115E0,0E0,0E0],"parents":[2147483647,0,0,1,1,4,4,6,6],"right_children":[2,4,-1,-1,6,-1,8,-1,-1],"split_conditions":[1E0,7E0,3.3618357E-2,3.2070845E-2,6E0,2.2616878E-2,4E0,-5.9956662E-2,1.4194299E-3],"split_indices":[5,7,0,0,6,0,0,0,0],"split_type":[0,0,0,0,0,0,0,0,0],"sum_hessian":[1.1112747E3,3.1938824E2,7.918865E2,3.620365E1,2.8318457E2,4.0062146E0,2.7917838E2,2.78244E2,9.343697E-1],"tree_param":{"num_deleted":"0","num_feature":"32","num_nodes":"9","size_leaf_vector":"1"}},{"base_weights":[3.249065E-1,-1.587669E0,3.349379E-2,3.171485E-2,-1.8869162E0,2.235207E-2,-1.929846E0,-5.8203463E-2,1.3995578E-3],"categories":[],"categories_nodes":[],"categories_segments":[],"categories_sizes":[],"default_left":[0,0,0,0,0,0,0,0,0],"id":17,"left_children":[1,3,-1,-1,5,-1,7,-1,-1],"loss_changes":[1.6461422E3,2.5457153E2,0E0,0E0,3.498871E1,0E0,7.7178955E0,0E0,0E0],"parents":[2147483647,0,0,1,1,4,4,6,6],"right_children":[2,4,-1,-1,6,-1,8,-1,-1],"split_conditions":[1E0,7E0,3.349379E-2,3.171485E-2,6E0,2.235207E-2,1E0,-5.8203463E-2,1.3995578E-3],"split_indices":[5,7,0,0,6,0,1,0,0],"split_type":[0,0,0,0,0,0,0,0,0],"sum_hessian":[1.0854886E3,3.1708026E2,7.684083E2,3.1632124E1,2.8544815E2,3.9448462E0,2.815033E2,2.805699E2,9.334258E-1],"tree_param":{"num_deleted":"0","num_feature":"32","num_nodes":"9","size_leaf_vector":"1"}},{"base_weights":[3.2742035E-1,-1.5635047E0,3.3375643E-2,3.1510368E-2,-1.8450701E0,2.2090308E-2,-5.6598466E-2],"categories":[],"categories_nodes":[],"categories_segments":[],"categories_sizes":[],"default_left":[0,0,0,0,0,0,0],"id":18,"left_children":[1,3,-1,-1,5,-1,-1],"loss_changes":[1.6060798E3,2.3617065E2,0E0,0E0,3.3324097E1,0E0,0E0],"parents":[2147483647,0,0,1,1,4,4],"right_children":[2,4,-1,-1,6,-1,-1],"split_conditions":[1E0,7E0,3.3375643E-2,3.1510368E-2,6E0,2.2090308E-2,-5.6598466E-2],"split_indices":[5,7,0,0,6,0,0],"split_type":[0,0,0,0,0,0,0],"sum_hessian":[1.0799827E3,3.1618417E2,7.637985E2,3.013651E1,2.8604767E2,3.8846083E0,2.8216306E2],"tree_param":{"num_deleted":"0","num_feature":"32","num_nodes":"7","size_leaf_vector":"1"}},{"base_weights":[3.040597E-1,-1.5130402E0,3.325712E-2,3.1400982E-2,-1.7872839E0,2.1831492E-2,-1.8271699E0,-5.51236E-2,2.1731919E-3],"categories":[],"categories_nodes":[],"categories_segments":[],"categories_sizes":[],"default_left":[0,0,0,0,0,0,0,0,0],"id":19,"left_children":[1,3,-1,-1,5,-1,7,-1,-1],"loss_changes":[1.5180933E3,2.2616211E2,0E0,0E0,3.1355164E1,0E0,7.456299E0,0E0,0E0],"parents":[2147483647,0,0,1,1,4,4,6,6],"right_children":[2,4,-1,-1,6,-1,8,-1,-1],"split_conditions":[1E0,7E0,3.325712E-2,3.1400982E-2,6E0,2.1831492E-2,4E0,-5.51236E-2,2.1731919E-3],"split_indices":[5,7,0,0,6,0,0,0,0],"split_type":[0,0,0,0,0,0,0,0,0],"sum_hessian":[1.0365842E3,3.1745172E2,7.1913245E2,3.0094284E1,2.8735745E2,3.8254957E0,2.8353195E2,2.8256146E2,9.7049373E-1],"tree_param":{"num_deleted":"0","num_feature":"32","num_nodes":"9","size_leaf_vector":"1"}},{"base_weights":[2.9905993E-1,-1.517865E0,3.31465E-2,3.0983713E-2,-1.7544652E0,-5.376585E-2,2.1122986E-2],"categories":[],"categories_nodes":[],"categories_segments":[],"categories_sizes":[],"default_left":[0,0,0,0,0,0,0],"id":20,"left_children":[1,3,-1,-1,5,-1,-1],"loss_changes":[1.4980931E3,1.9211743E2,0E0,0E0,2.9084595E1,0E0,0E0],"parents":[2147483647,0,0,1,1,4,4],"right_children":[2,4,-1,-1,6,-1,-1],"split_conditions":[1E0,7E0,3.31465E-2,3.0983713E-2,8E0,-5.376585E-2,2.1122986E-2],"split_indices":[5,7,0,0,7,0,0],"split_type":[0,0,0,0,0,0,0],"sum_hessian":[1.02133984E3,3.131477E2,7.0819214E2,2.5937572E1,2.872101E2,2.8353668E2,3.6734438E0],"tree_param":{"num_deleted":"0","num_feature":"32","num_nodes":"7","size_leaf_vector":"1"}},{"base_weights":[3.0720383E-1,-1.4339032E0,3.3038314E-2,3.1233793E-2,-1.7095503E0,1.9016055E-2,-1.7401599E0,-5.250445E-2,1.846517E-3],"categories":[],"categories_nodes":[],"categories_segments":[],"categories_sizes":[],"default_left":[0,0,0,0,0,0,0,0,0],"id":21,"left_children":[1,3,-1,-1,5,-1,7,-1,-1],"loss_changes":[1.38279E3,2.16008E2,0E0,0E0,2.2466492E1,0E0,6.8253174E0,0E0,0E0],"parents":[2147483647,0,0,1,1,4,4,6,6],"right_children":[2,4,-1,-1,6,-1,8,-1,-1],"split_conditions":[1E0,7E0,3.3038314E-2,3.1233793E-2,6E0,1.9016055E-2,4E0,-5.250445E-2,1.846517E-3],"split_indices":[5,7,0,0,6,0,0,0,0],"split_type":[0,0,0,0,0,0,0,0,0],"sum_hessian":[9.9825995E2,3.120298E2,6.8623016E2,3.0626867E1,2.8140292E2,2.9529552E0,2.7844995E2,2.774952E2,9.5476246E-1],"tree_param":{"num_deleted":"0","num_feature":"32","num_nodes":"9","size_leaf_vector":"1"}},{"base_weights":[3.2164294E-1,-1.4274876E0,3.2935463E-2,3.0900216E-2,-1.680226E0,1.8775044E-2,-5.1333383E-2],"categories":[],"categories_nodes":[],"categories_segments":[],"categories_sizes":[],"default_left":[0,0,0,0,0,0,0],"id":22,"left_children":[1,3,-1,-1,5,-1,-1],"loss_changes":[1.3280885E3,1.8897607E2,0E0,0E0,2.1612366E1,0E0,0E0],"parents":[2147483647,0,0,1,1,4,4],"right_children":[2,4,-1,-1,6,-1,-1],"split_conditions":[1E0,7E0,3.2935463E-2,3.0900216E-2,6E0,1.8775044E-2,-5.1333383E-2],"split_indices":[5,7,0,0,6,0,0],"split_type":[0,0,0,0,0,0,0],"sum_hessian":[9.7628906E2,2.9942545E2,6.7686365E2,2.7266665E1,2.7215878E2,2.9145555E0,2.6924423E2],"tree_param":{"num_deleted":"0","num_feature":"32","num_nodes":"7","size_leaf_vector":"1"}},{"base_weights":[3.022268E-1,-1.3969388E0,3.28361E-2,3.0804783E-2,-1.6365982E0,1.8536853E-2,-1.6654481E0,-5.026508E-2,2.5407248E-3],"categories":[],"categories_nodes":[],"categories_segments":[],"categories_sizes":[],"default_left":[0,0,0,0,0,0,0,0,0],"id":23,"left_children":[1,3,-1,-1,5,-1,7,-1,-1],"loss_changes":[1.3176431E3,1.8294086E2,0E0,0E0,2.053357E1,0E0,6.6757812E0,0E0,0E0],"parents":[2147483647,0,0,1,1,4,4,6,6],"right_children":[2,4,-1,-1,6,-1,8,-1,-1],"split_conditions":[1E0,7E0,3.28361E-2,3.0804783E-2,6E0,1.8536853E-2,1E0,-5.026508E-2,2.5407248E-3],"split_indices":[5,7,0,0,6,0,1,0,0],"split_type":[0,0,0,0,0,0,0,0,0],"sum_hessian":[9.768281E2,3.0999542E2,6.668327E2,2.7222914E1,2.827725E2,2.8768694E0,2.7989563E2,2.789073E2,9.8832494E-1],"tree_param":{"num_deleted":"0","num_feature":"32","num_nodes":"9","size_leaf_vector":"1"}},{"base_weights":[2.9709756E-1,-1.3629647E0,3.2736734E-2,3.0711077E-2,-1.6049939E0,2.0934984E-2,-4.9253494E-2],"categories":[],"categories_nodes":[],"categories_segments":[],"categories_sizes":[],"default_left":[0,0,0,0,0,0,0],"id":24,"left_children":[1,3,-1,-1,5,-1,-1],"loss_changes":[1.2370393E3,1.7746582E2,0E0,0E0,2.5489868E1,0E0,0E0],"parents":[2147483647,0,0,1,1,4,4],"right_children":[2,4,-1,-1,6,-1,-1],"split_conditions":[1E0,7E0,3.2736734E-2,3.0711077E-2,6E0,2.0934984E-2,-4.9253494E-2],"split_indices":[5,7,0,0,6,0,0],"split_type":[0,0,0,0,0,0,0],"sum_hessian":[9.364374E2,3.0237326E2,6.340641E2,2.7162315E1,2.7521094E2,3.6175728E0,2.7159338E2],"tree_param":{"num_deleted":"0","num_feature":"32","num_nodes":"7","size_leaf_vector":"1"}},{"base_weights":[3.0400637E-1,-1.3447952E0,3.264525E-2,3.0518832E-2,-1.5745691E0,2.068821E-2,-4.83162E-2],"categories":[],"categories_nodes":[],"categories_segments":[],"categories_sizes":[],"default_left":[0,0,0,0,0,0,0],"id":25,"left_children":[1,3,-1,-1,5,-1,-1],"loss_changes":[1.2074337E3,1.6537897E2,0E0,0E0,2.4416443E1,0E0,0E0],"parents":[2147483647,0,0,1,1,4,4],"right_children":[2,4,-1,-1,6,-1,-1],"split_conditions":[1E0,7E0,3.264525E-2,3.0518832E-2,6E0,2.068821E-2,-4.83162E-2],"split_indices":[4,7,0,0,6,0,0],"split_type":[0,0,0,0,0,0,0],"sum_hessian":[9.3193445E2,2.9972958E2,6.3220483E2,2.5881964E1,2.7384763E2,3.563652E0,2.7028397E2],"tree_param":{"num_deleted":"0","num_feature":"32","num_nodes":"7","size_leaf_vector":"1"}},{"base_weights":[3.0644196E-1,-1.3009826E0,3.255261E-2,3.0521803E-2,-1.543884E0,-4.743171E-2,2.0862887E-2],"categories":[],"categories_nodes":[],"categories_segments":[],"categories_sizes":[],"default_left":[0,0,0,0,0,0,0],"id":26,"left_children":[1,3,-1,-1,5,-1,-1],"loss_changes":[1.1232065E3,1.6685672E2,0E0,0E0,2.409552E1,0E0,0E0],"parents":[2147483647,0,0,1,1,4,4],"right_children":[2,4,-1,-1,6,-1,-1],"split_conditions":[1E0,7E0,3.255261E-2,3.0521803E-2,4E0,-4.743171E-2,2.0862887E-2],"split_indices":[4,7,0,0,0,0,0],"split_type":[0,0,0,0,0,0,0],"sum_hessian":[8.954516E2,2.9157434E2,6.0387726E2,2.6958956E1,2.646154E2,2.610229E2,3.5925093E0],"tree_param":{"num_deleted":"0","num_feature":"32","num_nodes":"7","size_leaf_vector":"1"}},{"base_weights":[3.059678E-1,-1.2709594E0,3.2467153E-2,3.0528856E-2,-1.5180923E0,-4.661607E-2,2.0551065E-2],"categories":[],"categories_nodes":[],"categories_segments":[],"categories_sizes":[],"default_left":[0,0,0,0,0,0,0],"id":27,"left_children":[1,3,-1,-1,5,-1,-1],"loss_changes":[1.0987849E3,1.6935562E2,0E0,0E0,2.3040222E1,0E0,0E0],"parents":[2147483647,0,0,1,1,4,4],"right_children":[2,4,-1,-1,6,-1,-1],"split_conditions":[1E0,7E0,3.2467153E-2,3.0528856E-2,8E0,-4.661607E-2,2.0551065E-2],"split_indices":[4,7,0,0,7,0,0],"split_type":[0,0,0,0,0,0,0],"sum_hessian":[8.95641E2,2.9481802E2,6.00823E2,2.8034914E1,2.667831E2,2.6325665E2,3.5264416E0],"tree_param":{"num_deleted":"0","num_feature":"32","num_nodes":"7","size_leaf_vector":"1"}},{"base_weights":[3.1405053E-1,-1.2683973E0,3.2381717E-2,3.0100882E-2,-1.4879652E0,-1.517332E0,1.8127583E-2,2.5918705E-3,-4.5836642E-2],"categories":[],"categories_nodes":[],"categories_segments":[],"categories_sizes":[],"default_left":[0,0,0,0,0,0,0,0,0],"id":28,"left_children":[1,3,-1,-1,5,7,-1,-1,-1],"loss_changes":[1.0458661E3,1.4225284E2,0E0,0E0,1.7635254E1,5.8808594E0,0E0,0E0,0E0],"parents":[2147483647,0,0,1,1,4,4,5,5],"right_children":[2,4,-1,-1,6,8,-1,-1,-1],"split_conditions":[1E0,7E0,3.2381717E-2,3.0100882E-2,4E0,6E0,1.8127583E-2,2.5918705E-3,-4.5836642E-2],"split_indices":[5,7,0,0,0,6,0,0,0],"split_type":[0,0,0,0,0,0,0,0,0],"sum_hessian":[8.61585E2,2.802223E2,5.8136273E2,2.3980797E1,2.562415E2,2.5343695E2,2.804541E0,9.908172E-1,2.5244612E2],"tree_param":{"num_deleted":"0","num_feature":"32","num_nodes":"9","size_leaf_vector":"1"}},{"base_weights":[3.05758E-1,-1.2617909E0,3.230035E-2,2.9965032E-2,-1.4753271E0,1.7733568E-2,-4.5117326E-2],"categories":[],"categories_nodes":[],"categories_segments":[],"categories_sizes":[],"default_left":[0,0,0,0,0,0,0],"id":29,"left_children":[1,3,-1,-1,5,-1,-1],"loss_changes":[1.0283942E3,1.3723895E2,0E0,0E0,1.6974915E1,0E0,0E0],"parents":[2147483647,0,0,1,1,4,4],"right_children":[2,4,-1,-1,6,-1,-1],"split_conditions":[1E0,7E0,3.230035E-2,2.9965032E-2,6E0,1.7733568E-2,-4.5117326E-2],"split_indices":[5,7,0,0,6,0,0],"split_type":[0,0,0,0,0,0,0],"sum_hessian":[8.490279E2,2.7926047E2,5.697674E2,2.338042E1,2.5588005E2,2.745304E0,2.5313475E2],"tree_param":{"num_deleted":"0","num_feature":"32","num_nodes":"7","size_leaf_vector":"1"}},{"base_weights":[3.0478752E-1,-1.2322537E0,3.2220762E-2,2.9887563E-2,-1.4448688E0,-4.4435605E-2,2.0428326E-2],"categories":[],"categories_nodes":[],"categories_segments":[],"categories_sizes":[],"default_left":[0,0,0,0,0,0,0],"id":30,"left_children":[1,3,-1,-1,5,-1,-1],"loss_changes":[9.8365283E2,1.3322525E2,0E0,0E0,2.1408752E1,0E0,0E0],"parents":[2147483647,0,0,1,1,4,4],"right_children":[2,4,-1,-1,6,-1,-1],"split_conditions":[1E0,7E0,3.2220762E-2,2.9887563E-2,4E0,-4.4435605E-2,2.0428326E-2],"split_indices":[5,7,0,0,0,0,0],"split_type":[0,0,0,0,0,0,0],"sum_hessian":[8.299614E2,2.7619153E2,5.537699E2,2.3324871E1,2.5286665E2,2.493798E2,3.486845E0],"tree_param":{"num_deleted":"0","num_feature":"32","num_nodes":"7","size_leaf_vector":"1"}},{"base_weights":[2.943556E-1,-1.1876996E0,3.2142375E-2,3.0012935E-2,-1.4139141E0,-1.4492332E0,2.0185849E-2,2.930479E-3,-4.379655E-2],"categories":[],"categories_nodes":[],"categories_segments":[],"categories_sizes":[],"default_left":[0,0,0,0,0,0,0,0,0],"id":31,"left_children":[1,3,-1,-1,5,7,-1,-1,-1],"loss_changes":[9.355585E2,1.3998553E2,0E0,0E0,2.0456696E1,5.630005E0,0E0,0E0,0E0],"parents":[2147483647,0,0,1,1,4,4,5,5],"right_children":[2,4,-1,-1,6,8,-1,-1,-1],"split_conditions":[1E0,7E0,3.2142375E-2,3.0012935E-2,1.5E3,4.38E2,2.0185849E-2,2.930479E-3,-4.379655E-2],"split_indices":[5,7,0,0,19,2,0,0,0],"split_type":[0,0,0,0,0,0,0,0,0],"sum_hessian":[8.1036566E2,2.7811353E2,5.3225214E2,2.5323261E1,2.5279028E2,2.4935461E2,3.435656E0,1.0073812E0,2.4834724E2],"tree_param":{"num_deleted":"0","num_feature":"32","num_nodes":"9","size_leaf_vector":"1"}},{"base_weights":[2.9548445E-1,-1.1892165E0,3.2067217E-2,2.9622225E-2,-1.3931319E0,-1.4287635E0,1.999072E-2,-4.3186E-2,2.7194305E-3],"categories":[],"categories_nodes":[],"categories_segments":[],"categories_sizes":[],"default_left":[0,0,0,0,0,0,0,0,0],"id":32,"left_children":[1,3,-1,-1,5,7,-1,-1,-1],"loss_changes":[9.011771E2,1.2094699E2,0E0,0E0,1.9790161E1,5.454651E0,0E0,0E0,0E0],"parents":[2147483647,0,0,1,1,4,4,5,5],"right_children":[2,4,-1,-1,6,8,-1,-1,-1],"split_conditions":[1E0,7E0,3.2067217E-2,2.9622225E-2,8E0,1E0,1.999072E-2,-4.3186E-2,2.7194305E-3],"split_indices":[5,7,0,0,7,1,0,0,0],"split_type":[0,0,0,0,0,0,0,0,0],"sum_hessian":[7.8278906E2,2.674836E2,5.153054E2,2.2163267E1,2.4532036E2,2.4192654E2,3.3938103E0,2.409295E2,9.97044E-1],"tree_param":{"num_deleted":"0","num_feature":"32","num_nodes":"9","size_leaf_vector":"1"}},{"base_weights":[3.028741E-1,-1.1667836E0,3.199765E-2,2.9606104E-2,-1.3745338E0,-1.4097595E0,1.9771913E-2,2.6085633E-3,-4.2614993E-2],"categories":[],"categories_nodes":[],"categories_segments":[],"categories_sizes":[],"default_left":[0,0,0,0,0,0,0,0,0],"id":33,"left_children":[1,3,-1,-1,5,7,-1,-1,-1],"loss_changes":[8.751825E2,1.2090106E2,0E0,0E0,1.9139404E1,5.3212585E0,0E0,0E0,0E0],"parents":[2147483647,0,0,1,1,4,4,5,5],"right_children":[2,4,-1,-1,6,8,-1,-1,-1],"split_conditions":[1E0,7E0,3.199765E-2,2.9606104E-2,4E0,4.38E2,1.9771913E-2,2.6085633E-3,-4.2614993E-2],"split_indices":[5,7,0,0,0,2,0,0,0],"split_type":[0,0,0,0,0,0,0,0,0],"sum_hessian":[7.777236E2,2.653188E2,5.124047E2,2.258865E1,2.4273015E2,2.3938211E2,3.3480434E0,9.916311E-1,2.3839047E2],"tree_param":{"num_deleted":"0","num_feature":"32","num_nodes":"9","size_leaf_vector":"1"}},{"base_weights":[2.82855E-1,-1.1615602E0,3.1923678E-2,2.9478166E-2,-1.3672131E0,1.9543441E-2,-4.2073783E-2],"categories":[],"categories_nodes":[],"categories_segments":[],"categories_sizes":[],"default_left":[0,0,0,0,0,0,0],"id":34,"left_children":[1,3,-1,-1,5,-1,-1],"loss_changes":[8.408607E2,1.1691977E2,0E0,0E0,1.8684875E1,0E0,0E0],"parents":[2147483647,0,0,1,1,4,4],"right_children":[2,4,-1,-1,6,-1,-1],"split_conditions":[1E0,7E0,3.1923678E-2,2.9478166E-2,6E0,1.9543441E-2,-4.2073783E-2],"split_indices":[5,7,0,0,6,0,0],"split_type":[0,0,0,0,0,0,0],"sum_hessian":[7.4312134E2,2.602331E2,4.8288824E2,2.2019037E1,2.3821407E2,3.3010268E0,2.3491304E2],"tree_param":{"num_deleted":"0","num_feature":"32","num_nodes":"7","size_leaf_vector":"1"}},{"base_weights":[2.760169E-1,-1.1600243E0,3.185767E-2,2.9407175E-2,-1.3647137E0,2.2976403E-3,-1.3751506E0,-4.15673E-2,2.1294837E-3],"categories":[],"categories_nodes":[],"categories_segments":[],"categories_sizes":[],"default_left":[0,0,0,0,0,0,0,0,0],"id":35,"left_children":[1,3,-1,-1,5,-1,7,-1,-1],"loss_changes":[8.335658E2,1.16025085E2,0E0,0E0,4.9988403E0,0E0,5.0014954E0,0E0,0E0],"parents":[2147483647,0,0,1,1,4,4,6,6],"right_children":[2,4,-1,-1,6,-1,8,-1,-1],"split_conditions":[1E0,7E0,3.185767E-2,2.9407175E-2,4.38E2,2.2976403E-3,4E0,-4.15673E-2,2.1294837E-3],"split_indices":[5,7,0,0,2,0,0,0,0],"split_type":[0,0,0,0,0,0,0,0,0],"sum_hessian":[7.3658417E2,2.5991235E2,4.766718E2,2.1930387E1,2.3798196E2,9.76516E-1,2.3700545E2,2.3603706E2,9.683824E-1],"tree_param":{"num_deleted":"0","num_feature":"32","num_nodes":"9","size_leaf_vector":"1"}},{"base_weights":[2.9403496E-1,-1.1100953E0,3.1790573E-2,2.9490044E-2,-1.3324565E0,-4.106846E-2,1.9515349E-2],"categories":[],"categories_nodes":[],"categories_segments":[],"categories_sizes":[],"default_left":[0,0,0,0,0,0,0],"id":36,"left_children":[1,3,-1,-1,5,-1,-1],"loss_changes":[7.640945E2,1.18227234E2,0E0,0E0,1.8054169E1,0E0,0E0],"parents":[2147483647,0,0,1,1,4,4],"right_children":[2,4,-1,-1,6,-1,-1],"split_conditions":[1E0,7E0,3.1790573E-2,2.9490044E-2,1.5E3,-4.106846E-2,1.9515349E-2],"split_indices":[5,7,0,0,19,0,0],"split_type":[0,0,0,0,0,0,0],"sum_hessian":[7.0868964E2,2.4945573E2,4.592339E2,2.3195684E1,2.2626006E2,2.229707E2,3.2893505E0],"tree_param":{"num_deleted":"0","num_feature":"32","num_nodes":"7","size_leaf_vector":"1"}},{"base_weights":[2.7850387E-1,-1.1306021E0,3.172677E-2,2.8898576E-2,-1.3139497E0,-1.3430803E0,1.716903E-2,-4.061309E-2,1.8259787E-3],"categories":[],"categories_nodes":[],"categories_segments":[],"categories_sizes":[],"default_left":[0,0,0,0,0,0,0,0,0],"id":37,"left_children":[1,3,-1,-1,5,7,-1,-1,-1],"loss_changes":[7.631036E2,9.650098E1,0E0,0E0,1.4073914E1,4.7589417E0,0E0,0E0,0E0],"parents":[2147483647,0,0,1,1,4,4,5,5],"right_children":[2,4,-1,-1,6,8,-1,-1,-1],"split_conditions":[1E0,7E0,3.172677E-2,2.8898576E-2,8E0,4E0,1.716903E-2,-4.061309E-2,1.8259787E-3],"split_indices":[4,7,0,0,7,0,0,0,0],"split_type":[0,0,0,0,0,0,0,0,0],"sum_hessian":[6.931163E2,2.4615382E2,4.4696243E2,1.9037008E1,2.2711682E2,2.2446832E2,2.6484985E0,2.2351454E2,9.537774E-1],"tree_param":{"num_deleted":"0","num_feature":"32","num_nodes":"9","size_leaf_vector":"1"}},{"base_weights":[2.8222322E-1,-1.1279052E0,3.1665143E-2,2.8616438E-2,-1.3029523E0,-4.017089E-2,1.9132387E-2],"categories":[],"categories_nodes":[],"categories_segments":[],"categories_sizes":[],"default_left":[0,0,0,0,0,0,0],"id":38,"left_children":[1,3,-1,-1,5,-1,-1],"loss_changes":[7.3697925E2,8.8696106E1,0E0,0E0,1.7053345E1,0E0,0E0],"parents":[2147483647,0,0,1,1,4,4],"right_children":[2,4,-1,-1,6,-1,-1],"split_conditions":[1E0,7E0,3.1665143E-2,2.8616438E-2,1.5E3,-4.017089E-2,1.9132387E-2],"split_indices":[4,7,0,0,19,0,0],"split_type":[0,0,0,0,0,0,0],"sum_hessian":[6.73838E2,2.3802762E2,4.3581042E2,1.7673964E1,2.2035365E2,2.1714232E2,3.211339E0],"tree_param":{"num_deleted":"0","num_feature":"32","num_nodes":"7","size_leaf_vector":"1"}},{"base_weights":[3.1032205E-1,-1.0852618E0,3.1605497E-2,2.884777E-2,-1.2862779E0,1.9144591E-2,-3.9737206E-2],"categories":[],"categories_nodes":[],"categories_segments":[],"categories_sizes":[],"default_left":[0,0,0,0,0,0,0],"id":39,"left_children":[1,3,-1,-1,5,-1,-1],"loss_changes":[6.771931E2,9.4767426E1,0E0,0E0,1.6797699E1,0E0,0E0],"parents":[2147483647,0,0,1,1,4,4],"right_children":[2,4,-1,-1,6,-1,-1],"split_conditions":[1E0,7E0,3.1605497E-2,2.884777E-2,6E0,1.9144591E-2,-3.9737206E-2],"split_indices":[5,7,0,0,6,0,0],"split_type":[0,0,0,0,0,0,0],"sum_hessian":[6.508394E2,2.2552979E2,4.2530963E2,1.9384815E1,2.0614497E2,3.207066E0,2.0293791E2],"tree_param":{"num_deleted":"0","num_feature":"32","num_nodes":"7","size_leaf_vector":"1"}},{"base_weights":[2.8760162E-1,-1.102324E0,3.1545956E-2,2.8442733E-2,-1.2814614E0,1.6486151E-2,-3.934952E-2],"categories":[],"categories_nodes":[],"categories_segments":[],"categories_sizes":[],"default_left":[0,0,0,0,0,0,0],"id":40,"left_children":[1,3,-1,-1,5,-1,-1],"loss_changes":[6.7646423E2,8.441855E1,0E0,0E0,1.3000488E1,0E0,0E0],"parents":[2147483647,0,0,1,1,4,4],"right_children":[2,4,-1,-1,6,-1,-1],"split_conditions":[1E0,7E0,3.1545956E-2,2.8442733E-2,6E0,1.6486151E-2,-3.934952E-2],"split_indices":[5,7,0,0,6,0,0],"split_type":[0,0,0,0,0,0,0],"sum_hessian":[6.3504443E2,2.2461636E2,4.1042807E2,1.7253794E1,2.0736256E2,2.5471783E0,2.0481538E2],"tree_param":{"num_deleted":"0","num_feature":"32","num_nodes":"7","size_leaf_vector":"1"}},{"base_weights":[2.85566E-1,-1.0928794E0,3.1490684E-2,2.8388837E-2,-1.2725983E0,-3.897456E-2,1.4436588E-2],"categories":[],"categories_nodes":[],"categories_segments":[],"categories_sizes":[],"default_left":[0,0,0,0,0,0,0],"id":41,"left_children":[1,3,-1,-1,5,-1,-1],"loss_changes":[6.6110724E2,8.343631E1,0E0,0E0,1.1049194E1,0E0,0E0],"parents":[2147483647,0,0,1,1,4,4],"right_children":[2,4,-1,-1,6,-1,-1],"split_conditions":[1E0,7E0,3.1490684E-2,2.8388837E-2,4E0,-3.897456E-2,1.4436588E-2],"split_indices":[5,7,0,0,0,0,0],"split_type":[0,0,0,0,0,0,0],"sum_hessian":[6.256037E2,2.2249446E2,4.0310922E2,1.7224747E1,2.0526971E2,2.0302522E2,2.2444916E0],"tree_param":{"num_deleted":"0","num_feature":"32","num_nodes":"7","size_leaf_vector":"1"}},{"base_weights":[2.7985993E-1,-1.0650641E0,3.1434953E-2,2.8540002E-2,-1.2555051E0,1.72125E-2,-3.861684E-2],"categories":[],"categories_nodes":[],"categories_segments":[],"categories_sizes":[],"default_left":[0,0,0,0,0,0,0],"id":42,"left_children":[1,3,-1,-1,5,-1,-1],"loss_changes":[6.346581E2,8.71219E1,0E0,0E0,1.3325867E1,0E0,0E0],"parents":[2147483647,0,0,1,1,4,4],"right_children":[2,4,-1,-1,6,-1,-1],"split_conditions":[1E0,7E0,3.1434953E-2,2.8540002E-2,4.79E2,1.72125E-2,-3.861684E-2],"split_indices":[5,7,0,0,2,0,0],"split_type":[0,0,0,0,0,0,0],"sum_hessian":[6.124007E2,2.219747E2,3.9042603E2,1.8357574E1,2.0361713E2,2.6423244E0,2.009748E2],"tree_param":{"num_deleted":"0","num_feature":"32","num_nodes":"7","size_leaf_vector":"1"}},{"base_weights":[2.8041622E-1,-1.0636383E0,3.1382192E-2,2.827894E-2,-1.2449533E0,-3.8271956E-2,1.6423212E-2],"categories":[],"categories_nodes":[],"categories_segments":[],"categories_sizes":[],"default_left":[0,0,0,0,0,0,0],"id":43,"left_children":[1,3,-1,-1,5,-1,-1],"loss_changes":[6.176045E2,8.0573975E1,0E0,0E0,1.2477112E1,0E0,0E0],"parents":[2147483647,0,0,1,1,4,4],"right_children":[2,4,-1,-1,6,-1,-1],"split_conditions":[1E0,7E0,3.1382192E-2,2.827894E-2,4E0,-3.8271956E-2,1.6423212E-2],"split_indices":[5,7,0,0,0,0,0],"split_type":[0,0,0,0,0,0,0],"sum_hessian":[5.9808527E2,2.1644197E2,3.816433E2,1.7134352E1,1.9930763E2,1.9677483E2,2.5328069E0],"tree_param":{"num_deleted":"0","num_feature":"32","num_nodes":"7","size_leaf_vector":"1"}},{"base_weights":[2.793141E-1,-1.0532097E0,3.1326294E-2,2.8152447E-2,-1.2370285E0,-3.7934612E-2,1.3993436E-2],"categories":[],"categories_nodes":[],"categories_segments":[],"categories_sizes":[],"default_left":[0,0,0,0,0,0,0],"id":44,"left_children":[1,3,-1,-1,5,-1,-1],"loss_changes":[5.830779E2,7.770148E1,0E0,0E0,1.0347656E1,0E0,0E0],"parents":[2147483647,0,0,1,1,4,4],"right_children":[2,4,-1,-1,6,-1,-1],"split_conditions":[1E0,7E0,3.1326294E-2,2.8152447E-2,4E0,-3.7934612E-2,1.3993436E-2],"split_indices":[5,7,0,0,0,0,0],"split_type":[0,0,0,0,0,0,0],"sum_hessian":[5.7000006E2,2.0725578E2,3.6274426E2,1.6705978E1,1.905498E2,1.8835835E2,2.191452E0],"tree_param":{"num_deleted":"0","num_feature":"32","num_nodes":"7","size_leaf_vector":"1"}},{"base_weights":[2.8741437E-1,-1.0422884E0,3.1278964E-2,2.7870057E-2,-1.2149434E0,-3.7620597E-2,1.8517494E-2],"categories":[],"categories_nodes":[],"categories_segments":[],"categories_sizes":[],"default_left":[0,0,0,0,0,0,0],"id":45,"left_children":[1,3,-1,-1,5,-1,-1],"loss_changes":[5.6783295E2,7.099986E1,0E0,0E0,1.4934235E1,0E0,0E0],"parents":[2147483647,0,0,1,1,4,4],"right_children":[2,4,-1,-1,6,-1,-1],"split_conditions":[1E0,7E0,3.1278964E-2,2.7870057E-2,1.5E3,-3.7620597E-2,1.8517494E-2],"split_indices":[5,7,0,0,19,0,0],"split_type":[0,0,0,0,0,0,0],"sum_hessian":[5.6336694E2,2.0345027E2,3.5991666E2,1.556492E1,1.8788535E2,1.8480522E2,3.0801256E0],"tree_param":{"num_deleted":"0","num_feature":"32","num_nodes":"7","size_leaf_vector":"1"}},{"base_weights":[2.8202623E-1,-1.0168461E0,3.122926E-2,2.7899485E-2,-1.1914437E0,-1.2324322E0,1.942449E-2,-3.7323836E-2,6.8748597E-4],"categories":[],"categories_nodes":[],"categories_segments":[],"categories_sizes":[],"default_left":[0,0,0,0,0,0,0,0,0],"id":46,"left_children":[1,3,-1,-1,5,7,-1,-1,-1],"loss_changes":[5.464588E2,7.073294E1,0E0,0E0,1.5566803E1,3.96521E0,0E0,0E0,0E0],"parents":[2147483647,0,0,1,1,4,4,5,5],"right_children":[2,4,-1,-1,6,8,-1,-1,-1],"split_conditions":[1E0,7E0,3.122926E-2,2.7899485E-2,8E0,4E0,1.942449E-2,-3.7323836E-2,6.8748597E-4],"split_indices":[5,7,0,0,7,0,0,0,0],"split_type":[0,0,0,0,0,0,0,0,0],"sum_hessian":[5.522444E2,2.0306306E2,3.4918134E2,1.5885042E1,1.8717802E2,1.8395146E2,3.226562E0,1.8305156E2,8.9989847E-1],"tree_param":{"num_deleted":"0","num_feature":"32","num_nodes":"9","size_leaf_vector":"1"}},{"base_weights":[2.8054744E-1,-1.0286695E0,3.118061E-2,2.777218E-2,-1.2068713E0,-3.7032362E-2,1.3302262E-2],"categories":[],"categories_nodes":[],"categories_segments":[],"categories_sizes":[],"default_left":[0,0,0,0,0,0,0],"id":47,"left_children":[1,3,-1,-1,5,-1,-1],"loss_changes":[5.3217773E2,6.972301E1,0E0,0E0,9.550629E0,0E0,0E0],"parents":[2147483647,0,0,1,1,4,4],"right_children":[2,4,-1,-1,6,-1,-1],"split_conditions":[1E0,7E0,3.118061E-2,2.777218E-2,4E0,-3.7032362E-2,1.3302262E-2],"split_indices":[4,7,0,0,0,0,0],"split_type":[0,0,0,0,0,0,0],"sum_hessian":[5.336038E2,1.9517773E2,3.3842612E2,1.5489694E1,1.7968805E2,1.775824E2,2.1056426E0],"tree_param":{"num_deleted":"0","num_feature":"32","num_nodes":"7","size_leaf_vector":"1"}},{"base_weights":[2.8925866E-1,-9.994777E-1,3.1138293E-2,2.7797185E-2,-1.1788558E0,1.7100576E-2,-1.2133887E0,-3.676034E-2,4.9205974E-4],"categories":[],"categories_nodes":[],"categories_segments":[],"categories_sizes":[],"default_left":[0,0,0,0,0,0,0,0,0],"id":48,"left_children":[1,3,-1,-1,5,-1,7,-1,-1],"loss_changes":[5.154309E2,6.903021E1,0E0,0E0,1.221405E1,0E0,3.839325E0,0E0,0E0],"parents":[2147483647,0,0,1,1,4,4,6,6],"right_children":[2,4,-1,-1,6,-1,8,-1,-1],"split_conditions":[1E0,7E0,3.1138293E-2,2.7797185E-2,4.79E2,1.7100576E-2,4E0,-3.676034E-2,4.9205974E-4],"split_indices":[5,7,0,0,2,0,0,0,0],"split_type":[0,0,0,0,0,0,0,0,0],"sum_hessian":[5.320894E2,1.9491127E2,3.3717813E2,1.5776172E1,1.7913509E2,2.6076868E0,1.765274E2,1.7563661E2,8.908004E-1],"tree_param":{"num_deleted":"0","num_feature":"32","num_nodes":"9","size_leaf_vector":"1"}},{"base_weights":[2.7833083E-1,-9.985217E-1,3.1089488E-2,2.7515586E-2,-1.1692655E0,-1.2043775E0,1.705764E-2,-3.6496066E-2,4.851869E-4],"categories":[],"categories_nodes":[],"categories_segments":[],"categories_sizes":[],"default_left":[0,0,0,0,0,0,0,0,0],"id":49,"left_children":[1,3,-1,-1,5,7,-1,-1,-1],"loss_changes":[4.9781046E2,6.386644E1,0E0,0E0,1.2089066E1,3.8001404E0,0E0,0E0,0E0],"parents":[2147483647,0,0,1,1,4,4,5,5],"right_children":[2,4,-1,-1,6,8,-1,-1,-1],"split_conditions":[1E0,7E0,3.1089488E-2,2.7515586E-2,8E0,4E0,1.705764E-2,-3.6496066E-2,4.851869E-4],"split_indices":[5,7,0,0,7,0,0,0,0],"split_type":[0,0,0,0,0,0,0,0,0],"sum_hessian":[5.122461E2,1.902041E2,3.2204196E2,1.4728223E1,1.7547589E2,1.7286566E2,2.6102273E0,1.7197517E2,8.9048123E-1],"tree_param":{"num_deleted":"0","num_feature":"32","num_nodes":"9","size_leaf_vector":"1"}},{"base_weights":[2.8727958E-1,-9.8065215E-1,3.104477E-2,2.7621295E-2,-1.1643358E0,-3.6234494E-2,1.8875608E-2],"categories":[],"categories_nodes":[],"categories_segments":[],"categories_sizes":[],"default_left":[0,0,0,0,0,0,0],"id":50,"left_children":[1,3,-1,-1,5,-1,-1],"loss_changes":[4.721882E2,6.570778E1,0E0,0E0,1.452182E1,0E0,0E0],"parents":[2147483647,0,0,1,1,4,4],"right_children":[2,4,-1,-1,6,-1,-1],"split_conditions":[1E0,7E0,3.104477E-2,2.7621295E-2,8E0,-3.6234494E-2,1.8875608E-2],"split_indices":[5,7,0,0,7,0,0],"split_type":[0,0,0,0,0,0,0],"sum_hessian":[4.960464E2,1.8337312E2,3.1267328E2,1.5321302E1,1.6805182E2,1.6493735E2,3.114468E0],"tree_param":{"num_deleted":"0","num_feature":"32","num_nodes":"7","size_leaf_vector":"1"}},{"base_weights":[2.7064335E-1,-9.9861693E-1,3.0998146E-2,2.6985252E-2,-1.1589034E0,-3.5994377E-2,1.7697088E-2],"categories":[],"categories_nodes":[],"categories_segments":[],"categories_sizes":[],"default_left":[0,0,0,0,0,0,0],"id":51,"left_children":[1,3,-1,-1,5,-1,-1],"loss_changes":[4.6453632E2,5.5982315E1,0E0,0E0,1.3240433E1,0E0,0E0],"parents":[2147483647,0,0,1,1,4,4],"right_children":[2,4,-1,-1,6,-1,-1],"split_conditions":[1E0,7E0,3.0998146E-2,2.6985252E-2,4E0,-3.5994377E-2,1.7697088E-2],"split_indices":[5,7,0,0,0,0,0],"split_type":[0,0,0,0,0,0,0],"sum_hessian":[4.7780414E2,1.7872583E2,2.9907834E2,1.3072265E1,1.6565356E2,1.6273256E2,2.9209933E0],"tree_param":{"num_deleted":"0","num_feature":"32","num_nodes":"7","size_leaf_vector":"1"}},{"base_weights":[2.777955E-1,-9.530758E-1,3.0958956E-2,2.737352E-2,-1.0996834E0,-3.576464E-2,2.4054825E-2],"categories":[],"categories_nodes":[],"categories_segments":[],"categories_sizes":[],"default_left":[0,0,0,0,0,0,0],"id":52,"left_children":[1,3,-1,-1,5,-1,-1],"loss_changes":[4.4312628E2,5.0678574E1,0E0,0E0,3.1011276E1,0E0,0E0],"parents":[2147483647,0,0,1,1,4,4],"right_children":[2,4,-1,-1,6,-1,-1],"split_conditions":[1E0,4.84E2,3.0958956E-2,2.737352E-2,4.86E2,-3.576464E-2,2.4054825E-2],"split_indices":[5,2,0,0,2,0,0],"split_type":[0,0,0,0,0,0,0],"sum_hessian":[4.7521515E2,1.7994287E2,2.9527228E2,1.2233353E1,1.6770952E2,1.6078923E2,6.920296E0],"tree_param":{"num_deleted":"0","num_feature":"32","num_nodes":"7","size_leaf_vector":"1"}},{"base_weights":[2.8210747E-1,-9.729725E-1,3.0921008E-2,2.7161293E-2,-1.148004E0,1.6306385E-2,-3.5538252E-2],"categories":[],"categories_nodes":[],"categories_segments":[],"categories_sizes":[],"default_left":[0,0,0,0,0,0,0],"id":53,"left_children":[1,3,-1,-1,5,-1,-1],"loss_changes":[4.3860522E2,5.848976E1,0E0,0E0,1.1198105E1,0E0,0E0],"parents":[2147483647,0,0,1,1,4,4],"right_children":[2,4,-1,-1,6,-1,-1],"split_conditions":[1E0,7E0,3.0921008E-2,2.7161293E-2,6E0,1.6306385E-2,-3.5538252E-2],"split_indices":[4,7,0,0,6,0,0],"split_type":[0,0,0,0,0,0,0],"sum_hessian":[4.6469894E2,1.7300526E2,2.916937E2,1.3904402E1,1.5910086E2,2.4979577E0,1.566029E2],"tree_param":{"num_deleted":"0","num_feature":"32","num_nodes":"7","size_leaf_vector":"1"}},{"base_weights":[2.8668588E-1,-9.6414423E-1,3.0880133E-2,2.6870115E-2,-1.1326692E0,-1.163826E0,1.3469537E-2,-3.5315864E-2,1.7381173E-4],"categories":[],"categories_nodes":[],"categories_segments":[],"categories_sizes":[],"default_left":[0,0,0,0,0,0,0,0,0],"id":54,"left_children":[1,3,-1,-1,5,7,-1,-1,-1],"loss_changes":[4.1956934E2,5.3861588E1,0E0,0E0,8.86795E0,3.5668182E0,0E0,0E0,0E0],"parents":[2147483647,0,0,1,1,4,4,5,5],"right_children":[2,4,-1,-1,6,8,-1,-1,-1],"split_conditions":[1E0,7E0,3.0880133E-2,2.6870115E-2,8E0,4E0,1.3469537E-2,-3.5315864E-2,1.7381173E-4],"split_indices":[5,7,0,0,7,0,0,0,0],"split_type":[0,0,0,0,0,0,0,0,0],"sum_hessian":[4.4953033E2,1.668553E2,2.8267505E2,1.3011699E1,1.5384361E2,1.5175072E2,2.0928936E0,1.5087463E2,8.7608224E-1],"tree_param":{"num_deleted":"0","num_feature":"32","num_nodes":"9","size_leaf_vector":"1"}},{"base_weights":[2.675696E-1,-9.5937055E-1,3.0832957E-2,2.6738402E-2,-1.1266277E0,1.3278624E-2,-1.1567167E0,-3.510918E-2,1.7138573E-4],"categories":[],"categories_nodes":[],"categories_segments":[],"categories_sizes":[],"default_left":[0,0,0,0,0,0,0,0,0],"id":55,"left_children":[1,3,-1,-1,5,-1,7,-1,-1],"loss_changes":[4.0199112E2,5.214572E1,0E0,0E0,8.392059E0,0E0,3.5378418E0,0E0,0E0],"parents":[2147483647,0,0,1,1,4,4,6,6],"right_children":[2,4,-1,-1,6,-1,8,-1,-1],"split_conditions":[1E0,7E0,3.0832957E-2,2.6738402E-2,4.79E2,1.3278624E-2,4E0,-3.510918E-2,1.7138573E-4],"split_indices":[5,7,0,0,2,0,0,0,0],"split_type":[0,0,0,0,0,0,0,0,0],"sum_hessian":[4.2886005E2,1.6346059E2,2.6539948E2,1.2694304E1,1.5076628E2,1.95323E0,1.4881305E2,1.4793707E2,8.759706E-1],"tree_param":{"num_deleted":"0","num_feature":"32","num_nodes":"9","size_leaf_vector":"1"}},{"base_weights":[2.7913997E-1,-9.696166E-1,3.0798968E-2,2.6408616E-2,-1.1326896E0,3.5883023E-3,-1.1494246E0,-3.490347E-2,1.6899743E-4],"categories":[],"categories_nodes":[],"categories_segments":[],"categories_sizes":[],"default_left":[0,0,0,0,0,0,0,0,0],"id":56,"left_children":[1,3,-1,-1,5,-1,7,-1,-1],"loss_changes":[3.9386288E2,4.878943E1,0E0,0E0,4.221939E0,0E0,3.508667E0,0E0,0E0],"parents":[2147483647,0,0,1,1,4,4,6,6],"right_children":[2,4,-1,-1,6,-1,8,-1,-1],"split_conditions":[1E0,7E0,3.0798968E-2,2.6408616E-2,4.38E2,3.5883023E-3,4E0,-3.490347E-2,1.6899743E-4],"split_indices":[5,7,0,0,2,0,0,0,0],"split_type":[0,0,0,0,0,0,0,0,0],"sum_hessian":[4.1982202E2,1.565895E2,2.632325E2,1.1832378E1,1.4475711E2,1.0398659E0,1.4371725E2,1.4284138E2,8.758606E-1],"tree_param":{"num_deleted":"0","num_feature":"32","num_nodes":"9","size_leaf_vector":"1"}},{"base_weights":[2.7368736E-1,-9.693475E-1,3.076109E-2,2.6151888E-2,-1.1268202E0,-3.4713525E-2,1.1674454E-2],"categories":[],"categories_nodes":[],"categories_segments":[],"categories_sizes":[],"default_left":[0,0,0,0,0,0,0],"id":57,"left_children":[1,3,-1,-1,5,-1,-1],"loss_changes":[3.845459E2,4.608188E1,0E0,0E0,7.805847E0,0E0,0E0],"parents":[2147483647,0,0,1,1,4,4],"right_children":[2,4,-1,-1,6,-1,-1],"split_conditions":[1E0,7E0,3.076109E-2,2.6151888E-2,4E0,-3.4713525E-2,1.1674454E-2],"split_indices":[4,7,0,0,0,0,0],"split_type":[0,0,0,0,0,0,0],"sum_hessian":[4.0943387E2,1.5367918E2,2.5575467E2,1.1251168E1,1.4242801E2,1.405161E2,1.9119134E0],"tree_param":{"num_deleted":"0","num_feature":"32","num_nodes":"7","size_leaf_vector":"1"}},{"base_weights":[2.7982685E-1,-9.55202E-1,3.0723644E-2,2.5793344E-2,-1.1054394E0,-3.4520518E-2,1.6833384E-2],"categories":[],"categories_nodes":[],"categories_segments":[],"categories_sizes":[],"default_left":[0,0,0,0,0,0,0],"id":58,"left_children":[1,3,-1,-1,5,-1,-1],"loss_changes":[3.664831E2,4.1962524E1,0E0,0E0,1.1717773E1,0E0,0E0],"parents":[2147483647,0,0,1,1,4,4],"right_children":[2,4,-1,-1,6,-1,-1],"split_conditions":[1E0,7E0,3.0723644E-2,2.5793344E-2,4E0,-3.4520518E-2,1.6833384E-2],"split_indices":[5,7,0,0,0,0,0],"split_type":[0,0,0,0,0,0,0],"sum_hessian":[3.9654767E2,1.4850398E2,2.4804369E2,1.0482969E1,1.3802101E2,1.3525851E2,2.762502E0],"tree_param":{"num_deleted":"0","num_feature":"32","num_nodes":"7","size_leaf_vector":"1"}},{"base_weights":[2.671316E-1,-9.4764256E-1,3.068731E-2,2.5770344E-2,-1.0968581E0,1.8040972E-2,-3.435313E-2],"categories":[],"categories_nodes":[],"categories_segments":[],"categories_sizes":[],"default_left":[0,0,0,0,0,0,0],"id":59,"left_children":[1,3,-1,-1,5,-1,-1],"loss_changes":[3.599684E2,4.1604248E1,0E0,0E0,1.265889E1,0E0,0E0],"parents":[2147483647,0,0,1,1,4,4],"right_children":[2,4,-1,-1,6,-1,-1],"split_conditions":[1E0,7E0,3.068731E-2,2.5770344E-2,6E0,1.8040972E-2,-3.435313E-2],"split_indices":[5,7,0,0,6,0,0],"split_type":[0,0,0,0,0,0,0],"sum_hessian":[3.8994168E2,1.4895198E2,2.4098969E2,1.0489533E1,1.3846245E2,2.935723E0,1.3552673E2],"tree_param":{"num_deleted":"0","num_feature":"32","num_nodes":"7","size_leaf_vector":"1"}},{"base_weights":[2.6406482E-1,-9.26679E-1,3.0651977E-2,2.6171632E-2,-1.0904793E0,-3.4184854E-2,1.8127391E-2],"categories":[],"categories_nodes":[],"categories_segments":[],"categories_sizes":[],"default_left":[0,0,0,0,0,0,0],"id":60,"left_children":[1,3,-1,-1,5,-1,-1],"loss_changes":[3.4702884E2,4.511902E1,0E0,0E0,1.26579895E1,0E0,0E0],"parents":[2147483647,0,0,1,1,4,4],"right_children":[2,4,-1,-1,6,-1,-1],"split_conditions":[1E0,7E0,3.0651977E-2,2.6171632E-2,8E0,-3.4184854E-2,1.8127391E-2],"split_indices":[5,7,0,0,7,0,0],"split_type":[0,0,0,0,0,0,0],"sum_hessian":[3.8249756E2,1.4813966E2,2.343579E2,1.1491728E1,1.3664795E2,1.3369872E2,2.9492257E0],"tree_param":{"num_deleted":"0","num_feature":"32","num_nodes":"7","size_leaf_vector":"1"}},{"base_weights":[2.5735867E-1,-9.241752E-1,3.0612282E-2,2.5481563E-2,-1.0697523E0,-1.1187432E0,1.790406E-2,-3.4014594E-2,-0E0],"categories":[],"categories_nodes":[],"categories_segments":[],"categories_sizes":[],"default_left":[0,0,0,0,0,0,0,0,0],"id":61,"left_children":[1,3,-1,-1,5,7,-1,-1,-1],"loss_changes":[3.3295642E2,3.8430565E1,0E0,0E0,1.2169205E1,3.3525696E0,0E0,0E0,0E0],"parents":[2147483647,0,0,1,1,4,4,5,5],"right_children":[2,4,-1,-1,6,8,-1,-1,-1],"split_conditions":[1E0,7E0,3.0612282E-2,2.5481563E-2,8E0,4E0,1.790406E-2,-3.4014594E-2,-0E0],"split_indices":[5,7,0,0,7,0,0,0,0],"split_type":[0,0,0,0,0,0,0,0,0],"sum_hessian":[3.6715445E2,1.434735E2,2.2368095E2,9.995449E0,1.3347806E2,1.3056854E2,2.9095144E0,1.297007E2,8.67831E-1],"tree_param":{"num_deleted":"0","num_feature":"32","num_nodes":"9","size_leaf_vector":"1"}},{"base_weights":[2.6559433E-1,-8.9639324E-1,3.0580947E-2,2.6070474E-2,-1.0636346E0,-1.1129962E0,1.7682906E-2,-3.3852488E-2,-0E0],"categories":[],"categories_nodes":[],"categories_segments":[],"categories_sizes":[],"default_left":[0,0,0,0,0,0,0,0,0],"id":62,"left_children":[1,3,-1,-1,5,7,-1,-1,-1],"loss_changes":[3.1839832E2,4.3214073E1,0E0,0E0,1.1885605E1,3.3305054E0,0E0,0E0,0E0],"parents":[2147483647,0,0,1,1,4,4,5,5],"right_children":[2,4,-1,-1,6,8,-1,-1,-1],"split_conditions":[1E0,7E0,3.0580947E-2,2.6070474E-2,8E0,4E0,1.7682906E-2,-3.3852488E-2,-0E0],"split_indices":[4,7,0,0,7,0,0,0,0],"split_type":[0,0,0,0,0,0,0,0,0],"sum_hessian":[3.6133783E2,1.4157486E2,2.1976295E2,1.13706E1,1.3020427E2,1.2733364E2,2.870622E0,1.2646581E2,8.67831E-1],"tree_param":{"num_deleted":"0","num_feature":"32","num_nodes":"9","size_leaf_vector":"1"}},{"base_weights":[2.7469036E-1,-9.112966E-1,3.0548267E-2,2.5056427E-2,-1.0557377E0,1.7484257E-2,-1.1066974E0,-3.3683326E-2,-0E0],"categories":[],"categories_nodes":[],"categories_segments":[],"categories_sizes":[],"default_left":[0,0,0,0,0,0,0,0,0],"id":63,"left_children":[1,3,-1,-1,5,-1,7,-1,-1],"loss_changes":[3.0852133E2,3.5000572E1,0E0,0E0,1.1613083E1,0E0,3.292694E0,0E0,0E0],"parents":[2147483647,0,0,1,1,4,4,6,6],"right_children":[2,4,-1,-1,6,-1,8,-1,-1],"split_conditions":[1E0,7E0,3.0548267E-2,2.5056427E-2,6E0,1.7484257E-2,4E0,-3.3683326E-2,-0E0],"split_indices":[4,7,0,0,6,0,0,0,0],"split_type":[0,0,0,0,0,0,0,0,0],"sum_hessian":[3.4767053E2,1.333741E2,2.1429642E2,9.293694E0,1.2408041E2,2.8358932E0,1.21244514E2,1.20380035E2,8.6447585E-1],"tree_param":{"num_deleted":"0","num_feature":"32","num_nodes":"9","size_leaf_vector":"1"}},{"base_weights":[2.5941643E-1,-9.220177E-1,3.051164E-2,2.4907244E-2,-1.066402E0,-3.3539023E-2,1.7314864E-2],"categories":[],"categories_nodes":[],"categories_segments":[],"categories_sizes":[],"default_left":[0,0,0,0,0,0,0],"id":64,"left_children":[1,3,-1,-1,5,-1,-1],"loss_changes":[3.032158E2,3.4495926E1,0E0,0E0,1.1596756E1,0E0,0E0],"parents":[2147483647,0,0,1,1,4,4],"right_children":[2,4,-1,-1,6,-1,-1],"split_conditions":[1E0,7E0,3.051164E-2,2.4907244E-2,8E0,-3.3539023E-2,1.7314864E-2],"split_indices":[5,7,0,0,7,0,0],"split_type":[0,0,0,0,0,0,0],"sum_hessian":[3.3659705E2,1.3091539E2,2.0568166E2,9.077225E0,1.2183817E2,1.1903186E2,2.8063083E0],"tree_param":{"num_deleted":"0","num_feature":"32","num_nodes":"7","size_leaf_vector":"1"}},{"base_weights":[2.750605E-1,-9.1897565E-1,3.048724E-2,2.5146939E-2,-1.0764809E0,1.20199E-2,-3.338775E-2],"categories":[],"categories_nodes":[],"categories_segments":[],"categories_sizes":[],"default_left":[0,0,0,0,0,0,0],"id":65,"left_children":[1,3,-1,-1,5,-1,-1],"loss_changes":[2.9572888E2,3.6440712E1,0E0,0E0,7.5111237E0,0E0,0E0],"parents":[2147483647,0,0,1,1,4,4],"right_children":[2,4,-1,-1,6,-1,-1],"split_conditions":[1E0,7E0,3.048724E-2,2.5146939E-2,6E0,1.20199E-2,-3.338775E-2],"split_indices":[5,7,0,0,6,0,0],"split_type":[0,0,0,0,0,0,0],"sum_hessian":[3.3199304E2,1.2654347E2,2.0544958E2,9.531737E0,1.17011734E2,1.9160923E0,1.1509564E2],"tree_param":{"num_deleted":"0","num_feature":"32","num_nodes":"7","size_leaf_vector":"1"}},{"base_weights":[2.6031426E-1,-8.9874697E-1,3.0451937E-2,2.5459876E-2,-1.0645862E0,1.5025377E-2,-3.3259414E-2],"categories":[],"categories_nodes":[],"categories_segments":[],"categories_sizes":[],"default_left":[0,0,0,0,0,0,0],"id":66,"left_children":[1,3,-1,-1,5,-1,-1],"loss_changes":[2.86172E2,3.8372818E1,0E0,0E0,9.328018E0,0E0,0E0],"parents":[2147483647,0,0,1,1,4,4],"right_children":[2,4,-1,-1,6,-1,-1],"split_conditions":[1E0,7E0,3.0451937E-2,2.5459876E-2,4.79E2,1.5025377E-2,-3.3259414E-2],"split_indices":[5,7,0,0,2,0,0],"split_type":[0,0,0,0,0,0,0],"sum_hessian":[3.2495193E2,1.2755362E2,1.9739832E2,1.0176708E1,1.17376915E2,2.3081439E0,1.1506877E2],"tree_param":{"num_deleted":"0","num_feature":"32","num_nodes":"7","size_leaf_vector":"1"}},{"base_weights":[2.8383067E-1,-8.671498E-1,3.042684E-2,2.5522076E-2,-1.0145355E0,-3.3109237E-2,2.1018313E-2],"categories":[],"categories_nodes":[],"categories_segments":[],"categories_sizes":[],"default_left":[0,0,0,0,0,0,0],"id":67,"left_children":[1,3,-1,-1,5,-1,-1],"loss_changes":[2.701327E2,3.2493935E1,0E0,0E0,1.882093E1,0E0,0E0],"parents":[2147483647,0,0,1,1,4,4],"right_children":[2,4,-1,-1,6,-1,-1],"split_conditions":[1E0,4.82E2,3.042684E-2,2.5522076E-2,4.86E2,-3.3109237E-2,2.1018313E-2],"split_indices":[5,2,0,0,2,0,0],"split_type":[0,0,0,0,0,0,0],"sum_hessian":[3.191079E2,1.23281364E2,1.9582654E2,8.827975E0,1.1445339E2,1.0969411E2,4.7592835E0],"tree_param":{"num_deleted":"0","num_feature":"32","num_nodes":"7","size_leaf_vector":"1"}},{"base_weights":[2.8007448E-1,-8.8261706E-1,3.0395314E-2,2.496207E-2,-1.0437422E0,1.6912868E-2,-3.2974314E-2],"categories":[],"categories_nodes":[],"categories_segments":[],"categories_sizes":[],"default_left":[0,0,0,0,0,0,0],"id":68,"left_children":[1,3,-1,-1,5,-1,-1],"loss_changes":[2.6494156E2,3.416156E1,0E0,0E0,1.0989838E1,0E0,0E0],"parents":[2147483647,0,0,1,1,4,4],"right_children":[2,4,-1,-1,6,-1,-1],"split_conditions":[1E0,7E0,3.0395314E-2,2.496207E-2,6E0,1.6912868E-2,-3.2974314E-2],"split_indices":[5,7,0,0,6,0,0],"split_type":[0,0,0,0,0,0,0],"sum_hessian":[3.0862613E2,1.1873922E2,1.898869E2,9.308466E0,1.09430756E2,2.7387562E0,1.06692E2],"tree_param":{"num_deleted":"0","num_feature":"32","num_nodes":"7","size_leaf_vector":"1"}},{"base_weights":[2.6783186E-1,-8.66138E-1,3.0356951E-2,2.525151E-2,-1.0129557E0,-1.0788378E0,1.7123686E-2,-0E0,-1.0908653E0,-3.284806E-2,-0E0],"categories":[],"categories_nodes":[],"categories_segments":[],"categories_sizes":[],"default_left":[0,0,0,0,0,0,0,0,0,0,0],"id":69,"left_children":[1,3,-1,-1,5,7,-1,-1,9,-1,-1],"loss_changes":[2.527281E2,3.06613E1,0E0,0E0,1.258403E1,2.0579147E0,0E0,0E0,6.98082E-1,0E0,0E0],"parents":[2147483647,0,0,1,1,4,4,5,5,8,8],"right_children":[2,4,-1,-1,6,8,-1,-1,10,-1,-1],"split_conditions":[1E0,6E0,3.0356951E-2,2.525151E-2,7E0,2E0,1.7123686E-2,-0E0,3E0,-3.284806E-2,-0E0],"split_indices":[5,6,0,0,6,22,0,0,22,0,0],"split_type":[0,0,0,0,0,0,0,0,0,0,0],"sum_hessian":[2.9731845E2,1.1719828E2,1.8012016E2,8.36368E0,1.088346E2,1.0540028E2,3.4343178E0,6.039468E-1,1.0479634E2,1.0459353E2,2.0280966E-1],"tree_param":{"num_deleted":"0","num_feature":"32","num_nodes":"11","size_leaf_vector":"1"}},{"base_weights":[2.65843E-1,-8.795767E-1,3.0328434E-2,2.4572562E-2,-1.0369216E0,-3.2723524E-2,1.5841141E-2],"categories":[],"categories_nodes":[],"categories_segments":[],"categories_sizes":[],"default_left":[0,0,0,0,0,0,0],"id":70,"left_children":[1,3,-1,-1,5,-1,-1],"loss_changes":[2.4886324E2,3.1659355E1,0E0,0E0,1.0051506E1,0E0,0E0],"parents":[2147483647,0,0,1,1,4,4],"right_children":[2,4,-1,-1,6,-1,-1],"split_conditions":[1E0,7E0,3.0328434E-2,2.4572562E-2,4E0,-3.2723524E-2,1.5841141E-2],"split_indices":[5,7,0,0,0,0,0],"split_type":[0,0,0,0,0,0,0],"sum_hessian":[2.8939825E2,1.1345929E2,1.7593898E2,8.723297E0,1.0473599E2,1.0216179E2,2.5742044E0],"tree_param":{"num_deleted":"0","num_feature":"32","num_nodes":"7","size_leaf_vector":"1"}},{"base_weights":[2.6996946E-1,-8.782171E-1,3.0303875E-2,2.375666E-2,-9.982797E-1,-1.0558714E0,1.5275747E-2,7.28591E-3,-3.2604247E-2],"categories":[],"categories_nodes":[],"categories_segments":[],"categories_sizes":[],"default_left":[0,0,0,0,0,0,0,0,0],"id":71,"left_children":[1,3,-1,-1,5,7,-1,-1,-1],"loss_changes":[2.4364452E2,2.3436493E1,0E0,0E0,1.023526E1,5.225815E0,0E0,0E0,0E0],"parents":[2147483647,0,0,1,1,4,4,5,5],"right_children":[2,4,-1,-1,6,8,-1,-1,-1],"split_conditions":[1E0,6E0,3.0303875E-2,2.375666E-2,7E0,4.79E2,1.5275747E-2,7.28591E-3,-3.2604247E-2],"split_indices":[5,6,0,0,6,2,0,0,0],"split_type":[0,0,0,0,0,0,0,0,0],"sum_hessian":[2.84495E2,1.1090851E2,1.7358649E2,6.5044904E0,1.0440402E2,1.0148963E2,2.9143908E0,1.4498708E0,1.0003976E2],"tree_param":{"num_deleted":"0","num_feature":"32","num_nodes":"9","size_leaf_vector":"1"}},{"base_weights":[2.7479532E-1,-8.6809665E-1,3.0272065E-2,2.427426E-2,-1.0269715E0,-3.2474387E-2,1.5412972E-2],"categories":[],"categories_nodes":[],"categories_segments":[],"categories_sizes":[],"default_left":[0,0,0,0,0,0,0],"id":72,"left_children":[1,3,-1,-1,5,-1,-1],"loss_changes":[2.3195432E2,2.9733856E1,0E0,0E0,9.61895E0,0E0,0E0],"parents":[2147483647,0,0,1,1,4,4],"right_children":[2,4,-1,-1,6,-1,-1],"split_conditions":[1E0,7E0,3.0272065E-2,2.427426E-2,4E0,-3.2474387E-2,1.5412972E-2],"split_indices":[4,7,0,0,0,0,0],"split_type":[0,0,0,0,0,0,0],"sum_hessian":[2.741891E2,1.06648E2,1.6754108E2,8.329229E0,9.831878E1,9.581337E1,2.505405E0],"tree_param":{"num_deleted":"0","num_feature":"32","num_nodes":"7","size_leaf_vector":"1"}},{"base_weights":[2.8012446E-1,-8.3862126E-1,3.0239753E-2,2.4264311E-2,-9.9941194E-1,-1.0590779E0,1.6352221E-2,-3.235051E-2,-0E0],"categories":[],"categories_nodes":[],"categories_segments":[],"categories_sizes":[],"default_left":[0,0,0,0,0,0,0,0,0],"id":73,"left_children":[1,3,-1,-1,5,7,-1,-1,-1],"loss_changes":[2.1796526E2,2.8817818E1,0E0,0E0,1.0000801E1,2.9241257E0,0E0,0E0,0E0],"parents":[2147483647,0,0,1,1,4,4,5,5],"right_children":[2,4,-1,-1,6,8,-1,-1,-1],"split_conditions":[1E0,7E0,3.0239753E-2,2.4264311E-2,8E0,4E0,1.6352221E-2,-3.235051E-2,-0E0],"split_indices":[4,7,0,0,7,0,0,0,0],"split_type":[0,0,0,0,0,0,0,0,0],"sum_hessian":[2.6542636E2,1.0401985E2,1.614065E2,8.338244E0,9.56816E1,9.304874E1,2.6328678E0,9.223169E1,8.170476E-1],"tree_param":{"num_deleted":"0","num_feature":"32","num_nodes":"9","size_leaf_vector":"1"}},{"base_weights":[2.6830047E-1,-8.627468E-1,3.0210767E-2,2.3723362E-2,-1.0149038E0,1.602512E-2,-3.2247625E-2],"categories":[],"categories_nodes":[],"categories_segments":[],"categories_sizes":[],"default_left":[0,0,0,0,0,0,0],"id":74,"left_children":[1,3,-1,-1,5,-1,-1],"loss_changes":[2.1759724E2,2.6794403E1,0E0,0E0,9.926613E0,0E0,0E0],"parents":[2147483647,0,0,1,1,4,4],"right_children":[2,4,-1,-1,6,-1,-1],"split_conditions":[1E0,7E0,3.0210767E-2,2.3723362E-2,6E0,1.602512E-2,-3.2247625E-2],"split_indices":[5,7,0,0,6,0,0],"split_type":[0,0,0,0,0,0,0],"sum_hessian":[2.5821674E2,1.0141726E2,1.5679948E2,7.638508E0,9.377875E1,2.58169E0,9.119706E1],"tree_param":{"num_deleted":"0","num_feature":"32","num_nodes":"7","size_leaf_vector":"1"}},{"base_weights":[2.6619944E-1,-8.4596175E-1,3.0181212E-2,2.3935424E-2,-9.832871E-1,-3.214237E-2,1.904024E-2],"categories":[],"categories_nodes":[],"categories_segments":[],"categories_sizes":[],"default_left":[0,0,0,0,0,0,0],"id":75,"left_children":[1,3,-1,-1,5,-1,-1],"loss_changes":[2.0932343E2,2.3800789E1,0E0,0E0,1.4569595E1,0E0,0E0],"parents":[2147483647,0,0,1,1,4,4],"right_children":[2,4,-1,-1,6,-1,-1],"split_conditions":[1E0,4.84E2,3.0181212E-2,2.3935424E-2,4.86E2,-3.214237E-2,1.904024E-2],"split_indices":[5,2,0,0,2,0,0],"split_type":[0,0,0,0,0,0,0],"sum_hessian":[2.5216794E2,1.0013923E2,1.5202872E2,6.7884455E0,9.3350784E1,8.943538E1,3.9154043E0],"tree_param":{"num_deleted":"0","num_feature":"32","num_nodes":"7","size_leaf_vector":"1"}},{"base_weights":[2.684842E-1,-8.3556145E-1,3.0147664E-2,2.369474E-2,-9.94021E-1,-1.047427E0,1.406677E-2,-3.2023717E-2,-0E0],"categories":[],"categories_nodes":[],"categories_segments":[],"categories_sizes":[],"default_left":[0,0,0,0,0,0,0,0,0],"id":76,"left_children":[1,3,-1,-1,5,7,-1,-1,-1],"loss_changes":[1.9876805E2,2.6056404E1,0E0,0E0,8.07653E0,2.7997818E0,0E0,0E0,0E0],"parents":[2147483647,0,0,1,1,4,4,5,5],"right_children":[2,4,-1,-1,6,8,-1,-1,-1],"split_conditions":[1E0,7E0,3.0147664E-2,2.369474E-2,8E0,4E0,1.406677E-2,-3.2023717E-2,-0E0],"split_indices":[5,7,0,0,7,0,0,0,0],"split_type":[0,0,0,0,0,0,0,0,0],"sum_hessian":[2.4222774E2,9.632608E1,1.4590166E2,7.6421537E0,8.868393E1,8.6493904E1,2.1900203E0,8.569829E1,7.956171E-1],"tree_param":{"num_deleted":"0","num_feature":"32","num_nodes":"9","size_leaf_vector":"1"}},{"base_weights":[2.579616E-1,-8.3443993E-1,3.0121045E-2,2.3969166E-2,-1.0012164E0,1.1231418E-2,-1.0445923E0,-3.1937994E-2,-0E0],"categories":[],"categories_nodes":[],"categories_segments":[],"categories_sizes":[],"default_left":[0,0,0,0,0,0,0,0,0],"id":77,"left_children":[1,3,-1,-1,5,-1,7,-1,-1],"loss_changes":[1.9631139E2,2.749398E1,0E0,0E0,6.38591E0,0E0,2.7898712E0,0E0,0E0],"parents":[2147483647,0,0,1,1,4,4,6,6],"right_children":[2,4,-1,-1,6,-1,8,-1,-1],"split_conditions":[1E0,7E0,3.0121045E-2,2.3969166E-2,4.79E2,1.1231418E-2,4E0,-3.1937994E-2,-0E0],"split_indices":[5,7,0,0,2,0,0,0,0],"split_type":[0,0,0,0,0,0,0,0,0],"sum_hessian":[2.3863339E2,9.6248055E1,1.4238533E2,8.010112E0,8.8237946E1,1.7592974E0,8.647865E1,8.568303E1,7.956171E-1],"tree_param":{"num_deleted":"0","num_feature":"32","num_nodes":"9","size_leaf_vector":"1"}},{"base_weights":[2.743441E-1,-8.2615757E-1,3.0095425E-2,2.4059799E-2,-1.0055817E0,1.341326E-2,-3.181353E-2],"categories":[],"categories_nodes":[],"categories_segments":[],"categories_sizes":[],"default_left":[0,0,0,0,0,0,0],"id":78,"left_children":[1,3,-1,-1,5,-1,-1],"loss_changes":[1.8660333E2,2.7942223E1,0E0,0E0,7.7859955E0,0E0,0E0],"parents":[2147483647,0,0,1,1,4,4],"right_children":[2,4,-1,-1,6,-1,-1],"split_conditions":[1E0,7E0,3.0095425E-2,2.4059799E-2,4.79E2,1.341326E-2,-3.181353E-2],"split_indices":[5,7,0,0,2,0,0],"split_type":[0,0,0,0,0,0,0],"sum_hessian":[2.3039352E2,9.1192505E1,1.3920102E2,8.154336E0,8.303817E1,2.0987532E0,8.0939415E1],"tree_param":{"num_deleted":"0","num_feature":"32","num_nodes":"7","size_leaf_vector":"1"}},{"base_weights":[2.587108E-1,-8.257369E-1,3.005943E-2,2.27614E-2,-9.7179836E-1,-1.0356526E0,1.5467484E-2,-3.1725645E-2,-0E0],"categories":[],"categories_nodes":[],"categories_segments":[],"categories_sizes":[],"default_left":[0,0,0,0,0,0,0,0,0],"id":79,"left_children":[1,3,-1,-1,5,7,-1,-1,-1],"loss_changes":[1.81472E2,2.2022263E1,0E0,0E0,9.068359E0,2.8368912E0,0E0,0E0,0E0],"parents":[2147483647,0,0,1,1,4,4,5,5],"right_children":[2,4,-1,-1,6,8,-1,-1,-1],"split_conditions":[1E0,6E0,3.005943E-2,2.27614E-2,8E0,4E0,1.5467484E-2,-3.1725645E-2,-0E0],"split_indices":[5,7,0,0,7,0,0,0,0],"split_type":[0,0,0,0,0,0,0,0,0],"sum_hessian":[2.2289574E2,9.00518E1,1.3284393E2,6.6688066E0,8.3382996E1,8.088651E1,2.49648E0,8.007147E1,8.150453E-1],"tree_param":{"num_deleted":"0","num_feature":"32","num_nodes":"9","size_leaf_vector":"1"}},{"base_weights":[2.6784912E-1,-8.1630635E-1,3.0036699E-2,2.3099631E-2,-9.750583E-1,1.3545485E-2,-1.0317482E0,-3.162233E-2,-0E0],"categories":[],"categories_nodes":[],"categories_segments":[],"categories_sizes":[],"default_left":[0,0,0,0,0,0,0,0,0],"id":80,"left_children":[1,3,-1,-1,5,-1,7,-1,-1],"loss_changes":[1.7509763E2,2.3205349E1,0E0,0E0,7.623329E0,0E0,2.7922974E0,0E0,0E0],"parents":[2147483647,0,0,1,1,4,4,6,6],"right_children":[2,4,-1,-1,6,-1,8,-1,-1],"split_conditions":[1E0,7E0,3.0036699E-2,2.3099631E-2,6E0,1.3545485E-2,4E0,-3.162233E-2,-0E0],"split_indices":[5,7,0,0,6,0,0,0,0],"split_type":[0,0,0,0,0,0,0,0,0],"sum_hessian":[2.1796266E2,8.7352234E1,1.3061043E2,7.0233674E0,8.0328865E1,2.1297643E0,7.8199104E1,7.739225E1,8.068473E-1],"tree_param":{"num_deleted":"0","num_feature":"32","num_nodes":"9","size_leaf_vector":"1"}},{"base_weights":[2.6951793E-1,-7.9862493E-1,3.000915E-2,2.3212317E-2,-9.621151E-1,-1.0280832E0,1.5154849E-2,-3.152799E-2,-0E0],"categories":[],"categories_nodes":[],"categories_segments":[],"categories_sizes":[],"default_left":[0,0,0,0,0,0,0,0,0],"id":81,"left_children":[1,3,-1,-1,5,7,-1,-1,-1],"loss_changes":[1.6794794E2,2.3267654E1,0E0,0E0,8.758835E0,2.779892E0,0E0,0E0,0E0],"parents":[2147483647,0,0,1,1,4,4,5,5],"right_children":[2,4,-1,-1,6,8,-1,-1,-1],"split_conditions":[1E0,7E0,3.000915E-2,2.3212317E-2,8E0,4E0,1.5154849E-2,-3.152799E-2,-0E0],"split_indices":[5,7,0,0,7,0,0,0,0],"split_type":[0,0,0,0,0,0,0,0,0],"sum_hessian":[2.1287468E2,8.588341E1,1.2699127E2,7.1612034E0,7.8722206E1,7.6273834E1,2.4483745E0,7.5467094E1,8.06737E-1],"tree_param":{"num_deleted":"0","num_feature":"32","num_nodes":"9","size_leaf_vector":"1"}},{"base_weights":[2.621282E-1,-8.256062E-1,2.9988263E-2,2.2794787E-2,-9.6710086E-1,-3.145006E-2,1.645866E-2],"categories":[],"categories_nodes":[],"categories_segments":[],"categories_sizes":[],"default_left":[0,0,0,0,0,0,0],"id":82,"left_children":[1,3,-1,-1,5,-1,-1],"loss_changes":[1.6950575E2,1.9982067E1,0E0,0E0,1.0794617E1,0E0,0E0],"parents":[2147483647,0,0,1,1,4,4],"right_children":[2,4,-1,-1,6,-1,-1],"split_conditions":[1E0,4.84E2,2.9988263E-2,2.2794787E-2,4.86E2,-3.145006E-2,1.645866E-2],"split_indices":[5,2,0,0,2,0,0],"split_type":[0,0,0,0,0,0,0],"sum_hessian":[2.0905989E2,8.387476E1,1.2518513E2,5.9351068E0,7.793966E1,7.489387E1,3.0457928E0],"tree_param":{"num_deleted":"0","num_feature":"32","num_nodes":"7","size_leaf_vector":"1"}},{"base_weights":[2.6056245E-1,-8.279682E-1,2.9962763E-2,2.276147E-2,-9.911013E-1,-3.13621E-2,1.1725254E-2],"categories":[],"categories_nodes":[],"categories_segments":[],"categories_sizes":[],"default_left":[0,0,0,0,0,0,0],"id":83,"left_children":[1,3,-1,-1,5,-1,-1],"loss_changes":[1.657182E2,2.24262E1,0E0,0E0,6.775383E0,0E0,0E0],"parents":[2147483647,0,0,1,1,4,4],"right_children":[2,4,-1,-1,6,-1,-1],"split_conditions":[1E0,7E0,2.9962763E-2,2.276147E-2,4E0,-3.13621E-2,1.1725254E-2],"split_indices":[5,7,0,0,0,0,0],"split_type":[0,0,0,0,0,0,0],"sum_hessian":[2.039911E2,8.183802E1,1.22153076E2,6.7177925E0,7.5120224E1,7.321063E1,1.9095933E0],"tree_param":{"num_deleted":"0","num_feature":"32","num_nodes":"7","size_leaf_vector":"1"}},{"base_weights":[2.6926297E-1,-8.07533E-1,2.9926695E-2,2.2466332E-2,-9.701176E-1,1.4835301E-2,-3.124576E-2],"categories":[],"categories_nodes":[],"categories_segments":[],"categories_sizes":[],"default_left":[0,0,0,0,0,0,0],"id":84,"left_children":[1,3,-1,-1,5,-1,-1],"loss_changes":[1.5440778E2,2.0919853E1,0E0,0E0,8.642273E0,0E0,0E0],"parents":[2147483647,0,0,1,1,4,4],"right_children":[2,4,-1,-1,6,-1,-1],"split_conditions":[1E0,7E0,2.9926695E-2,2.2466332E-2,6E0,1.4835301E-2,-3.124576E-2],"split_indices":[4,7,0,0,6,0,0],"split_type":[0,0,0,0,0,0,0],"sum_hessian":[1.9462302E2,7.7926025E1,1.16697E2,6.447532E0,7.147849E1,2.3964398E0,6.9082054E1],"tree_param":{"num_deleted":"0","num_feature":"32","num_nodes":"7","size_leaf_vector":"1"}},{"base_weights":[2.7048454E-1,-8.087939E-1,2.9898856E-2,2.2854995E-2,-9.676344E-1,-3.1152222E-2,1.29498895E-2],"categories":[],"categories_nodes":[],"categories_segments":[],"categories_sizes":[],"default_left":[0,0,0,0,0,0,0],"id":85,"left_children":[1,3,-1,-1,5,-1,-1],"loss_changes":[1.4960315E2,1.9969402E1,0E0,0E0,8.014877E0,0E0,0E0],"parents":[2147483647,0,0,1,1,4,4],"right_children":[2,4,-1,-1,6,-1,-1],"split_conditions":[1E0,4.84E2,2.9898856E-2,2.2854995E-2,4.86E2,-3.1152222E-2,1.29498895E-2],"split_indices":[5,2,0,0,2,0,0],"split_type":[0,0,0,0,0,0,0],"sum_hessian":[1.8862239E2,7.526458E1,1.1335781E2,5.985697E0,6.9278885E1,6.686935E1,2.409539E0],"tree_param":{"num_deleted":"0","num_feature":"32","num_nodes":"7","size_leaf_vector":"1"}},{"base_weights":[2.4572751E-1,-8.1369877E-1,2.9868478E-2,2.2462258E-2,-9.8031527E-1,1.1371895E-2,-3.1107906E-2],"categories":[],"categories_nodes":[],"categories_segments":[],"categories_sizes":[],"default_left":[0,0,0,0,0,0,0],"id":86,"left_children":[1,3,-1,-1,5,-1,-1],"loss_changes":[1.4970024E2,2.116124E1,0E0,0E0,6.523903E0,0E0,0E0],"parents":[2147483647,0,0,1,1,4,4],"right_children":[2,4,-1,-1,6,-1,-1],"split_conditions":[1E0,7E0,2.9868478E-2,2.2462258E-2,5.6E2,1.1371895E-2,-3.1107906E-2],"split_indices":[5,7,0,0,3,0,0],"split_type":[0,0,0,0,0,0,0],"sum_hessian":[1.8618346E2,7.657762E1,1.09605835E2,6.4641995E0,7.011342E1,1.8693726E0,6.824405E1],"tree_param":{"num_deleted":"0","num_feature":"32","num_nodes":"7","size_leaf_vector":"1"}},{"base_weights":[2.5661036E-1,-8.0045795E-1,2.983783E-2,2.2857191E-2,-9.863648E-1,-3.099829E-2,7.483643E-3],"categories":[],"categories_nodes":[],"categories_segments":[],"categories_sizes":[],"default_left":[0,0,0,0,0,0,0],"id":87,"left_children":[1,3,-1,-1,5,-1,-1],"loss_changes":[1.4136763E2,2.2463028E1,0E0,0E0,4.9327316E0,0E0,0E0],"parents":[2147483647,0,0,1,1,4,4],"right_children":[2,4,-1,-1,6,-1,-1],"split_conditions":[1E0,7E0,2.983783E-2,2.2857191E-2,4E0,-3.099829E-2,7.483643E-3],"split_indices":[5,7,0,0,0,0,0],"split_type":[0,0,0,0,0,0,0],"sum_hessian":[1.7894803E2,7.297743E1,1.05970604E2,6.858778E0,6.611866E1,6.463808E1,1.4805773E0],"tree_param":{"num_deleted":"0","num_feature":"32","num_nodes":"7","size_leaf_vector":"1"}},{"base_weights":[2.614646E-1,-7.956486E-1,2.9817052E-2,2.1461926E-2,-9.317419E-1,-3.0917607E-2,1.684139E-2],"categories":[],"categories_nodes":[],"categories_segments":[],"categories_sizes":[],"default_left":[0,0,0,0,0,0,0],"id":88,"left_children":[1,3,-1,-1,5,-1,-1],"loss_changes":[1.3767055E2,1.5740154E1,0E0,0E0,1.0983318E1,0E0,0E0],"parents":[2147483647,0,0,1,1,4,4],"right_children":[2,4,-1,-1,6,-1,-1],"split_conditions":[1E0,4.84E2,2.9817052E-2,2.1461926E-2,4.86E2,-3.0917607E-2,1.684139E-2],"split_indices":[5,2,0,0,2,0,0],"split_type":[0,0,0,0,0,0,0],"sum_hessian":[1.7552974E2,7.1247665E1,1.0428207E2,4.9279532E0,6.631972E1,6.312063E1,3.1990862E0],"tree_param":{"num_deleted":"0","num_feature":"32","num_nodes":"7","size_leaf_vector":"1"}},{"base_weights":[2.6390365E-1,-7.715558E-1,2.9795824E-2,2.1660272E-2,-9.2837656E-1,-1.0029889E0,1.4459001E-2,-3.0848444E-2,-0E0],"categories":[],"categories_nodes":[],"categories_segments":[],"categories_sizes":[],"default_left":[0,0,0,0,0,0,0,0,0],"id":89,"left_children":[1,3,-1,-1,5,7,-1,-1,-1],"loss_changes":[1.3290916E2,1.7785069E1,0E0,0E0,7.9888725E0,2.4948654E0,0E0,0E0,0E0],"parents":[2147483647,0,0,1,1,4,4,5,5],"right_children":[2,4,-1,-1,6,8,-1,-1,-1],"split_conditions":[1E0,7E0,2.9795824E-2,2.1660272E-2,8E0,4E0,1.4459001E-2,-3.0848444E-2,-0E0],"split_indices":[5,7,0,0,7,0,0,0,0],"split_type":[0,0,0,0,0,0,0,0,0],"sum_hessian":[1.736952E2,7.118969E1,1.02505516E2,5.816115E0,6.537358E1,6.3036587E1,2.3369913E0,6.228465E1,7.519379E-1],"tree_param":{"num_deleted":"0","num_feature":"32","num_nodes":"9","size_leaf_vector":"1"}},{"base_weights":[2.650923E-1,-7.8464526E-1,2.9765094E-2,2.1637715E-2,-9.5121336E-1,-3.0751582E-2,1.3238289E-2],"categories":[],"categories_nodes":[],"categories_segments":[],"categories_sizes":[],"default_left":[0,0,0,0,0,0,0],"id":90,"left_children":[1,3,-1,-1,5,-1,-1],"loss_changes":[1.2903125E2,1.8134754E1,0E0,0E0,7.497158E0,0E0,0E0],"parents":[2147483647,0,0,1,1,4,4],"right_children":[2,4,-1,-1,6,-1,-1],"split_conditions":[1E0,7E0,2.9765094E-2,2.1637715E-2,4E0,-3.0751582E-2,1.3238289E-2],"split_indices":[5,7,0,0,0,0,0],"split_type":[0,0,0,0,0,0,0],"sum_hessian":[1.6676523E2,6.764558E1,9.911966E1,5.8075194E0,6.183806E1,5.965666E1,2.1813986E0],"tree_param":{"num_deleted":"0","num_feature":"32","num_nodes":"7","size_leaf_vector":"1"}},{"base_weights":[2.595659E-1,-7.7355343E-1,2.9732864E-2,2.1955054E-2,-9.295637E-1,-3.0680977E-2,1.5350559E-2],"categories":[],"categories_nodes":[],"categories_segments":[],"categories_sizes":[],"default_left":[0,0,0,0,0,0,0],"id":91,"left_children":[1,3,-1,-1,5,-1,-1],"loss_changes":[1.2447066E2,1.6784714E1,0E0,0E0,9.411961E0,0E0,0E0],"parents":[2147483647,0,0,1,1,4,4],"right_children":[2,4,-1,-1,6,-1,-1],"split_conditions":[1E0,4.84E2,2.9732864E-2,2.1955054E-2,4.86E2,-3.0680977E-2,1.5350559E-2],"split_indices":[5,2,0,0,2,0,0],"split_type":[0,0,0,0,0,0,0],"sum_hessian":[1.6239432E2,6.6729546E1,9.5664764E1,5.3176103E0,6.1411938E1,5.8608807E1,2.8031337E0],"tree_param":{"num_deleted":"0","num_feature":"32","num_nodes":"7","size_leaf_vector":"1"}},{"base_weights":[2.5869536E-1,-7.876013E-1,2.9700764E-2,2.0982532E-2,-9.5063424E-1,-3.0588815E-2,1.1812621E-2],"categories":[],"categories_nodes":[],"categories_segments":[],"categories_sizes":[],"default_left":[0,0,0,0,0,0,0],"id":92,"left_children":[1,3,-1,-1,5,-1,-1],"loss_changes":[1.2111311E2,1.6573288E1,0E0,0E0,6.521343E0,0E0,0E0],"parents":[2147483647,0,0,1,1,4,4],"right_children":[2,4,-1,-1,6,-1,-1],"split_conditions":[1E0,7E0,2.9700764E-2,2.0982532E-2,8E0,-3.0588815E-2,1.1812621E-2],"split_indices":[5,7,0,0,7,0,0],"split_type":[0,0,0,0,0,0,0],"sum_hessian":[1.5599527E2,6.358352E1,9.241175E1,5.35124E0,5.823228E1,5.6327023E1,1.9052559E0],"tree_param":{"num_deleted":"0","num_feature":"32","num_nodes":"7","size_leaf_vector":"1"}},{"base_weights":[2.7531013E-1,-7.504489E-1,2.9674942E-2,2.0954771E-2,-9.1480833E-1,1.24994945E-2,-9.884131E-1,-3.0487703E-2,-0E0],"categories":[],"categories_nodes":[],"categories_segments":[],"categories_sizes":[],"default_left":[0,0,0,0,0,0,0,0,0],"id":93,"left_children":[1,3,-1,-1,5,-1,7,-1,-1],"loss_changes":[1.1296631E2,1.5799248E1,0E0,0E0,6.609932E0,0E0,2.346817E0,0E0,0E0],"parents":[2147483647,0,0,1,1,4,4,6,6],"right_children":[2,4,-1,-1,6,-1,8,-1,-1],"split_conditions":[1E0,7E0,2.9674942E-2,2.0954771E-2,6E0,1.24994945E-2,4E0,-3.0487703E-2,-0E0],"split_indices":[5,7,0,0,6,0,0,0,0],"split_type":[0,0,0,0,0,0,0,0,0],"sum_hessian":[1.519346E2,6.1750854E1,9.018375E1,5.3401117E0,5.6410744E1,1.9992371E0,5.4411507E1,5.368908E1,7.22426E-1],"tree_param":{"num_deleted":"0","num_feature":"32","num_nodes":"9","size_leaf_vector":"1"}},{"base_weights":[2.5057936E-1,-7.618283E-1,2.963324E-2,2.0934049E-2,-9.130964E-1,-9.838957E-1,1.0712181E-2,-0E0,-1.0010688E0,-3.0444177E-2,-0E0],"categories":[],"categories_nodes":[],"categories_segments":[],"categories_sizes":[],"default_left":[0,0,0,0,0,0,0,0,0,0,0],"id":94,"left_children":[1,3,-1,-1,5,7,-1,-1,9,-1,-1],"loss_changes":[1.11870674E2,1.4673721E1,0E0,0E0,6.173542E0,1.4244041E0,0E0,0E0,1.1455269E0,0E0,0E0],"parents":[2147483647,0,0,1,1,4,4,5,5,8,8],"right_children":[2,4,-1,-1,6,8,-1,-1,10,-1,-1],"split_conditions":[1E0,5.6E2,2.963324E-2,2.0934049E-2,1.5E3,4.84E2,1.0712181E-2,-0E0,4.86E2,-3.0444177E-2,-0E0],"split_indices":[5,3,0,0,19,2,0,0,2,0,0],"split_type":[0,0,0,0,0,0,0,0,0,0,0],"sum_hessian":[1.4758092E2,6.1597595E1,8.598332E1,4.8241544E0,5.677344E1,5.473518E1,2.038263E0,4.7448462E-1,5.4260693E1,5.3887077E1,3.7361604E-1],"tree_param":{"num_deleted":"0","num_feature":"32","num_nodes":"11","size_leaf_vector":"1"}},{"base_weights":[2.4477851E-1,-7.6436895E-1,2.959351E-2,2.0761892E-2,-9.3264717E-1,-3.0362487E-2,1.2500949E-2],"categories":[],"categories_nodes":[],"categories_segments":[],"categories_sizes":[],"default_left":[0,0,0,0,0,0,0],"id":95,"left_children":[1,3,-1,-1,5,-1,-1],"loss_changes":[1.0789191E2,1.5714916E1,0E0,0E0,6.942333E0,0E0,0E0],"parents":[2147483647,0,0,1,1,4,4],"right_children":[2,4,-1,-1,6,-1,-1],"split_conditions":[1E0,7E0,2.959351E-2,2.0761892E-2,4E0,-3.0362487E-2,1.2500949E-2],"split_indices":[4,7,0,0,0,0,0],"split_type":[0,0,0,0,0,0,0],"sum_hessian":[1.4184843E2,5.9504883E1,8.234356E1,5.2252936E0,5.427959E1,5.219776E1,2.0818284E0],"tree_param":{"num_deleted":"0","num_feature":"32","num_nodes":"7","size_leaf_vector":"1"}},{"base_weights":[2.629489E-1,-7.332719E-1,2.9580472E-2,2.1680923E-2,-9.030568E-1,1.1669815E-2,-9.815547E-1,-0E0,-3.0279139E-2],"categories":[],"categories_nodes":[],"categories_segments":[],"categories_sizes":[],"default_left":[0,0,0,0,0,0,0,0,0],"id":96,"left_children":[1,3,-1,-1,5,-1,7,-1,-1],"loss_changes":[1.0277688E2,1.55236225E1,0E0,0E0,6.4797325E0,0E0,2.1547585E0,0E0,0E0],"parents":[2147483647,0,0,1,1,4,4,6,6],"right_children":[2,4,-1,-1,6,-1,8,-1,-1],"split_conditions":[1E0,4E0,2.9580472E-2,2.1680923E-2,5.6E2,1.1669815E-2,5E0,-0E0,-3.0279139E-2],"split_indices":[4,20,0,0,3,0,7,0,0],"split_type":[0,0,0,0,0,0,0,0,0],"sum_hessian":[1.4032483E2,5.84277E1,8.1897125E1,5.146676E0,5.3281025E1,2.0954762E0,5.118555E1,7.1493614E-1,5.047061E1],"tree_param":{"num_deleted":"0","num_feature":"32","num_nodes":"9","size_leaf_vector":"1"}},{"base_weights":[2.50326E-1,-7.7506447E-1,2.9553214E-2,2.0527557E-2,-9.49771E-1,-3.0218149E-2,7.1563167E-3],"categories":[],"categories_nodes":[],"categories_segments":[],"categories_sizes":[],"default_left":[0,0,0,0,0,0,0],"id":97,"left_children":[1,3,-1,-1,5,-1,-1],"loss_changes":[1.04240425E2,1.5500553E1,0E0,0E0,4.570423E0,0E0,0E0],"parents":[2147483647,0,0,1,1,4,4],"right_children":[2,4,-1,-1,6,-1,-1],"split_conditions":[1E0,7E0,2.9553214E-2,2.0527557E-2,4E0,-3.0218149E-2,7.1563167E-3],"split_indices":[4,7,0,0,0,0,0],"split_type":[0,0,0,0,0,0,0],"sum_hessian":[1.3606093E2,5.620743E1,7.98535E1,5.0857673E0,5.1121666E1,4.971015E1,1.4115123E0],"tree_param":{"num_deleted":"0","num_feature":"32","num_nodes":"7","size_leaf_vector":"1"}},{"base_weights":[2.5208336E-1,-7.6894146E-1,2.9510288E-2,1.9106172E-2,-9.2237663E-1,-3.0118389E-2,1.1947037E-2],"categories":[],"categories_nodes":[],"categories_segments":[],"categories_sizes":[],"default_left":[0,0,0,0,0,0,0],"id":98,"left_children":[1,3,-1,-1,5,-1,-1],"loss_changes":[9.877804E1,1.2660526E1,0E0,0E0,6.426079E0,0E0,0E0],"parents":[2147483647,0,0,1,1,4,4],"right_children":[2,4,-1,-1,6,-1,-1],"split_conditions":[1E0,7E0,2.9510288E-2,1.9106172E-2,8E0,-3.0118389E-2,1.1947037E-2],"split_indices":[5,7,0,0,7,0,0],"split_type":[0,0,0,0,0,0,0],"sum_hessian":[1.2993742E2,5.364772E1,7.6289696E1,4.3277307E0,4.931999E1,4.738989E1,1.9301019E0],"tree_param":{"num_deleted":"0","num_feature":"32","num_nodes":"7","size_leaf_vector":"1"}},{"base_weights":[2.572363E-1,-7.136612E-1,2.9474746E-2,2.1367252E-2,-8.8801444E-1,1.1009965E-2,-9.716574E-1,-3.0049155E-2,-0E0],"categories":[],"categories_nodes":[],"categories_segments":[],"categories_sizes":[],"default_left":[0,0,0,0,0,0,0,0,0],"id":99,"left_children":[1,3,-1,-1,5,-1,7,-1,-1],"loss_changes":[9.160285E1,1.4488247E1,0E0,0E0,6.2204514E0,0E0,2.1559105E0,0E0,0E0],"parents":[2147483647,0,0,1,1,4,4,6,6],"right_children":[2,4,-1,-1,6,-1,8,-1,-1],"split_conditions":[1E0,6E0,2.9474746E-2,2.1367252E-2,7E0,1.1009965E-2,4E0,-3.0049155E-2,-0E0],"split_indices":[5,6,0,0,7,0,0,0,0],"split_type":[0,0,0,0,0,0,0,0,0],"sum_hessian":[1.277127E2,5.4025738E1,7.3686966E1,4.9252563E0,4.910048E1,2.1092455E0,4.6991234E1,4.631013E1,6.8110335E-1],"tree_param":{"num_deleted":"0","num_feature":"32","num_nodes":"9","size_leaf_vector":"1"}},{"base_weights":[2.6755625E-1,-7.569171E-1,2.9480418E-2,1.8049616E-2,-8.8930917E-1,-2.9977113E-2,1.4458558E-2],"categories":[],"categories_nodes":[],"categories_segments":[],"categories_sizes":[],"default_left":[0,0,0,0,0,0,0],"id":100,"left_children":[1,3,-1,-1,5,-1,-1],"loss_changes":[9.423609E1,1.0233763E1,0E0,0E0,8.34763E0,0E0,0E0],"parents":[2147483647,0,0,1,1,4,4],"right_children":[2,4,-1,-1,6,-1,-1],"split_conditions":[1E0,4.84E2,2.9480418E-2,1.8049616E-2,4.86E2,-2.9977113E-2,1.4458558E-2],"split_indices":[5,2,0,0,2,0,0],"split_type":[0,0,0,0,0,0,0],"sum_hessian":[1.26304436E2,5.1323124E1,7.4981316E1,3.5718606E0,4.7751263E1,4.513365E1,2.6176095E0],"tree_param":{"num_deleted":"0","num_feature":"32","num_nodes":"7","size_leaf_vector":"1"}},{"base_weights":[2.724171E-1,-7.238075E-1,2.9441478E-2,1.8905101E-2,-8.8051015E-1,1.17324E-2,-9.6503484E-1,-2.9890042E-2,-0E0],"categories":[],"categories_nodes":[],"categories_segments":[],"categories_sizes":[],"default_left":[0,0,0,0,0,0,0,0,0],"id":101,"left_children":[1,3,-1,-1,5,-1,7,-1,-1],"loss_changes":[8.813627E1,1.1690109E1,0E0,0E0,6.0093803E0,0E0,2.105526E0,0E0,0E0],"parents":[2147483647,0,0,1,1,4,4,6,6],"right_children":[2,4,-1,-1,6,-1,8,-1,-1],"split_conditions":[1E0,7E0,2.9441478E-2,1.8905101E-2,6E0,1.17324E-2,4E0,-2.9890042E-2,-0E0],"split_indices":[5,7,0,0,6,0,0,0,0],"split_type":[0,0,0,0,0,0,0,0,0],"sum_hessian":[1.2241744E2,5.0302254E1,7.211519E1,4.2424793E0,4.6059772E1,1.9073844E0,4.415239E1,4.3481075E1,6.71315E-1],"tree_param":{"num_deleted":"0","num_feature":"32","num_nodes":"9","size_leaf_vector":"1"}},{"base_weights":[2.5141624E-1,-6.9718057E-1,2.9381666E-2,2.0506483E-2,-8.830765E-1,1.1003009E-2,-9.6369606E-1,-2.9851008E-2,-0E0],"categories":[],"categories_nodes":[],"categories_segments":[],"categories_sizes":[],"default_left":[0,0,0,0,0,0,0,0,0],"id":102,"left_children":[1,3,-1,-1,5,-1,7,-1,-1],"loss_changes":[8.3647766E1,1.4144129E1,0E0,0E0,5.6744804E0,0E0,2.1018257E0,0E0,0E0],"parents":[2147483647,0,0,1,1,4,4,6,6],"right_children":[2,4,-1,-1,6,-1,8,-1,-1],"split_conditions":[1E0,7E0,2.9381666E-2,2.0506483E-2,6E0,1.1003009E-2,4E0,-2.9851008E-2,-0E0],"split_indices":[5,7,0,0,6,0,0,0,0],"split_type":[0,0,0,0,0,0,0,0,0],"sum_hessian":[1.1873418E2,5.097673E1,6.775745E1,5.092928E0,4.5883804E1,1.8136432E0,4.407016E1,4.3398846E1,6.71315E-1],"tree_param":{"num_deleted":"0","num_feature":"32","num_nodes":"9","size_leaf_vector":"1"}},{"base_weights":[2.5278908E-1,-7.0048076E-1,2.9349752E-2,2.0723667E-2,-8.8067913E-1,-2.976957E-2,1.3800957E-2],"categories":[],"categories_nodes":[],"categories_segments":[],"categories_sizes":[],"default_left":[0,0,0,0,0,0,0],"id":103,"left_children":[1,3,-1,-1,5,-1,-1],"loss_changes":[8.119779E1,1.33642235E1,0E0,0E0,7.791748E0,0E0,0E0],"parents":[2147483647,0,0,1,1,4,4],"right_children":[2,4,-1,-1,6,-1,-1],"split_conditions":[1E0,4.84E2,2.9349752E-2,2.0723667E-2,4.86E2,-2.976957E-2,1.3800957E-2],"split_indices":[5,2,0,0,2,0,0],"split_type":[0,0,0,0,0,0,0],"sum_hessian":[1.1500778E2,4.912262E1,6.588516E1,4.6715703E0,4.4451046E1,4.196259E1,2.488459E0],"tree_param":{"num_deleted":"0","num_feature":"32","num_nodes":"7","size_leaf_vector":"1"}},{"base_weights":[2.7544758E-1,-6.9279337E-1,2.9344328E-2,1.9473586E-2,-8.7083197E-1,1.0602893E-2,-9.5555526E-1,-2.9664606E-2,-0E0],"categories":[],"categories_nodes":[],"categories_segments":[],"categories_sizes":[],"default_left":[0,0,0,0,0,0,0,0,0],"id":104,"left_children":[1,3,-1,-1,5,-1,7,-1,-1],"loss_changes":[7.84557E1,1.2227274E1,0E0,0E0,5.4373894E0,0E0,2.0443916E0,0E0,0E0],"parents":[2147483647,0,0,1,1,4,4,6,6],"right_children":[2,4,-1,-1,6,-1,8,-1,-1],"split_conditions":[1E0,7E0,2.9344328E-2,1.9473586E-2,6E0,1.0602893E-2,1E0,-2.9664606E-2,-0E0],"split_indices":[5,7,0,0,6,0,1,0,0],"split_type":[0,0,0,0,0,0,0,0,0],"sum_hessian":[1.1289624E2,4.6884884E1,6.601135E1,4.523985E0,4.23609E1,1.7725552E0,4.0588345E1,3.9928143E1,6.602022E-1],"tree_param":{"num_deleted":"0","num_feature":"32","num_nodes":"9","size_leaf_vector":"1"}},{"base_weights":[2.480135E-1,-7.3670113E-1,2.9297909E-2,1.964695E-2,-9.105971E-1,-2.963273E-2,7.619925E-3],"categories":[],"categories_nodes":[],"categories_segments":[],"categories_sizes":[],"default_left":[0,0,0,0,0,0,0],"id":105,"left_children":[1,3,-1,-1,5,-1,-1],"loss_changes":[7.982315E1,1.2160709E1,0E0,0E0,4.8124886E0,0E0,0E0],"parents":[2147483647,0,0,1,1,4,4],"right_children":[2,4,-1,-1,6,-1,-1],"split_conditions":[1E0,4.82E2,2.9297909E-2,1.964695E-2,4.86E2,-2.963273E-2,7.619925E-3],"split_indices":[5,2,0,0,2,0,0],"split_type":[0,0,0,0,0,0,0],"sum_hessian":[1.08922844E2,4.573125E1,6.3191593E1,4.1338196E0,4.159743E1,3.9960354E1,1.6370759E0],"tree_param":{"num_deleted":"0","num_feature":"32","num_nodes":"7","size_leaf_vector":"1"}},{"base_weights":[2.85018E-1,-6.700858E-1,2.9279819E-2,2.0386174E-2,-8.621872E-1,-2.949211E-2,1.3416875E-2],"categories":[],"categories_nodes":[],"categories_segments":[],"categories_sizes":[],"default_left":[0,0,0,0,0,0,0],"id":106,"left_children":[1,3,-1,-1,5,-1,-1],"loss_changes":[7.194302E1,1.2470453E1,0E0,0E0,7.402008E0,0E0,0E0],"parents":[2147483647,0,0,1,1,4,4],"right_children":[2,4,-1,-1,6,-1,-1],"split_conditions":[1E0,4.82E2,2.9279819E-2,2.0386174E-2,4.86E2,-2.949211E-2,1.3416875E-2],"split_indices":[5,2,0,0,2,0,0],"split_type":[0,0,0,0,0,0,0],"sum_hessian":[1.0655772E2,4.413499E1,6.2422726E1,4.5344996E0,3.960049E1,3.7180935E1,2.4195535E0],"tree_param":{"num_deleted":"0","num_feature":"32","num_nodes":"7","size_leaf_vector":"1"}},{"base_weights":[2.7201647E-1,-6.697042E-1,2.9232508E-2,2.0218255E-2,-8.609144E-1,-2.9442294E-2,1.3227091E-2],"categories":[],"categories_nodes":[],"categories_segments":[],"categories_sizes":[],"default_left":[0,0,0,0,0,0,0],"id":107,"left_children":[1,3,-1,-1,5,-1,-1],"loss_changes":[7.001138E1,1.2221729E1,0E0,0E0,7.2666626E0,0E0,0E0],"parents":[2147483647,0,0,1,1,4,4],"right_children":[2,4,-1,-1,6,-1,-1],"split_conditions":[1E0,4.84E2,2.9232508E-2,2.0218255E-2,4.86E2,-2.9442294E-2,1.3227091E-2],"split_indices":[5,2,0,0,2,0,0],"split_type":[0,0,0,0,0,0,0],"sum_hessian":[1.03395706E2,4.3584312E1,5.9811394E1,4.463633E0,3.9120678E1,3.673481E1,2.3858697E0],"tree_param":{"num_deleted":"0","num_feature":"32","num_nodes":"7","size_leaf_vector":"1"}},{"base_weights":[2.5637543E-1,-6.6214246E-1,2.9172126E-2,1.8974341E-2,-8.426218E-1,-9.4286406E-1,1.1647866E-2,-2.9390018E-2,-0E0],"categories":[],"categories_nodes":[],"categories_segments":[],"categories_sizes":[],"default_left":[0,0,0,0,0,0,0,0,0],"id":108,"left_children":[1,3,-1,-1,5,7,-1,-1,-1],"loss_changes":[6.725046E1,1.1056643E1,0E0,0E0,5.837227E0,2.0398483E0,0E0,0E0,0E0],"parents":[2147483647,0,0,1,1,4,4,5,5],"right_children":[2,4,-1,-1,6,8,-1,-1,-1],"split_conditions":[1E0,7E0,2.9172126E-2,1.8974341E-2,8E0,4E0,1.1647866E-2,-2.9390018E-2,-0E0],"split_indices":[5,7,0,0,7,0,0,0,0],"split_type":[0,0,0,0,0,0,0,0,0],"sum_hessian":[9.980253E1,4.314063E1,5.66619E1,4.293943E0,3.8846687E1,3.68889E1,1.9577857E0,3.6221024E1,6.678781E-1],"tree_param":{"num_deleted":"0","num_feature":"32","num_nodes":"9","size_leaf_vector":"1"}},{"base_weights":[2.5138375E-1,-7.092284E-1,2.9160596E-2,1.8588766E-2,-8.953963E-1,7.847593E-3,-2.9333837E-2],"categories":[],"categories_nodes":[],"categories_segments":[],"categories_sizes":[],"default_left":[0,0,0,0,0,0,0],"id":109,"left_children":[1,3,-1,-1,5,-1,-1],"loss_changes":[6.922155E1,1.1283966E1,0E0,0E0,4.6071835E0,0E0,0E0],"parents":[2147483647,0,0,1,1,4,4],"right_children":[2,4,-1,-1,6,-1,-1],"split_conditions":[1E0,7E0,2.9160596E-2,1.8588766E-2,5.6E2,7.847593E-3,-2.9333837E-2],"split_indices":[5,7,0,0,3,0,0],"split_type":[0,0,0,0,0,0,0],"sum_hessian":[9.761927E1,4.1254696E1,5.6364574E1,4.123269E0,3.7131428E1,1.5171914E0,3.5614235E1],"tree_param":{"num_deleted":"0","num_feature":"32","num_nodes":"7","size_leaf_vector":"1"}},{"base_weights":[2.7559286E-1,-6.8612695E-1,2.9151294E-2,1.9382747E-2,-8.7986916E-1,-2.9220387E-2,8.352782E-3],"categories":[],"categories_nodes":[],"categories_segments":[],"categories_sizes":[],"default_left":[0,0,0,0,0,0,0],"id":110,"left_children":[1,3,-1,-1,5,-1,-1],"loss_changes":[6.5770515E1,1.1291016E1,0E0,0E0,4.953127E0,0E0,0E0],"parents":[2147483647,0,0,1,1,4,4],"right_children":[2,4,-1,-1,6,-1,-1],"split_conditions":[1E0,4.84E2,2.9151294E-2,1.9382747E-2,4.86E2,-2.9220387E-2,8.352782E-3],"split_indices":[4,2,0,0,2,0,0],"split_type":[0,0,0,0,0,0,0],"sum_hessian":[9.582027E1,3.963726E1,5.6183006E1,4.080747E0,3.555651E1,3.382937E1,1.7271425E0],"tree_param":{"num_deleted":"0","num_feature":"32","num_nodes":"7","size_leaf_vector":"1"}},{"base_weights":[2.7121136E-1,-6.59187E-1,2.9094981E-2,1.9675778E-2,-8.571706E-1,1.0751536E-2,-2.9147595E-2],"categories":[],"categories_nodes":[],"categories_segments":[],"categories_sizes":[],"default_left":[0,0,0,0,0,0,0],"id":111,"left_children":[1,3,-1,-1,5,-1,-1],"loss_changes":[6.1884876E1,1.1226128E1,0E0,0E0,5.971262E0,0E0,0E0],"parents":[2147483647,0,0,1,1,4,4],"right_children":[2,4,-1,-1,6,-1,-1],"split_conditions":[1E0,6E0,2.9094981E-2,1.9675778E-2,7E0,1.0751536E-2,-2.9147595E-2],"split_indices":[5,6,0,0,7,0,0],"split_type":[0,0,0,0,0,0,0],"sum_hessian":[9.27466E1,3.9185646E1,5.356095E1,4.163987E0,3.502166E1,2.0775402E0,3.294412E1],"tree_param":{"num_deleted":"0","num_feature":"32","num_nodes":"7","size_leaf_vector":"1"}},{"base_weights":[2.676966E-1,-6.603165E-1,2.9068066E-2,1.8800383E-2,-8.433383E-1,-2.9101374E-2,1.2463733E-2],"categories":[],"categories_nodes":[],"categories_segments":[],"categories_sizes":[],"default_left":[0,0,0,0,0,0,0],"id":112,"left_children":[1,3,-1,-1,5,-1,-1],"loss_changes":[6.0937157E1,1.0086273E1,0E0,0E0,6.6718197E0,0E0,0E0],"parents":[2147483647,0,0,1,1,4,4],"right_children":[2,4,-1,-1,6,-1,-1],"split_conditions":[1E0,4.84E2,2.9068066E-2,1.8800383E-2,4.86E2,-2.9101374E-2,1.2463733E-2],"split_indices":[5,2,0,0,2,0,0],"split_type":[0,0,0,0,0,0,0],"sum_hessian":[9.118273E1,3.8656883E1,5.2525852E1,3.830835E0,3.482605E1,3.2571293E1,2.2547545E0],"tree_param":{"num_deleted":"0","num_feature":"32","num_nodes":"7","size_leaf_vector":"1"}},{"base_weights":[2.7230883E-1,-6.334599E-1,2.9024279E-2,1.8831808E-2,-8.186937E-1,-2.9014206E-2,1.4143652E-2],"categories":[],"categories_nodes":[],"categories_segments":[],"categories_sizes":[],"default_left":[0,0,0,0,0,0,0],"id":113,"left_children":[1,3,-1,-1,5,-1,-1],"loss_changes":[5.741539E1,9.797482E0,0E0,0E0,7.6667194E0,0E0,0E0],"parents":[2147483647,0,0,1,1,4,4],"right_children":[2,4,-1,-1,6,-1,-1],"split_conditions":[1E0,4.84E2,2.9024279E-2,1.8831808E-2,4.86E2,-2.9014206E-2,1.4143652E-2],"split_indices":[5,2,0,0,2,0,0],"split_type":[0,0,0,0,0,0,0],"sum_hessian":[8.868088E1,3.7921406E1,5.0759468E1,3.8590643E0,3.406234E1,3.146715E1,2.5951896E0],"tree_param":{"num_deleted":"0","num_feature":"32","num_nodes":"7","size_leaf_vector":"1"}},{"base_weights":[2.5009388E-1,-6.651221E-1,2.8964778E-2,1.8236663E-2,-8.625007E-1,9.622721E-3,-2.8971761E-2],"categories":[],"categories_nodes":[],"categories_segments":[],"categories_sizes":[],"default_left":[0,0,0,0,0,0,0],"id":114,"left_children":[1,3,-1,-1,5,-1,-1],"loss_changes":[5.744089E1,1.0286062E1,0E0,0E0,5.089411E0,0E0,0E0],"parents":[2147483647,0,0,1,1,4,4],"right_children":[2,4,-1,-1,6,-1,-1],"split_conditions":[1E0,7E0,2.8964778E-2,1.8236663E-2,6E0,9.622721E-3,-2.8971761E-2],"split_indices":[4,7,0,0,6,0,0],"split_type":[0,0,0,0,0,0,0],"sum_hessian":[8.52907E1,3.6837112E1,4.845359E1,3.9855757E0,3.285154E1,1.6895353E0,3.1162003E1],"tree_param":{"num_deleted":"0","num_feature":"32","num_nodes":"7","size_leaf_vector":"1"}},{"base_weights":[2.5664967E-1,-6.2678826E-1,2.8922828E-2,1.9186461E-2,-8.280492E-1,-2.8895391E-2,1.2457866E-2],"categories":[],"categories_nodes":[],"categories_segments":[],"categories_sizes":[],"default_left":[0,0,0,0,0,0,0],"id":115,"left_children":[1,3,-1,-1,5,-1,-1],"loss_changes":[5.381192E1,1.0299853E1,0E0,0E0,6.5857906E0,0E0,0E0],"parents":[2147483647,0,0,1,1,4,4],"right_children":[2,4,-1,-1,6,-1,-1],"split_conditions":[1E0,4.84E2,2.8922828E-2,1.9186461E-2,4.86E2,-2.8895391E-2,1.2457866E-2],"split_indices":[4,2,0,0,2,0,0],"split_type":[0,0,0,0,0,0,0],"sum_hessian":[8.359477E1,3.659562E1,4.6999157E1,4.0385585E0,3.255706E1,3.0294127E1,2.2629325E0],"tree_param":{"num_deleted":"0","num_feature":"32","num_nodes":"7","size_leaf_vector":"1"}},{"base_weights":[2.6180562E-1,-6.583219E-1,2.8899986E-2,1.8040417E-2,-8.493726E-1,8.587086E-3,-2.8785817E-2],"categories":[],"categories_nodes":[],"categories_segments":[],"categories_sizes":[],"default_left":[0,0,0,0,0,0,0],"id":116,"left_children":[1,3,-1,-1,5,-1,-1],"loss_changes":[5.3611187E1,9.248646E0,0E0,0E0,4.917797E0,0E0,0E0],"parents":[2147483647,0,0,1,1,4,4],"right_children":[2,4,-1,-1,6,-1,-1],"split_conditions":[1E0,6E0,2.8899986E-2,1.8040417E-2,7E0,8.587086E-3,-2.8785817E-2],"split_indices":[5,6,0,0,7,0,0],"split_type":[0,0,0,0,0,0,0],"sum_hessian":[8.059944E1,3.427728E1,4.6322163E1,3.5419664E0,3.0735312E1,1.7736566E0,2.8961655E1],"tree_param":{"num_deleted":"0","num_feature":"32","num_nodes":"7","size_leaf_vector":"1"}},{"base_weights":[2.4761152E-1,-6.826044E-1,2.8850807E-2,1.7349012E-2,-8.8419855E-1,-2.8734012E-2,2.7130467E-3],"categories":[],"categories_nodes":[],"categories_segments":[],"categories_sizes":[],"default_left":[0,0,0,0,0,0,0],"id":117,"left_children":[1,3,-1,-1,5,-1,-1],"loss_changes":[5.3423203E1,9.534055E0,0E0,0E0,3.1522732E0,0E0,0E0],"parents":[2147483647,0,0,1,1,4,4],"right_children":[2,4,-1,-1,6,-1,-1],"split_conditions":[1E0,7E0,2.8850807E-2,1.7349012E-2,8E0,-2.8734012E-2,2.7130467E-3],"split_indices":[5,7,0,0,7,0,0],"split_type":[0,0,0,0,0,0,0],"sum_hessian":[7.8017876E1,3.329241E1,4.4725468E1,3.6477635E0,2.9644648E1,2.8533192E1,1.1114566E0],"tree_param":{"num_deleted":"0","num_feature":"32","num_nodes":"7","size_leaf_vector":"1"}},{"base_weights":[2.8018138E-1,-5.955451E-1,2.883919E-2,1.8615203E-2,-7.9727644E-1,8.841611E-3,-9.100779E-1,-2.86265E-2,-0E0],"categories":[],"categories_nodes":[],"categories_segments":[],"categories_sizes":[],"default_left":[0,0,0,0,0,0,0,0,0],"id":118,"left_children":[1,3,-1,-1,5,-1,7,-1,-1],"loss_changes":[4.8082714E1,9.148212E0,0E0,0E0,4.67511E0,0E0,1.8171024E0,0E0,0E0],"parents":[2147483647,0,0,1,1,4,4,6,6],"right_children":[2,4,-1,-1,6,-1,8,-1,-1],"split_conditions":[1E0,6E0,2.883919E-2,1.8615203E-2,7E0,8.841611E-3,4E0,-2.86265E-2,-0E0],"split_indices":[5,6,0,0,7,0,0,0,0],"split_type":[0,0,0,0,0,0,0,0,0],"sum_hessian":[7.803789E1,3.3554348E1,4.4483543E1,3.773629E0,2.9780718E1,1.8072662E0,2.7973452E1,2.735068E1,6.227723E-1],"tree_param":{"num_deleted":"0","num_feature":"32","num_nodes":"9","size_leaf_vector":"1"}},{"base_weights":[2.749167E-1,-5.987381E-1,2.8809244E-2,1.8411398E-2,-8.000744E-1,-2.8587572E-2,1.2822986E-2],"categories":[],"categories_nodes":[],"categories_segments":[],"categories_sizes":[],"default_left":[0,0,0,0,0,0,0],"id":119,"left_children":[1,3,-1,-1,5,-1,-1],"loss_changes":[4.7525215E1,9.020809E0,0E0,0E0,6.646311E0,0E0,0E0],"parents":[2147483647,0,0,1,1,4,4],"right_children":[2,4,-1,-1,6,-1,-1],"split_conditions":[1E0,4.84E2,2.8809244E-2,1.8411398E-2,4.86E2,-2.8587572E-2,1.2822986E-2],"split_indices":[5,2,0,0,2,0,0],"split_type":[0,0,0,0,0,0,0],"sum_hessian":[7.6803986E1,3.3178905E1,4.362508E1,3.7259784E0,2.9452927E1,2.7115019E1,2.3379076E0],"tree_param":{"num_deleted":"0","num_feature":"32","num_nodes":"7","size_leaf_vector":"1"}},{"base_weights":[2.7531934E-1,-5.8538425E-1,2.875198E-2,1.8142072E-2,-7.850931E-1,7.783199E-3,-8.8995576E-1,-2.8490953E-2,-0E0],"categories":[],"categories_nodes":[],"categories_segments":[],"categories_sizes":[],"default_left":[0,0,0,0,0,0,0,0,0],"id":120,"left_children":[1,3,-1,-1,5,-1,7,-1,-1],"loss_changes":[4.5132614E1,8.554717E0,0E0,0E0,4.1052456E0,0E0,2.308838E0,0E0,0E0],"parents":[2147483647,0,0,1,1,4,4,6,6],"right_children":[2,4,-1,-1,6,-1,8,-1,-1],"split_conditions":[1E0,6E0,2.875198E-2,1.8142072E-2,4.82E2,7.783199E-3,4.86E2,-2.8490953E-2,-0E0],"split_indices":[5,6,0,0,2,0,2,0,0],"split_type":[0,0,0,0,0,0,0,0,0],"sum_hessian":[7.417665E1,3.2236565E1,4.1940083E1,3.6212394E0,2.8615328E1,1.6061493E0,2.7009178E1,2.6155964E1,8.5321367E-1],"tree_param":{"num_deleted":"0","num_feature":"32","num_nodes":"9","size_leaf_vector":"1"}},{"base_weights":[2.4019338E-1,-6.7891234E-1,2.8667253E-2,1.5659854E-2,-8.6924905E-1,-2.8423699E-2,2.130444E-3],"categories":[],"categories_nodes":[],"categories_segments":[],"categories_sizes":[],"default_left":[0,0,0,0,0,0,0],"id":121,"left_children":[1,3,-1,-1,5,-1,-1],"loss_changes":[4.720544E1,7.836504E0,0E0,0E0,2.9779186E0,0E0,0E0],"parents":[2147483647,0,0,1,1,4,4],"right_children":[2,4,-1,-1,6,-1,-1],"split_conditions":[1E0,7E0,2.8667253E-2,1.5659854E-2,4E0,-2.8423699E-2,2.130444E-3],"split_indices":[5,7,0,0,0,0,0],"split_type":[0,0,0,0,0,0,0],"sum_hessian":[6.938664E1,2.9779615E1,3.960703E1,3.1169903E0,2.6662624E1,2.5590023E1,1.0726014E0],"tree_param":{"num_deleted":"0","num_feature":"32","num_nodes":"7","size_leaf_vector":"1"}},{"base_weights":[2.4558876E-1,-6.034132E-1,2.862733E-2,1.8063385E-2,-8.113814E-1,-2.8409695E-2,1.048155E-2],"categories":[],"categories_nodes":[],"categories_segments":[],"categories_sizes":[],"default_left":[0,0,0,0,0,0,0],"id":122,"left_children":[1,3,-1,-1,5,-1,-1],"loss_changes":[4.355487E1,8.771912E0,0E0,0E0,5.43038E0,0E0,0E0],"parents":[2147483647,0,0,1,1,4,4],"right_children":[2,4,-1,-1,6,-1,-1],"split_conditions":[1E0,4.84E2,2.862733E-2,1.8063385E-2,4.86E2,-2.8409695E-2,1.048155E-2],"split_indices":[5,2,0,0,2,0,0],"split_type":[0,0,0,0,0,0,0],"sum_hessian":[6.985221E1,3.1204805E1,3.8647404E1,3.604869E0,2.7599936E1,2.5649105E1,1.9508314E0],"tree_param":{"num_deleted":"0","num_feature":"32","num_nodes":"7","size_leaf_vector":"1"}},{"base_weights":[2.58511E-1,-5.9706664E-1,2.8594937E-2,1.686351E-2,-7.8826463E-1,6.6682766E-3,-8.956029E-1,-2.8277993E-2,-0E0],"categories":[],"categories_nodes":[],"categories_segments":[],"categories_sizes":[],"default_left":[0,0,0,0,0,0,0,0,0],"id":123,"left_children":[1,3,-1,-1,5,-1,7,-1,-1],"loss_changes":[4.1725742E1,7.4803686E0,0E0,0E0,3.859333E0,0E0,1.7123566E0,0E0,0E0],"parents":[2147483647,0,0,1,1,4,4,6,6],"right_children":[2,4,-1,-1,6,-1,8,-1,-1],"split_conditions":[1E0,6E0,2.8594937E-2,1.686351E-2,7E0,6.6682766E-3,4E0,-2.8277993E-2,-0E0],"split_indices":[5,6,0,0,7,0,0,0,0],"split_type":[0,0,0,0,0,0,0,0,0],"sum_hessian":[6.7649635E1,2.9731464E1,3.7918167E1,3.1944125E0,2.6537052E1,1.5507082E0,2.4986343E1,2.4386904E1,5.9943974E-1],"tree_param":{"num_deleted":"0","num_feature":"32","num_nodes":"9","size_leaf_vector":"1"}},{"base_weights":[2.4674843E-1,-6.1957526E-1,2.8529005E-2,1.6708396E-2,-8.1900364E-1,1.5301463E-3,-8.982434E-1,-9.233766E-1,-0E0,-0E0,-2.8199274E-2],