{"learner":{"attributes":{"scikit_learn":"{\"_estimator_type\": \"classifier\"}"},"feature_names":["BAREI","SEIBETSU_CODE","BATAIJU","BATAIJU_DIFF","FUTAN_JURYO","TANSHO_NINKIJUN","KISHU_CODE","CHOKYOSHI_CODE","KETTO_TOROKU_BANGO","RACE_CODE","KYORI","TRACK_CODE","SHUSSO_TOSU","KISHU_3IN_RATE","CHOKYOSHI_3IN_RATE","UMA_5R_3IN_RATE","RACE_KANKAKU","KISHU_CODE_TE","CHOKYOSHI_CODE_TE","KETTO_TOROKU_BANGO_TE","RACE_CODE_TE"],"feature_types":["int","int","float","float","int","int","int","int","int","int","float","int","int","float","float","float","float","float","float","float","float"],"gradient_booster":{"model":{"gbtree_model_param":{"num_parallel_tree":"1","num_trees":"200"},"iteration_indptr":[0,1,2,3,4,5,6,7,8,9,10,11,12,13,14,15,16,17,18,19,20,21,22,23,24,25,26,27,28,29,30,31,32,33,34,35,36,37,38,39,40,41,42,43,44,45,46,47,48,49,50,51,52,53,54,55,56,57,58,59,60,61,62,63,64,65,66,67,68,69,70,71,72,73,74,75,76,77,78,79,80,81,82,83,84,85,86,87,88,89,90,91,92,93,94,95,96,97,98,99,100,101,102,103,104,105,106,107,108,109,110,111,112,113,114,115,116,117,118,119,120,121,122,123,124,125,126,127,128,129,130,131,132,133,134,135,136,137,138,139,140,141,142,143,144,145,146,147,148,149,150,151,152,153,154,155,156,157,158,159,160,161,162,163,164,165,166,167,168,169,170,171,172,173,174,175,176,177,178,179,180,181,182,183,184,185,186,187,188,189,190,191,192,193,194,195,196,197,198,199,200],"tree_info":[0,0,0,0,0,0,0,0,0,0,0,0,0,0,0,0,0,0,0,0,0,0,0,0,0,0,0,0,0,0,0,0,0,0,0,0,0,0,0,0,0,0,0,0,0,0,0,0,0,0,0,0,0,0,0,0,0,0,0,0,0,0,0,0,0,0,0,0,0,0,0,0,0,0,0,0,0,0,0,0,0,0,0,0,0,0,0,0,0,0,0,0,0,0,0,0,0,0,0,0,0,0,0,0,0,0,0,0,0,0,0,0,0,0,0,0,0,0,0,0,0,0,0,0,0,0,0,0,0,0,0,0,0,0,0,0,0,0,0,0,0,0,0,0,0,0,0,0,0,0,0,0,0,0,0,0,0,0,0,0,0,0,0,0,0,0,0,0,0,0,0,0,0,0,0,0,0,0,0,0,0,0,0,0,0,0,0,0,0,0,0,0,0,0,0,0,0,0,0,0],"trees":[{"base_weights":[1.0936025E-1,-3.284563E0,9.8907864E-1,-1.1479146E-1,-1.3886275E0,-1.13946214E-1,1.0258263E0,-1.6156689E0,1.1016318E0,3.261835E-1,1.1793816E0,-1.1303887E-1,-1.4493283E0,1.9741796E-1,3.9407145E-2,-2.1478783E-1,5.765005E-1,9.4999003E-1,1.294002E0,-1.2051715E0,-2.0366096E0,5.023074E-1,-5.7897985E-2,3.9494447E-2,-2.9895255E-1,4.15464E-1,1.2988517E0,4.055833E-2,8.280942E-1,1.2083023E0,4.0599916E-2,-1.3025205E0,2.1451272E-2,-1.4983826E0,-2.4476953E0,6.9682884E-1,-2.1745495E-2,-1.5500606E0,-7.8739874E-2,4.0206734E-2,3.3349887E-1,-0E0,1.302842E0,4.3943232E-1,1.0426656E0,1.2262789E0,7.828268E-1,-4.90155E-2,-2.994745E-2,1.1130267E-2,-3.738227E-2,-6.0437594E-2,-2.8604621E-2,-7.6729305E-2,-3.9874677E-2,2.8559618E-2,-7.1609565E-3,-6.252714E-2,-3.293608E-2,4.003383E-2,-8.383653E-3,-9.281208E-3,1.3397227E-2,3.2252662E-2,4.035625E-2,1.0628482E-2,3.9067734E-2,4.0569507E-2,1.7392632E-2,4.0544856E-2,3.5620634E-2,2.6025733E-2,-1.8459242E-2],"categories":[],"categories_nodes":[],"categories_segments":[],"categories_sizes":[],"default_left":[0,0,0,0,0,0,0,0,0,0,0,0,0,0,0,0,0,0,0,0,0,0,0,0,0,0,0,0,0,0,0,0,0,0,0,0,0,0,0,0,0,0,0,0,0,0,0,0,0,0,0,0,0,0,0,0,0,0,0,0,0,0,0,0,0,0,0,0,0,0,0,0,0],"id":0,"left_children":[1,3,5,-1,7,-1,9,11,13,15,17,-1,19,21,-1,23,25,27,29,31,33,35,-1,-1,37,39,41,-1,43,45,-1,47,49,51,53,55,-1,57,59,-1,61,-1,63,65,67,69,71,-1,-1,-1,-1,-1,-1,-1,-1,-1,-1,-1,-1,-1,-1,-1,-1,-1,-1,-1,-1,-1,-1,-1,-1,-1,-1],"loss_changes":[8.136093E4,5.751676E3,3.8083496E3,0E0,7.0830835E2,0E0,2.305543E3,3.9930273E2,1.8267807E1,5.2427234E2,4.5956445E2,0E0,1.4702051E2,1.3764085E1,0E0,1.570055E2,3.055359E2,2.8452246E2,5.548242E1,9.157715E1,6.1000122E1,5.342762E0,0E0,0E0,3.1805905E2,1.6207407E2,2.2624512E0,0E0,3.7433398E2,3.388086E1,0E0,6.642163E1,2.4316015E1,3.3904633E1,1.4012695E1,5.430065E0,0E0,3.6318604E1,2.7978918E2,0E0,1.4509215E2,0E0,7.5671387E-1,1.1604135E2,4.13636E2,1.8367188E1,2.450811E1,0E0,0E0,0E0,0E0,0E0,0E0,0E0,0E0,0E0,0E0,0E0,0E0,0E0,0E0,0E0,0E0,0E0,0E0,0E0,0E0,0E0,0E0,0E0,0E0,0E0,0E0],"parents":[2147483647,0,0,1,1,2,2,4,4,6,6,7,7,8,8,9,9,10,10,12,12,13,13,15,15,16,16,17,17,18,18,19,19,20,20,21,21,24,24,25,25,26,26,28,28,29,29,31,31,32,32,33,33,34,34,35,35,37,37,38,38,40,40,42,42,43,43,44,44,45,45,46,46],"right_children":[2,4,6,-1,8,-1,10,12,14,16,18,-1,20,22,-1,24,26,28,30,32,34,36,-1,-1,38,40,42,-1,44,46,-1,48,50,52,54,56,-1,58,60,-1,62,-1,64,66,68,70,72,-1,-1,-1,-1,-1,-1,-1,-1,-1,-1,-1,-1,-1,-1,-1,-1,-1,-1,-1,-1,-1,-1,-1,-1,-1,-1],"split_conditions":[2.0785305E-1,2E-1,1.6666667E-1,-1.1479146E-1,5.247291E-1,-1.13946214E-1,4.0703636E-1,1.6666667E-1,6.908059E-1,1.8781072E-1,6.0175335E-1,-1.1303887E-1,1E1,2.8104576E-1,3.9407145E-2,2.5E-1,5.247291E-1,5E-1,8.062792E-1,2.5E1,1.9822876E-1,7E1,-5.7897985E-2,3.9494447E-2,2.531249E-1,2E-1,6E0,4.055833E-2,5.033355E-1,8E0,4.0599916E-2,2.3076923E-1,2.89E3,5.61E2,2.5000513E-1,1.6E1,-2.1745495E-2,6.612E3,3.3333334E-1,4.0206734E-2,2.531249E-1,-0E0,6.908059E-1,5.247291E-1,6E-1,6.666667E-1,1.8E1,-4.90155E-2,-2.994745E-2,1.1130267E-2,-3.738227E-2,-6.0437594E-2,-2.8604621E-2,-7.6729305E-2,-3.9874677E-2,2.8559618E-2,-7.1609565E-3,-6.252714E-2,-3.293608E-2,4.003383E-2,-8.383653E-3,-9.281208E-3,1.3397227E-2,3.2252662E-2,4.035625E-2,1.0628482E-2,3.9067734E-2,4.0569507E-2,1.7392632E-2,4.0544856E-2,3.5620634E-2,2.6025733E-2,-1.8459242E-2],"split_indices":[15,15,20,0,20,0,15,20,20,20,15,0,5,18,0,15,20,15,15,11,18,16,0,0,15,20,12,0,15,5,0,19,10,4,20,12,0,9,15,0,15,0,20,20,15,15,12,0,0,0,0,0,0,0,0,0,0,0,0,0,0,0,0,0,0,0,0,0,0,0,0,0,0],"split_type":[0,0,0,0,0,0,0,0,0,0,0,0,0,0,0,0,0,0,0,0,0,0,0,0,0,0,0,0,0,0,0,0,0,0,0,0,0,0,0,0,0,0,0,0,0,0,0,0,0,0,0,0,0,0,0,0,0,0,0,0,0,0,0,0,0,0,0,0,0,0,0,0,0],"sum_hessian":[2.7248914E4,5.608323E3,2.164059E4,4.3606064E3,1.2477167E3,1.6386293E2,2.1476727E4,1.1441548E3,1.0356188E2,3.867032E3,1.7609695E4,8.009789E1,1.0640569E3,2.0927446E1,8.263444E1,1.2220822E3,2.64495E3,5.87333E3,1.1736365E4,7.549488E2,3.091082E2,1.938339E1,1.5440558E0,6.2289078E1,1.1597931E3,2.165211E3,4.7973907E2,1.3624209E3,4.510909E3,4.8167812E3,6.919584E3,7.001369E2,5.481188E1,1.3691946E2,1.721887E2,1.7807678E1,1.5757121E0,1.720028E2,9.877903E2,1.7404301E2,1.9911678E3,1.6073685E0,4.7813168E2,1.6072825E3,2.9036265E3,4.6174575E3,1.9932385E2,3.31501E2,3.6863586E2,4.413625E1,1.0675628E1,6.798335E1,6.893611E1,1.5479256E2,1.7396147E1,1.4817604E1,2.9900737E0,7.6184616E1,9.5818184E1,1.2152477E2,8.662655E2,2.9625827E2,1.6949095E3,8.283051E1,3.9530118E2,1.465251E3,1.4203148E2,1.7373767E3,1.1662498E3,1.0808987E3,3.5365586E3,1.8897093E2,1.0352926E1],"tree_param":{"num_deleted":"0","num_feature":"21","num_nodes":"73","size_leaf_vector":"1"}},{"base_weights":[1.07037656E-1,-3.0436275E0,9.73616E-1,-1.0559607E-1,-1.321192E0,-1.04907855E-1,1.01029E0,-1.5323406E0,1.0858037E0,3.180549E-1,1.164117E0,-1.0416724E-1,-1.3776954E0,1.8607141E-1,3.8979225E-2,1.8274486E-1,1.2843785E0,9.345402E-1,1.2794111E0,-1.5727885E0,-7.229571E-1,4.8866054E-1,-5.5901084E-2,-2.0759079E-1,4.05506E-1,-0E0,1.2883953E0,4.01359E-2,8.131631E-1,1.1931511E0,4.0177632E-2,-1.3289769E0,-2.0335536E0,-1.2201549E0,-3.5609537E-1,6.826188E-1,-2.1210117E-2,3.9068952E-2,-2.887182E-1,3.978313E-2,3.2507956E-1,1.0596732E0,3.993266E-2,4.2905408E-1,1.027091E0,1.211224E0,7.680794E-1,-4.8046242E-2,-2.823089E-2,-4.6405546E-2,-7.204164E-2,-1.19168265E-2,-4.7619835E-2,4.4231266E-3,-2.2738773E-2,2.812337E-2,-6.9818306E-3,-4.415559E-2,-2.2850067E-3,1.2864181E-2,-1.0747656E-2,3.7514094E-2,1.6306527E-2,1.0363301E-2,3.8634818E-2,4.014711E-2,1.7015038E-2,4.012238E-2,3.516265E-2,2.557131E-2,-1.7809331E-2],"categories":[],"categories_nodes":[],"categories_segments":[],"categories_sizes":[],"default_left":[0,0,0,0,0,0,0,0,0,0,0,0,0,0,0,0,0,0,0,0,0,0,0,0,0,0,0,0,0,0,0,0,0,0,0,0,0,0,0,0,0,0,0,0,0,0,0,0,0,0,0,0,0,0,0,0,0,0,0,0,0,0,0,0,0,0,0,0,0,0,0],"id":1,"left_children":[1,3,5,-1,7,-1,9,11,13,15,17,-1,19,21,-1,23,25,27,29,31,33,35,-1,37,39,-1,41,-1,43,45,-1,47,49,51,53,55,-1,-1,57,-1,59,61,-1,63,65,67,69,-1,-1,-1,-1,-1,-1,-1,-1,-1,-1,-1,-1,-1,-1,-1,-1,-1,-1,-1,-1,-1,-1,-1,-1],"loss_changes":[7.426334E4,4.8034297E3,3.4986738E3,0E0,6.4905884E2,0E0,2.251412E3,3.4168384E2,1.8032509E1,5.0167987E2,4.548086E2,0E0,1.3538257E2,1.3050666E1,0E0,2.9409744E2,2.2075195E0,2.8040625E2,5.533008E1,8.776514E1,4.4047394E1,5.144397E0,0E0,1.4963397E2,1.5734866E2,0E0,7.9003906E-1,0E0,3.6444214E2,3.3458008E1,0E0,5.4162354E1,4.3488403E1,2.9304749E1,3.064354E1,5.264908E0,0E0,0E0,2.9147772E2,0E0,1.4075163E2,5.655197E0,0E0,1.1267453E2,4.0676074E2,1.8328125E1,2.3499718E1,0E0,0E0,0E0,0E0,0E0,0E0,0E0,0E0,0E0,0E0,0E0,0E0,0E0,0E0,0E0,0E0,0E0,0E0,0E0,0E0,0E0,0E0,0E0,0E0],"parents":[2147483647,0,0,1,1,2,2,4,4,6,6,7,7,8,8,9,9,10,10,12,12,13,13,15,15,16,16,17,17,18,18,19,19,20,20,21,21,23,23,24,24,26,26,28,28,29,29,31,31,32,32,33,33,34,34,35,35,38,38,40,40,41,41,43,43,44,44,45,45,46,46],"right_children":[2,4,6,-1,8,-1,10,12,14,16,18,-1,20,22,-1,24,26,28,30,32,34,36,-1,38,40,-1,42,-1,44,46,-1,48,50,52,54,56,-1,-1,58,-1,60,62,-1,64,66,68,70,-1,-1,-1,-1,-1,-1,-1,-1,-1,-1,-1,-1,-1,-1,-1,-1,-1,-1,-1,-1,-1,-1,-1,-1],"split_conditions":[2.0785305E-1,2E-1,1.6666667E-1,-1.0559607E-1,5.247291E-1,-1.04907855E-1,4.0703636E-1,1.6666667E-1,6.908059E-1,5.247291E-1,6.0175335E-1,-1.0416724E-1,2.5000513E-1,2.8104576E-1,3.8979225E-2,1.8781072E-1,6E0,5E-1,8.062792E-1,1E1,1.9E1,7E1,-5.5901084E-2,2.5E-1,2E-1,-0E0,6.908059E-1,4.01359E-2,5.033355E-1,8E0,4.0177632E-2,7.148E3,1.985294E-1,1.526E3,1.9188192E-1,1.6E1,-2.1210117E-2,3.9068952E-2,2.531249E-1,3.978313E-2,9E0,6.666667E-1,3.993266E-2,5.247291E-1,6E-1,6.666667E-1,1.8E1,-4.8046242E-2,-2.823089E-2,-4.6405546E-2,-7.204164E-2,-1.19168265E-2,-4.7619835E-2,4.4231266E-3,-2.2738773E-2,2.812337E-2,-6.9818306E-3,-4.415559E-2,-2.2850067E-3,1.2864181E-2,-1.0747656E-2,3.7514094E-2,1.6306527E-2,1.0363301E-2,3.8634818E-2,4.014711E-2,1.7015038E-2,4.012238E-2,3.516265E-2,2.557131E-2,-1.7809331E-2],"split_indices":[15,15,20,0,20,0,15,20,20,20,15,0,20,18,0,20,12,15,15,5,11,16,0,15,20,0,20,0,15,5,0,9,18,8,18,12,0,0,15,0,5,20,0,20,15,15,12,0,0,0,0,0,0,0,0,0,0,0,0,0,0,0,0,0,0,0,0,0,0,0,0],"split_type":[0,0,0,0,0,0,0,0,0,0,0,0,0,0,0,0,0,0,0,0,0,0,0,0,0,0,0,0,0,0,0,0,0,0,0,0,0,0,0,0,0,0,0,0,0,0,0,0,0,0,0,0,0,0,0,0,0,0,0,0,0,0,0,0,0,0,0,0,0,0,0],"sum_hessian":[2.7198395E4,5.866302E3,2.1332094E4,4.5943667E3,1.2719353E3,1.7258409E2,2.115951E4,1.170072E3,1.01863235E2,3.848859E3,1.731065E4,8.43278E1,1.0857443E3,2.0793226E1,8.107001E1,3.378067E3,4.70792E2,5.793085E3,1.1517565E4,8.3423645E2,2.5150777E2,1.9206926E1,1.5862995E0,1.2257727E3,2.1522942E3,1.6073685E0,4.691846E2,1.33587E3,4.457215E3,4.73297E3,6.7845947E3,5.49517E2,2.8471945E2,1.0464009E2,1.4686768E2,1.7614916E1,1.5920117E0,6.110721E1,1.1646654E3,1.7068083E2,1.9816134E3,8.1548454E1,3.8763617E2,1.5971682E3,2.8600466E3,4.535913E3,1.9705685E2,3.1940387E2,2.3011314E2,1.25967995E2,1.5875145E2,3.37664E1,7.0873695E1,6.4364296E1,8.250338E1,1.4614631E1,3.0002847E0,1.7575002E2,9.8891547E2,1.7220513E3,2.5956207E2,5.708522E1,2.4463232E1,1.4578024E3,1.3936588E2,1.7035092E3,1.1565375E3,1.059841E3,3.4760723E3,1.8661298E2,1.0443887E1],"tree_param":{"num_deleted":"0","num_feature":"21","num_nodes":"71","size_leaf_vector":"1"}},{"base_weights":[1.0480399E-1,-2.8412614E0,9.586329E-1,-9.802032E-2,-1.2595279E0,-9.7444154E-2,9.952019E-1,-1.4565718E0,1.0705127E0,3.1013894E-1,1.149374E0,-9.682297E-2,-1.3119397E0,1.7507425E-1,3.85704E-2,1.7782496E-1,1.2705731E0,9.1947764E-1,1.265438E0,-1.4937356E0,-6.9472325E-1,4.753139E-1,-5.402745E-2,-2.0072472E-1,3.957628E-1,-0E0,1.2746195E0,3.9734323E-2,7.9856664E-1,1.1785182E0,3.9776273E-2,-1.2658819E0,-1.9205346E0,-1.1649415E0,-3.4356144E-1,6.6870105E-1,-2.0691438E-2,3.8662657E-2,-2.7895108E-1,3.9379817E-2,3.1684518E-1,1.0449818E0,3.9529607E-2,4.1889623E-1,1.0119394E0,1.1967019E0,7.536303E-1,-4.559391E-2,-2.7032068E-2,-4.4085767E-2,-6.7728385E-2,-1.1507256E-2,-4.522283E-2,-6.859297E-3,-6.773361E-2,2.7696606E-2,-6.8075648E-3,-4.198604E-2,-2.214078E-3,-9.229285E-3,1.28411455E-2,3.7091464E-2,1.5961178E-2,1.0103866E-2,3.8220577E-2,3.9745584E-2,1.6644482E-2,3.9720718E-2,3.4719393E-2,2.5125666E-2,-1.7188733E-2],"categories":[],"categories_nodes":[],"categories_segments":[],"categories_sizes":[],"default_left":[0,0,0,0,0,0,0,0,0,0,0,0,0,0,0,0,0,0,0,0,0,0,0,0,0,0,0,0,0,0,0,0,0,0,0,0,0,0,0,0,0,0,0,0,0,0,0,0,0,0,0,0,0,0,0,0,0,0,0,0,0,0,0,0,0,0,0,0,0,0,0],"id":2,"left_children":[1,3,5,-1,7,-1,9,11,13,15,17,-1,19,21,-1,23,25,27,29,31,33,35,-1,37,39,-1,41,-1,43,45,-1,47,49,51,53,55,-1,-1,57,-1,59,61,-1,63,65,67,69,-1,-1,-1,-1,-1,-1,-1,-1,-1,-1,-1,-1,-1,-1,-1,-1,-1,-1,-1,-1,-1,-1,-1,-1],"loss_changes":[6.820851E4,4.097617E3,3.2352285E3,0E0,5.965498E2,0E0,2.1996406E3,2.9727686E2,1.7805122E1,4.8524786E2,4.5060547E2,0E0,1.2097754E2,1.2378993E1,0E0,2.7828247E2,2.1556396E0,2.766333E2,5.529297E1,7.732922E1,4.019303E1,4.953237E0,0E0,1.4268835E2,1.528458E2,0E0,8.187256E-1,0E0,3.5498584E2,3.3077637E1,0E0,4.8132812E1,3.756067E1,2.6264236E1,2.968644E1,5.1054363E0,0E0,0E0,2.6745306E2,0E0,1.3727303E2,5.555435E0,0E0,1.0946271E2,4.0041602E2,1.8331055E1,2.253608E1,0E0,0E0,0E0,0E0,0E0,0E0,0E0,0E0,0E0,0E0,0E0,0E0,0E0,0E0,0E0,0E0,0E0,0E0,0E0,0E0,0E0,0E0,0E0,0E0],"parents":[2147483647,0,0,1,1,2,2,4,4,6,6,7,7,8,8,9,9,10,10,12,12,13,13,15,15,16,16,17,17,18,18,19,19,20,20,21,21,23,23,24,24,26,26,28,28,29,29,31,31,32,32,33,33,34,34,35,35,38,38,40,40,41,41,43,43,44,44,45,45,46,46],"right_children":[2,4,6,-1,8,-1,10,12,14,16,18,-1,20,22,-1,24,26,28,30,32,34,36,-1,38,40,-1,42,-1,44,46,-1,48,50,52,54,56,-1,-1,58,-1,60,62,-1,64,66,68,70,-1,-1,-1,-1,-1,-1,-1,-1,-1,-1,-1,-1,-1,-1,-1,-1,-1,-1,-1,-1,-1,-1,-1,-1],"split_conditions":[2.0785305E-1,2E-1,1.6666667E-1,-9.802032E-2,5.247291E-1,-9.7444154E-2,4.0703636E-1,1.6666667E-1,6.908059E-1,5.247291E-1,6.0175335E-1,-9.682297E-2,2.5000513E-1,2.8104576E-1,3.85704E-2,1.8781072E-1,6E0,5E-1,8.062792E-1,1E1,1.9E1,7E1,-5.402745E-2,2.5E-1,2E-1,-0E0,6.908059E-1,3.9734323E-2,5.033355E-1,8E0,3.9776273E-2,7.148E3,1.985294E-1,1.526E3,1.47E2,1.6E1,-2.0691438E-2,3.8662657E-2,2.531249E-1,3.9379817E-2,2.531249E-1,6.666667E-1,3.9529607E-2,5.247291E-1,6E-1,6.666667E-1,1.8E1,-4.559391E-2,-2.7032068E-2,-4.4085767E-2,-6.7728385E-2,-1.1507256E-2,-4.522283E-2,-6.859297E-3,-6.773361E-2,2.7696606E-2,-6.8075648E-3,-4.198604E-2,-2.214078E-3,-9.229285E-3,1.28411455E-2,3.7091464E-2,1.5961178E-2,1.0103866E-2,3.8220577E-2,3.9745584E-2,1.6644482E-2,3.9720718E-2,3.4719393E-2,2.5125666E-2,-1.7188733E-2],"split_indices":[15,15,20,0,20,0,15,20,20,20,15,0,20,18,0,20,12,15,15,5,11,16,0,15,20,0,20,0,15,5,0,9,18,8,6,12,0,0,15,0,15,20,0,20,15,15,12,0,0,0,0,0,0,0,0,0,0,0,0,0,0,0,0,0,0,0,0,0,0,0,0],"split_type":[0,0,0,0,0,0,0,0,0,0,0,0,0,0,0,0,0,0,0,0,0,0,0,0,0,0,0,0,0,0,0,0,0,0,0,0,0,0,0,0,0,0,0,0,0,0,0,0,0,0,0,0,0,0,0,0,0,0,0,0,0,0,0,0,0,0,0,0,0,0,0],"sum_hessian":[2.7114646E4,6.0918223E3,2.1022824E4,4.7977266E3,1.2940956E3,1.8018166E2,2.0842643E4,1.1939327E3,1.0016293E2,3.830654E3,1.7011988E4,8.801822E1,1.1059144E3,2.0657232E1,7.950571E1,3.3687812E3,4.618729E2,5.713125E3,1.1298863E4,8.5194196E2,2.5397255E2,1.9031101E1,1.6261306E0,1.2291993E3,2.1395818E3,1.6073685E0,4.602655E2,1.3093021E3,4.4038228E3,4.649345E3,6.649518E3,5.595343E2,2.924076E2,1.06371796E2,1.4760075E2,1.7423315E1,1.6077867E0,5.99253E1,1.169274E3,1.6731715E2,1.9722646E3,8.0298355E1,3.7996716E2,1.5872169E3,2.816606E3,4.4545356E3,1.9480951E2,3.2642828E2,2.3310605E2,1.2862898E2,1.6377861E2,3.3951897E1,7.24199E1,1.4079042E2,6.810333E0,1.4413098E1,3.010217E0,1.792824E2,9.899917E2,2.9646762E2,1.675797E3,5.6030964E1,2.4267391E1,1.4505156E3,1.3670125E2,1.6696199E3,1.146986E3,1.0387701E3,3.4157654E3,1.8427843E2,1.053108E1],"tree_param":{"num_deleted":"0","num_feature":"21","num_nodes":"71","size_leaf_vector":"1"}},{"base_weights":[1.0265567E-1,-2.6688313E0,9.44098E-1,-9.166902E-2,-1.2030857E0,-9.117494E-2,9.805338E-1,-1.387563E0,1.0557207E0,3.0243546E-1,1.1351148E0,-9.064165E-2,-1.251583E0,1.6440831E-1,3.81794E-2,1.7304383E-1,1.2573541E0,9.4696385E-1,1.2787777E0,-1.4214934E0,-6.6863716E-1,4.6225417E-1,-5.226709E-2,3.8227457E-1,-2.0705892E-1,-0E0,1.2614331E0,3.9352234E-2,8.680805E-1,1.2022896E0,3.9394468E-2,-1.207599E0,-1.8191792E0,-9.959069E-2,-9.272666E-1,6.5506095E-1,-2.0188745E-2,4.1331448E-2,4.0168155E-2,-1.8714486E-2,-1.2603196E0,1.0306853E0,3.914574E-2,4.089529E-1,1.0329709E0,1.2596129E0,1.0204513E0,-4.3352917E-2,-2.590624E-2,-4.1959666E-2,-6.391861E-2,1.1040057E-2,-1.0120875E-2,-1.0365694E-2,-4.0895715E-2,2.727876E-2,-6.638034E-3,3.975062E-2,-3.7513429E-3,-1.1441166E-2,5.443196E-3,-4.682049E-2,-1.1005267E-2,3.6684927E-2,1.56221455E-2,9.9050235E-3,3.8447693E-2,3.936358E-2,2.5978833E-2,3.7840374E-2,-1.4666318E-2,3.1980667E-2,5.9838756E-3],"categories":[],"categories_nodes":[],"categories_segments":[],"categories_sizes":[],"default_left":[0,0,0,0,0,0,0,0,0,0,0,0,0,0,0,0,0,0,0,0,0,0,0,0,0,0,0,0,0,0,0,0,0,0,0,0,0,0,0,0,0,0,0,0,0,0,0,0,0,0,0,0,0,0,0,0,0,0,0,0,0,0,0,0,0,0,0,0,0,0,0,0,0],"id":3,"left_children":[1,3,5,-1,7,-1,9,11,13,15,17,-1,19,21,-1,23,25,27,29,31,33,35,-1,37,39,-1,41,-1,43,45,-1,47,49,51,53,55,-1,57,-1,59,61,63,-1,65,67,69,71,-1,-1,-1,-1,-1,-1,-1,-1,-1,-1,-1,-1,-1,-1,-1,-1,-1,-1,-1,-1,-1,-1,-1,-1,-1,-1],"loss_changes":[6.29707E4,3.557461E3,3.007252E3,0E0,5.4985315E2,0E0,2.1499414E3,2.6227246E2,1.7584938E1,4.6952512E2,4.4838086E2,0E0,1.0844409E2,1.1746122E1,0E0,2.6750348E2,2.1065063E0,2.0512402E2,2.0808594E1,6.8722534E1,3.6739403E1,4.7689767E0,0E0,7.061536E2,2.3515924E2,0E0,8.5235596E-1,0E0,4.494287E2,2.7264648E1,0E0,4.3010925E1,3.2836914E1,9.289253E0,4.233403E1,4.9513726E0,0E0,3.433423E2,0E0,7.37997E1,4.5805542E1,5.463684E0,0E0,1.0648398E2,2.0105713E2,8.177246E0,2.5398071E1,0E0,0E0,0E0,0E0,0E0,0E0,0E0,0E0,0E0,0E0,0E0,0E0,0E0,0E0,0E0,0E0,0E0,0E0,0E0,0E0,0E0,0E0,0E0,0E0,0E0,0E0],"parents":[2147483647,0,0,1,1,2,2,4,4,6,6,7,7,8,8,9,9,10,10,12,12,13,13,15,15,16,16,17,17,18,18,19,19,20,20,21,21,23,23,24,24,26,26,28,28,29,29,31,31,32,32,33,33,34,34,35,35,37,37,39,39,40,40,41,41,43,43,44,44,45,45,46,46],"right_children":[2,4,6,-1,8,-1,10,12,14,16,18,-1,20,22,-1,24,26,28,30,32,34,36,-1,38,40,-1,42,-1,44,46,-1,48,50,52,54,56,-1,58,-1,60,62,64,-1,66,68,70,72,-1,-1,-1,-1,-1,-1,-1,-1,-1,-1,-1,-1,-1,-1,-1,-1,-1,-1,-1,-1,-1,-1,-1,-1,-1,-1],"split_conditions":[2.0785305E-1,2E-1,1.6666667E-1,-9.166902E-2,5.247291E-1,-9.117494E-2,4.0703636E-1,1.6666667E-1,6.908059E-1,5.247291E-1,6.685115E-1,-9.064165E-2,2.5000513E-1,2.8104576E-1,3.81794E-2,4E-1,6E0,5E-1,8.062792E-1,1E1,5E0,7E1,-5.226709E-2,3.3646053E-1,9E0,-0E0,6.908059E-1,3.9352234E-2,5.033355E-1,8E-1,3.9394468E-2,7.148E3,1.985294E-1,1.61978E3,1.9188192E-1,1.6E1,-2.0188745E-2,2.5E-1,4.0168155E-2,1.8781072E-1,2.147163E-1,6.666667E-1,3.914574E-2,6.3965076E-1,6E-1,1.3E1,7E0,-4.3352917E-2,-2.590624E-2,-4.1959666E-2,-6.391861E-2,1.1040057E-2,-1.0120875E-2,-1.0365694E-2,-4.0895715E-2,2.727876E-2,-6.638034E-3,3.975062E-2,-3.7513429E-3,-1.1441166E-2,5.443196E-3,-4.682049E-2,-1.1005267E-2,3.6684927E-2,1.56221455E-2,9.9050235E-3,3.8447693E-2,3.936358E-2,2.5978833E-2,3.7840374E-2,-1.4666318E-2,3.1980667E-2,5.9838756E-3],"split_indices":[15,15,20,0,20,0,15,20,20,20,15,0,20,18,0,15,12,15,15,5,5,16,0,15,5,0,20,0,15,15,0,9,18,10,18,12,0,15,0,20,20,20,0,20,15,5,5,0,0,0,0,0,0,0,0,0,0,0,0,0,0,0,0,0,0,0,0,0,0,0,0,0,0],"split_type":[0,0,0,0,0,0,0,0,0,0,0,0,0,0,0,0,0,0,0,0,0,0,0,0,0,0,0,0,0,0,0,0,0,0,0,0,0,0,0,0,0,0,0,0,0,0,0,0,0,0,0,0,0,0,0,0,0,0,0,0,0,0,0,0,0,0,0,0,0,0,0,0,0],"sum_hessian":[2.700099E4,6.2876816E3,2.0713309E4,4.973447E3,1.314235E3,1.8675583E2,2.0526553E4,1.2157711E3,9.846391E1,3.8123606E3,1.6714193E4,9.121631E1,1.1245548E3,2.051971E1,7.794421E1,3.3593909E3,4.5296964E2,7.2429155E3,9.471277E3,8.6831445E2,2.5624033E2,1.8856142E1,1.6635681E0,2.1684014E3,1.1909895E3,1.6073685E0,4.5136224E2,1.2827648E3,5.960151E3,2.956683E3,6.514594E3,5.6888965E2,2.994248E2,8.171014E1,1.7453018E2,1.7233093E1,1.6230495E0,1.6001989E3,5.6820245E2,1.01199194E3,1.7899754E2,7.9054214E1,3.7230804E2,1.5774314E3,4.3827197E3,2.2393232E3,7.1735986E2,3.329514E2,2.3593826E2,1.3110374E2,1.6832106E2,2.5941399E1,5.5768738E1,7.651157E1,9.80186E1,1.4213217E1,3.0198767E0,1.8349268E2,1.4167062E3,3.613522E2,6.506398E2,1.3256628E2,4.6431255E1,5.4979332E1,2.4074884E1,1.4491226E3,1.2830878E2,1.6357697E3,2.74695E3,2.2379558E3,1.367567E0,6.7819836E2,3.916151E1],"tree_param":{"num_deleted":"0","num_feature":"21","num_nodes":"73","size_leaf_vector":"1"}},{"base_weights":[1.00598805E-1,-2.5199716E0,9.2994225E-1,-8.626689E-2,-1.1508675E0,-8.5834265E-2,9.662173E-1,-1.324031E0,1.0413926E0,2.9492292E-1,1.121279E0,-8.536694E-2,-1.1955752E0,1.5405628E-1,3.7805058E-2,1.684019E-1,1.244682E0,8.893276E-1,1.239513E0,-1.2696131E0,6.1640684E-3,4.4946867E-1,-5.0610937E-2,-1.9259955E-1,3.7906125E-1,-0E0,1.2487967E0,3.898842E-2,7.6874536E-1,1.1515836E0,3.903099E-2,-1.563463E0,-1.0006928E0,3.429695E-1,-1.6374692E0,6.416848E-1,-1.9701395E-2,3.788855E-2,-2.656962E-1,3.8820438E-2,3.019636E-1,1.0167564E0,3.8779844E-2,3.992189E-1,9.807689E-1,1.1653866E0,5.790484E-1,-4.3091733E-2,-6.8210036E-2,-3.465441E-2,-1.4664628E-2,1.8627979E-2,-1.3226927E-2,4.190352E-4,-5.9972145E-2,2.6869303E-2,-6.473066E-3,-3.9816618E-2,-2.0393343E-3,-9.285439E-3,1.2356022E-2,3.6293395E-2,1.528927E-2,9.655645E-3,3.807375E-2,3.8999856E-2,1.5710423E-2,3.910449E-2,3.3682834E-2,3.7286866E-2,9.331948E-3],"categories":[],"categories_nodes":[],"categories_segments":[],"categories_sizes":[],"default_left":[0,0,0,0,0,0,0,0,0,0,0,0,0,0,0,0,0,0,0,0,0,0,0,0,0,0,0,0,0,0,0,0,0,0,0,0,0,0,0,0,0,0,0,0,0,0,0,0,0,0,0,0,0,0,0,0,0,0,0,0,0,0,0,0,0,0,0,0,0,0,0],"id":4,"left_children":[1,3,5,-1,7,-1,9,11,13,15,17,-1,19,21,-1,23,25,27,29,31,33,35,-1,37,39,-1,41,-1,43,45,-1,47,49,51,53,55,-1,-1,57,-1,59,61,-1,63,65,67,69,-1,-1,-1,-1,-1,-1,-1,-1,-1,-1,-1,-1,-1,-1,-1,-1,-1,-1,-1,-1,-1,-1,-1,-1],"loss_changes":[5.8382668E4,3.1365117E3,2.8071348E3,0E0,5.0794348E2,0E0,2.1023262E3,2.3430664E2,1.7371315E1,4.5446722E2,4.4705273E2,0E0,1.0296216E2,1.1149348E1,0E0,2.5513168E2,2.0599365E0,2.715088E2,5.4851562E1,8.1008545E1,3.6102245E1,4.5913315E0,0E0,1.3062416E2,1.4745477E2,0E0,8.902588E-1,0E0,3.346328E2,3.3063965E1,0E0,3.916516E1,4.2627502E1,1.2776354E1,8.572456E0,4.802444E0,0E0,0E0,2.454236E2,0E0,1.3169284E2,5.3790817E0,0E0,1.03581116E2,3.9524097E2,2.1901855E1,1.7520302E1,0E0,0E0,0E0,0E0,0E0,0E0,0E0,0E0,0E0,0E0,0E0,0E0,0E0,0E0,0E0,0E0,0E0,0E0,0E0,0E0,0E0,0E0,0E0,0E0],"parents":[2147483647,0,0,1,1,2,2,4,4,6,6,7,7,8,8,9,9,10,10,12,12,13,13,15,15,16,16,17,17,18,18,19,19,20,20,21,21,23,23,24,24,26,26,28,28,29,29,31,31,32,32,33,33,34,34,35,35,38,38,40,40,41,41,43,43,44,44,45,45,46,46],"right_children":[2,4,6,-1,8,-1,10,12,14,16,18,-1,20,22,-1,24,26,28,30,32,34,36,-1,38,40,-1,42,-1,44,46,-1,48,50,52,54,56,-1,-1,58,-1,60,62,-1,64,66,68,70,-1,-1,-1,-1,-1,-1,-1,-1,-1,-1,-1,-1,-1,-1,-1,-1,-1,-1,-1,-1,-1,-1,-1,-1],"split_conditions":[2.0785305E-1,2E-1,1.6666667E-1,-8.626689E-2,5.247291E-1,-8.5834265E-2,4.0703636E-1,1.6666667E-1,6.908059E-1,5.247291E-1,6.0175335E-1,-8.536694E-2,2.5E1,2.8104576E-1,3.7805058E-2,1.8781072E-1,6E0,5E-1,8.062792E-1,2.0070833E-1,2.931959E3,7E1,-5.0610937E-2,2.5E-1,2E-1,-0E0,6.908059E-1,3.898842E-2,5.033355E-1,9E0,3.903099E-2,7.7E1,2.5000513E-1,2.0426829E-1,9E0,1.6E1,-1.9701395E-2,3.788855E-2,2.531249E-1,3.8820438E-2,2.531249E-1,6.666667E-1,3.8779844E-2,6.3965076E-1,6E-1,6.666667E-1,6.666667E-1,-4.3091733E-2,-6.8210036E-2,-3.465441E-2,-1.4664628E-2,1.8627979E-2,-1.3226927E-2,4.190352E-4,-5.9972145E-2,2.6869303E-2,-6.473066E-3,-3.9816618E-2,-2.0393343E-3,-9.285439E-3,1.2356022E-2,3.6293395E-2,1.528927E-2,9.655645E-3,3.807375E-2,3.8999856E-2,1.5710423E-2,3.910449E-2,3.3682834E-2,3.7286866E-2,9.331948E-3],"split_indices":[15,15,20,0,20,0,15,20,20,20,15,0,11,18,0,20,12,15,15,19,10,16,0,15,20,0,20,0,15,5,0,16,20,18,12,12,0,0,15,0,15,20,0,20,15,15,15,0,0,0,0,0,0,0,0,0,0,0,0,0,0,0,0,0,0,0,0,0,0,0,0],"split_type":[0,0,0,0,0,0,0,0,0,0,0,0,0,0,0,0,0,0,0,0,0,0,0,0,0,0,0,0,0,0,0,0,0,0,0,0,0,0,0,0,0,0,0,0,0,0,0,0,0,0,0,0,0,0,0,0,0,0,0,0,0,0,0,0,0,0,0,0,0,0,0],"sum_hessian":[2.6861602E4,6.456626E3,2.0404977E4,5.1239683E3,1.3326575E3,1.9239557E2,2.0212582E4,1.2358887E3,9.676888E1,3.7945464E3,1.6418035E4,9.396421E1,1.1419244E3,2.0380894E1,7.638799E1,3.3504504E3,4.440961E2,5.5489985E3,1.0869036E4,1.0763851E3,6.553932E1,1.8682251E1,1.6986425E0,1.232937E3,2.1175134E3,1.6073685E0,4.4248874E2,1.2563025E3,4.2926963E3,4.4889883E3,6.3800474E3,5.1027444E2,5.6611066E2,5.5554996E1,9.984321E0,1.704444E1,1.6378124E0,5.7523853E1,1.1754132E3,1.6232872E2,1.9551846E3,7.7817665E1,3.6467108E2,1.5678171E3,2.724879E3,4.380596E3,1.08392204E2,4.365892E2,7.368524E1,4.324203E2,1.3369038E2,4.2107174E1,1.3447824E1,1.4694135E0,8.514908E0,1.4015164E1,3.029274E0,1.828649E2,9.925483E2,2.9621277E2,1.6589718E3,5.3931927E1,2.3885738E1,1.4420864E3,1.25730705E2,1.6020146E3,1.1228643E3,1.02070654E3,3.3598896E3,2.9052923E1,7.933928E1],"tree_param":{"num_deleted":"0","num_feature":"21","num_nodes":"71","size_leaf_vector":"1"}},{"base_weights":[9.8632604E-2,-2.3900435E0,9.1619766E-1,-8.161596E-2,-1.1022941E0,-8.1230134E-2,9.5228994E-1,-1.2651935E0,1.0274959E0,2.8760484E-1,1.1078806E0,-8.081317E-2,-1.1433339E0,1.4400284E-1,3.7446298E-2,1.6387397E-1,1.232521E0,9.179482E-1,1.2543793E0,-1.2129792E0,4.873909E-3,4.3694636E-1,-4.9050633E-2,3.7031657E-1,-2.085074E-1,-0E0,1.2366743E0,3.8641717E-2,8.390424E-1,1.176662E0,3.8684703E-2,-9.449391E-1,-1.4844301E0,3.3397925E-1,-1.5604092E0,6.2856036E-1,-1.9228755E-2,3.910054E-2,3.9661374E-2,-2.605024E-2,-1.209667E0,1.0031697E0,3.8430788E-2,3.8969007E-1,1.0038799E0,1.2355325E0,9.9065757E-1,-3.6088675E-2,-1.9367063E-2,-3.374693E-2,-5.1936686E-2,1.8237062E-2,-1.2786787E-2,4.1160648E-4,-5.7071697E-2,2.6467754E-2,-6.312531E-3,3.9258715E-2,-3.6257927E-3,-1.0967101E-2,4.926779E-3,-4.4579882E-2,-1.1051988E-2,3.5915848E-2,1.496241E-2,9.356212E-3,3.7090342E-2,3.8653266E-2,2.507851E-2,3.711946E-2,-1.4552033E-2,3.1107716E-2,5.195507E-3],"categories":[],"categories_nodes":[],"categories_segments":[],"categories_sizes":[],"default_left":[0,0,0,0,0,0,0,0,0,0,0,0,0,0,0,0,0,0,0,0,0,0,0,0,0,0,0,0,0,0,0,0,0,0,0,0,0,0,0,0,0,0,0,0,0,0,0,0,0,0,0,0,0,0,0,0,0,0,0,0,0,0,0,0,0,0,0,0,0,0,0,0,0],"id":5,"left_children":[1,3,5,-1,7,-1,9,11,13,15,17,-1,19,21,-1,23,25,27,29,31,33,35,-1,37,39,-1,41,-1,43,45,-1,47,49,51,53,55,-1,57,-1,59,61,63,-1,65,67,69,71,-1,-1,-1,-1,-1,-1,-1,-1,-1,-1,-1,-1,-1,-1,-1,-1,-1,-1,-1,-1,-1,-1,-1,-1,-1,-1],"loss_changes":[5.4324168E4,2.8029414E3,2.6295156E3,0E0,4.701278E2,0E0,2.0564004E3,2.1165674E2,1.7163635E1,4.400344E2,4.453379E2,0E0,9.3916016E1,1.0586172E1,0E0,2.5716486E2,2.015747E0,2.0203809E2,2.084082E1,7.5751465E1,3.353567E1,4.4200315E0,0E0,6.770221E2,2.162737E2,0E0,9.32251E-1,0E0,4.2768335E2,2.7771973E1,0E0,4.0240906E1,4.3095215E1,1.21589365E1,7.941725E0,4.6584067E0,0E0,3.259348E2,0E0,6.545764E1,4.0072998E1,5.300766E0,0E0,1.0080336E2,1.9940088E2,7.9709473E0,2.4881409E1,0E0,0E0,0E0,0E0,0E0,0E0,0E0,0E0,0E0,0E0,0E0,0E0,0E0,0E0,0E0,0E0,0E0,0E0,0E0,0E0,0E0,0E0,0E0,0E0,0E0,0E0],"parents":[2147483647,0,0,1,1,2,2,4,4,6,6,7,7,8,8,9,9,10,10,12,12,13,13,15,15,16,16,17,17,18,18,19,19,20,20,21,21,23,23,24,24,26,26,28,28,29,29,31,31,32,32,33,33,34,34,35,35,37,37,39,39,40,40,41,41,43,43,44,44,45,45,46,46],"right_children":[2,4,6,-1,8,-1,10,12,14,16,18,-1,20,22,-1,24,26,28,30,32,34,36,-1,38,40,-1,42,-1,44,46,-1,48,50,52,54,56,-1,58,-1,60,62,64,-1,66,68,70,72,-1,-1,-1,-1,-1,-1,-1,-1,-1,-1,-1,-1,-1,-1,-1,-1,-1,-1,-1,-1,-1,-1,-1,-1,-1,-1],"split_conditions":[2.0785305E-1,2E-1,1.6666667E-1,-8.161596E-2,5.247291E-1,-8.1230134E-2,4.0703636E-1,1.6666667E-1,6.908059E-1,5.247291E-1,6.685115E-1,-8.081317E-2,2.5E1,2.8104576E-1,3.7446298E-2,4E-1,6E0,5E-1,8.062792E-1,8E0,2.931959E3,7E1,-4.9050633E-2,3.3646053E-1,9E0,-0E0,6.908059E-1,3.8641717E-2,5.033355E-1,8E-1,3.8684703E-2,2.531517E-1,1.985294E-1,2.0426829E-1,9E0,1.6E1,-1.9228755E-2,2.5E-1,3.9661374E-2,1.8781072E-1,2.147163E-1,6.666667E-1,3.8430788E-2,5.247291E-1,6E-1,1.3E1,7E0,-3.6088675E-2,-1.9367063E-2,-3.374693E-2,-5.1936686E-2,1.8237062E-2,-1.2786787E-2,4.1160648E-4,-5.7071697E-2,2.6467754E-2,-6.312531E-3,3.9258715E-2,-3.6257927E-3,-1.0967101E-2,4.926779E-3,-4.4579882E-2,-1.1051988E-2,3.5915848E-2,1.496241E-2,9.356212E-3,3.7090342E-2,3.8653266E-2,2.507851E-2,3.711946E-2,-1.4552033E-2,3.1107716E-2,5.195507E-3],"split_indices":[15,15,20,0,20,0,15,20,20,20,15,0,11,18,0,15,12,15,15,5,10,16,0,15,5,0,20,0,15,15,0,19,18,18,12,12,0,15,0,20,20,20,0,20,15,5,5,0,0,0,0,0,0,0,0,0,0,0,0,0,0,0,0,0,0,0,0,0,0,0,0,0,0],"split_type":[0,0,0,0,0,0,0,0,0,0,0,0,0,0,0,0,0,0,0,0,0,0,0,0,0,0,0,0,0,0,0,0,0,0,0,0,0,0,0,0,0,0,0,0,0,0,0,0,0,0,0,0,0,0,0,0,0,0,0,0,0,0,0,0,0,0,0,0,0,0,0,0,0],"sum_hessian":[2.66981E4,6.6011094E3,2.009699E4,5.2514785E3,1.3496311E3,1.9718097E2,1.9899809E4,1.2545508E3,9.508028E1,3.7763735E3,1.6123436E4,9.629992E1,1.1582509E3,2.0241013E1,7.4839264E1,3.3411082E3,4.3526547E2,7.0270776E3,9.096358E3,1.0927821E3,6.5468834E1,1.8509617E1,1.7313958E0,2.151204E3,1.189904E3,1.6073685E0,4.336581E2,1.2299543E3,5.7971235E3,2.850279E3,6.246079E3,5.539538E2,5.3882825E2,5.5273014E1,1.0195816E1,1.6857529E1,1.6520878E0,1.5973827E3,5.538213E2,1.0081904E3,1.8171364E2,7.6590164E1,3.5706793E2,1.5583741E3,4.238749E3,2.156671E3,6.9360815E2,2.9411108E2,2.598427E2,2.2323105E2,3.1559723E2,4.1746418E1,1.3526596E1,1.46914E0,8.726677E0,1.3819114E1,3.038415E0,1.7864433E2,1.4187384E3,3.636482E2,6.4454224E2,1.3531271E2,4.640093E1,5.2890186E1,2.369998E1,1.4295345E3,1.2883957E2,1.5684049E3,2.6703442E3,2.1552998E3,1.3711013E0,6.5504315E2,3.8565037E1],"tree_param":{"num_deleted":"0","num_feature":"21","num_nodes":"73","size_leaf_vector":"1"}},{"base_weights":[9.6743755E-2,-2.275693E0,9.027836E-1,-7.757011E-2,-1.0572119E0,-7.722037E-2,9.3867064E-1,-1.2108091E0,1.0140005E0,2.804848E-1,1.0948396E0,-7.684234E-2,-1.0947694E0,1.3423337E-1,3.710211E-2,1.5949093E-1,1.220838E0,8.6044866E-1,1.2155598E0,-1.241993E0,-5.8083445E-1,4.2467678E-1,-4.7578637E-2,3.614594E-1,-2.0171206E-1,-0E0,1.2250327E0,3.8311105E-2,7.4006873E-1,1.1262385E0,3.8354553E-2,-1.0800766E0,-1.6657832E0,-9.952867E-1,-2.6526272E-1,6.6870385E-1,-3.6338907E-1,3.8005915E-2,3.9279222E-2,-2.5224304E-2,-1.1545855E0,9.899023E-1,3.809753E-2,3.8036093E-1,9.509713E-1,1.1452706E0,6.900106E-1,-2.8149173E-2,-4.4461537E-2,-3.709418E-2,-5.985024E-2,-8.097144E-3,-3.9360035E-2,-4.7476497E-3,-5.9969936E-2,2.6073663E-2,-1.162089E-2,-4.6197746E-2,8.06625E-3,3.8882468E-2,-3.5109571E-3,-1.05841635E-2,4.7911876E-3,-4.2385004E-2,-1.0670784E-2,3.555136E-2,1.4641462E-2,9.1718305E-3,3.737831E-2,3.8322773E-2,1.4807562E-2,3.852499E-2,3.3065274E-2,2.3291288E-2,-1.8603526E-2],"categories":[],"categories_nodes":[],"categories_segments":[],"categories_sizes":[],"default_left":[0,0,0,0,0,0,0,0,0,0,0,0,0,0,0,0,0,0,0,0,0,0,0,0,0,0,0,0,0,0,0,0,0,0,0,0,0,0,0,0,0,0,0,0,0,0,0,0,0,0,0,0,0,0,0,0,0,0,0,0,0,0,0,0,0,0,0,0,0,0,0,0,0,0,0],"id":6,"left_children":[1,3,5,-1,7,-1,9,11,13,15,17,-1,19,21,-1,23,25,27,29,31,33,35,-1,37,39,-1,41,-1,43,45,-1,47,49,51,53,55,57,59,-1,61,63,65,-1,67,69,71,73,-1,-1,-1,-1,-1,-1,-1,-1,-1,-1,-1,-1,-1,-1,-1,-1,-1,-1,-1,-1,-1,-1,-1,-1,-1,-1,-1,-1],"loss_changes":[5.0704375E4,2.5332695E3,2.470251E3,0E0,4.3598975E2,0E0,2.0120078E3,1.9298413E2,1.6961357E1,4.261671E2,4.4486133E2,0E0,8.630945E1,1.0054308E1,0E0,2.4337967E2,1.9737549E0,2.6726E2,5.486035E1,5.7928345E1,3.31196E1,4.2672725E0,0E0,6.546402E2,1.9961458E2,0E0,9.777832E-1,0E0,3.157683E2,3.3339844E1,0E0,3.3989624E1,2.9373474E1,2.3971687E1,2.593272E1,4.223331E0,4.8476048E0,3.128658E2,0E0,6.1402233E1,3.604265E1,5.2280045E0,0E0,9.820593E1,3.911272E2,2.1021484E1,2.1662003E1,0E0,0E0,0E0,0E0,0E0,0E0,0E0,0E0,0E0,0E0,0E0,0E0,0E0,0E0,0E0,0E0,0E0,0E0,0E0,0E0,0E0,0E0,0E0,0E0,0E0,0E0,0E0,0E0],"parents":[2147483647,0,0,1,1,2,2,4,4,6,6,7,7,8,8,9,9,10,10,12,12,13,13,15,15,16,16,17,17,18,18,19,19,20,20,21,21,23,23,24,24,26,26,28,28,29,29,31,31,32,32,33,33,34,34,35,35,36,36,37,37,39,39,40,40,41,41,43,43,44,44,45,45,46,46],"right_children":[2,4,6,-1,8,-1,10,12,14,16,18,-1,20,22,-1,24,26,28,30,32,34,36,-1,38,40,-1,42,-1,44,46,-1,48,50,52,54,56,58,60,-1,62,64,66,-1,68,70,72,74,-1,-1,-1,-1,-1,-1,-1,-1,-1,-1,-1,-1,-1,-1,-1,-1,-1,-1,-1,-1,-1,-1,-1,-1,-1,-1,-1,-1],"split_conditions":[2.0785305E-1,2E-1,1.6666667E-1,-7.757011E-2,5.247291E-1,-7.722037E-2,4.0703636E-1,1.6666667E-1,6.908059E-1,5.247291E-1,6.0175335E-1,-7.684234E-2,2.5000513E-1,2.8104576E-1,3.710211E-2,4E-1,6E0,5E-1,8.062792E-1,1.1E1,1.9E1,1.6E1,-4.7578637E-2,3.3646053E-1,9E0,-0E0,6.908059E-1,3.8311105E-2,5.033355E-1,8E0,3.8354553E-2,2.8834918E-1,1.985294E-1,1.526E3,1.47E2,6.5E1,6.883921E-2,2.5E-1,3.9279222E-2,1.8781072E-1,2.147163E-1,6.666667E-1,3.809753E-2,6.3965076E-1,6E-1,6.666667E-1,1.8E1,-2.8149173E-2,-4.4461537E-2,-3.709418E-2,-5.985024E-2,-8.097144E-3,-3.9360035E-2,-4.7476497E-3,-5.9969936E-2,2.6073663E-2,-1.162089E-2,-4.6197746E-2,8.06625E-3,3.8882468E-2,-3.5109571E-3,-1.05841635E-2,4.7911876E-3,-4.2385004E-2,-1.0670784E-2,3.555136E-2,1.4641462E-2,9.1718305E-3,3.737831E-2,3.8322773E-2,1.4807562E-2,3.852499E-2,3.3065274E-2,2.3291288E-2,-1.8603526E-2],"split_indices":[15,15,20,0,20,0,15,20,20,20,15,0,20,18,0,15,12,15,15,5,11,12,0,15,5,0,20,0,15,5,0,17,18,8,6,16,3,15,0,20,20,20,0,20,15,15,12,0,0,0,0,0,0,0,0,0,0,0,0,0,0,0,0,0,0,0,0,0,0,0,0,0,0,0,0],"split_type":[0,0,0,0,0,0,0,0,0,0,0,0,0,0,0,0,0,0,0,0,0,0,0,0,0,0,0,0,0,0,0,0,0,0,0,0,0,0,0,0,0,0,0,0,0,0,0,0,0,0,0,0,0,0,0,0,0,0,0,0,0,0,0,0,0,0,0,0,0,0,0,0,0,0,0],"sum_hessian":[2.6513805E4,6.722942E3,1.9790863E4,5.3579536E3,1.3649879E3,2.0118456E2,1.9589678E4,1.2715876E3,9.3400375E1,3.758479E3,1.5831199E4,9.825803E1,1.1733296E3,2.0100288E1,7.330009E1,3.3319897E3,4.264892E2,5.3874053E3,1.0443794E4,9.094445E2,2.6388504E2,1.8338411E1,1.7618771E0,2.1388235E3,1.1931663E3,1.6073685E0,4.2488184E2,1.2037567E3,4.183649E3,4.3309224E3,6.112872E3,6.6230695E2,2.4713757E2,1.1177024E2,1.521148E2,1.50870495E1,3.251361E0,1.596211E3,5.426125E2,1.00845905E3,1.847072E2,7.5373055E1,3.495088E2,1.549102E3,2.6345469E3,4.1461133E3,1.8480882E2,4.9392764E2,1.6837933E2,1.1064684E2,1.3649072E2,3.54918E1,7.627844E1,1.4484303E2,7.2717743E0,1.3625214E1,1.4618359E0,1.1875597E0,2.0638013E0,1.7502623E2,1.4211848E3,3.6550778E2,6.4295123E2,1.3805852E2,4.6648674E1,5.1855415E1,2.351764E1,1.4284456E3,1.2065652E2,1.5349867E3,1.09956E3,9.694734E2,3.1766401E3,1.7447766E2,1.0331156E1],"tree_param":{"num_deleted":"0","num_feature":"21","num_nodes":"75","size_leaf_vector":"1"}},{"base_weights":[9.492769E-2,-2.1742816E0,8.8972974E-1,-7.401906E-2,-1.0154138E0,-7.3697425E-2,9.2539346E-1,-1.1605648E0,1.0009148E0,2.7356336E-1,1.0821822E0,-7.334978E-2,-1.049708E0,1.24990344E-1,3.6771588E-2,1.5523852E-1,1.2096018E0,8.901642E-1,1.2319274E0,-1.1135428E0,2.1981942E-2,4.1289508E-1,-4.6188004E-2,3.852345E-2,9.312362E-2,-0E0,1.2138408E0,3.7995603E-2,8.111528E-1,1.1525725E0,3.803957E-2,-1.3756973E0,-8.71547E-1,3.402228E-1,-1.4575396E0,6.034698E-1,-1.8393828E-2,-1.1803331E0,2.716534E-1,9.769322E-1,3.777912E-2,3.71228E-1,9.761143E-1,1.213156E0,9.620038E-1,-3.781156E-2,-6.0451746E-2,-1.3399992E-2,-3.0917777E-2,1.8187582E-2,-1.15573825E-2,4.8851443E-4,-5.3280365E-2,2.5686607E-2,-5.919957E-3,3.043157E-2,-3.759017E-2,4.0003095E-2,2.0677273E-3,3.5199035E-2,1.4326288E-2,8.938551E-3,3.7049033E-2,3.800741E-2,2.4211966E-2,3.644973E-2,-1.4352981E-2,3.0270832E-2,4.4402187E-3],"categories":[],"categories_nodes":[],"categories_segments":[],"categories_sizes":[],"default_left":[0,0,0,0,0,0,0,0,0,0,0,0,0,0,0,0,0,0,0,0,0,0,0,0,0,0,0,0,0,0,0,0,0,0,0,0,0,0,0,0,0,0,0,0,0,0,0,0,0,0,0,0,0,0,0,0,0,0,0,0,0,0,0,0,0,0,0,0,0],"id":7,"left_children":[1,3,5,-1,7,-1,9,11,13,15,17,-1,19,21,-1,23,25,27,29,31,33,35,-1,-1,37,-1,39,-1,41,43,-1,45,47,49,51,53,-1,55,57,59,-1,61,63,65,67,-1,-1,-1,-1,-1,-1,-1,-1,-1,-1,-1,-1,-1,-1,-1,-1,-1,-1,-1,-1,-1,-1,-1,-1],"loss_changes":[4.7454344E4,2.3115957E3,2.3263506E3,0E0,4.0515393E2,0E0,1.9690098E3,1.7734497E2,1.6756454E1,4.1283066E2,4.4367578E2,0E0,8.240271E1,9.554538E0,0E0,2.3155489E2,1.9338379E0,1.9958936E2,2.1088867E1,6.775366E1,3.0876398E1,4.1089516E0,0E0,0E0,7.1606177E2,0E0,1.0267334E0,0E0,4.07489E2,2.8362305E1,0E0,3.36286E1,3.7817413E1,1.1343702E1,7.1747246E0,4.3686805E0,0E0,6.3246765E1,5.939232E2,5.160118E0,0E0,9.563196E1,1.983894E2,7.762207E0,2.438678E1,0E0,0E0,0E0,0E0,0E0,0E0,0E0,0E0,0E0,0E0,0E0,0E0,0E0,0E0,0E0,0E0,0E0,0E0,0E0,0E0,0E0,0E0,0E0,0E0],"parents":[2147483647,0,0,1,1,2,2,4,4,6,6,7,7,8,8,9,9,10,10,12,12,13,13,15,15,16,16,17,17,18,18,19,19,20,20,21,21,24,24,26,26,28,28,29,29,31,31,32,32,33,33,34,34,35,35,37,37,38,38,39,39,41,41,42,42,43,43,44,44],"right_children":[2,4,6,-1,8,-1,10,12,14,16,18,-1,20,22,-1,24,26,28,30,32,34,36,-1,-1,38,-1,40,-1,42,44,-1,46,48,50,52,54,-1,56,58,60,-1,62,64,66,68,-1,-1,-1,-1,-1,-1,-1,-1,-1,-1,-1,-1,-1,-1,-1,-1,-1,-1,-1,-1,-1,-1,-1,-1],"split_conditions":[2.0785305E-1,2E-1,1.6666667E-1,-7.401906E-2,5.247291E-1,-7.3697425E-2,4.0703636E-1,1.6666667E-1,6.908059E-1,5.247291E-1,6.685115E-1,-7.334978E-2,2.5E1,2.8104576E-1,3.6771588E-2,2.5E-1,6E0,5E-1,8.062792E-1,2.0070833E-1,2.931959E3,7E1,-4.6188004E-2,3.852345E-2,2.531249E-1,-0E0,6.908059E-1,3.7995603E-2,5.033355E-1,8E-1,3.803957E-2,7.7E1,5E0,2.0426829E-1,9E0,1.6E1,-1.8393828E-2,1E0,3.3333334E-1,6.666667E-1,3.777912E-2,6.3965076E-1,6E-1,1.3E1,7E0,-3.781156E-2,-6.0451746E-2,-1.3399992E-2,-3.0917777E-2,1.8187582E-2,-1.15573825E-2,4.8851443E-4,-5.3280365E-2,2.5686607E-2,-5.919957E-3,3.043157E-2,-3.759017E-2,4.0003095E-2,2.0677273E-3,3.5199035E-2,1.4326288E-2,8.938551E-3,3.7049033E-2,3.800741E-2,2.4211966E-2,3.644973E-2,-1.4352981E-2,3.0270832E-2,4.4402187E-3],"split_indices":[15,15,20,0,20,0,15,20,20,20,15,0,11,18,0,15,12,15,15,19,10,16,0,0,15,0,20,0,15,15,0,16,5,18,12,12,0,6,15,20,0,20,15,5,5,0,0,0,0,0,0,0,0,0,0,0,0,0,0,0,0,0,0,0,0,0,0,0,0],"split_type":[0,0,0,0,0,0,0,0,0,0,0,0,0,0,0,0,0,0,0,0,0,0,0,0,0,0,0,0,0,0,0,0,0,0,0,0,0,0,0,0,0,0,0,0,0,0,0,0,0,0,0,0,0,0,0,0,0,0,0,0,0,0,0,0,0,0,0,0,0],"sum_hessian":[2.6309947E4,6.8240024E3,1.9485945E4,5.4451904E3,1.3788118E3,2.0447246E2,1.9281473E4,1.2870781E3,9.173355E1,3.740387E3,1.5541086E4,9.987012E1,1.187208E3,1.9961264E1,7.1772285E1,3.3226094E3,4.1777765E2,6.8153735E3,8.725712E3,1.1213115E3,6.589649E1,1.817112E1,1.7901435E0,1.7142151E2,3.151188E3,1.6073685E0,4.161703E2,1.1777412E3,5.6376323E3,2.7451187E3,5.9805933E3,5.340055E2,5.87306E2,5.5421436E1,1.0475055E1,1.649398E1,1.6771393E0,3.860773E2,2.7651106E3,7.416749E1,3.420028E2,1.5400057E3,4.097627E3,2.0748816E3,6.702371E2,4.562533E2,7.775221E1,1.627161E2,4.2458997E2,4.1680073E1,1.3741365E1,1.4719702E0,9.003084E0,1.3433592E1,3.060389E0,1.1517857E1,3.7455945E2,4.416231E2,2.3234875E3,5.0828773E1,2.3338717E1,1.4218816E3,1.1812419E2,1.5018015E3,2.5958252E3,2.073505E3,1.3765783E0,6.3224475E2,3.799238E1],"tree_param":{"num_deleted":"0","num_feature":"21","num_nodes":"69","size_leaf_vector":"1"}},{"base_weights":[9.319185E-2,-2.0835538E0,8.7694836E-1,-7.0877925E-2,-9.7603166E-1,1.9184773E-1,1.0478636E0,-1.1134008E0,9.881411E-1,-7.014555E-2,2.668269E-1,-7.004379E-2,1.0698268E0,-7.0254564E-2,-1.0071677E0,1.1574422E-1,3.6453888E-2,1.5113269E-1,1.198784E0,8.326767E-1,1.1933281E0,-1.1429641E0,-5.292171E-1,4.0109894E-1,-4.4872485E-2,3.4820643E-1,-1.9744228E-1,-0E0,1.2030702E0,3.7694324E-2,7.1241206E-1,1.1022681E0,3.773886E-2,-9.9243754E-1,-1.535167E0,-2.6498796E-2,-7.523264E-1,5.9103405E-1,-1.7959872E-2,2.9926686E-2,3.889641E-2,-2.6516208E-2,-1.1065305E0,9.642399E-1,3.7474662E-2,3.6228675E-1,9.2234915E-1,1.1217614E0,6.605309E-1,-3.5603806E-2,-2.1819677E-2,-3.3589162E-2,-5.500284E-2,1.2860199E-2,-7.7908603E-3,-7.2282143E-3,-3.3781476E-2,2.530621E-2,-5.7741376E-3,3.8180597E-2,-3.5112037E-3,-1.028849E-2,4.6019456E-3,-3.6206476E-2,1.7260637E-2,3.485809E-2,1.4016769E-2,1.4471382E-2,-4.440339E-3,3.7706282E-2,1.3934216E-2,3.8000293E-2,3.2301623E-2,2.2425989E-2,-1.8661287E-2],"categories":[],"categories_nodes":[],"categories_segments":[],"categories_sizes":[],"default_left":[0,0,0,0,0,0,0,0,0,0,0,0,0,0,0,0,0,0,0,0,0,0,0,0,0,0,0,0,0,0,0,0,0,0,0,0,0,0,0,0,0,0,0,0,0,0,0,0,0,0,0,0,0,0,0,0,0,0,0,0,0,0,0,0,0,0,0,0,0,0,0,0,0,0,0],"id":8,"left_children":[1,3,5,-1,7,9,11,13,15,-1,17,-1,19,-1,21,23,-1,25,27,29,31,33,35,37,-1,39,41,-1,43,-1,45,47,-1,49,51,53,55,57,-1,59,-1,61,63,65,-1,67,69,71,73,-1,-1,-1,-1,-1,-1,-1,-1,-1,-1,-1,-1,-1,-1,-1,-1,-1,-1,-1,-1,-1,-1,-1,-1,-1,-1],"loss_changes":[4.4513617E4,2.1290488E3,2.2450215E3,0E0,3.769491E2,7.2566345E2,1.1418809E3,1.6425879E2,1.6563911E1,0E0,3.9998904E2,0E0,4.4377734E2,0E0,7.5690186E1,9.079037E0,0E0,2.2792786E2,1.895813E0,2.6370093E2,5.5260742E1,5.1029785E1,2.9404297E1,3.9547043E0,0E0,6.384584E2,1.8468243E2,0E0,1.0787354E0,0E0,2.9813745E2,3.3442383E1,0E0,3.220392E1,2.6609497E1,8.984592E0,3.373638E1,4.238639E0,0E0,2.915112E2,0E0,5.766724E1,3.3113037E1,5.0965347E0,0E0,9.4296524E1,3.8782227E2,2.2378418E1,2.0801247E1,0E0,0E0,0E0,0E0,0E0,0E0,0E0,0E0,0E0,0E0,0E0,0E0,0E0,0E0,0E0,0E0,0E0,0E0,0E0,0E0,0E0,0E0,0E0,0E0,0E0,0E0],"parents":[2147483647,0,0,1,1,2,2,4,4,5,5,6,6,7,7,8,8,10,10,12,12,14,14,15,15,17,17,18,18,19,19,20,20,21,21,22,22,23,23,25,25,26,26,28,28,30,30,31,31,33,33,34,34,35,35,36,36,37,37,39,39,41,41,42,42,43,43,45,45,46,46,47,47,48,48],"right_children":[2,4,6,-1,8,10,12,14,16,-1,18,-1,20,-1,22,24,-1,26,28,30,32,34,36,38,-1,40,42,-1,44,-1,46,48,-1,50,52,54,56,58,-1,60,-1,62,64,66,-1,68,70,72,74,-1,-1,-1,-1,-1,-1,-1,-1,-1,-1,-1,-1,-1,-1,-1,-1,-1,-1,-1,-1,-1,-1,-1,-1,-1,-1],"split_conditions":[2.0785305E-1,2E-1,4.0703636E-1,-7.0877925E-2,5.247291E-1,1.6666667E-1,1.6666667E-1,1.6666667E-1,6.908059E-1,-7.014555E-2,5.247291E-1,-7.004379E-2,6.0175335E-1,-7.0254564E-2,2.5000513E-1,2.8104576E-1,3.6453888E-2,4E-1,6E0,5E-1,8.062792E-1,1.1E1,5E0,7E1,-4.4872485E-2,3.3646053E-1,9E0,-0E0,6.908059E-1,3.7694324E-2,5.033355E-1,8E0,3.773886E-2,7.104E3,1.9031142E-1,1.61978E3,1.9188192E-1,1.6E1,-1.7959872E-2,2.5E-1,3.889641E-2,1.8781072E-1,4.1630316E-1,6.666667E-1,3.7474662E-2,6.658E3,6E-1,6.666667E-1,1.8E1,-3.5603806E-2,-2.1819677E-2,-3.3589162E-2,-5.500284E-2,1.2860199E-2,-7.7908603E-3,-7.2282143E-3,-3.3781476E-2,2.530621E-2,-5.7741376E-3,3.8180597E-2,-3.5112037E-3,-1.028849E-2,4.6019456E-3,-3.6206476E-2,1.7260637E-2,3.485809E-2,1.4016769E-2,1.4471382E-2,-4.440339E-3,3.7706282E-2,1.3934216E-2,3.8000293E-2,3.2301623E-2,2.2425989E-2,-1.8661287E-2],"split_indices":[15,15,15,0,20,20,20,20,20,0,20,0,15,0,20,18,0,15,12,15,15,5,5,16,0,15,5,0,20,0,15,5,0,9,18,10,18,12,0,15,0,20,20,20,0,9,15,15,12,0,0,0,0,0,0,0,0,0,0,0,0,0,0,0,0,0,0,0,0,0,0,0,0,0,0],"split_type":[0,0,0,0,0,0,0,0,0,0,0,0,0,0,0,0,0,0,0,0,0,0,0,0,0,0,0,0,0,0,0,0,0,0,0,0,0,0,0,0,0,0,0,0,0,0,0,0,0,0,0,0,0,0,0,0,0,0,0,0,0,0,0,0,0,0,0,0,0,0,0,0,0,0,0],"sum_hessian":[2.6090436E4,6.9063447E3,1.918409E4,5.5148306E3,1.3915143E3,3.8319568E3,1.5352134E4,1.3014374E3,9.007689E1,1.0904124E2,3.7229155E3,9.8063934E1,1.525407E4,1.0116515E2,1.2002722E3,1.9819397E1,7.025749E1,3.313775E3,4.091406E2,5.229018E3,1.0025052E4,9.319895E2,2.6828278E2,1.800314E1,1.8162564E0,2.1187612E3,1.1950137E3,1.6073685E0,4.0753323E2,1.1519384E3,4.0770796E3,4.17566E3,5.849392E3,6.77895E2,2.5409448E2,8.418802E1,1.8409476E2,1.6313044E1,1.6900961E0,1.5879152E3,5.308461E2,1.0076797E3,1.8733398E2,7.2974556E1,3.3455865E2,1.5310839E3,2.5459958E3,3.995538E3,1.8012195E2,3.8696335E2,2.9093167E2,1.0956228E2,1.445322E2,2.6783436E1,5.7404583E1,7.955528E1,1.04539474E2,1.324437E1,3.0686736E0,1.6783524E2,1.42008E3,3.6694635E2,6.4073334E2,1.7761342E2,9.720559E0,4.981134E1,2.3163216E1,1.2410352E3,2.900487E2,1.4688873E3,1.0771085E3,9.3569244E2,3.0598457E3,1.6980055E2,1.0321392E1],"tree_param":{"num_deleted":"0","num_feature":"21","num_nodes":"75","size_leaf_vector":"1"}},{"base_weights":[9.1515295E-2,-2.002007E0,8.644787E-1,-6.80803E-2,-9.392616E-1,1.870929E-1,1.0358868E0,-1.0695078E0,9.756911E-1,-6.739763E-2,2.6027453E-1,-6.730345E-2,1.0577936E0,-6.749308E-2,-9.6743435E-1,1.0674373E-1,3.61482E-2,1.471362E-1,1.1883583E0,8.6338055E-1,1.2112069E0,-1.0265205E0,3.905737E-2,3.8952816E-1,-4.3626323E-2,-1.8384589E-1,3.4497827E-1,9.3360776E-1,3.718334E-2,3.7406426E-2,7.8418905E-1,1.1298993E0,3.7451606E-2,-1.2709763E0,-7.998198E-1,3.4647682E-1,-1.3609319E0,6.302668E-1,-3.4109834E-1,3.61949E-2,-2.462531E-1,3.7884194E-2,2.7075833E-1,-6.285991E-3,9.793363E-1,3.5343394E-1,9.494335E-1,1.1923535E0,9.3439865E-1,-3.1528194E-2,-4.685766E-2,-1.9794479E-2,-3.8501725E-2,1.8154496E-2,-1.0442485E-2,8.789776E-4,-4.988857E-2,2.4932113E-2,-1.0629448E-2,-4.4499714E-2,8.13045E-3,-3.5846945E-2,-1.8973578E-3,-9.671866E-3,1.1367945E-2,3.243972E-2,2.161022E-3,8.439473E-3,3.661211E-2,3.7418563E-2,2.3372138E-2,3.5827335E-2,-1.4144935E-2,2.946699E-2,3.7194893E-3],"categories":[],"categories_nodes":[],"categories_segments":[],"categories_sizes":[],"default_left":[0,0,0,0,0,0,0,0,0,0,0,0,0,0,0,0,0,0,0,0,0,0,0,0,0,0,0,0,0,0,0,0,0,0,0,0,0,0,0,0,0,0,0,0,0,0,0,0,0,0,0,0,0,0,0,0,0,0,0,0,0,0,0,0,0,0,0,0,0,0,0,0,0,0,0],"id":9,"left_children":[1,3,5,-1,7,9,11,13,15,-1,17,-1,19,-1,21,23,-1,25,27,29,31,33,35,37,-1,39,41,43,-1,-1,45,47,-1,49,51,53,55,57,59,-1,61,-1,63,-1,65,67,69,71,73,-1,-1,-1,-1,-1,-1,-1,-1,-1,-1,-1,-1,-1,-1,-1,-1,-1,-1,-1,-1,-1,-1,-1,-1,-1,-1],"loss_changes":[4.1841383E4,1.9755332E3,2.1913008E3,0E0,3.51271E2,6.78245E2,1.0838057E3,1.5307495E2,1.6375526E1,0E0,3.8762378E2,0E0,4.4339258E2,0E0,7.3177E1,8.629005E0,0E0,2.1666855E2,1.8961182E0,1.9771924E2,2.1490234E1,6.047278E1,2.8420809E1,3.817391E0,0E0,1.0652605E2,1.3920514E2,4.8643417E0,0E0,0E0,3.886455E2,2.9029785E1,0E0,3.082965E1,3.7823517E1,1.0630083E1,6.609297E0,3.8454008E0,4.612248E0,0E0,2.0418744E2,0E0,1.2326726E2,0E0,5.4828186E0,9.340953E1,1.9797217E2,7.5646973E0,2.3907715E1,0E0,0E0,0E0,0E0,0E0,0E0,0E0,0E0,0E0,0E0,0E0,0E0,0E0,0E0,0E0,0E0,0E0,0E0,0E0,0E0,0E0,0E0,0E0,0E0,0E0,0E0],"parents":[2147483647,0,0,1,1,2,2,4,4,5,5,6,6,7,7,8,8,10,10,12,12,14,14,15,15,17,17,18,18,19,19,20,20,21,21,22,22,23,23,25,25,26,26,27,27,30,30,31,31,33,33,34,34,35,35,36,36,37,37,38,38,40,40,42,42,44,44,45,45,46,46,47,47,48,48],"right_children":[2,4,6,-1,8,10,12,14,16,-1,18,-1,20,-1,22,24,-1,26,28,30,32,34,36,38,-1,40,42,44,-1,-1,46,48,-1,50,52,54,56,58,60,-1,62,-1,64,-1,66,68,70,72,74,-1,-1,-1,-1,-1,-1,-1,-1,-1,-1,-1,-1,-1,-1,-1,-1,-1,-1,-1,-1,-1,-1,-1,-1,-1,-1],"split_conditions":[2.0785305E-1,2E-1,4.0703636E-1,-6.80803E-2,5.247291E-1,1.6666667E-1,1.6666667E-1,1.6666667E-1,6.908059E-1,-6.739763E-2,5.247291E-1,-6.730345E-2,6.685115E-1,-6.749308E-2,2.5E1,2.8104576E-1,3.61482E-2,1.8781072E-1,6.908059E-1,5E-1,8.062792E-1,2.0070833E-1,2.931959E3,1.6E1,-4.3626323E-2,2.5E-1,2E-1,8.84E2,3.718334E-2,3.7406426E-2,5.033355E-1,8E-1,3.7451606E-2,1E0,3.006073E-1,2.0426829E-1,9E0,6.5E1,6.883921E-2,3.61949E-2,2.531249E-1,3.7884194E-2,2.531249E-1,-6.285991E-3,8E0,6.3965076E-1,6E-1,1.3E1,7E0,-3.1528194E-2,-4.685766E-2,-1.9794479E-2,-3.8501725E-2,1.8154496E-2,-1.0442485E-2,8.789776E-4,-4.988857E-2,2.4932113E-2,-1.0629448E-2,-4.4499714E-2,8.13045E-3,-3.5846945E-2,-1.8973578E-3,-9.671866E-3,1.1367945E-2,3.243972E-2,2.161022E-3,8.439473E-3,3.661211E-2,3.7418563E-2,2.3372138E-2,3.5827335E-2,-1.4144935E-2,2.946699E-2,3.7194893E-3],"split_indices":[15,15,15,0,20,20,20,20,20,0,20,0,15,0,11,18,0,20,20,15,15,19,10,12,0,15,20,9,0,0,15,15,0,1,17,18,12,16,3,0,15,0,15,0,5,20,15,5,5,0,0,0,0,0,0,0,0,0,0,0,0,0,0,0,0,0,0,0,0,0,0,0,0,0,0],"split_type":[0,0,0,0,0,0,0,0,0,0,0,0,0,0,0,0,0,0,0,0,0,0,0,0,0,0,0,0,0,0,0,0,0,0,0,0,0,0,0,0,0,0,0,0,0,0,0,0,0,0,0,0,0,0,0,0,0,0,0,0,0,0,0,0,0,0,0,0,0,0,0,0,0,0,0],"sum_hessian":[2.5855121E4,6.971196E3,1.8883924E4,5.5683784E3,1.4028176E3,3.8150798E3,1.5068845E4,1.314383E3,8.843452E1,1.1010591E2,3.7049739E3,9.90202E1,1.4969824E4,1.021698E2,1.2122133E3,1.9677277E1,6.875724E1,3.3043875E3,4.0058633E2,6.6084316E3,8.361393E3,1.1459159E3,6.629743E1,1.7836994E1,1.8402829E0,1.2343627E3,2.070025E3,7.340259E1,3.2718375E2,1.1263739E3,5.482058E3,2.6419915E3,5.7194014E3,5.470277E2,5.988882E2,5.5563267E1,1.0734165E1,1.4549153E1,3.2878408E0,5.154985E1,1.1828129E3,1.5266246E2,1.9173623E3,1.8444326E0,7.155816E1,1.5224816E3,3.9595764E3,1.9945906E3,6.4740076E2,3.1605264E2,2.3097507E2,4.6786417E2,1.31024E2,4.1628254E1,1.3935011E1,1.485984E0,9.248181E0,1.3057647E1,1.4915074E0,1.2205857E0,2.0672553E0,1.8950345E2,9.933094E2,2.9400406E2,1.6233583E3,6.316407E1,8.394087E0,1.4078488E3,1.1463281E2,1.436277E3,2.5232993E3,1.9932085E3,1.3821356E0,6.0995264E2,3.744811E1],"tree_param":{"num_deleted":"0","num_feature":"21","num_nodes":"75","size_leaf_vector":"1"}},{"base_weights":[8.989304E-2,-1.9281588E0,8.5223347E-1,-6.5573476E-2,-9.0446913E-1,1.8238315E-1,1.0241894E0,-1.0281146E0,9.635972E-1,-6.493098E-2,2.5378925E-1,-6.484303E-2,1.0460294E0,-6.501473E-2,-9.298028E-1,9.829204E-2,3.58538E-2,1.4317006E-1,1.1781964E0,8.058286E-1,1.1726059E0,-7.7034247E-1,-1.2961726E0,3.784918E-1,-4.24443E-2,3.37703E-1,-1.9845948E-1,9.207984E-1,3.6904395E-2,3.713118E-2,6.856197E-1,1.0794972E0,3.717704E-2,-8.332712E-1,1.0001299E-1,-9.560712E-1,-1.543971E0,5.673188E-1,-1.719264E-2,2.8485863E-2,3.847017E-2,-3.295281E-2,-1.0649772E0,-6.1501074E-3,9.66871E-1,3.448633E-1,8.947347E-1,1.0994884E0,6.319188E-1,-3.209064E-2,-1.8319068E-2,1.5972896E-2,-1.71659E-2,-4.0908936E-2,-1.5645005E-2,-4.0549256E-2,-6.1197486E-2,2.4563998E-2,-5.406275E-3,3.7791505E-2,-3.3864903E-3,-9.867909E-3,4.129902E-3,-3.8915545E-2,-9.904484E-3,3.2076724E-2,2.105451E-3,8.222484E-3,3.6312968E-2,3.7143495E-2,1.308917E-2,3.7517607E-2,3.157315E-2,2.1586183E-2,-1.869044E-2],"categories":[],"categories_nodes":[],"categories_segments":[],"categories_sizes":[],"default_left":[0,0,0,0,0,0,0,0,0,0,0,0,0,0,0,0,0,0,0,0,0,0,0,0,0,0,0,0,0,0,0,0,0,0,0,0,0,0,0,0,0,0,0,0,0,0,0,0,0,0,0,0,0,0,0,0,0,0,0,0,0,0,0,0,0,0,0,0,0,0,0,0,0,0,0],"id":10,"left_children":[1,3,5,-1,7,9,11,13,15,-1,17,-1,19,-1,21,23,-1,25,27,29,31,33,35,37,-1,39,41,43,-1,-1,45,47,-1,49,51,53,55,57,-1,59,-1,61,63,-1,65,67,69,71,73,-1,-1,-1,-1,-1,-1,-1,-1,-1,-1,-1,-1,-1,-1,-1,-1,-1,-1,-1,-1,-1,-1,-1,-1,-1,-1],"loss_changes":[3.9398062E4,1.8466777E3,2.1396875E3,0E0,3.2771228E2,6.3531683E2,1.0301387E3,1.4353503E2,1.6181252E1,0E0,3.7568958E2,0E0,4.4370996E2,0E0,6.847302E1,8.206265E0,0E0,2.1928104E2,1.9729614E0,2.607268E2,5.5996094E1,4.7784546E1,2.703534E1,3.6748998E0,0E0,6.1282855E2,1.7021718E2,4.7582054E0,0E0,0E0,2.8166113E2,3.3586426E1,0E0,3.9821777E1,1.7020283E1,2.5640472E1,1.3838654E1,3.9748158E0,0E0,2.773307E2,0E0,5.099678E1,3.046846E1,0E0,5.3363037E0,9.099626E1,3.8511414E2,2.3745605E1,1.9960434E1,0E0,0E0,0E0,0E0,0E0,0E0,0E0,0E0,0E0,0E0,0E0,0E0,0E0,0E0,0E0,0E0,0E0,0E0,0E0,0E0,0E0,0E0,0E0,0E0,0E0,0E0],"parents":[2147483647,0,0,1,1,2,2,4,4,5,5,6,6,7,7,8,8,10,10,12,12,14,14,15,15,17,17,18,18,19,19,20,20,21,21,22,22,23,23,25,25,26,26,27,27,30,30,31,31,33,33,34,34,35,35,36,36,37,37,39,39,41,41,42,42,44,44,45,45,46,46,47,47,48,48],"right_children":[2,4,6,-1,8,10,12,14,16,-1,18,-1,20,-1,22,24,-1,26,28,30,32,34,36,38,-1,40,42,44,-1,-1,46,48,-1,50,52,54,56,58,-1,60,-1,62,64,-1,66,68,70,72,74,-1,-1,-1,-1,-1,-1,-1,-1,-1,-1,-1,-1,-1,-1,-1,-1,-1,-1,-1,-1,-1,-1,-1,-1,-1,-1],"split_conditions":[2.0785305E-1,2E-1,4.0703636E-1,-6.5573476E-2,5.247291E-1,1.6666667E-1,1.6666667E-1,1.6666667E-1,6.908059E-1,-6.493098E-2,5.247291E-1,-6.484303E-2,6.0175335E-1,-6.501473E-2,1E1,2.8104576E-1,3.58538E-2,4E-1,6.908059E-1,5E-1,8.062792E-1,2.5E1,1.9822876E-1,7E1,-4.24443E-2,3.3646053E-1,9E0,8.84E2,3.6904395E-2,3.713118E-2,5.033355E-1,8E0,3.717704E-2,2.3076923E-1,1.908397E-1,5.61E2,2.2336192E-1,1.6E1,-1.719264E-2,2.5E-1,3.847017E-2,1.8781072E-1,2.147163E-1,-6.1501074E-3,8E0,6.3965076E-1,6E-1,6.666667E-1,1.8E1,-3.209064E-2,-1.8319068E-2,1.5972896E-2,-1.71659E-2,-4.0908936E-2,-1.5645005E-2,-4.0549256E-2,-6.1197486E-2,2.4563998E-2,-5.406275E-3,3.7791505E-2,-3.3864903E-3,-9.867909E-3,4.129902E-3,-3.8915545E-2,-9.904484E-3,3.2076724E-2,2.105451E-3,8.222484E-3,3.6312968E-2,3.7143495E-2,1.308917E-2,3.7517607E-2,3.157315E-2,2.1586183E-2,-1.869044E-2],"split_indices":[15,15,15,0,20,20,20,20,20,0,20,0,15,0,5,18,0,15,20,15,15,11,18,16,0,15,5,9,0,0,15,5,0,19,18,4,17,12,0,15,0,20,20,0,5,20,15,15,12,0,0,0,0,0,0,0,0,0,0,0,0,0,0,0,0,0,0,0,0,0,0,0,0,0,0],"split_type":[0,0,0,0,0,0,0,0,0,0,0,0,0,0,0,0,0,0,0,0,0,0,0,0,0,0,0,0,0,0,0,0,0,0,0,0,0,0,0,0,0,0,0,0,0,0,0,0,0,0,0,0,0,0,0,0,0,0,0,0,0,0,0,0,0,0,0,0,0,0,0,0,0,0,0],"sum_hessian":[2.5607688E4,7.020452E3,1.8587236E4,5.607217E3,1.4132354E3,3.7984255E3,1.4788811E4,1.3264255E3,8.680983E1,1.10885254E2,3.6875403E3,9.972059E1,1.468909E4,1.0290861E2,1.223517E3,1.9537E1,6.7272835E1,3.2954294E3,3.9211087E2,5.0745347E3,9.614556E3,8.565436E2,3.6697333E2,1.7674707E1,1.8622924E0,2.101639E3,1.1937904E3,7.222592E1,3.1988495E2,1.1010717E3,3.9734634E3,4.023808E3,5.590747E3,7.999005E2,5.664309E1,1.5842711E2,2.0854623E2,1.5961985E1,1.7127234E0,1.58492E3,5.1671893E2,1.0041817E3,1.896087E2,1.850627E0,7.03753E1,1.513926E3,2.4595374E3,3.848235E3,1.7557292E2,3.839196E2,4.1598093E2,3.550142E1,2.1141668E1,7.94636E1,7.89635E1,1.5440808E2,5.4138157E1,1.2873514E1,3.0884702E0,1.6315025E2,1.4217698E3,3.689963E2,6.3518536E2,1.4246364E2,4.7145077E1,6.1991604E1,8.383694E0,1.4017705E3,1.1215553E2,1.4040013E3,1.0555359E3,9.026359E2,2.945599E3,1.6525793E2,1.03149805E1],"tree_param":{"num_deleted":"0","num_feature":"21","num_nodes":"75","size_leaf_vector":"1"}},{"base_weights":[8.833633E-2,-1.861094E0,8.402923E-1,-6.331503E-2,-8.719188E-1,1.7785537E-1,1.0128005E0,-9.89491E-1,9.5172966E-1,-6.270509E-2,2.4753132E-1,-6.262228E-2,1.0345657E0,-6.277861E-2,-8.9460295E-1,8.974663E-2,3.5569996E-2,1.3936691E-1,1.1683828E0,8.375311E-1,1.1920127E0,-1.0185555E0,-4.55577E-1,3.6734647E-1,-4.1321658E-2,3.748108E-2,8.198928E-2,9.0823275E-1,3.6637124E-2,3.686785E-2,7.5811833E-1,1.1084619E0,3.6914445E-2,-8.811027E-1,-1.3755828E0,-8.16969E-1,-1.7559661E-1,5.5548996E-1,-1.6793214E-2,-1.0854555E0,2.5229064E-1,1.0993097E0,4.2002013E-1,3.3647418E-1,9.236871E-1,1.1729385E0,9.076914E-1,-2.2570241E-2,-3.733398E-2,-2.917764E-2,-4.8892293E-2,-5.7038207E-2,-1.8276611E-2,-2.2904163E-3,-5.259576E-2,-1.4497692E-3,2.57471E-2,3.0230852E-2,-3.4580644E-2,3.9575323E-2,1.5226012E-3,-0E0,3.4000136E-2,2.1762554E-2,-1.2183628E-2,1.3654956E-2,-4.8344955E-3,3.6880363E-2,2.255617E-2,3.5246667E-2,-1.3928984E-2,2.9168148E-2,8.675069E-3],"categories":[],"categories_nodes":[],"categories_segments":[],"categories_sizes":[],"default_left":[0,0,0,0,0,0,0,0,0,0,0,0,0,0,0,0,0,0,0,0,0,0,0,0,0,0,0,0,0,0,0,0,0,0,0,0,0,0,0,0,0,0,0,0,0,0,0,0,0,0,0,0,0,0,0,0,0,0,0,0,0,0,0,0,0,0,0,0,0,0,0,0,0],"id":11,"left_children":[1,3,5,-1,7,9,11,13,15,-1,17,-1,19,-1,21,23,-1,25,27,29,31,33,35,37,-1,-1,39,41,-1,-1,43,45,-1,47,49,51,53,55,-1,57,59,61,63,65,67,69,71,-1,-1,-1,-1,-1,-1,-1,-1,-1,-1,-1,-1,-1,-1,-1,-1,-1,-1,-1,-1,-1,-1,-1,-1,-1,-1],"loss_changes":[3.7158656E4,1.7359336E3,2.0891465E3,0E0,3.0615674E2,5.9634155E2,9.803662E2,1.3520813E2,1.6000443E1,0E0,3.641391E2,0E0,4.440791E2,0E0,6.5253784E1,7.8022733E0,0E0,2.0790814E2,2.0515137E0,1.962417E2,2.202832E1,4.365686E1,2.6733627E1,3.5358267E0,0E0,0E0,6.2120166E2,4.741436E0,0E0,0E0,3.7063086E2,2.9763916E1,0E0,2.973175E1,2.2763977E1,2.3003532E1,2.2780794E1,3.9202895E0,0E0,5.7254486E1,5.8571893E2,1.7756462E0,6.50795E0,8.934912E1,1.980232E2,7.3776855E0,2.3469116E1,0E0,0E0,0E0,0E0,0E0,0E0,0E0,0E0,0E0,0E0,0E0,0E0,0E0,0E0,0E0,0E0,0E0,0E0,0E0,0E0,0E0,0E0,0E0,0E0,0E0,0E0],"parents":[2147483647,0,0,1,1,2,2,4,4,5,5,6,6,7,7,8,8,10,10,12,12,14,14,15,15,17,17,18,18,19,19,20,20,21,21,22,22,23,23,26,26,27,27,30,30,31,31,33,33,34,34,35,35,36,36,37,37,39,39,40,40,41,41,42,42,43,43,44,44,45,45,46,46],"right_children":[2,4,6,-1,8,10,12,14,16,-1,18,-1,20,-1,22,24,-1,26,28,30,32,34,36,38,-1,-1,40,42,-1,-1,44,46,-1,48,50,52,54,56,-1,58,60,62,64,66,68,70,72,-1,-1,-1,-1,-1,-1,-1,-1,-1,-1,-1,-1,-1,-1,-1,-1,-1,-1,-1,-1,-1,-1,-1,-1,-1,-1],"split_conditions":[2.0785305E-1,2E-1,4.0703636E-1,-6.331503E-2,5.247291E-1,1.6666667E-1,1.6666667E-1,1.6666667E-1,6.908059E-1,-6.270509E-2,5.247291E-1,-6.262228E-2,6.685115E-1,-6.277861E-2,2.5000513E-1,2.8104576E-1,3.5569996E-2,2.5E-1,6.908059E-1,5E-1,8.062792E-1,1.1E1,1.9E1,7E1,-4.1321658E-2,3.748108E-2,2.531249E-1,6.666667E-1,3.6637124E-2,3.686785E-2,5.033355E-1,8E-1,3.6914445E-2,2.8834918E-1,1.8292683E-1,2.7480218E-1,1.47E2,2.0070833E-1,-1.6793214E-2,1E0,3.3333334E-1,6E0,3.159E3,6.658E3,6E-1,1.3E1,6E0,-2.2570241E-2,-3.733398E-2,-2.917764E-2,-4.8892293E-2,-5.7038207E-2,-1.8276611E-2,-2.2904163E-3,-5.259576E-2,-1.4497692E-3,2.57471E-2,3.0230852E-2,-3.4580644E-2,3.9575323E-2,1.5226012E-3,-0E0,3.4000136E-2,2.1762554E-2,-1.2183628E-2,1.3654956E-2,-4.8344955E-3,3.6880363E-2,2.255617E-2,3.5246667E-2,-1.3928984E-2,2.9168148E-2,8.675069E-3],"split_indices":[15,15,15,0,20,20,20,20,20,0,20,0,15,0,20,18,0,15,20,15,15,5,11,16,0,0,15,20,0,0,15,15,0,17,18,20,6,19,0,6,15,12,8,9,15,5,5,0,0,0,0,0,0,0,0,0,0,0,0,0,0,0,0,0,0,0,0,0,0,0,0,0,0],"split_type":[0,0,0,0,0,0,0,0,0,0,0,0,0,0,0,0,0,0,0,0,0,0,0,0,0,0,0,0,0,0,0,0,0,0,0,0,0,0,0,0,0,0,0,0,0,0,0,0,0,0,0,0,0,0,0,0,0,0,0,0,0,0,0,0,0,0,0,0,0,0,0,0,0],"sum_hessian":[2.5347574E4,7.054952E3,1.8292623E4,5.6326196E3,1.4223326E3,3.7810596E3,1.4511563E4,1.3371323E3,8.5200325E1,1.1140364E2,3.669656E3,1.0018693E2,1.4411376E4,1.0340425E2,1.2337281E3,1.9394835E1,6.58055E1,3.2859243E3,3.8373166E2,6.406604E3,8.004772E3,9.5928906E2,2.7443903E2,1.7512478E1,1.882357E0,1.5962802E2,3.1262961E3,7.106321E1,3.1266843E2,1.0760533E3,5.330551E3,2.5412417E3,5.4635303E3,6.9715753E2,2.6213156E2,1.1740536E2,1.5703366E2,1.5788016E1,1.7244606E0,3.9656055E2,2.7297356E3,4.8702152E1,2.2361061E1,1.505544E3,3.8250068E3,1.9160776E3,6.2516406E2,5.190498E2,1.7810773E2,1.0477007E2,1.573615E2,1.6792864E1,1.00612495E2,1.4932182E2,7.7118373E0,4.4499874E0,1.1338029E1,1.1443038E1,3.851175E2,4.3205252E2,2.297683E3,1.5573708E0,4.714478E1,1.7298658E1,5.0624027E0,1.2172952E3,2.882488E2,1.3720879E3,2.452919E3,1.91469E3,1.3877394E0,5.640795E2,6.1084526E1],"tree_param":{"num_deleted":"0","num_feature":"21","num_nodes":"73","size_leaf_vector":"1"}},{"base_weights":[8.682681E-2,-1.7998388E0,8.28527E-1,-6.1270457E-2,-8.41243E-1,1.7346974E-1,1.0016133E0,-9.531957E-1,9.4004637E-1,-6.068687E-2,2.4143626E-1,-6.06083E-2,1.0232937E0,-6.0751405E-2,-8.6144567E-1,8.162707E-2,3.5296153E-2,1.35692E-1,1.1589544E0,7.798297E-1,1.1532058E0,-4.3528807E-1,-9.8280025E-1,3.564498E-1,-4.0254056E-2,3.2542348E-1,-1.9374362E-1,8.9619654E-1,3.6380872E-2,3.661579E-2,6.596558E-1,1.0577662E0,3.666317E-2,-1.7831211E0,-3.4069365E-1,-7.15356E-1,-1.167391E0,5.971584E-1,-3.400026E-1,2.1058867E-2,3.8130965E-2,-0E0,-8.7647897E-1,1.0887754E0,4.097137E-1,3.281627E-1,8.6798495E-1,3.710852E-2,1.0019323E0,-6.2127657E-2,6.3087293E-3,-8.527401E-3,-6.996466E-2,-1.7131887E-2,-4.035528E-2,-3.1816874E-2,-5.4147735E-2,2.393783E-2,-9.716327E-3,-4.3246243E-2,7.6725534E-3,3.718386E-2,-3.3894777E-3,-8.460829E-3,4.818166E-3,-1.7575053E-2,-4.161455E-2,-0E0,3.36948E-2,2.1392763E-2,-1.1811493E-2,7.756346E-3,3.591911E-2,3.6628515E-2,1.2271458E-2,1.4869343E-2,3.2932647E-2],"categories":[],"categories_nodes":[],"categories_segments":[],"categories_sizes":[],"default_left":[0,0,0,0,0,0,0,0,0,0,0,0,0,0,0,0,0,0,0,0,0,0,0,0,0,0,0,0,0,0,0,0,0,0,0,0,0,0,0,0,0,0,0,0,0,0,0,0,0,0,0,0,0,0,0,0,0,0,0,0,0,0,0,0,0,0,0,0,0,0,0,0,0,0,0,0,0],"id":12,"left_children":[1,3,5,-1,7,9,11,13,15,-1,17,-1,19,-1,21,23,-1,25,27,29,31,33,35,37,-1,39,41,43,-1,-1,45,47,-1,49,51,53,55,57,59,61,-1,63,65,67,69,71,73,-1,75,-1,-1,-1,-1,-1,-1,-1,-1,-1,-1,-1,-1,-1,-1,-1,-1,-1,-1,-1,-1,-1,-1,-1,-1,-1,-1,-1,-1],"loss_changes":[3.509572E4,1.6406348E3,2.0399238E3,0E0,2.863719E2,5.607826E2,9.3397266E2,1.27918945E2,1.5824783E1,0E0,3.5302643E2,0E0,4.443662E2,0E0,6.249756E1,7.4205985E0,0E0,2.0509169E2,2.1201782E0,2.5815625E2,5.7020508E1,3.2889843E1,4.496039E1,3.5389252E0,0E0,5.9802277E2,1.5795518E2,4.6989517E0,0E0,0E0,2.6604932E2,3.5307617E1,0E0,1.2274437E1,2.6284393E1,3.359204E1,3.387787E1,3.520599E0,4.367897E0,2.588454E2,0E0,4.23807E1,3.6411118E1,1.7413216E0,6.2516704E0,8.890434E1,3.8282312E2,0E0,1.4172046E2,0E0,0E0,0E0,0E0,0E0,0E0,0E0,0E0,0E0,0E0,0E0,0E0,0E0,0E0,0E0,0E0,0E0,0E0,0E0,0E0,0E0,0E0,0E0,0E0,0E0,0E0,0E0,0E0],"parents":[2147483647,0,0,1,1,2,2,4,4,5,5,6,6,7,7,8,8,10,10,12,12,14,14,15,15,17,17,18,18,19,19,20,20,21,21,22,22,23,23,25,25,26,26,27,27,30,30,31,31,33,33,34,34,35,35,36,36,37,37,38,38,39,39,41,41,42,42,43,43,44,44,45,45,46,46,48,48],"right_children":[2,4,6,-1,8,10,12,14,16,-1,18,-1,20,-1,22,24,-1,26,28,30,32,34,36,38,-1,40,42,44,-1,-1,46,48,-1,50,52,54,56,58,60,62,-1,64,66,68,70,72,74,-1,76,-1,-1,-1,-1,-1,-1,-1,-1,-1,-1,-1,-1,-1,-1,-1,-1,-1,-1,-1,-1,-1,-1,-1,-1,-1,-1,-1,-1],"split_conditions":[2.0785305E-1,2E-1,4.0703636E-1,-6.1270457E-2,5.247291E-1,1.6666667E-1,1.6666667E-1,1.6666667E-1,6.908059E-1,-6.068687E-2,5.247291E-1,-6.06083E-2,6.0175335E-1,-6.0751405E-2,5E0,2.8104576E-1,3.5296153E-2,4E-1,6.908059E-1,5E-1,8.062792E-1,4.4075858E2,2E-1,1.6E1,-4.0254056E-2,3.3646053E-1,8E0,6.666667E-1,3.6380872E-2,3.661579E-2,5.033355E-1,6.666667E-1,3.666317E-2,3.345459E-1,5.0307196E-1,6.654187E1,3.030303E-1,6.5E1,6.883921E-2,2.5E-1,3.8130965E-2,1.8781072E-1,1.1E1,6E0,3.159E3,6.3965076E-1,6E-1,3.710852E-2,6.685115E-1,-6.2127657E-2,6.3087293E-3,-8.527401E-3,-6.996466E-2,-1.7131887E-2,-4.035528E-2,-3.1816874E-2,-5.4147735E-2,2.393783E-2,-9.716327E-3,-4.3246243E-2,7.6725534E-3,3.718386E-2,-3.3894777E-3,-8.460829E-3,4.818166E-3,-1.7575053E-2,-4.161455E-2,-0E0,3.36948E-2,2.1392763E-2,-1.1811493E-2,7.756346E-3,3.591911E-2,3.6628515E-2,1.2271458E-2,1.4869343E-2,3.2932647E-2],"split_indices":[15,15,15,0,20,20,20,20,20,0,20,0,15,0,5,18,0,15,20,15,15,2,18,12,0,15,5,20,0,0,15,15,0,18,17,16,17,16,3,15,0,20,5,12,8,20,15,0,15,0,0,0,0,0,0,0,0,0,0,0,0,0,0,0,0,0,0,0,0,0,0,0,0,0,0,0,0],"split_type":[0,0,0,0,0,0,0,0,0,0,0,0,0,0,0,0,0,0,0,0,0,0,0,0,0,0,0,0,0,0,0,0,0,0,0,0,0,0,0,0,0,0,0,0,0,0,0,0,0,0,0,0,0,0,0,0,0,0,0,0,0,0,0,0,0,0,0,0,0,0,0,0,0,0,0,0,0],"sum_hessian":[2.5078818E4,7.0762246E3,1.8002594E4,5.6457607E3,1.4304639E3,3.7642612E3,1.4238333E4,1.3468422E3,8.362172E1,1.1168362E2,3.6525776E3,1.004394E2,1.4137894E4,1.0367771E2,1.2431644E3,1.9265478E1,6.435625E1,3.2771257E3,3.7545203E2,4.9242373E3,9.213656E3,2.7838715E2,9.647773E2,1.7364927E1,1.9005501E0,2.081422E3,1.1957035E3,6.991248E1,3.0553952E2,1.0513378E3,3.8728997E3,3.8758037E3,5.3378525E3,1.639274E1,2.619944E2,3.9817462E2,5.6660266E2,1.4077773E1,3.2871544E0,1.5761757E3,5.0524646E2,9.32617E2,2.6308652E2,4.772605E1,2.2186434E1,1.4974825E3,2.375417E3,9.11506E2,2.9642979E3,1.4728996E1,1.6637441E0,2.5637253E2,5.6218686E0,3.2679883E2,7.137581E1,4.8891037E2,7.7692314E1,1.2559438E1,1.5183359E0,1.244658E0,2.0424964E0,1.5613762E2,1.4200381E3,3.3899268E2,5.9362427E2,1.702793E2,9.2807236E1,1.5573708E0,4.6168682E1,1.7090208E1,5.096226E0,1.3886965E3,1.0878599E2,1.34056E3,1.034857E3,4.7439603E2,2.4899019E3],"tree_param":{"num_deleted":"0","num_feature":"21","num_nodes":"77","size_leaf_vector":"1"}},{"base_weights":[8.537604E-2,-1.7435405E0,8.17039E-1,-5.9411395E-2,-8.119614E-1,3.6484033E-1,1.0661414E0,-9.186358E-1,9.287474E-1,-5.9025563E-2,4.1962668E-1,-5.8376495E-2,1.0847076E0,-5.890562E-2,-8.2977164E-1,7.3834784E-2,3.5031673E-2,1.48694515E-2,6.0221875E-1,8.995106E-1,1.1739383E0,-8.8160896E-1,7.1446955E-2,3.4605208E-1,-3.923751E-2,-4.3045282E-1,1.8611664E-1,4.994623E-1,1.1725217E0,3.6387328E-2,7.268549E-1,1.0872527E0,3.64226E-2,-1.1016098E0,-6.7670417E-1,3.6513522E-1,-1.2422005E0,5.8497024E-1,-3.298721E-1,-9.4530714E-1,-1.7671415E-1,3.6476475E-1,-1.2738283E-1,-2.2411379E-1,5.6885713E-1,1.1769385E0,-0E0,3.99581E-1,9.727882E-1,1.1540401E0,8.8046896E-1,-2.9980848E-2,-5.002098E-2,-1.6468398E-2,-3.3417143E-2,1.8264255E-2,-8.1706885E-3,1.4149889E-3,-4.5774203E-2,2.9786099E-2,-0E0,-4.2110607E-2,7.5365975E-3,3.378302E-2,-3.872805E-2,3.7881024E-2,-1.0547963E-2,2.1409493E-2,6.1974883E-6,1.5676871E-3,-1.5238975E-2,3.7098624E-2,-2.9282609E-2,3.905056E-2,1.4766578E-2,3.5352014E-2,-0E0,1.671477E-2,-2.0610267E-2,3.68455E-2,1.4555932E-2,3.6705516E-2,3.200236E-2,2.7918668E-2,1.8724435E-3],"categories":[],"categories_nodes":[],"categories_segments":[],"categories_sizes":[],"default_left":[0,0,0,0,0,0,0,0,0,0,0,0,0,0,0,0,0,0,0,0,0,0,0,0,0,0,0,0,0,0,0,0,0,0,0,0,0,0,0,0,0,0,0,0,0,0,0,0,0,0,0,0,0,0,0,0,0,0,0,0,0,0,0,0,0,0,0,0,0,0,0,0,0,0,0,0,0,0,0,0,0,0,0,0,0],"id":13,"left_children":[1,3,5,-1,7,9,11,13,15,-1,17,-1,19,-1,21,23,-1,25,27,29,31,33,35,37,-1,39,41,43,45,-1,47,49,-1,51,53,55,57,59,61,63,65,67,69,71,73,75,-1,77,79,81,83,-1,-1,-1,-1,-1,-1,-1,-1,-1,-1,-1,-1,-1,-1,-1,-1,-1,-1,-1,-1,-1,-1,-1,-1,-1,-1,-1,-1,-1,-1,-1,-1,-1,-1],"loss_changes":[3.318879E4,1.5591875E3,1.9937588E3,0E0,2.6805792E2,8.037414E2,6.399512E2,1.21578125E2,1.563987E1,0E0,4.5406775E2,0E0,1.8446777E2,0E0,5.9420715E1,7.060652E0,0E0,1.4590039E2,2.4610071E2,1.9733936E2,2.3017578E1,5.0949585E1,2.5826778E1,3.3885598E0,0E0,6.803445E1,7.789112E1,1.8094745E2,3.9400635E0,0E0,1.9057825E2,3.0651611E1,0E0,2.8529236E1,3.2307037E1,9.357155E0,5.9522915E0,3.428598E0,4.189249E0,1.2594461E2,8.9651886E1,1.1184583E2,3.4783085E1,3.458506E2,1.8184753E2,6.670532E-1,0E0,1.7639449E2,1.6729199E2,7.5498047E0,2.3714691E1,0E0,0E0,0E0,0E0,0E0,0E0,0E0,0E0,0E0,0E0,0E0,0E0,0E0,0E0,0E0,0E0,0E0,0E0,0E0,0E0,0E0,0E0,0E0,0E0,0E0,0E0,0E0,0E0,0E0,0E0,0E0,0E0,0E0,0E0],"parents":[2147483647,0,0,1,1,2,2,4,4,5,5,6,6,7,7,8,8,10,10,12,12,14,14,15,15,17,17,18,18,19,19,20,20,21,21,22,22,23,23,25,25,26,26,27,27,28,28,30,30,31,31,33,33,34,34,35,35,36,36,37,37,38,38,39,39,40,40,41,41,42,42,43,43,44,44,45,45,47,47,48,48,49,49,50,50],"right_children":[2,4,6,-1,8,10,12,14,16,-1,18,-1,20,-1,22,24,-1,26,28,30,32,34,36,38,-1,40,42,44,46,-1,48,50,-1,52,54,56,58,60,62,64,66,68,70,72,74,76,-1,78,80,82,84,-1,-1,-1,-1,-1,-1,-1,-1,-1,-1,-1,-1,-1,-1,-1,-1,-1,-1,-1,-1,-1,-1,-1,-1,-1,-1,-1,-1,-1,-1,-1,-1,-1,-1],"split_conditions":[2.0785305E-1,2E-1,5.033355E-1,-5.9411395E-2,5.247291E-1,1.6666667E-1,1.6666667E-1,1.6666667E-1,6.908059E-1,-5.9025563E-2,1.8781072E-1,-5.8376495E-2,6.685115E-1,-5.890562E-2,2.5E1,2.8104576E-1,3.5031673E-2,2.531517E-1,5.247291E-1,6E-1,8.062792E-1,2.0070833E-1,2.931959E3,1.6E1,-3.923751E-2,2.531249E-1,1E0,2.531249E-1,1.0672E4,3.6387328E-2,6.0175335E-1,8E-1,3.64226E-2,7.7E1,3.006073E-1,2.0426829E-1,9E0,6.666667E-1,6.883921E-2,2.5E-1,3.3188987E-1,5.7E2,7E0,2.5E-1,3.3333334E-1,1.9E2,-0E0,7E0,6.666667E-1,7.5E-1,7E0,-2.9980848E-2,-5.002098E-2,-1.6468398E-2,-3.3417143E-2,1.8264255E-2,-8.1706885E-3,1.4149889E-3,-4.5774203E-2,2.9786099E-2,-0E0,-4.2110607E-2,7.5365975E-3,3.378302E-2,-3.872805E-2,3.7881024E-2,-1.0547963E-2,2.1409493E-2,6.1974883E-6,1.5676871E-3,-1.5238975E-2,3.7098624E-2,-2.9282609E-2,3.905056E-2,1.4766578E-2,3.5352014E-2,-0E0,1.671477E-2,-2.0610267E-2,3.68455E-2,1.4555932E-2,3.6705516E-2,3.200236E-2,2.7918668E-2,1.8724435E-3],"split_indices":[15,15,15,0,20,20,20,20,20,0,20,0,15,0,11,18,0,19,20,15,15,19,10,12,0,15,1,15,8,0,15,15,0,16,17,18,12,20,3,15,15,4,5,15,15,7,0,5,15,15,5,0,0,0,0,0,0,0,0,0,0,0,0,0,0,0,0,0,0,0,0,0,0,0,0,0,0,0,0,0,0,0,0,0,0],"split_type":[0,0,0,0,0,0,0,0,0,0,0,0,0,0,0,0,0,0,0,0,0,0,0,0,0,0,0,0,0,0,0,0,0,0,0,0,0,0,0,0,0,0,0,0,0,0,0,0,0,0,0,0,0,0,0,0,0,0,0,0,0,0,0,0,0,0,0,0,0,0,0,0,0,0,0,0,0,0,0,0,0,0,0,0,0],"sum_hessian":[2.4800613E4,7.0857705E3,1.7714844E4,5.647725E3,1.4380453E3,6.2946187E3,1.1420225E4,1.3559938E3,8.205146E1,1.43245E2,6.1513735E3,6.899773E1,1.1351227E4,1.0374836E2,1.2522455E3,1.9125422E1,6.2926044E1,1.9143455E3,4.2370283E3,3.698118E3,7.6531084E3,1.1852048E3,6.704064E1,1.7208473E1,1.9169466E0,5.2965173E2,1.3846937E3,3.5932332E3,6.437949E2,1.3094393E3,2.3886785E3,2.4393103E3,5.2137983E3,5.6708453E2,6.1812024E2,5.600341E1,1.1037232E1,1.3906853E1,3.3016212E0,1.7265518E2,3.5699652E2,8.839818E2,5.0071198E2,3.1299637E2,3.2802368E3,6.418087E2,1.9861782E0,1.027728E3,1.3609506E3,1.8366797E3,6.0263055E2,4.841236E2,8.296094E1,4.818564E2,1.3626384E2,4.1683895E1,1.4319515E1,1.5045836E0,9.532649E0,7.6525216E0,6.254331E0,1.2665068E0,2.0351143E0,2.395247E1,1.4870271E2,3.7381775E1,3.1961475E2,4.4980972E2,4.3417206E2,3.3895627E2,1.6175568E2,1.05698654E2,2.0729773E2,3.0781445E2,2.9724224E3,6.4069507E2,1.113657E0,8.987921E2,1.289359E2,8.9079224E2,4.7015833E2,1.0090856E3,8.275941E2,5.6653723E2,3.6093307E1],"tree_param":{"num_deleted":"0","num_feature":"21","num_nodes":"85","size_leaf_vector":"1"}},{"base_weights":[8.397146E-2,-1.6916744E0,8.056258E-1,-5.771428E-2,-7.841036E-1,1.6105688E-1,9.804478E-1,-8.8591623E-1,9.1793185E-1,-5.7164058E-2,2.2574174E-1,-5.7102185E-2,1.0019255E0,-5.7218414E-2,-7.997055E-1,6.863928E-2,3.4776002E-2,1.2406144E-1,1.1405945E0,8.021702E-1,1.1653757E0,-9.150078E-1,-3.9008614E-1,3.3802715E-1,-3.826841E-2,3.1102777E-1,-1.976274E-1,8.682998E-1,3.5904765E-2,3.6265872E-2,7.2100526E-1,1.0770625E0,3.6192164E-2,-7.857274E-1,-1.2513213E0,3.2614052E-2,-5.846885E-1,5.7504904E-1,-3.19935E-1,1.3374765E-2,3.7724398E-2,-9.7177485E-3,-8.4828794E-1,1.0674226E0,3.7344256E-1,3.1014162E-1,8.8779986E-1,1.1447649E0,8.685861E-1,-9.767192E-3,-2.6297241E-2,-2.62238E-2,-4.468867E-2,1.49527425E-2,-5.2120984E-3,-4.066025E-3,-2.7206691E-2,2.3314534E-2,-9.518564E-3,-4.1024793E-2,7.402993E-3,9.870834E-3,-1.5055439E-2,3.295223E-3,-1.1237373E-2,-1.7163444E-2,-3.9834432E-2,-0E0,3.309164E-2,2.0424696E-2,-1.2495038E-2,7.2858003E-3,3.5385568E-2,3.615624E-2,2.1442195E-2,3.646017E-2,3.169058E-2,2.806088E-2,7.336875E-3],"categories":[],"categories_nodes":[],"categories_segments":[],"categories_sizes":[],"default_left":[0,0,0,0,0,0,0,0,0,0,0,0,0,0,0,0,0,0,0,0,0,0,0,0,0,0,0,0,0,0,0,0,0,0,0,0,0,0,0,0,0,0,0,0,0,0,0,0,0,0,0,0,0,0,0,0,0,0,0,0,0,0,0,0,0,0,0,0,0,0,0,0,0,0,0,0,0,0,0],"id":14,"left_children":[1,3,5,-1,7,9,11,13,15,-1,17,-1,19,-1,21,23,-1,25,27,29,31,33,35,37,-1,39,41,43,-1,-1,45,47,-1,49,51,53,55,57,59,61,-1,63,65,67,69,71,73,75,77,-1,-1,-1,-1,-1,-1,-1,-1,-1,-1,-1,-1,-1,-1,-1,-1,-1,-1,-1,-1,-1,-1,-1,-1,-1,-1,-1,-1,-1,-1],"loss_changes":[3.1418832E4,1.4884844E3,1.9633066E3,0E0,2.513006E2,4.9630505E2,8.503906E2,1.15972046E2,1.5399414E1,0E0,3.3445807E2,0E0,4.415625E2,0E0,5.791913E1,6.742565E0,0E0,1.9573769E2,2.4085083E0,1.9961328E2,2.3527344E1,3.966559E1,2.3664894E1,3.25966E0,0E0,5.786821E2,1.4509508E2,4.891922E0,0E0,0E0,3.4915454E2,3.0732422E1,0E0,2.8360077E1,2.0492645E1,8.853673E0,2.6897652E1,3.370319E0,4.0198E0,2.5499564E2,0E0,4.080914E1,3.260826E1,1.749073E0,6.0306425E0,8.4895905E1,1.9699194E2,7.661133E0,2.3333374E1,0E0,0E0,0E0,0E0,0E0,0E0,0E0,0E0,0E0,0E0,0E0,0E0,0E0,0E0,0E0,0E0,0E0,0E0,0E0,0E0,0E0,0E0,0E0,0E0,0E0,0E0,0E0,0E0,0E0,0E0],"parents":[2147483647,0,0,1,1,2,2,4,4,5,5,6,6,7,7,8,8,10,10,12,12,14,14,15,15,17,17,18,18,19,19,20,20,21,21,22,22,23,23,25,25,26,26,27,27,30,30,31,31,33,33,34,34,35,35,36,36,37,37,38,38,39,39,41,41,42,42,43,43,44,44,45,45,46,46,47,47,48,48],"right_children":[2,4,6,-1,8,10,12,14,16,-1,18,-1,20,-1,22,24,-1,26,28,30,32,34,36,38,-1,40,42,44,-1,-1,46,48,-1,50,52,54,56,58,60,62,-1,64,66,68,70,72,74,76,78,-1,-1,-1,-1,-1,-1,-1,-1,-1,-1,-1,-1,-1,-1,-1,-1,-1,-1,-1,-1,-1,-1,-1,-1,-1,-1,-1,-1,-1,-1],"split_conditions":[2.0785305E-1,2E-1,4.0703636E-1,-5.771428E-2,5.247291E-1,1.6666667E-1,1.6666667E-1,1.6666667E-1,6.908059E-1,-5.7164058E-2,5.247291E-1,-5.7102185E-2,6.685115E-1,-5.7218414E-2,2.5000513E-1,2.8104576E-1,3.4776002E-2,4E-1,6.908059E-1,5E-1,8.062792E-1,1.1E1,5E0,1.6E1,-3.826841E-2,3.3646053E-1,8E0,6.666667E-1,3.5904765E-2,3.6265872E-2,5.033355E-1,8E-1,3.6192164E-2,1.552E3,1.8292683E-1,1.61978E3,1.9188192E-1,6.5E1,6.883921E-2,3.3333334E-1,3.7724398E-2,5.7E1,1.1E1,6E0,3.159E3,6.3965076E-1,6E-1,7.5E-1,6E0,-9.767192E-3,-2.6297241E-2,-2.62238E-2,-4.468867E-2,1.49527425E-2,-5.2120984E-3,-4.066025E-3,-2.7206691E-2,2.3314534E-2,-9.518564E-3,-4.1024793E-2,7.402993E-3,9.870834E-3,-1.5055439E-2,3.295223E-3,-1.1237373E-2,-1.7163444E-2,-3.9834432E-2,-0E0,3.309164E-2,2.0424696E-2,-1.2495038E-2,7.2858003E-3,3.5385568E-2,3.615624E-2,2.1442195E-2,3.646017E-2,3.169058E-2,2.806088E-2,7.336875E-3],"split_indices":[15,15,15,0,20,20,20,20,20,0,20,0,15,0,20,18,0,15,20,15,15,5,5,12,0,15,5,20,0,0,15,15,0,8,18,10,18,16,3,15,0,16,5,12,8,20,15,15,5,0,0,0,0,0,0,0,0,0,0,0,0,0,0,0,0,0,0,0,0,0,0,0,0,0,0,0,0,0,0],"split_type":[0,0,0,0,0,0,0,0,0,0,0,0,0,0,0,0,0,0,0,0,0,0,0,0,0,0,0,0,0,0,0,0,0,0,0,0,0,0,0,0,0,0,0,0,0,0,0,0,0,0,0,0,0,0,0,0,0,0,0,0,0,0,0,0,0,0,0,0,0,0,0,0,0,0,0,0,0,0,0],"sum_hessian":[2.4517725E4,7.084192E3,1.7433533E4,5.6395156E3,1.4446761E3,3.7211797E3,1.37123545E4,1.3641427E3,8.0533516E1,1.1160944E2,3.6095703E3,1.00376755E2,1.3611978E4,1.0363416E2,1.2605085E3,1.9017815E1,6.1515697E1,3.2505232E3,3.5904712E2,6.1310913E3,7.4808857E3,9.807622E2,2.797463E2,1.7086193E1,1.9316211E0,2.0577156E3,1.1928075E3,6.731325E1,2.9173386E2,1.0156702E3,5.1154214E3,2.3894448E3,5.091441E3,7.1299384E2,2.6776834E2,8.683144E1,1.9291486E2,1.3771174E1,3.315018E0,1.5669811E3,4.9073453E2,9.274992E2,2.6530835E2,4.573313E1,2.1580116E1,1.4795973E3,3.635824E3,1.7966859E3,5.9275885E2,1.2012675E2,5.928671E2,1.0710379E2,1.6066455E2,2.771009E1,5.9121357E1,8.247187E1,1.1044298E2,1.2247102E1,1.5240726E0,1.2871745E0,2.0278435E0,9.731063E2,5.9387476E2,6.970474E2,2.3045175E2,1.7106535E2,9.424299E1,1.5329537E0,4.4200176E1,1.6545881E1,5.0342355E0,1.3755707E3,1.0402661E2,1.2787446E3,2.3570793E3,9.857591E2,8.109268E2,5.3356116E2,5.919765E1],"tree_param":{"num_deleted":"0","num_feature":"21","num_nodes":"79","size_leaf_vector":"1"}},{"base_weights":[8.2611054E-2,-1.6437775E0,7.944591E-1,-5.6159403E-2,-7.578002E-1,3.4884176E-1,1.0464991E0,-8.5503614E-1,9.07096E-1,-5.5793956E-2,4.0132618E-1,-5.518338E-2,1.0649765E0,-5.5670608E-2,-7.712874E-1,6.124641E-2,3.4528606E-2,8.360287E-3,5.8127636E-1,8.760423E-1,1.157096E0,-4.5926422E-1,-9.134785E-1,3.280545E-1,-3.7343428E-2,-4.1991523E-1,1.748181E-1,4.8080638E-1,1.1555644E0,3.5934716E-2,7.0250416E-1,1.0670967E0,3.5971332E-2,-1.5341805E0,-3.7770855E-1,-8.304959E-1,-1.4737386E0,2.6763286E-2,-0E0,-9.2203164E-1,-1.7156228E-1,3.4860978E-1,-1.2662445E-1,-2.2770783E-1,5.496556E-1,2.0131541E-2,1.1629145E0,3.7356552E-1,9.528334E-1,1.1357629E0,8.568469E-1,-5.171131E-3,-5.7724774E-2,-1.5545382E-2,1.7341055E-3,-2.2140801E-2,-3.8571864E-2,-4.852511E-2,-7.946088E-3,-3.826254E-2,7.0687365E-3,3.3445243E-2,-3.7488893E-2,3.7396476E-2,-1.0173761E-2,2.077659E-2,-8.5451E-6,-1.0135831E-2,5.25704E-3,3.673004E-2,-2.8464649E-2,3.8603567E-2,1.4200604E-2,1.6487563E-2,-1.9213809E-2,-0E0,3.4933355E-2,4.1816984E-3,3.362726E-2,3.645134E-2,1.3789598E-2,3.62251E-2,3.1385E-2,2.7717315E-2,7.151089E-3],"categories":[],"categories_nodes":[],"categories_segments":[],"categories_sizes":[],"default_left":[0,0,0,0,0,0,0,0,0,0,0,0,0,0,0,0,0,0,0,0,0,0,0,0,0,0,0,0,0,0,0,0,0,0,0,0,0,0,0,0,0,0,0,0,0,0,0,0,0,0,0,0,0,0,0,0,0,0,0,0,0,0,0,0,0,0,0,0,0,0,0,0,0,0,0,0,0,0,0,0,0,0,0,0,0],"id":15,"left_children":[1,3,5,-1,7,9,11,13,15,-1,17,-1,19,-1,21,23,-1,25,27,29,31,33,35,37,-1,39,41,43,45,-1,47,49,-1,51,53,55,57,-1,59,61,63,65,67,69,71,73,75,77,79,81,83,-1,-1,-1,-1,-1,-1,-1,-1,-1,-1,-1,-1,-1,-1,-1,-1,-1,-1,-1,-1,-1,-1,-1,-1,-1,-1,-1,-1,-1,-1,-1,-1,-1,-1],"loss_changes":[2.9775117E4,1.4260645E3,1.9250664E3,0E0,2.3567523E2,7.1807355E2,5.854121E2,1.109469E2,1.5219292E1,0E0,4.2779846E2,0E0,1.8644336E2,0E0,5.4508057E1,6.4180055E0,0E0,1.356763E2,2.3745984E2,1.9695605E2,2.4060547E1,3.2702988E1,3.6850403E1,3.1916099E0,0E0,6.508435E1,7.227985E1,1.7304535E2,3.9365845E0,0E0,1.8998499E2,3.0836182E1,0E0,1.197472E1,2.3452522E1,2.9032593E1,1.6667023E1,0E0,3.9086156E0,1.1795387E2,8.469786E1,1.0560776E2,3.2188004E1,3.284103E2,1.7910156E2,2.3093612E0,7.055664E-1,1.7521509E2,1.6838843E2,7.784424E0,2.2843079E1,0E0,0E0,0E0,0E0,0E0,0E0,0E0,0E0,0E0,0E0,0E0,0E0,0E0,0E0,0E0,0E0,0E0,0E0,0E0,0E0,0E0,0E0,0E0,0E0,0E0,0E0,0E0,0E0,0E0,0E0,0E0,0E0,0E0,0E0],"parents":[2147483647,0,0,1,1,2,2,4,4,5,5,6,6,7,7,8,8,10,10,12,12,14,14,15,15,17,17,18,18,19,19,20,20,21,21,22,22,23,23,25,25,26,26,27,27,28,28,30,30,31,31,33,33,34,34,35,35,36,36,38,38,39,39,40,40,41,41,42,42,43,43,44,44,45,45,46,46,47,47,48,48,49,49,50,50],"right_children":[2,4,6,-1,8,10,12,14,16,-1,18,-1,20,-1,22,24,-1,26,28,30,32,34,36,38,-1,40,42,44,46,-1,48,50,-1,52,54,56,58,-1,60,62,64,66,68,70,72,74,76,78,80,82,84,-1,-1,-1,-1,-1,-1,-1,-1,-1,-1,-1,-1,-1,-1,-1,-1,-1,-1,-1,-1,-1,-1,-1,-1,-1,-1,-1,-1,-1,-1,-1,-1,-1,-1],"split_conditions":[2.0785305E-1,2E-1,5.033355E-1,-5.6159403E-2,5.247291E-1,1.6666667E-1,1.6666667E-1,1.6666667E-1,6.908059E-1,-5.5793956E-2,1.8781072E-1,-5.518338E-2,6.685115E-1,-5.5670608E-2,6E0,2.8104576E-1,3.4528606E-2,2.531517E-1,5.247291E-1,6E-1,8.062792E-1,4.4075858E2,3.0384615E-1,6E-1,-3.7343428E-2,2.531249E-1,1E0,2.531249E-1,6E0,3.5934716E-2,6.0175335E-1,8E-1,3.5971332E-2,5.407E3,2.7480218E-1,1.3E1,2.133447E3,2.6763286E-2,1.4945652E-1,2.5E-1,3.3188987E-1,5.7E2,4.0703636E-1,2.5E-1,3.3333334E-1,3.561E3,5.02E2,4.1630316E-1,6.666667E-1,7.5E-1,6E0,-5.171131E-3,-5.7724774E-2,-1.5545382E-2,1.7341055E-3,-2.2140801E-2,-3.8571864E-2,-4.852511E-2,-7.946088E-3,-3.826254E-2,7.0687365E-3,3.3445243E-2,-3.7488893E-2,3.7396476E-2,-1.0173761E-2,2.077659E-2,-8.5451E-6,-1.0135831E-2,5.25704E-3,3.673004E-2,-2.8464649E-2,3.8603567E-2,1.4200604E-2,1.6487563E-2,-1.9213809E-2,-0E0,3.4933355E-2,4.1816984E-3,3.362726E-2,3.645134E-2,1.3789598E-2,3.62251E-2,3.1385E-2,2.7717315E-2,7.151089E-3],"split_indices":[15,15,15,0,20,20,20,20,20,0,20,0,15,0,5,18,0,19,20,15,15,2,18,20,0,15,1,15,12,0,15,15,0,9,20,5,10,0,17,15,15,4,15,15,15,8,4,20,15,15,5,0,0,0,0,0,0,0,0,0,0,0,0,0,0,0,0,0,0,0,0,0,0,0,0,0,0,0,0,0,0,0,0,0,0],"split_type":[0,0,0,0,0,0,0,0,0,0,0,0,0,0,0,0,0,0,0,0,0,0,0,0,0,0,0,0,0,0,0,0,0,0,0,0,0,0,0,0,0,0,0,0,0,0,0,0,0,0,0,0,0,0,0,0,0,0,0,0,0,0,0,0,0,0,0,0,0,0,0,0,0,0,0,0,0,0,0,0,0,0,0,0,0],"sum_hessian":[2.422719E4,7.0723843E3,1.7154807E4,5.622059E3,1.4503253E3,6.199745E3,1.0955061E4,1.3713223E3,7.90031E1,1.4266475E2,6.0570806E3,6.872267E1,1.0886338E4,1.03351746E2,1.2679706E3,1.8877182E1,6.0125916E1,1.904574E3,4.1525063E3,3.5751624E3,7.3111753E3,4.0046194E2,8.675086E2,1.6932533E1,1.9446484E0,5.3095685E2,1.3736171E3,3.537253E3,6.152535E2,1.248492E3,2.3266704E3,2.3403308E3,4.9708447E3,2.6120226E1,3.7434174E2,7.593109E2,1.0819766E2,5.4351873E0,1.1497347E1,1.7347946E2,3.5747742E2,8.7329456E2,5.003225E2,3.1179526E2,3.2254578E3,4.8562717E0,6.103972E2,1.0082686E3,1.3184019E3,1.7572618E3,5.830689E2,6.706679E0,1.9413548E1,2.846398E2,8.970191E1,6.351201E2,1.2419082E2,9.565644E1,1.254122E1,1.0107642E0,1.0486582E1,2.3279753E1,1.501997E2,3.6464634E1,3.210128E2,4.407151E2,4.3257947E2,2.962233E2,2.0409923E2,1.0277064E2,2.0902463E2,2.9983908E2,2.9256187E3,3.629289E0,1.226983E0,1.0858501E0,6.0931134E2,7.696332E2,2.386354E2,8.584791E2,4.599227E2,9.627456E2,7.945163E2,5.241255E2,5.8943382E1],"tree_param":{"num_deleted":"0","num_feature":"21","num_nodes":"85","size_leaf_vector":"1"}},{"base_weights":[8.129148E-2,-1.5992835E0,7.834243E-1,-5.4730147E-2,-7.326439E-1,3.410369E-1,1.037053E0,-8.256221E-1,8.965857E-1,-5.4369006E-2,3.9237544E-1,-5.3780004E-2,1.0554801E0,-5.424601E-2,-7.441755E-1,5.6177903E-2,3.4289014E-2,8.188782E-3,5.6996757E-1,8.6467445E-1,1.1490841E0,-7.9204017E-1,9.5679276E-2,3.2007185E-1,-3.645954E-2,-4.053911E-1,1.701303E-1,4.7040924E-1,1.1474112E0,3.572226E-2,6.907403E-1,1.0573435E0,3.5759598E-2,-6.2791187E-1,-1.0402329E0,3.7837958E-1,-1.1529154E0,2.6456522E-2,-0E0,-8.8699067E-1,-1.6579677E-1,3.4013575E-1,-1.2257635E-1,3.6827907E-2,4.048116E-1,1.4066166E-2,1.1548833E0,3.6485168E-1,9.4169813E-1,1.1270168E0,8.45254E-1,-1.6641632E-2,-3.7432365E-2,-1.5286354E-2,-3.427494E-2,1.8438574E-2,-7.003325E-3,1.9041685E-3,-4.2735662E-2,-3.7386205E-2,6.899387E-3,3.3192232E-2,-3.591715E-2,3.703E-2,-9.820399E-3,2.038795E-2,-8.287356E-6,1.4201904E-3,-1.4345151E-2,-9.342354E-3,1.4301254E-2,1.6227484E-2,-1.8783277E-2,3.469335E-2,-0E0,4.066359E-3,3.3275448E-2,3.6216106E-2,1.3493028E-2,3.599977E-2,3.108517E-2,2.6888926E-2,1.4096054E-3],"categories":[],"categories_nodes":[],"categories_segments":[],"categories_sizes":[],"default_left":[0,0,0,0,0,0,0,0,0,0,0,0,0,0,0,0,0,0,0,0,0,0,0,0,0,0,0,0,0,0,0,0,0,0,0,0,0,0,0,0,0,0,0,0,0,0,0,0,0,0,0,0,0,0,0,0,0,0,0,0,0,0,0,0,0,0,0,0,0,0,0,0,0,0,0,0,0,0,0,0,0,0,0],"id":16,"left_children":[1,3,5,-1,7,9,11,13,15,-1,17,-1,19,-1,21,23,-1,25,27,29,31,33,35,37,-1,39,41,43,45,-1,47,49,-1,51,53,55,57,-1,59,61,63,65,67,-1,69,71,73,75,77,79,81,-1,-1,-1,-1,-1,-1,-1,-1,-1,-1,-1,-1,-1,-1,-1,-1,-1,-1,-1,-1,-1,-1,-1,-1,-1,-1,-1,-1,-1,-1,-1,-1],"loss_changes":[2.82422E4,1.3716797E3,1.8924902E3,0E0,2.2130713E2,6.7970184E2,5.6057324E2,1.0645929E2,1.4997772E1,0E0,4.0965997E2,0E0,1.8738184E2,0E0,5.206952E1,6.1292963E0,0E0,1.2732745E2,2.3413464E2,1.9669995E2,2.4612305E1,4.690753E1,2.3865381E1,3.1100168E0,0E0,6.0439766E1,6.845216E1,1.7215826E2,3.915039E0,0E0,1.862279E2,3.0958252E1,0E0,3.0731293E1,2.3658813E1,8.8090515E0,5.4996395E0,0E0,3.752832E0,1.1017079E2,8.07764E1,1.0113551E2,3.0789196E1,0E0,1.6673706E2,2.2210083E0,7.260742E-1,1.6975941E2,1.6699976E2,7.9194336E0,2.2425323E1,0E0,0E0,0E0,0E0,0E0,0E0,0E0,0E0,0E0,0E0,0E0,0E0,0E0,0E0,0E0,0E0,0E0,0E0,0E0,0E0,0E0,0E0,0E0,0E0,0E0,0E0,0E0,0E0,0E0,0E0,0E0,0E0],"parents":[2147483647,0,0,1,1,2,2,4,4,5,5,6,6,7,7,8,8,10,10,12,12,14,14,15,15,17,17,18,18,19,19,20,20,21,21,22,22,23,23,25,25,26,26,27,27,28,28,30,30,31,31,33,33,34,34,35,35,36,36,38,38,39,39,40,40,41,41,42,42,44,44,45,45,46,46,47,47,48,48,49,49,50,50],"right_children":[2,4,6,-1,8,10,12,14,16,-1,18,-1,20,-1,22,24,-1,26,28,30,32,34,36,38,-1,40,42,44,46,-1,48,50,-1,52,54,56,58,-1,60,62,64,66,68,-1,70,72,74,76,78,80,82,-1,-1,-1,-1,-1,-1,-1,-1,-1,-1,-1,-1,-1,-1,-1,-1,-1,-1,-1,-1,-1,-1,-1,-1,-1,-1,-1,-1,-1,-1,-1,-1],"split_conditions":[2.0785305E-1,2E-1,5.033355E-1,-5.4730147E-2,5.247291E-1,1.6666667E-1,1.6666667E-1,1.6666667E-1,6.908059E-1,-5.4369006E-2,1.8781072E-1,-5.3780004E-2,6.685115E-1,-5.424601E-2,2.5E1,2.8104576E-1,3.4289014E-2,2.531517E-1,5.247291E-1,6E-1,8.062792E-1,1E0,2.931959E3,6E-1,-3.645954E-2,2.531249E-1,1E0,2E-1,6E0,3.572226E-2,6.0175335E-1,8E-1,3.5759598E-2,1.3E1,1.608E3,2.0426829E-1,9E0,2.6456522E-2,1.4945652E-1,2.5E-1,3.3188987E-1,5.7E2,7E0,3.6827907E-2,2.531249E-1,3.561E3,1.9E2,4.1630316E-1,6.666667E-1,7.5E-1,7E0,-1.6641632E-2,-3.7432365E-2,-1.5286354E-2,-3.427494E-2,1.8438574E-2,-7.003325E-3,1.9041685E-3,-4.2735662E-2,-3.7386205E-2,6.899387E-3,3.3192232E-2,-3.591715E-2,3.703E-2,-9.820399E-3,2.038795E-2,-8.287356E-6,1.4201904E-3,-1.4345151E-2,-9.342354E-3,1.4301254E-2,1.6227484E-2,-1.8783277E-2,3.469335E-2,-0E0,4.066359E-3,3.3275448E-2,3.6216106E-2,1.3493028E-2,3.599977E-2,3.108517E-2,2.6888926E-2,1.4096054E-3],"split_indices":[15,15,15,0,20,20,20,20,20,0,20,0,15,0,11,18,0,19,20,15,15,1,10,20,0,15,1,20,12,0,15,15,0,5,8,18,12,0,17,15,15,4,5,0,15,8,7,20,15,15,5,0,0,0,0,0,0,0,0,0,0,0,0,0,0,0,0,0,0,0,0,0,0,0,0,0,0,0,0,0,0,0,0],"split_type":[0,0,0,0,0,0,0,0,0,0,0,0,0,0,0,0,0,0,0,0,0,0,0,0,0,0,0,0,0,0,0,0,0,0,0,0,0,0,0,0,0,0,0,0,0,0,0,0,0,0,0,0,0,0,0,0,0,0,0,0,0,0,0,0,0,0,0,0,0,0,0,0,0,0,0,0,0,0,0,0,0,0,0],"sum_hessian":[2.3932963E4,7.0517344E3,1.6881229E4,5.596213E3,1.4555216E3,6.153821E3,1.0727408E4,1.3779885E3,7.7533104E1,1.4204688E2,6.011774E3,6.843082E1,1.0658978E4,1.02916534E2,1.275072E3,1.8775742E1,5.8757366E1,1.9025804E3,4.1091934E3,3.5149338E3,7.144044E3,1.2075021E3,6.756991E1,1.6819637E1,1.9561025E0,5.3319183E2,1.3693887E3,3.5079302E3,6.0126337E2,1.2186962E3,2.2962375E3,2.2919736E3,4.8520703E3,7.3139453E2,4.761075E2,5.6316807E1,1.1253103E1,5.3462048E0,1.14734335E1,1.748522E2,3.5833966E2,8.6831903E2,5.0106958E2,2.7704666E2,3.2308833E3,4.83358E0,5.964298E2,1.00178253E3,1.2944551E3,1.7184261E3,5.735474E2,6.5728925E2,7.410532E1,7.9470375E1,3.9663715E2,4.180486E1,1.45119505E1,1.5218834E0,9.731219E0,1.0266187E0,1.0446815E1,2.2768835E1,1.5208337E2,3.5741592E1,3.2259805E2,4.3573776E2,4.325813E2,3.377401E2,1.6332945E2,2.9316714E2,2.9377163E3,3.5934079E0,1.2401719E0,5.953603E2,1.0695493E0,7.677781E2,2.3400449E2,8.3844275E2,4.560123E2,9.400575E2,7.7836865E2,5.377844E2,3.5762993E1],"tree_param":{"num_deleted":"0","num_feature":"21","num_nodes":"83","size_leaf_vector":"1"}},{"base_weights":[8.0009766E-2,-1.5578563E0,7.725402E-1,-5.3412374E-2,-7.085904E-1,3.333607E-1,1.0278168E0,-7.975689E-1,8.862702E-1,-5.305393E-2,3.83562E-1,-5.2482978E-2,1.0461892E0,-5.2930836E-2,-7.182708E-1,5.1280394E-2,3.405675E-2,8.014664E-3,5.5877185E-1,8.534745E-1,1.1413252E0,-5.849106E-1,-1.0240933E0,3.1228396E-1,-3.5613954E-2,-3.9151898E-1,1.6554327E-1,4.601291E-1,1.1395099E0,3.55184E-2,6.7915255E-1,1.0477908E0,3.5556514E-2,-6.3608295E-1,1.4321238E-1,-8.850868E-1,-1.4981728E0,-2.1620391E-1,5.847964E-1,-8.5401046E-1,-1.6024613E-1,2.2162071E-1,-7.0406264E-1,3.6570005E-2,3.9542812E-1,8.164448E-3,1.1471082E0,7.5675446E-1,-3.7671542E-1,1.1185102E0,8.338053E-1,-2.5349207E-2,-1.3169252E-2,1.6194522E-2,-1.3532424E-2,-6.7819892E-3,-2.9513773E-2,-4.6731856E-2,1.9435657E-2,1.0980888E-2,-3.729543E-2,2.4325732E-2,-8.586247E-3,3.2945804E-2,-3.444984E-2,3.6677826E-2,-9.481305E-3,9.045503E-3,-1.2866001E-2,-1.4458203E-2,-7.5425826E-2,-9.023366E-3,1.3985735E-2,1.5971117E-2,-1.8364158E-2,-0E0,3.446097E-2,1.4445285E-2,2.8884979E-2,-2.7650299E-2,9.867761E-3,3.5783675E-2,3.0790668E-2,2.7049312E-2,6.6833654E-3],"categories":[],"categories_nodes":[],"categories_segments":[],"categories_sizes":[],"default_left":[0,0,0,0,0,0,0,0,0,0,0,0,0,0,0,0,0,0,0,0,0,0,0,0,0,0,0,0,0,0,0,0,0,0,0,0,0,0,0,0,0,0,0,0,0,0,0,0,0,0,0,0,0,0,0,0,0,0,0,0,0,0,0,0,0,0,0,0,0,0,0,0,0,0,0,0,0,0,0,0,0,0,0,0,0],"id":17,"left_children":[1,3,5,-1,7,9,11,13,15,-1,17,-1,19,-1,21,23,-1,25,27,29,31,33,35,37,-1,39,41,43,45,-1,47,49,-1,51,53,55,57,59,61,63,65,67,69,-1,71,73,75,77,79,81,83,-1,-1,-1,-1,-1,-1,-1,-1,-1,-1,-1,-1,-1,-1,-1,-1,-1,-1,-1,-1,-1,-1,-1,-1,-1,-1,-1,-1,-1,-1,-1,-1,-1,-1],"loss_changes":[2.6809803E4,1.3238164E3,1.8608105E3,0E0,2.0795154E2,6.4395544E2,5.3710254E2,1.02427246E2,1.4779274E1,0E0,3.9215192E2,0E0,1.8836816E2,0E0,5.010266E1,5.855206E0,0E0,1.1951874E2,2.3090906E2,1.9646582E2,2.5183594E1,3.4033783E1,2.1719116E1,3.0453641E0,0E0,5.620517E1,6.630261E1,1.687915E2,3.894226E0,0E0,1.864403E2,3.1094238E1,0E0,3.294211E1,1.4116777E1,1.8241776E1,1.2707733E1,4.624611E0,3.356205E0,1.0305888E2,7.707083E1,6.680551E1,2.8733932E1,0E0,1.5843372E2,2.1357226E0,7.303467E-1,1.1796094E2,6.0505608E1,8.064453E0,2.2102203E1,0E0,0E0,0E0,0E0,0E0,0E0,0E0,0E0,0E0,0E0,0E0,0E0,0E0,0E0,0E0,0E0,0E0,0E0,0E0,0E0,0E0,0E0,0E0,0E0,0E0,0E0,0E0,0E0,0E0,0E0,0E0,0E0,0E0,0E0],"parents":[2147483647,0,0,1,1,2,2,4,4,5,5,6,6,7,7,8,8,10,10,12,12,14,14,15,15,17,17,18,18,19,19,20,20,21,21,22,22,23,23,25,25,26,26,27,27,28,28,30,30,31,31,33,33,34,34,35,35,36,36,37,37,38,38,39,39,40,40,41,41,42,42,44,44,45,45,46,46,47,47,48,48,49,49,50,50],"right_children":[2,4,6,-1,8,10,12,14,16,-1,18,-1,20,-1,22,24,-1,26,28,30,32,34,36,38,-1,40,42,44,46,-1,48,50,-1,52,54,56,58,60,62,64,66,68,70,-1,72,74,76,78,80,82,84,-1,-1,-1,-1,-1,-1,-1,-1,-1,-1,-1,-1,-1,-1,-1,-1,-1,-1,-1,-1,-1,-1,-1,-1,-1,-1,-1,-1,-1,-1,-1,-1,-1,-1],"split_conditions":[2.0785305E-1,2E-1,5.033355E-1,-5.3412374E-2,5.247291E-1,1.6666667E-1,1.6666667E-1,1.6666667E-1,6.908059E-1,-5.305393E-2,1.8781072E-1,-5.2482978E-2,6.685115E-1,-5.2930836E-2,1E1,2.8104576E-1,3.405675E-2,2.531517E-1,5.247291E-1,6E-1,8.062792E-1,2.5E1,2.2336192E-1,2.0070833E-1,-3.5613954E-2,2.531249E-1,1.2E1,2E-1,6E0,3.55184E-2,8E0,8E-1,3.5556514E-2,2.3076923E-1,1.908397E-1,5.103E3,4.3815854E-1,8E2,7E1,2.5E-1,3.3188987E-1,3.8897637E-1,2.936636E-1,3.6570005E-2,2.531249E-1,3.561E3,5.02E2,6.0175335E-1,6.0175335E-1,7.5E-1,6E0,-2.5349207E-2,-1.3169252E-2,1.6194522E-2,-1.3532424E-2,-6.7819892E-3,-2.9513773E-2,-4.6731856E-2,1.9435657E-2,1.0980888E-2,-3.729543E-2,2.4325732E-2,-8.586247E-3,3.2945804E-2,-3.444984E-2,3.6677826E-2,-9.481305E-3,9.045503E-3,-1.2866001E-2,-1.4458203E-2,-7.5425826E-2,-9.023366E-3,1.3985735E-2,1.5971117E-2,-1.8364158E-2,-0E0,3.446097E-2,1.4445285E-2,2.8884979E-2,-2.7650299E-2,9.867761E-3,3.5783675E-2,3.0790668E-2,2.7049312E-2,6.6833654E-3],"split_indices":[15,15,15,0,20,20,20,20,20,0,20,0,15,0,5,18,0,19,20,15,15,11,17,19,0,15,5,20,12,0,5,15,0,19,18,9,17,8,16,15,15,17,17,0,15,8,4,15,15,15,5,0,0,0,0,0,0,0,0,0,0,0,0,0,0,0,0,0,0,0,0,0,0,0,0,0,0,0,0,0,0,0,0,0,0],"split_type":[0,0,0,0,0,0,0,0,0,0,0,0,0,0,0,0,0,0,0,0,0,0,0,0,0,0,0,0,0,0,0,0,0,0,0,0,0,0,0,0,0,0,0,0,0,0,0,0,0,0,0,0,0,0,0,0,0,0,0,0,0,0,0,0,0,0,0,0,0,0,0,0,0,0,0,0,0,0,0,0,0,0,0,0,0],"sum_hessian":[2.3634762E4,7.0228076E3,1.6611953E4,5.56277E3,1.4600375E3,6.1087104E3,1.0503243E4,1.3839526E3,7.6084885E1,1.4123752E2,5.9674727E3,6.804866E1,1.0435194E4,1.0234279E2,1.2816097E3,1.8674322E1,5.741056E1,1.900553E3,4.06692E3,3.455653E3,6.9795415E3,8.967472E2,3.8486264E2,1.6708265E1,1.9660568E0,5.352319E2,1.365321E3,3.4794272E3,5.874926E2,1.189369E3,2.266284E3,2.2443792E3,4.7351626E3,8.392637E2,5.7483482E1,3.014498E2,8.341283E1,4.5062637E0,1.2202002E1,1.7608553E2,3.5914636E2,1.2843909E3,8.093018E1,2.7073294E2,3.2086943E3,4.8111925E0,5.826814E2,2.1122712E3,1.5401282E2,1.6801954E3,5.6418365E2,4.033946E2,4.358691E2,3.5539993E1,2.1943487E1,4.1016888E1,2.6043292E2,8.1880615E1,1.5322118E0,2.6651437E0,1.84112E0,1.0654005E1,1.5479965E0,2.2266062E1,1.5381946E2,3.5022717E1,3.2412366E2,1.1457394E3,1.3865157E2,7.370454E1,7.2256446E0,2.9444058E2,2.9142537E3,3.5581453E0,1.2530475E0,1.0619912E0,5.8161945E2,9.078737E2,1.2043975E3,8.75272E1,6.648562E1,9.17706E2,7.6248944E2,5.0590408E2,5.8279583E1],"tree_param":{"num_deleted":"0","num_feature":"21","num_nodes":"85","size_leaf_vector":"1"}},{"base_weights":[7.874898E-2,-1.5192229E0,7.617812E-1,-5.2194007E-2,-6.857239E-1,3.258088E-1,1.0187408E0,-7.59436E-1,3.383138E-2,-5.183688E-2,3.748837E-1,-5.1280923E-2,1.0370536E0,-5.1713284E-2,-6.8235797E-1,7.750342E-3,5.477519E-1,8.423383E-1,1.1338022E0,-7.97718E-1,-2.965307E-1,-1.7056832E-1,3.384598E-1,4.5003334E-1,1.1318456E0,3.5322715E-2,6.6760534E-1,1.0384177E0,3.536163E-2,-6.368994E-1,-1.0296057E0,-5.8691835E-1,-5.951678E-2,3.8009908E-2,-5.010307E-1,3.566311E-2,-4.972452E-3,3.6322623E-2,3.86224E-1,2.4220285E-3,1.1395743E0,7.449372E-1,-3.6291197E-1,1.1102278E0,8.2247645E-1,-4.8607197E-2,-1.742235E-2,-2.3555247E-2,-3.6531117E-2,-4.8972573E-2,-1.2185477E-2,1.954825E-3,-3.0016936E-2,-7.351868E-3,3.7551805E-2,-1.2816297E-3,-2.6284538E-2,1.4128917E-3,-2.8908087E-2,-8.716852E-3,1.3675649E-2,1.8902494E-2,-1.3465028E-2,3.4235965E-2,-0E0,1.4133509E-2,2.8562767E-2,-2.6411314E-2,9.63488E-3,3.557633E-2,3.0501094E-2,2.6718207E-2,6.512027E-3],"categories":[],"categories_nodes":[],"categories_segments":[],"categories_sizes":[],"default_left":[0,0,0,0,0,0,0,0,0,0,0,0,0,0,0,0,0,0,0,0,0,0,0,0,0,0,0,0,0,0,0,0,0,0,0,0,0,0,0,0,0,0,0,0,0,0,0,0,0,0,0,0,0,0,0,0,0,0,0,0,0,0,0,0,0,0,0,0,0,0,0,0,0],"id":18,"left_children":[1,3,5,-1,7,9,11,13,-1,-1,15,-1,17,-1,19,21,23,25,27,29,31,33,35,37,39,-1,41,43,-1,45,47,49,51,53,55,-1,57,-1,59,61,63,65,67,69,71,-1,-1,-1,-1,-1,-1,-1,-1,-1,-1,-1,-1,-1,-1,-1,-1,-1,-1,-1,-1,-1,-1,-1,-1,-1,-1,-1,-1],"loss_changes":[2.5469062E4,1.2809883E3,1.8297607E3,0E0,1.9628516E2,6.10587E2,5.148721E2,1.0112317E2,0E0,0E0,3.7547632E2,0E0,1.8952734E2,0E0,5.684369E1,1.1224927E2,2.2772327E2,1.9635376E2,2.5773438E1,3.5103638E1,2.027127E1,8.545967E1,1.9619125E2,1.6552179E2,3.8739624E0,0E0,1.7900208E2,3.124707E1,0E0,2.9866669E1,1.5745239E1,2.277034E1,2.1019976E1,2.6066953E2,8.138935E1,0E0,2.4711681E1,0E0,1.5053128E2,2.1037374E0,7.503052E-1,1.1628284E2,5.605992E1,8.220337E0,2.1632416E1,0E0,0E0,0E0,0E0,0E0,0E0,0E0,0E0,0E0,0E0,0E0,0E0,0E0,0E0,0E0,0E0,0E0,0E0,0E0,0E0,0E0,0E0,0E0,0E0,0E0,0E0,0E0,0E0],"parents":[2147483647,0,0,1,1,2,2,4,4,5,5,6,6,7,7,10,10,12,12,14,14,15,15,16,16,17,17,18,18,19,19,20,20,21,21,22,22,23,23,24,24,26,26,27,27,29,29,30,30,31,31,32,32,33,33,34,34,36,36,38,38,39,39,40,40,41,41,42,42,43,43,44,44],"right_children":[2,4,6,-1,8,10,12,14,-1,-1,16,-1,18,-1,20,22,24,26,28,30,32,34,36,38,40,-1,42,44,-1,46,48,50,52,54,56,-1,58,-1,60,62,64,66,68,70,72,-1,-1,-1,-1,-1,-1,-1,-1,-1,-1,-1,-1,-1,-1,-1,-1,-1,-1,-1,-1,-1,-1,-1,-1,-1,-1,-1,-1],"split_conditions":[2.0785305E-1,2E-1,5.033355E-1,-5.2194007E-2,6.908059E-1,1.6666667E-1,1.6666667E-1,1.6666667E-1,3.383138E-2,-5.183688E-2,1.8781072E-1,-5.1280923E-2,6.685115E-1,-5.1713284E-2,2.5000513E-1,4.0703636E-1,5.247291E-1,6E-1,8.062792E-1,1E0,1.9E1,4E-1,5E-1,2E-1,6E0,3.5322715E-2,8E0,8E-1,3.536163E-2,4.63E3,8E0,2.7480218E-1,1.37E2,3.3646053E-1,5E0,3.566311E-2,1.2E1,3.6322623E-2,2.531249E-1,5.176E3,1.9E2,6.0175335E-1,6.0175335E-1,7.5E-1,6E0,-4.8607197E-2,-1.742235E-2,-2.3555247E-2,-3.6531117E-2,-4.8972573E-2,-1.2185477E-2,1.954825E-3,-3.0016936E-2,-7.351868E-3,3.7551805E-2,-1.2816297E-3,-2.6284538E-2,1.4128917E-3,-2.8908087E-2,-8.716852E-3,1.3675649E-2,1.8902494E-2,-1.3465028E-2,3.4235965E-2,-0E0,1.4133509E-2,2.8562767E-2,-2.6411314E-2,9.63488E-3,3.557633E-2,3.0501094E-2,2.6718207E-2,6.512027E-3],"split_indices":[15,15,15,0,20,20,20,20,0,0,20,0,15,0,20,15,20,15,15,1,11,15,15,20,12,0,5,15,0,9,5,20,6,15,5,0,5,0,15,9,7,15,15,15,5,0,0,0,0,0,0,0,0,0,0,0,0,0,0,0,0,0,0,0,0,0,0,0,0,0,0,0,0],"split_type":[0,0,0,0,0,0,0,0,0,0,0,0,0,0,0,0,0,0,0,0,0,0,0,0,0,0,0,0,0,0,0,0,0,0,0,0,0,0,0,0,0,0,0,0,0,0,0,0,0,0,0,0,0,0,0,0,0,0,0,0,0,0,0,0,0,0,0,0,0,0,0,0,0],"sum_hessian":[2.3333357E4,6.986221E3,1.6347136E4,5.522467E3,1.4637546E3,6.064284E3,1.0282853E4,1.4076687E3,5.6085884E1,1.4025504E2,5.924029E3,6.758478E1,1.0215268E4,1.0164373E2,1.306025E3,1.8986182E3,4.025411E3,3.3975127E3,6.817755E3,1.0025955E3,3.0342947E2,1.2318594E3,6.6675867E2,3.451465E3,5.7394574E2,1.1605206E3,2.236992E3,2.1975894E3,4.6201655E3,5.967777E2,4.058178E2,1.3380147E2,1.69628E2,7.538869E2,4.7797256E2,1.9195181E2,4.7480685E2,2.6450055E2,3.1869646E3,4.789113E0,5.691566E2,2.0820022E3,1.5498965E2,1.6425842E3,5.550051E2,2.9771736E1,5.67006E2,1.8104419E2,2.2477362E2,1.7721727E1,1.1607975E2,1.4966702E2,1.9960983E1,6.1129114E2,1.4259573E2,2.1683301E2,2.6113953E2,4.502584E2,2.4548456E1,2.9566647E2,2.891298E3,2.764151E0,2.0249622E0,5.6811066E2,1.0459845E0,9.0020355E2,1.1817987E3,8.890941E1,6.6080246E1,8.957013E2,7.4688293E2,4.9695663E2,5.8048527E1],"tree_param":{"num_deleted":"0","num_feature":"21","num_nodes":"73","size_leaf_vector":"1"}},{"base_weights":[7.7528566E-2,-1.483025E0,7.5122076E-1,-5.1064644E-2,-6.638413E-1,3.1848896E-1,1.0098428E0,-7.3450345E-1,3.3612505E-2,-5.070763E-2,3.664592E-1,-5.016403E-2,1.0280918E0,-5.0583173E-2,-6.593507E-1,7.6022386E-3,5.3690475E-1,8.313428E-1,1.126502E0,-7.7027124E-1,-2.8733888E-1,-3.739079E-1,1.595137E-1,4.401181E-1,1.1244122E0,3.5134792E-2,6.5621364E-1,1.0292145E0,3.517454E-2,-6.153317E-1,-9.932932E-1,-1.0261581E0,-1.9564494E-1,3.2758795E-2,-4.4002783E-1,3.2475722E-1,-1.21732585E-1,3.6085192E-2,3.7719613E-1,-0E0,1.1322674E0,3.395705E-1,9.0892696E-1,1.1021554E0,8.1126845E-1,-1.585623E-2,-3.700837E-2,-1.5157878E-2,-3.237588E-2,1.3061471E-2,-4.2484034E-2,-2.7842144E-3,-2.6753489E-2,-3.278708E-2,-4.576537E-3,1.9760752E-2,-1.2410525E-4,-6.2876167E-3,1.595074E-2,-7.216484E-3,1.3579718E-2,1.5623647E-2,-1.7971063E-2,-0E0,3.401771E-2,3.3884193E-3,3.2693747E-2,3.5660945E-2,1.1995061E-2,3.53773E-2,3.0216072E-2,2.5896128E-2,9.930959E-4],"categories":[],"categories_nodes":[],"categories_segments":[],"categories_sizes":[],"default_left":[0,0,0,0,0,0,0,0,0,0,0,0,0,0,0,0,0,0,0,0,0,0,0,0,0,0,0,0,0,0,0,0,0,0,0,0,0,0,0,0,0,0,0,0,0,0,0,0,0,0,0,0,0,0,0,0,0,0,0,0,0,0,0,0,0,0,0,0,0,0,0,0,0],"id":19,"left_children":[1,3,5,-1,7,9,11,13,-1,-1,15,-1,17,-1,19,21,23,25,27,29,31,33,35,37,39,-1,41,43,-1,45,47,49,51,-1,53,55,57,-1,59,61,63,65,67,69,71,-1,-1,-1,-1,-1,-1,-1,-1,-1,-1,-1,-1,-1,-1,-1,-1,-1,-1,-1,-1,-1,-1,-1,-1,-1,-1,-1,-1],"loss_changes":[2.4212469E4,1.2430205E3,1.7986895E3,0E0,1.8553595E2,5.794467E2,4.9379297E2,9.76178E1,0E0,0E0,3.5919983E2,0E0,1.9072949E2,0E0,5.2879578E1,1.0978012E2,2.2457751E2,1.9625586E2,2.638379E1,3.262451E1,1.9247986E1,5.2034225E1,6.341234E1,1.6234088E2,3.84021E0,0E0,1.7522424E2,3.1412598E1,0E0,2.97975E1,1.5020782E1,1.9977428E1,1.8539093E1,0E0,9.557432E1,9.496846E1,2.8580753E1,0E0,1.4793875E2,2.0346823E0,7.546997E-1,1.6595966E2,1.725951E2,8.38562E0,2.1181915E1,0E0,0E0,0E0,0E0,0E0,0E0,0E0,0E0,0E0,0E0,0E0,0E0,0E0,0E0,0E0,0E0,0E0,0E0,0E0,0E0,0E0,0E0,0E0,0E0,0E0,0E0,0E0,0E0],"parents":[2147483647,0,0,1,1,2,2,4,4,5,5,6,6,7,7,10,10,12,12,14,14,15,15,16,16,17,17,18,18,19,19,20,20,21,21,22,22,23,23,24,24,26,26,27,27,29,29,30,30,31,31,32,32,34,34,35,35,36,36,38,38,39,39,40,40,41,41,42,42,43,43,44,44],"right_children":[2,4,6,-1,8,10,12,14,-1,-1,16,-1,18,-1,20,22,24,26,28,30,32,34,36,38,40,-1,42,44,-1,46,48,50,52,-1,54,56,58,-1,60,62,64,66,68,70,72,-1,-1,-1,-1,-1,-1,-1,-1,-1,-1,-1,-1,-1,-1,-1,-1,-1,-1,-1,-1,-1,-1,-1,-1,-1,-1,-1,-1],"split_conditions":[2.0785305E-1,2E-1,5.033355E-1,-5.1064644E-2,6.908059E-1,1.6666667E-1,1.6666667E-1,1.6666667E-1,3.3612505E-2,-5.070763E-2,1.8781072E-1,-5.016403E-2,6.685115E-1,-5.0583173E-2,2.5000513E-1,2.531517E-1,5.247291E-1,6E-1,8.062792E-1,1E0,1.2E1,2.5E-1,1E0,2E-1,6E0,3.5134792E-2,6.0175335E-1,8E-1,3.517454E-2,1.3E1,1.552E3,4E0,3.0384615E-1,3.2758795E-2,2.531249E-1,5.7E2,5.61E2,3.6085192E-2,2.0153588E-1,3.561E3,5.02E2,4.1630316E-1,6.666667E-1,7.5E-1,7E0,-1.585623E-2,-3.700837E-2,-1.5157878E-2,-3.237588E-2,1.3061471E-2,-4.2484034E-2,-2.7842144E-3,-2.6753489E-2,-3.278708E-2,-4.576537E-3,1.9760752E-2,-1.2410525E-4,-6.2876167E-3,1.595074E-2,-7.216484E-3,1.3579718E-2,1.5623647E-2,-1.7971063E-2,-0E0,3.401771E-2,3.3884193E-3,3.2693747E-2,3.5660945E-2,1.1995061E-2,3.53773E-2,3.0216072E-2,2.5896128E-2,9.930959E-4],"split_indices":[15,15,15,0,20,20,20,20,0,0,20,0,15,0,20,19,20,15,15,1,11,15,1,20,12,0,15,15,0,5,8,5,18,0,15,4,4,0,20,8,4,20,15,15,5,0,0,0,0,0,0,0,0,0,0,0,0,0,0,0,0,0,0,0,0,0,0,0,0,0,0,0,0],"split_type":[0,0,0,0,0,0,0,0,0,0,0,0,0,0,0,0,0,0,0,0,0,0,0,0,0,0,0,0,0,0,0,0,0,0,0,0,0,0,0,0,0,0,0,0,0,0,0,0,0,0,0,0,0,0,0,0,0,0,0,0,0,0,0,0,0,0,0,0,0,0,0,0,0],"sum_hessian":[2.3028898E4,6.9430947E3,1.6085804E4,5.4759824E3,1.4671124E3,6.0196665E3,1.0066137E4,1.4123286E3,5.4783783E1,1.3911642E2,5.8805503E3,6.704716E1,9.99909E3,1.0083166E2,1.311497E3,1.8958756E3,3.9846746E3,3.3403774E3,6.658712E3,1.00737524E3,3.041217E2,5.3762964E2,1.358246E3,3.4240447E3,5.606299E2,1.1321603E3,2.208217E3,2.1516025E3,4.5071094E3,5.99281E2,4.0809424E2,3.1247738E1,2.7287396E2,2.1881512E1,5.157481E2,8.5770856E2,5.0053745E2,2.5835324E2,3.1656914E3,4.770202E0,5.558597E2,9.82931E2,1.225286E3,1.6056033E3,5.459994E2,5.2855743E2,7.072358E1,6.3853367E1,3.4424088E2,6.016944E0,2.5230795E1,2.3999086E2,3.2883106E1,1.5575038E2,3.599977E2,4.266042E2,4.3110437E2,4.4316266E2,5.737479E1,3.4293033E2,2.8227612E3,3.5052109E0,1.264991E0,1.038605E0,5.548211E2,7.5680316E2,2.2612791E2,7.886076E2,4.3667844E2,8.740511E2,7.315522E2,5.1053143E2,3.546794E1],"tree_param":{"num_deleted":"0","num_feature":"21","num_nodes":"73","size_leaf_vector":"1"}},{"base_weights":[7.634202E-2,-1.4490396E0,7.4075514E-1,-5.0015304E-2,-6.428673E-1,3.1124315E-1,1.0011352E0,-7.106499E-1,3.339974E-2,-4.9657322E-2,3.5811156E-1,-4.9123757E-2,1.0193168E0,-4.9531702E-2,-6.373192E-1,2.7918026E-1,1.1171796E0,8.205495E-1,1.1194127E0,-7.44097E-1,-2.7835715E-1,8.886166E-2,5.6331295E-1,-0E0,1.1251743E0,3.4954235E-2,6.4507294E-1,1.0201707E0,3.499487E-2,-6.6841173E-1,-1.185536E0,-5.537539E-1,-5.2129097E-2,2.777361E-1,-2.3272611E-1,3.5580333E-2,1.9136804E-1,1.8546915E-2,-1.3223435E-2,1.1268669E0,-0E0,7.229725E-1,-3.6795917E-1,1.0942789E0,8.0017954E-1,-2.7345983E-2,-1.5334357E-2,-1.2695967E-2,-4.1023836E-2,-2.699731E-2,-2.0450582E-3,2.053038E-3,-2.8681332E-2,-1.5871243E-4,3.6906973E-2,-1.6124672E-3,-2.5111247E-2,9.121662E-3,-6.8580126E-3,-0E0,3.3856675E-2,1.3603346E-2,2.794691E-2,-2.5588192E-2,8.8073015E-3,3.5186157E-2,2.9935235E-2,2.6072621E-2,6.0741147E-3],"categories":[],"categories_nodes":[],"categories_segments":[],"categories_sizes":[],"default_left":[0,0,0,0,0,0,0,0,0,0,0,0,0,0,0,0,0,0,0,0,0,0,0,0,0,0,0,0,0,0,0,0,0,0,0,0,0,0,0,0,0,0,0,0,0,0,0,0,0,0,0,0,0,0,0,0,0,0,0,0,0,0,0,0,0,0,0,0,0],"id":20,"left_children":[1,3,5,-1,7,9,11,13,-1,-1,15,-1,17,-1,19,21,23,25,27,29,31,33,35,37,39,-1,41,43,-1,45,47,49,51,53,55,-1,57,-1,-1,59,-1,61,63,65,67,-1,-1,-1,-1,-1,-1,-1,-1,-1,-1,-1,-1,-1,-1,-1,-1,-1,-1,-1,-1,-1,-1,-1,-1],"loss_changes":[2.303156E4,1.209127E3,1.7688467E3,0E0,1.7548822E2,5.502485E2,4.737871E2,9.440674E1,0E0,0E0,3.4819006E2,0E0,1.9187402E2,0E0,4.9269775E1,2.8549048E2,3.8215942E0,1.9608618E2,2.7010742E1,3.1188843E1,1.8417692E1,1.9282208E2,4.8956616E2,2.0090294E0,7.739258E-1,0E0,1.7272577E2,3.1587646E1,0E0,3.1326782E1,1.773935E1,2.1800003E1,1.9587154E1,5.407269E2,1.2588321E2,0E0,6.308058E1,0E0,0E0,7.44812E-1,0E0,1.12119995E2,5.069143E1,8.560425E0,2.091742E1,0E0,0E0,0E0,0E0,0E0,0E0,0E0,0E0,0E0,0E0,0E0,0E0,0E0,0E0,0E0,0E0,0E0,0E0,0E0,0E0,0E0,0E0,0E0,0E0],"parents":[2147483647,0,0,1,1,2,2,4,4,5,5,6,6,7,7,10,10,12,12,14,14,15,15,16,16,17,17,18,18,19,19,20,20,21,21,22,22,23,23,24,24,26,26,27,27,29,29,30,30,31,31,32,32,33,33,34,34,36,36,39,39,41,41,42,42,43,43,44,44],"right_children":[2,4,6,-1,8,10,12,14,-1,-1,16,-1,18,-1,20,22,24,26,28,30,32,34,36,38,40,-1,42,44,-1,46,48,50,52,54,56,-1,58,-1,-1,60,-1,62,64,66,68,-1,-1,-1,-1,-1,-1,