tree
version=v4
num_class=1
num_tree_per_iteration=1
label_index=0
max_feature_idx=24
objective=binary sigmoid:1
feature_names=BAREI SEIBETSU_CODE BATAIJU BATAIJU_DIFF FUTAN_JURYO FUTAN_JURYO_DIFF KISHU_CODE CHOKYOSHI_CODE KYORI TRACK_CODE SHUSSO_TOSU KISHU_3IN_RATE CHOKYOSHI_3IN_RATE UMA_5R_3IN_RATE RACE_KANKAKU SHUSSO_KAISU TENKO_JOTAI_GENZAI BABA_JOTAI_SHIBA_GENZAI BABA_JOTAI_DIRT_GENZAI COURSE_3IN_RATE COURSE_CHAKUJUN_MEAN KYORI_3IN_RATE KYORI_CHAKUJUN_MEAN ZEN_5R_CHAKUJUN_SLOPE ZEN_5R_BATAIJU_SLOPE
feature_infos=[2:12] [0:2] [0:999] [-556:556] [480:650] [-80:80] [0:224] [0:245] [0:4100] [0:56] [0:23] [0:1] [0:1] [0:18] [0:818] [0:38] none none none [0:1] [0:18] [0:1] [0:18] [-17:17] [-538:514]
tree_sizes=6852

Tree=0
num_leaves=63
num_cat=0
split_feature=13 22 11 11 22 13 10 10 10 15 12 10 10 10 15 10 0 0 10 10 10 12 22 22 10 0 0 15 11 0 0 0 1 1 14 23 22 22 0 20 10 10 10 10 11 14 23 15 11 11 19 10 10 12 11 0 8 14 3 11 14 13
split_gain=7223.65 2188.9 1661.08 1520.02 1397.63 727.669 654.123 511.934 414.61 391.301 334.214 326.159 291.464 283.91 274.832 268.29 246.659 213.543 213.397 241.8 209.652 198.01 183.61 364.262 173.482 166.374 156.703 152.202 147.672 146.742 166.975 141.14 131.842 170.453 111.217 118.063 108.729 152.992 105.82 104.389 113.091 129.681 102.796 135.634 99.4898 99.2999 98.915 91.8257 81.8882 77.7211 75.1005 74.9239 144.944 72.1649 72.0617 70.3593 77.7219 63.3137 62.4666 62.1853 60.6373 55.3272
threshold=7.9989644914598124 1.0000000180025095e-35 0.23333354172815238 0.23601321468161041 4.9963994434848695 10.999821829405549 15.999805144133804 15.999805144133804 15.999805144133804 1.0001485344861527 0.20338431511952804 15.00009743116866 14.998461404719606 15.999805144133804 1.9913433265891034 15.999805144133804 3.9999972316621313 4.9933369479781868 15.00009743116866 14.998461404719606 14.000067497646576 0.29231197347798732 1.0000000180025095e-35 4.9963994434848695 14.000067497646576 4.9933369479781868 4.9933369479781868 2.0001480831643996 0.18799477806788514 3.0000623265902084 2.9999374306217126 4.000562213517906 0.99986604214783636 0.0084973032391746934 2.6871535225630665 0.59485301215454756 0.99993180410619231 1.0001251387565757 4.9933369479781868 7.9923088892240672 15.999805144133804 15.020622164491806 17.999669840740527 16.00030707503376 0.23601321468161041 22.28752538080445 1.3920245440863623 2.9996623050726643 0.15385302383893432 0.31518750364719933 0.01277429866099772 15.00009743116866 14.998461404719606 0.21614052678876475 0.28973236939788655 2.9999374306217126 1261.4435746904578 14.99422306726472 -4.3697387318085745 0.20372499163453234 57.000269348365883 11.801198352744786
decision_type=2 2 2 2 2 2 2 2 2 2 2 2 2 2 2 2 2 2 2 2 2 2 2 2 2 2 2 2 2 2 2 2 2 2 2 2 2 2 2 2 2 2 2 2 2 2 2 2 2 2 2 2 2 2 2 2 2 2 2 2 2 2
left_child=1 2 6 5 13 10 11 16 18 45 39 12 20 36 -11 27 29 42 19 24 -1 34 48 -24 -6 32 31 -16 -7 30 -4 44 33 -9 59 -36 -3 54 -39 40 41 -2 43 -15 -10 -5 53 -29 -12 -21 -25 52 -18 -17 -38 -23 -57 -14 -28 -8 -30 -47
right_child=3 4 7 9 8 28 21 25 26 14 22 -13 57 17 15 46 51 -19 -20 49 -22 55 23 50 -26 -27 58 47 60 -31 -32 -33 -34 -35 35 -37 37 38 -40 -41 -42 -43 -44 -45 -46 61 -48 -49 -50 -51 -52 -53 -54 -55 -56 56 -58 -59 -60 -61 -62 -63
leaf_value=0.025985466656844019 -0.0025344252700717964 0.05984012560862325 0.050261100235567062 -0.016312018221535472 0.038586134128322853 -0.036153567133606242 -0.017288954387039125 0.03321034419876346 0.017367832935627953 0.059666059797531264 -0.024245631842080315 0.059658533254356799 -0.0078114303784635377 0.046243062322356594 0.010754695991333678 -0.010133545735653613 0.037093911296731293 0.028460826504682808 0.059818272594158999 0.0060489325397849293 0.059520078879247415 0.03501190016032129 0.050098134771916672 0.0061676924076425159 0.059780329463068591 0.0067333953521699214 -0.029833656409291715 0.059473368527249319 -0.022858609092532619 0.059890507381052782 0.038535223355113023 0.05929099247544467 0.023538089144569251 0.059660065583226111 0.017328063740029289 -0.019789872821839676 0.018292773361555627 0.054566690371941368 0.044966514293865695 -0.042703447118977708 -0.020954044416298855 0.057461552171943465 0.035068018874252302 0.057560953171656715 0.033200007537780983 0.018439561698522115 -0.015645158979412106 0.034859672241488025 0.0042629897132918856 0.033862349399248391 0.049724602741044316 0.059248807091587648 0.010615097130047109 0.022563827135542041 0.043607604397506654 0.028391558924679997 0.0028119142580215902 0.015773506088240578 0.011369079269717426 0.0034055875732596063 0.0016315843028938551 -0.004040682127322141
leaf_weight=1828.2180984020233 372.71415662765503 2626.062385559082 3030.1432209014893 160.96662449836731 2768.7007329463959 624.56181526184082 471.77130722999573 1473.822979927063 673.84254217147827 268.50932931900024 121.14283132553101 262.56885743141174 252.05468273162842 3429.2692289352417 210.99990963935852 75.140453815460205 1717.3204216957092 560.20684337615967 494.24726104736328 252.00704216957092 186.53081727027893 153.87372088432312 259.55696988105774 673.87354016304016 408.70446586608887 255.82132530212402 35.066660642623901 169.89749598503113 201.03090763092041 820.97321486473083 1796.3632168769836 125.93800401687622 1023.3566265106201 263.75695180892944 314.66413855552673 100.51664257049561 141.42136144638062 11362.23976111412 1216.2825622558594 86.630943775177002 329.92849397659302 34.454736948013306 515.20446586608887 1401.1871004104614 799.3733594417572 299.28557229042053 119.95949196815491 866.53045582771301 347.78081727027893 143.61896586418152 36.954736948013306 118.80943775177002 213.43800401687622 284.28557229042053 427.24735140800476 162.24753212928772 319.52130722999573 170.61658835411072 370.98555421829224 177.10945582389832 161.41660642623901 143.28328514099121
leaf_count=3174 928 2219 3325 460 3889 2108 1358 2278 1322 226 372 221 663 4126 450 203 2479 935 416 569 157 229 284 1521 344 573 114 143 609 691 2525 106 1842 222 617 297 273 11186 1503 309 982 29 770 1267 1235 578 341 1301 802 218 39 100 456 518 542 270 749 341 786 412 383 363
internal_value=0.0391376 0.0434051 0.0342069 0.00785556 0.0484119 -0.00581265 0.0186679 0.0405829 0.0356631 0.0249558 0.00355216 0.0278451 0.0243827 0.0519797 0.0313573 0.0269061 0.0447 0.0463024 0.0411812 0.0385788 0.0291331 0.00406434 0.0122811 0.0197276 0.0413397 0.0300572 0.0244403 0.0342396 -0.0272967 0.0479596 0.045912 0.0286718 0.0322043 0.0372746 -0.0038273 0.00824365 0.0541005 0.0529473 0.0536444 -0.01166 -0.00791787 0.00259729 0.0481608 0.0495435 0.0259955 0.00372539 0.00772948 0.0389769 -0.00307408 0.0162812 0.00854096 0.0356848 0.0341893 0.0156358 0.0374079 0.0173073 0.0115296 0.00165288 0.00767256 -0.0115977 -0.0118948 0.0111012
internal_weight=48714 42865.1 15113.5 5848.9 27751.6 3250.05 4399.69 10713.8 6072.48 2598.86 2263.04 2699.99 2437.42 21679.1 1995.32 1726.81 7697.05 5905.87 4067.28 3573.03 2014.75 1699.7 1439.31 970.385 3177.41 3016.76 2005.21 1247.43 987.009 5647.48 4826.51 1599.15 2760.94 1737.58 1064.06 415.181 15773.3 13147.2 12578.5 823.728 737.097 407.169 5345.66 4830.46 1473.22 603.535 479.386 1036.43 468.924 395.626 710.828 2049.57 1930.76 359.426 568.669 635.643 481.769 422.671 406.052 648.881 362.448 442.569
internal_count=67748 54799 22979 12949 31820 8366 8488 14491 8999 4583 5266 4556 4335 22821 3182 2956 9576 7098 5436 5020 3331 3932 3018 1844 4233 4915 3563 1894 3100 6541 5850 2663 4342 2500 2684 914 15723 13504 12689 2248 1939 957 6163 5393 2557 1401 1062 1444 1174 787 1560 3035 2935 721 815 1248 1019 1004 900 1770 992 941
is_linear=0
shrinkage=0.03


end of trees

feature_importances:
SHUSSO_TOSU=17
BAREI=9
KISHU_3IN_RATE=8
KYORI_CHAKUJUN_MEAN=6
RACE_KANKAKU=4
SHUSSO_KAISU=4
CHOKYOSHI_3IN_RATE=3
UMA_5R_3IN_RATE=3
SEIBETSU_CODE=2
ZEN_5R_CHAKUJUN_SLOPE=2
BATAIJU_DIFF=1
KYORI=1
COURSE_3IN_RATE=1
COURSE_CHAKUJUN_MEAN=1

parameters:
[boosting: gbdt]
[objective: binary]
[metric: binary_logloss]
[tree_learner: serial]
[device_type: cpu]
[data_sample_strategy: bagging]
[data: ]
[valid: ]
[num_iterations: 200]
[learning_rate: 0.03]
[num_leaves: 63]
[num_threads: 0]
[seed: 0]
[deterministic: 0]
[force_col_wise: 0]
[force_row_wise: 0]
[histogram_pool_size: -1]
[max_depth: 7]
[min_data_in_leaf: 20]
[min_sum_hessian_in_leaf: 0.001]
[bagging_fraction: 1]
[pos_bagging_fraction: 1]
[neg_bagging_fraction: 1]
[bagging_freq: 0]
[bagging_seed: 3]
[bagging_by_query: 0]
[feature_fraction: 0.9]
[feature_fraction_bynode: 1]
[feature_fraction_seed: 2]
[extra_trees: 0]
[extra_seed: 6]
[early_stopping_round: 0]
[early_stopping_min_delta: 0]
[first_metric_only: 0]
[max_delta_step: 0]
[lambda_l1: 1]
[lambda_l2: 1]
[linear_lambda: 0]
[min_gain_to_split: 0]
[drop_rate: 0.1]
[max_drop: 50]
[skip_drop: 0.5]
[xgboost_dart_mode: 0]
[uniform_drop: 0]
[drop_seed: 4]
[top_rate: 0.2]
[other_rate: 0.1]
[min_data_per_group: 100]
[max_cat_threshold: 32]
[cat_l2: 10]
[cat_smooth: 10]
[max_cat_to_onehot: 4]
[top_k: 20]
[monotone_constraints: ]
[monotone_constraints_method: basic]
[monotone_penalty: 0]
[feature_contri: ]
[forcedsplits_filename: ]
[refit_decay_rate: 0.9]
[cegb_tradeoff: 1]
[cegb_penalty_split: 0]
[cegb_penalty_feature_lazy: ]
[cegb_penalty_feature_coupled: ]
[path_smooth: 0]
[interaction_constraints: ]
[verbosity: -1]
[saved_feature_importance_type: 0]
[use_quantized_grad: 0]
[num_grad_quant_bins: 4]
[quant_train_renew_leaf: 0]
[stochastic_rounding: 1]
[linear_tree: 0]
[max_bin: 255]
[max_bin_by_feature: ]
[min_data_in_bin: 3]
[bin_construct_sample_cnt: 200000]
[data_random_seed: 1]
[is_enable_sparse: 1]
[enable_bundle: 1]
[use_missing: 1]
[zero_as_missing: 0]
[feature_pre_filter: 1]
[pre_partition: 0]
[two_round: 0]
[header: 0]
[label_column: ]
[weight_column: ]
[group_column: ]
[ignore_column: ]
[categorical_feature: ]
[forcedbins_filename: ]
[precise_float_parser: 0]
[parser_config_file: ]
[objective_seed: 5]
[num_class: 1]
[is_unbalance: 0]
[scale_pos_weight: 4.75238]
[sigmoid: 1]
[boost_from_average: 1]
[reg_sqrt: 0]
[alpha: 0.9]
[fair_c: 1]
[poisson_max_delta_step: 0.7]
[tweedie_variance_power: 1.5]
[lambdarank_truncation_level: 30]
[lambdarank_norm: 1]
[label_gain: ]
[lambdarank_position_bias_regularization: 0]
[eval_at: ]
[multi_error_top_k: 1]
[auc_mu_weights: ]
[num_machines: 1]
[local_listen_port: 12400]
[time_out: 120]
[machine_list_filename: ]
[machines: ]
[gpu_platform_id: -1]
[gpu_device_id: -1]
[gpu_use_dp: 0]
[num_gpu: 1]

end of parameters

pandas_categorical:[]
