{"learner":{"attributes":{"scikit_learn":"{\"_estimator_type\": \"classifier\"}"},"feature_names":["BAREI","SEIBETSU_CODE","BATAIJU","BATAIJU_DIFF","FUTAN_JURYO","FUTAN_JURYO_DIFF","KISHU_CODE","CHOKYOSHI_CODE","KYORI","TRACK_CODE","SHUSSO_TOSU","KISHU_3IN_RATE","CHOKYOSHI_3IN_RATE","UMA_5R_3IN_RATE","RACE_KANKAKU","SHUSSO_KAISU","TENKO_JOTAI_GENZAI","BABA_JOTAI_SHIBA_GENZAI","BABA_JOTAI_DIRT_GENZAI","COURSE_3IN_RATE","COURSE_CHAKUJUN_MEAN","KYORI_3IN_RATE","KYORI_CHAKUJUN_MEAN","ZEN_5R_CHAKUJUN_SLOPE","ZEN_5R_BATAIJU_SLOPE"],"feature_types":["float","float","float","float","float","float","float","float","float","float","float","float","float","float","float","float","float","float","float","float","float","float","float","float","float"],"gradient_booster":{"model":{"gbtree_model_param":{"num_parallel_tree":"1","num_trees":"200"},"iteration_indptr":[0,1,2,3,4,5,6,7,8,9,10,11,12,13,14,15,16,17,18,19,20,21,22,23,24,25,26,27,28,29,30,31,32,33,34,35,36,37,38,39,40,41,42,43,44,45,46,47,48,49,50,51,52,53,54,55,56,57,58,59,60,61,62,63,64,65,66,67,68,69,70,71,72,73,74,75,76,77,78,79,80,81,82,83,84,85,86,87,88,89,90,91,92,93,94,95,96,97,98,99,100,101,102,103,104,105,106,107,108,109,110,111,112,113,114,115,116,117,118,119,120,121,122,123,124,125,126,127,128,129,130,131,132,133,134,135,136,137,138,139,140,141,142,143,144,145,146,147,148,149,150,151,152,153,154,155,156,157,158,159,160,161,162,163,164,165,166,167,168,169,170,171,172,173,174,175,176,177,178,179,180,181,182,183,184,185,186,187,188,189,190,191,192,193,194,195,196,197,198,199,200],"tree_info":[0,0,0,0,0,0,0,0,0,0,0,0,0,0,0,0,0,0,0,0,0,0,0,0,0,0,0,0,0,0,0,0,0,0,0,0,0,0,0,0,0,0,0,0,0,0,0,0,0,0,0,0,0,0,0,0,0,0,0,0,0,0,0,0,0,0,0,0,0,0,0,0,0,0,0,0,0,0,0,0,0,0,0,0,0,0,0,0,0,0,0,0,0,0,0,0,0,0,0,0,0,0,0,0,0,0,0,0,0,0,0,0,0,0,0,0,0,0,0,0,0,0,0,0,0,0,0,0,0,0,0,0,0,0,0,0,0,0,0,0,0,0,0,0,0,0,0,0,0,0,0,0,0,0,0,0,0,0,0,0,0,0,0,0,0,0,0,0,0,0,0,0,0,0,0,0,0,0,0,0,0,0,0,0,0,0,0,0,0,0,0,0,0,0,0,0,0,0,0,0],"trees":[{"base_weights":[2.355548E-1,4.47421E-1,-1.3166217E0,5.873428E-2,8.0915594E-1,-1.7884973E0,3.1089196E-1,-5.9849554E-1,3.581561E-1,8.8827616E-1,1.266647E-1,-2.46522E0,-8.9050287E-1,8.3100784E-1,-5.7265997E-1,-1.8637352E-1,-1.2877773E0,5.6468344E-1,-1.8582235E-1,9.861344E-1,4.6795955E-1,4.2811647E-1,-5.086856E-1,-2.0292141E0,-3.2585762E0,-5.165875E-1,-1.7142524E0,1.2035921E0,6.787925E-2,-8.2426675E-4,-1.408287E0,-3.6597618E-1,3.7910514E-2,-1.1273384E0,-2.310361E0,6.5828764E-1,-7.912149E-2,-7.329884E-2,-1.2673593E0,1.1975821E0,7.9626554E-1,-6.201679E-2,5.847352E-1,8.457783E-1,1.606599E-1,-2.4547273E-1,-1.3961135E0,-1.5981997E0,-2.6361501E0,-3.6226418E0,-2.5658789E0,-1.2821014E0,-2.0344651E-1,-9.2052513E-1,-2.101979E0,3.7653305E-2,8.095034E-1,-2.421685E0,2.2852392E-1,3.5427323E-1,-1.1468151E0,-2.287916E0,-3.4313786E-1,-1.5706898E-1,-1.4521463E0,-1.4225504E0,2.2414981E-1,-2.608478E0,-1.5628787E0,5.846068E-1,3.803311E-2,-4.6304315E-1,5.961341E-1,1.5301175E-1,-4.5068663E-1,-1.4259018E0,2.1853665E-1,1.2465819E0,1.0522504E0,8.8813025E-1,3.635618E-1,-4.9827954E-1,5.4719514E-1,-1.0878846E-1,5.958627E-1,1.1368171E0,1.7329876E-1,7.4708406E-3,3.7277535E-2,-5.4990375E-1,3.7099663E-2,4.245524E-1,-1.5858238E0,-1.7747823E0,3.6403883E-2,-3.0715804E0,-2.0684285E0,-3.738692E0,-1.4632273E0,-2.941476E0,-1.5450892E0,-2.3328934E0,-8.156025E-1,3.7363395E-2,-4.337579E-1,-1.4471088E-1,-2.2203228E0,-2.768105E0,-1.6873577E0,-9.458072E-1,3.643839E-2,-3.3828459E0,-0E0,4.76711E-1,-6.811456E-1,1.2143996E-1,3.5962075E-2,-1.5243343E0,2.8907312E-2,-2.786322E0,-4.883443E-1,9.845429E-1,-7.7249163E-1,-9.414924E-3,3.7800856E-2,-6.1602566E-2,-2.9851723E-2,-5.7266876E-2,-3.0611476E-2,3.7487354E-2,-1.47825E-2,-1.0196898E-1,-6.7530945E-2,-1.6923629E-2,-5.692959E-2,2.0069359E-2,-1.0117763E-2,-1.7535351E-2,3.633048E-2,-1.4250293E-2,2.2959849E-2,-1.7267825E-3,3.7851747E-2,-8.986149E-3,-3.1939358E-2,-6.194945E-2,-3.1993568E-2,-6.215679E-2,1.4128995E-2,1.970613E-2,3.7503213E-2,2.5856093E-2,3.384464E-2,2.9625567E-2,1.9703329E-2,2.6562054E-2,5.168623E-3,-1.1859336E-2,-1.0379883E-1,1.8130708E-2,-3.641107E-2,2.2258226E-2,8.8059995E-3,-1.4086039E-2,3.47055E-2,1.2372219E-2,-1.23688225E-2,8.616025E-3,-1.6109489E-2,-8.609495E-3,-4.6105195E-2,2.1457847E-2,-1.37584E-2,-5.7172135E-2,-1.1069855E-2,-4.605729E-2,-9.229763E-2,-7.554002E-2,-1.0268164E-1,-3.9960697E-2,-7.519148E-2,-1.1308368E-1,-0E0,2.2902952E-3,-6.591011E-2,-7.64588E-2,-1.1473081E-1,-1.9997755E-2,-6.0928363E-2,2.4479069E-2,-7.572448E-2,-1.4782095E-2,-5.9240654E-2,-3.6944136E-2,-4.7390894E-3,-4.9254473E-2,2.9528516E-3,-7.2956644E-2,4.451224E-3,-1.4576906E-2,-9.043777E-2,-7.201991E-2,-3.8891073E-2,-5.1954508E-2,1.8056722E-2,-0E0,-1.1577658E-1,-4.507344E-3,1.18846735E-2,2.0916369E-2,-1.642913E-2,-7.1192766E-3,-1.0423846E-1,2.1174815E-2,-1.4755466E-2,-0E0,-6.077163E-2,-1.0289035E-1,-3.5820372E-2,-6.402799E-2,8.088253E-3,3.3187382E-2,-0E0,-0E0,-6.0196213E-2],"categories":[],"categories_nodes":[],"categories_segments":[],"categories_sizes":[],"default_left":[0,0,0,0,0,0,0,0,0,0,0,0,0,0,0,0,0,0,0,0,0,0,0,0,0,0,0,0,0,0,0,0,0,0,0,0,0,0,0,0,0,0,0,0,0,0,0,0,0,0,0,0,0,0,0,0,0,0,0,0,0,0,0,0,0,0,0,0,0,0,0,0,0,0,0,0,0,0,0,0,0,0,0,0,0,0,0,0,0,0,0,0,0,0,0,0,0,0,0,0,0,0,0,0,0,0,0,0,0,0,0,0,0,0,0,0,0,0,0,0,0,0,0,0,0,0,0,0,0,0,0,0,0,0,0,0,0,0,0,0,0,0,0,0,0,0,0,0,0,0,0,0,0,0,0,0,0,0,0,0,0,0,0,0,0,0,0,0,0,0,0,0,0,0,0,0,0,0,0,0,0,0,0,0,0,0,0,0,0,0,0,0,0,0,0,0,0,0,0,0,0,0,0,0,0,0,0,0,0,0,0,0,0,0,0,0,0,0,0,0,0,0,0,0,0],"id":0,"left_children":[1,3,5,7,9,11,13,15,17,19,21,23,25,27,29,31,33,35,37,39,41,43,45,47,49,51,53,55,57,59,61,63,-1,65,67,69,71,73,75,77,79,81,83,85,87,89,91,93,95,97,99,101,103,105,107,-1,109,111,113,115,117,119,121,123,125,127,129,131,133,135,-1,137,139,141,143,145,147,149,151,153,155,157,159,-1,161,163,165,167,-1,169,-1,171,173,175,-1,177,179,181,183,185,187,189,191,-1,193,195,197,199,201,203,-1,205,207,209,211,213,-1,215,-1,217,219,221,223,-1,-1,-1,-1,-1,-1,-1,-1,-1,-1,-1,-1,-1,-1,-1,-1,-1,-1,-1,-1,-1,-1,-1,-1,-1,-1,-1,-1,-1,-1,-1,-1,-1,-1,-1,-1,-1,-1,-1,-1,-1,-1,-1,-1,-1,-1,-1,-1,-1,-1,-1,-1,-1,-1,-1,-1,-1,-1,-1,-1,-1,-1,-1,-1,-1,-1,-1,-1,-1,-1,-1,-1,-1,-1,-1,-1,-1,-1,-1,-1,-1,-1,-1,-1,-1,-1,-1,-1,-1,-1,-1,-1,-1,-1,-1,-1,-1,-1,-1,-1,-1,-1],"loss_changes":[1.0755886E4,4.0457441E3,3.018683E3,2.7306348E3,8.0377637E2,1.8453262E3,4.0663892E2,1.2318229E3,1.0716719E3,5.474336E2,2.9719403E2,5.884785E2,4.007146E2,1.5704715E2,1.5492307E2,7.078523E2,2.6035474E2,4.1719653E2,3.1780746E2,4.3188184E2,1.568971E2,1.1654138E2,1.14451645E2,2.8547168E2,1.391333E2,2.1496117E2,1.2062244E2,4.500366E0,7.222986E1,8.093974E1,1.2045856E2,5.475774E2,0E0,5.626144E2,4.0422363E1,2.6848853E2,2.2749655E2,2.0345673E2,5.954236E1,3.2848633E1,2.2548193E2,1.2127666E2,9.620441E1,7.86539E1,1.0563139E2,1.743991E2,4.0846054E1,3.306444E2,1.03223145E2,8.919385E1,7.362903E1,1.2305063E2,2.1452795E2,1.3500237E2,6.6140625E1,0E0,3.571394E1,2.769109E1,3.9584347E1,2.7967394E1,3.96798E1,5.9693176E1,3.560099E1,4.50989E2,1.0200696E2,2.2102539E2,1.8690366E2,3.012439E1,1.8443039E1,4.196925E2,0E0,1.140786E2,5.8172028E1,3.481063E2,8.121657E1,4.5961487E1,1.325411E1,5.2094727E0,1.5859497E1,1.05988525E2,9.899602E1,7.6166855E1,1.9206673E1,0E0,9.0046326E1,1.0390259E1,1.7803354E1,8.6221985E1,0E0,8.126859E1,0E0,3.3959365E0,3.71167E1,1.8468933E2,0E0,3.5897217E1,5.9095703E1,4.594629E1,2.7601334E1,3.7911743E1,2.190506E1,5.1435303E1,6.511048E1,0E0,1.209005E2,3.33942E1,2.7943817E1,5.2448853E1,4.1008636E1,1.3295089E1,0E0,1.0747414E1,4.5926726E-1,3.1878279E1,4.135795E1,4.334808E1,0E0,3.1067886E1,0E0,4.815561E1,2.3901781E1,2.4034805E0,4.4402622E1,0E0,0E0,0E0,0E0,0E0,0E0,0E0,0E0,0E0,0E0,0E0,0E0,0E0,0E0,0E0,0E0,0E0,0E0,0E0,0E0,0E0,0E0,0E0,0E0,0E0,0E0,0E0,0E0,0E0,0E0,0E0,0E0,0E0,0E0,0E0,0E0,0E0,0E0,0E0,0E0,0E0,0E0,0E0,0E0,0E0,0E0,0E0,0E0,0E0,0E0,0E0,0E0,0E0,0E0,0E0,0E0,0E0,0E0,0E0,0E0,0E0,0E0,0E0,0E0,0E0,0E0,0E0,0E0,0E0,0E0,0E0,0E0,0E0,0E0,0E0,0E0,0E0,0E0,0E0,0E0,0E0,0E0,0E0,0E0,0E0,0E0,0E0,0E0,0E0,0E0,0E0,0E0,0E0,0E0,0E0,0E0,0E0,0E0,0E0,0E0,0E0,0E0],"parents":[2147483647,0,0,1,1,2,2,3,3,4,4,5,5,6,6,7,7,8,8,9,9,10,10,11,11,12,12,13,13,14,14,15,15,16,16,17,17,18,18,19,19,20,20,21,21,22,22,23,23,24,24,25,25,26,26,27,27,28,28,29,29,30,30,31,31,33,33,34,34,35,35,36,36,37,37,38,38,39,39,40,40,41,41,42,42,43,43,44,44,45,45,46,46,47,47,48,48,49,49,50,50,51,51,52,52,53,53,54,54,56,56,57,57,58,58,59,59,60,60,61,61,62,62,63,63,64,64,65,65,66,66,67,67,68,68,69,69,71,71,72,72,73,73,74,74,75,75,76,76,77,77,78,78,79,79,80,80,81,81,82,82,84,84,85,85,86,86,87,87,89,89,91,91,92,92,93,93,95,95,96,96,97,97,98,98,99,99,100,100,101,101,102,102,104,104,105,105,106,106,107,107,108,108,109,109,111,111,112,112,113,113,114,114,115,115,117,117,119,119,120,120,121,121,122,122],"right_children":[2,4,6,8,10,12,14,16,18,20,22,24,26,28,30,32,34,36,38,40,42,44,46,48,50,52,54,56,58,60,62,64,-1,66,68,70,72,74,76,78,80,82,84,86,88,90,92,94,96,98,100,102,104,106,108,-1,110,112,114,116,118,120,122,124,126,128,130,132,134,136,-1,138,140,142,144,146,148,150,152,154,156,158,160,-1,162,164,166,168,-1,170,-1,172,174,176,-1,178,180,182,184,186,188,190,192,-1,194,196,198,200,202,204,-1,206,208,210,212,214,-1,216,-1,218,220,222,224,-1,-1,-1,-1,-1,-1,-1,-1,-1,-1,-1,-1,-1,-1,-1,-1,-1,-1,-1,-1,-1,-1,-1,-1,-1,-1,-1,-1,-1,-1,-1,-1,-1,-1,-1,-1,-1,-1,-1,-1,-1,-1,-1,-1,-1,-1,-1,-1,-1,-1,-1,-1,-1,-1,-1,-1,-1,-1,-1,-1,-1,-1,-1,-1,-1,-1,-1,-1,-1,-1,-1,-1,-1,-1,-1,-1,-1,-1,-1,-1,-1,-1,-1,-1,-1,-1,-1,-1,-1,-1,-1,-1,-1,-1,-1,-1,-1,-1,-1,-1,-1,-1],"split_conditions":[8E0,5.61257E-3,5.61257E-3,2.3333333E-1,5E0,2.3214285E-1,6E0,1.6E1,1.6E1,1E0,1.6E1,1.1E1,1.6E1,3.3333334E-1,5E0,1.500844E1,1.8E1,5E0,5E0,3E0,1.004512E0,3E0,6E0,1.6E1,1.8709677E-1,1.0201268E0,-6.5530665E-2,2.5E-1,1.5068494E-1,6E-1,2.6751593E-1,1.5E1,3.7910514E-2,1.6072554E1,4.4417194E1,1.500844E1,2.6E3,1E0,5.256644E-1,2.3333333E0,1E0,4.1786635E-1,4E2,1E0,1.500844E1,5.2180057E0,1.9822242E0,1.500844E1,2.3846154E-1,3.5897437E-1,7.8E1,2.2564415E1,1.9822242E0,5.5480227E0,4.180143E1,3.7653305E-2,2.538247E-1,9.1E1,1.6E0,4.008287E0,4.008287E0,2.6240693E-2,2.4919195E0,1.4043908E1,8.572099E0,2.491351E0,1.7E1,7.6E1,6.456062E1,1.5E1,3.803311E-2,1.500844E1,1.2211672E0,1.6488701E-2,2.3996153E1,5.605018E2,4.66538E2,-8.371595E1,2.514395E0,1.6E1,3.3333334E-1,6.5655136E0,1.7040707E1,-1.0878846E-1,1.6E1,-1.2E1,6.35291E1,3E-1,3.7277535E-2,8.171711E-1,3.7099663E-2,2.2852203E1,5.121342E2,6.872457E0,3.6403883E-2,-1.6346386E-1,-9.86187E-3,2.15E2,1.3053385E1,2.3804287E1,1.2E1,1E0,5E0,3.7363395E-2,2.0757115E0,2E-1,-1.6346386E-1,2.692958E0,7.673062E1,1.39E2,3.643839E-2,4.5904045E1,4.1615167E0,9.831944E-1,2.7646549E0,4E0,3.5962075E-2,3.8773022E0,2.8907312E-2,6.4152513E0,4.924513E2,1.4707524E1,2.6351145E-1,-9.414924E-3,3.7800856E-2,-6.1602566E-2,-2.9851723E-2,-5.7266876E-2,-3.0611476E-2,3.7487354E-2,-1.47825E-2,-1.0196898E-1,-6.7530945E-2,-1.6923629E-2,-5.692959E-2,2.0069359E-2,-1.0117763E-2,-1.7535351E-2,3.633048E-2,-1.4250293E-2,2.2959849E-2,-1.7267825E-3,3.7851747E-2,-8.986149E-3,-3.1939358E-2,-6.194945E-2,-3.1993568E-2,-6.215679E-2,1.4128995E-2,1.970613E-2,3.7503213E-2,2.5856093E-2,3.384464E-2,2.9625567E-2,1.9703329E-2,2.6562054E-2,5.168623E-3,-1.1859336E-2,-1.0379883E-1,1.8130708E-2,-3.641107E-2,2.2258226E-2,8.8059995E-3,-1.4086039E-2,3.47055E-2,1.2372219E-2,-1.23688225E-2,8.616025E-3,-1.6109489E-2,-8.609495E-3,-4.6105195E-2,2.1457847E-2,-1.37584E-2,-5.7172135E-2,-1.1069855E-2,-4.605729E-2,-9.229763E-2,-7.554002E-2,-1.0268164E-1,-3.9960697E-2,-7.519148E-2,-1.1308368E-1,-0E0,2.2902952E-3,-6.591011E-2,-7.64588E-2,-1.1473081E-1,-1.9997755E-2,-6.0928363E-2,2.4479069E-2,-7.572448E-2,-1.4782095E-2,-5.9240654E-2,-3.6944136E-2,-4.7390894E-3,-4.9254473E-2,2.9528516E-3,-7.2956644E-2,4.451224E-3,-1.4576906E-2,-9.043777E-2,-7.201991E-2,-3.8891073E-2,-5.1954508E-2,1.8056722E-2,-0E0,-1.1577658E-1,-4.507344E-3,1.18846735E-2,2.0916369E-2,-1.642913E-2,-7.1192766E-3,-1.0423846E-1,2.1174815E-2,-1.4755466E-2,-0E0,-6.077163E-2,-1.0289035E-1,-3.5820372E-2,-6.402799E-2,8.088253E-3,3.3187382E-2,-0E0,-0E0,-6.0196213E-2],"split_indices":[13,21,21,11,0,11,15,10,10,21,10,13,10,21,0,10,10,0,0,22,22,22,0,10,11,15,23,21,12,23,11,10,0,10,14,10,8,1,11,22,23,11,2,21,10,0,15,10,12,12,14,14,15,22,14,0,21,14,23,0,0,20,22,10,14,14,10,6,7,10,0,10,14,1,9,4,2,24,22,10,21,13,10,0,10,24,14,23,0,23,0,9,2,20,0,23,23,6,10,9,13,15,0,0,15,12,23,0,6,6,0,6,3,21,24,0,0,22,0,0,2,10,21,0,0,0,0,0,0,0,0,0,0,0,0,0,0,0,0,0,0,0,0,0,0,0,0,0,0,0,0,0,0,0,0,0,0,0,0,0,0,0,0,0,0,0,0,0,0,0,0,0,0,0,0,0,0,0,0,0,0,0,0,0,0,0,0,0,0,0,0,0,0,0,0,0,0,0,0,0,0,0,0,0,0,0,0,0,0,0,0,0,0,0,0,0,0,0,0,0,0,0,0,0,0],"split_type":[0,0,0,0,0,0,0,0,0,0,0,0,0,0,0,0,0,0,0,0,0,0,0,0,0,0,0,0,0,0,0,0,0,0,0,0,0,0,0,0,0,0,0,0,0,0,0,0,0,0,0,0,0,0,0,0,0,0,0,0,0,0,0,0,0,0,0,0,0,0,0,0,0,0,0,0,0,0,0,0,0,0,0,0,0,0,0,0,0,0,0,0,0,0,0,0,0,0,0,0,0,0,0,0,0,0,0,0,0,0,0,0,0,0,0,0,0,0,0,0,0,0,0,0,0,0,0,0,0,0,0,0,0,0,0,0,0,0,0,0,0,0,0,0,0,0,0,0,0,0,0,0,0,0,0,0,0,0,0,0,0,0,0,0,0,0,0,0,0,0,0,0,0,0,0,0,0,0,0,0,0,0,0,0,0,0,0,0,0,0,0,0,0,0,0,0,0,0,0,0,0,0,0,0,0,0,0,0,0,0,0,0,0,0,0,0,0,0,0,0,0,0,0,0,0],"sum_hessian":[3.270705E4,2.878004E4,3.9270105E3,1.3875088E4,1.4904952E4,3.0447437E3,8.822668E2,4.3413975E3,9.533689E3,1.3354965E4,1.549988E3,1.7346581E3,1.3100857E3,5.5610095E2,3.261658E2,2.7186414E3,1.6227562E3,6.911474E3,2.6222158E3,1.0829833E4,2.5251313E3,1.0525089E3,4.9747906E2,1.1225532E3,6.121048E2,9.030262E2,4.0705948E2,3.7239703E2,1.8370393E2,1.9495325E2,1.3121255E2,2.4203022E3,2.9833902E2,1.4053442E3,2.1741194E2,6.0354917E3,8.759827E2,2.376913E3,2.4530257E2,5.118754E3,5.711079E3,4.5446887E2,2.0706624E3,4.085748E2,6.4393414E2,3.8553275E2,1.11946304E2,6.59495E2,4.6305826E2,3.9750958E2,2.1459523E2,2.6032935E2,6.4269684E2,1.3554153E2,2.7151794E2,3.251666E2,4.723043E1,9.904887E0,1.7379906E2,1.4869633E2,4.62569E1,7.072179E1,6.0490772E1,2.0316187E3,3.8868362E2,1.1539655E3,2.5137878E2,1.5268808E2,6.4723854E1,5.3877607E3,6.477307E2,5.596084E2,3.1637436E2,1.4845863E3,8.923268E2,2.2229721E2,2.3005354E1,3.8172705E3,1.3014833E3,4.7081553E3,1.00292377E3,2.6588763E2,1.8858124E2,4.364162E0,2.0662983E3,2.8364154E2,1.2493326E2,5.657597E2,7.817439E1,3.2091922E2,6.461353E1,9.949644E0,1.01996666E2,6.212055E2,3.8289497E1,2.5856937E2,2.044889E2,3.761028E2,2.1406767E1,1.5478224E2,5.9812977E1,7.815045E1,1.821789E2,8.694907E1,5.557478E2,8.605707E1,4.9484467E1,1.010631E2,1.7045483E2,8.143235E0,3.9087196E1,7.0082364E0,2.8966508E0,1.3778275E2,3.6016308E1,1.1838382E2,3.0312521E1,3.9875317E1,6.381583E0,5.4518444E1,1.6203342E1,1.3896569E1,4.65942E1,1.8305988E3,2.0101987E2,1.6541287E2,2.2327075E2,5.1949817E2,6.3446735E2,1.0370073E2,1.4767805E2,4.4023678E1,1.08664406E2,1.767245E1,4.7051407E1,4.9372485E3,4.5051236E2,5.2291425E2,3.6694103E1,4.2103752E1,2.7427063E2,1.24767E3,2.3691628E2,7.1854694E2,1.7377989E2,7.731278E1,1.4498444E2,1.1749667E0,2.1830387E1,2.5483173E1,3.7917874E3,3.782639E2,9.232194E2,3.2880325E3,1.4201229E3,2.6663254E2,7.3629126E2,2.5837585E2,7.511793E0,1.8383821E2,4.743027E0,1.3899479E3,6.763504E2,2.6025102E0,2.8103903E2,9.013348E1,3.4799778E1,3.7526495E2,1.9049478E2,2.5522981E2,6.568941E1,8.480536E0,1.4691074E0,7.9664314E1,2.2332348E1,5.271538E2,9.4051674E1,1.0463276E2,1.539366E2,7.861883E1,1.2587007E2,3.7320615E2,2.8966508E0,6.758852E0,1.4647914E1,1.10592316E2,4.4189934E1,2.287747E1,3.6935505E1,3.9884896E0,7.4161964E1,1.4427785E2,3.790106E1,1.4095279E2,4.1479498E2,1.1794424E1,7.426265E1,4.579012E1,3.6943488E0,1.0536329E1,9.052677E1,5.7626106E1,1.1282873E2,5.7501416E0,2.3930936E0,1.1334027E0,5.8748336E0,1.3012551E0,1.5953958E0,1.1444328E2,2.3339462E1,3.2323555E1,3.6927526E0,6.1377983E1,5.700584E1,1.01590605E1,2.9716257E1,3.7560562E1,1.695788E1,4.9524436E0,1.1250898E1,1.2763166E1,1.1334027E0,2.951163E1,1.7082571E1],"tree_param":{"num_deleted":"0","num_feature":"25","num_nodes":"225","size_leaf_vector":"1"}},{"base_weights":[2.2966726E-1,4.375688E-1,-1.2487955E0,5.7178594E-2,7.96201E-1,-1.6830282E0,3.0315605E-1,-5.531399E-1,3.6020723E-1,8.7524635E-1,1.2325864E-1,-2.2938173E0,-8.5097396E-1,8.178921E-1,-5.504354E-1,-1.5996207E-1,-1.2058896E0,5.603607E-1,-1.6282828E-1,9.733463E-1,4.5763573E-1,4.1853896E-1,-4.8920813E-1,-1.9017481E0,-2.99306E0,-4.966612E-1,-1.6161896E0,1.1926357E0,6.4357385E-2,-1.6881635E-4,-1.3363996E0,-3.347257E-1,3.762041E-2,-1.0583676E0,-2.1366465E0,6.5201455E-1,-7.533927E-2,-5.3229492E-2,-1.1945881E0,1.1864752E0,7.833034E-1,-6.0348656E-2,5.730405E-1,8.3275604E-1,1.5639701E-1,-2.3697725E-1,-1.3232213E0,-2.465059E0,-1.5178707E0,-3.3062468E0,-2.3859646E0,-1.2171899E0,-1.9651957E-1,-8.793689E-1,-1.9689618E0,3.70137E-2,7.0471853E-1,-2.2787828E0,2.2171792E-1,3.461324E-1,-1.0903851E0,-2.1404548E0,-3.310863E-1,-1.3366276E-1,-1.3735442E0,-1.3349733E0,2.2892146E-1,-2.6508691E0,-1.7355617E0,5.8079326E-1,3.7724014E-2,-4.4288397E-1,5.91095E-1,1.6466755E-1,-4.1704828E-1,-1.3444972E0,2.1001716E-1,1.2360905E0,1.0398154E0,8.750695E-1,3.5498264E-1,-4.246768E-1,6.2865657E-1,-1.0094318E-1,5.840948E-1,1.1250367E0,1.6843005E-1,7.220963E-3,3.6965042E-2,-5.286116E-1,3.678568E-2,4.1338986E-1,-1.4984608E0,-2.2703874E0,-3.7203186E0,-1.1100734E0,-2.1195343E0,-3.4053342E0,-1.3863639E0,-2.7174256E0,-1.4625721E0,-3.0123196E0,-9.7724605E-1,3.7051648E-2,-4.176863E-1,-1.401274E-1,-2.0748832E0,-2.5644069E0,-1.5913874E0,-6.4869803E-1,3.5145976E-2,-3.1425664E0,-0E0,4.662136E-1,-6.579507E-1,1.1795473E-1,3.563967E-2,-1.4428794E0,2.8573131E-2,-1.5397377E-1,-2.5180092E0,9.722259E-1,-7.413411E-1,-8.499245E-3,3.7521068E-2,-5.8313757E-2,-2.81638E-2,-5.621952E-2,-3.0304523E-2,3.7219226E-2,-1.3562941E-2,-1.087413E-1,-6.707429E-2,-4.6083428E-2,-1.01089805E-1,1.9886307E-2,-9.217409E-3,-1.6641166E-2,3.588611E-2,-1.4714077E-2,2.2979667E-2,-1.1720299E-3,3.754048E-2,-7.965621E-3,-3.0777564E-2,-3.045605E-2,-5.8655612E-2,-5.9978243E-2,1.3832456E-2,1.935083E-2,3.7189797E-2,2.5464632E-2,3.3489265E-2,2.924106E-2,1.933421E-2,2.6171228E-2,5.0288797E-3,-9.9639185E-3,-9.6793406E-2,2.2008525E-2,-3.0063929E-2,2.1874126E-2,8.586157E-3,-1.3699623E-2,3.435949E-2,1.209124E-2,-1.1924669E-2,8.400253E-3,-1.548429E-2,1.367609E-4,-2.8501835E-2,2.1204818E-2,-1.4151552E-2,-5.3713575E-2,-1.0686096E-2,-7.2407514E-2,-1.4271199E-2,-1.1367292E-1,-0E0,-3.7835024E-2,3.5237063E-2,-4.162975E-2,-7.3225774E-2,-1.02954336E-1,-0E0,-8.288342E-2,-1.3282171E-2,-7.1054116E-2,-1.0455093E-1,-1.9208726E-2,-5.7175346E-2,1.1535928E-2,-9.734492E-2,-2.125203E-2,-5.8801692E-2,-3.5094324E-2,-4.5846417E-3,6.6619384E-4,-6.979226E-2,-6.79911E-2,4.3550152E-3,-1.07037805E-1,-6.0723767E-2,-6.713182E-2,-3.690656E-2,-4.739942E-2,9.36455E-3,-0E0,-1.0667863E-1,-4.609167E-3,1.1832458E-2,2.0542216E-2,-1.581151E-2,3.395065E-4,-6.451799E-2,2.0802004E-2,-1.4200574E-2,-0E0,-5.7056177E-2,2.706229E-2,-2.9936897E-2,-9.705825E-2,-2.6857782E-2,3.2852463E-2,-0E0,-0E0,-5.6617033E-2],"categories":[],"categories_nodes":[],"categories_segments":[],"categories_sizes":[],"default_left":[0,0,0,0,0,0,0,0,0,0,0,0,0,0,0,0,0,0,0,0,0,0,0,0,0,0,0,0,0,0,0,0,0,0,0,0,0,0,0,0,0,0,0,0,0,0,0,0,0,0,0,0,0,0,0,0,0,0,0,0,0,0,0,0,0,0,0,0,0,0,0,0,0,0,0,0,0,0,0,0,0,0,0,0,0,0,0,0,0,0,0,0,0,0,0,0,0,0,0,0,0,0,0,0,0,0,0,0,0,0,0,0,0,0,0,0,0,0,0,0,0,0,0,0,0,0,0,0,0,0,0,0,0,0,0,0,0,0,0,0,0,0,0,0,0,0,0,0,0,0,0,0,0,0,0,0,0,0,0,0,0,0,0,0,0,0,0,0,0,0,0,0,0,0,0,0,0,0,0,0,0,0,0,0,0,0,0,0,0,0,0,0,0,0,0,0,0,0,0,0,0,0,0,0,0,0,0,0,0,0,0,0,0,0,0,0,0,0,0,0,0,0,0,0,0,0,0],"id":1,"left_children":[1,3,5,7,9,11,13,15,17,19,21,23,25,27,29,31,33,35,37,39,41,43,45,47,49,51,53,55,57,59,61,63,-1,65,67,69,71,73,75,77,79,81,83,85,87,89,91,93,95,97,99,101,103,105,107,-1,109,111,113,115,117,119,121,123,125,127,129,131,133,135,-1,137,139,141,143,145,147,149,151,153,155,157,159,-1,161,163,165,167,-1,169,-1,171,173,175,177,179,181,183,185,187,189,191,193,-1,195,197,199,201,203,205,-1,207,209,211,213,215,-1,217,-1,219,221,223,225,-1,-1,-1,-1,-1,-1,-1,-1,-1,-1,-1,-1,-1,-1,-1,-1,-1,-1,-1,-1,-1,-1,-1,-1,-1,-1,-1,-1,-1,-1,-1,-1,-1,-1,-1,-1,-1,-1,-1,-1,-1,-1,-1,-1,-1,-1,-1,-1,-1,-1,-1,-1,-1,-1,-1,-1,-1,-1,-1,-1,-1,-1,-1,-1,-1,-1,-1,-1,-1,-1,-1,-1,-1,-1,-1,-1,-1,-1,-1,-1,-1,-1,-1,-1,-1,-1,-1,-1,-1,-1,-1,-1,-1,-1,-1,-1,-1,-1,-1,-1,-1,-1,-1,-1],"loss_changes":[1.0012047E4,3.8951484E3,2.7079497E3,2.563626E3,7.807549E2,1.5897871E3,3.8659058E2,1.1785739E3,9.703468E2,5.3693066E2,2.8000534E2,4.8520605E2,3.57891E2,1.5369226E2,1.414885E2,7.0916345E2,2.3173389E2,3.9110718E2,2.8856082E2,4.283584E2,1.5032928E2,1.1243536E2,1.0388811E2,2.436377E2,1.09447266E2,1.9556407E2,1.04546875E2,4.5354004E0,6.639722E1,7.511779E1,1.06142715E2,5.324567E2,0E0,5.333882E2,3.936255E1,2.5007202E2,2.0685313E2,1.8417601E2,5.3053406E1,3.2927246E1,2.1990405E2,1.14494606E2,8.845502E1,7.688629E1,1.0196701E2,1.6557928E2,3.688536E1,1.000332E2,1.6493176E2,7.099072E1,6.0675415E1,1.0806995E2,2.0421545E2,1.20030815E2,5.5204224E1,0E0,2.192292E1,2.4318897E1,3.753778E1,2.7138983E1,3.6562134E1,5.2747437E1,3.3553402E1,4.436609E2,9.7878235E1,2.1067212E2,1.835629E2,2.6348999E1,3.4141815E1,3.8292603E2,0E0,1.0001197E2,5.730137E1,3.2216986E2,7.87695E1,3.9760803E1,1.2623933E1,5.1987305E0,1.5772827E1,1.0429321E2,9.552414E1,7.308838E1,2.7361942E1,0E0,8.718329E1,1.01631775E1,1.6833918E1,8.080955E1,0E0,7.3959366E1,0E0,3.3883314E0,3.248526E1,1.0102197E2,1.6724731E1,1.456203E2,5.8316406E1,3.851709E1,2.5380104E1,2.9692627E1,1.8964874E1,2.8203735E1,5.8692886E1,0E0,1.1022797E2,3.3326557E1,2.4720642E1,4.5110107E1,3.4944702E1,9.342411E0,0E0,8.920174E0,4.574471E-1,3.0391907E1,3.9493866E1,4.1080936E1,0E0,2.759365E1,0E0,1.2913303E1,6.518085E1,2.362606E0,4.002044E1,0E0,0E0,0E0,0E0,0E0,0E0,0E0,0E0,0E0,0E0,0E0,0E0,0E0,0E0,0E0,0E0,0E0,0E0,0E0,0E0,0E0,0E0,0E0,0E0,0E0,0E0,0E0,0E0,0E0,0E0,0E0,0E0,0E0,0E0,0E0,0E0,0E0,0E0,0E0,0E0,0E0,0E0,0E0,0E0,0E0,0E0,0E0,0E0,0E0,0E0,0E0,0E0,0E0,0E0,0E0,0E0,0E0,0E0,0E0,0E0,0E0,0E0,0E0,0E0,0E0,0E0,0E0,0E0,0E0,0E0,0E0,0E0,0E0,0E0,0E0,0E0,0E0,0E0,0E0,0E0,0E0,0E0,0E0,0E0,0E0,0E0,0E0,0E0,0E0,0E0,0E0,0E0,0E0,0E0,0E0,0E0,0E0,0E0,0E0,0E0,0E0,0E0,0E0,0E0],"parents":[2147483647,0,0,1,1,2,2,3,3,4,4,5,5,6,6,7,7,8,8,9,9,10,10,11,11,12,12,13,13,14,14,15,15,16,16,17,17,18,18,19,19,20,20,21,21,22,22,23,23,24,24,25,25,26,26,27,27,28,28,29,29,30,30,31,31,33,33,34,34,35,35,36,36,37,37,38,38,39,39,40,40,41,41,42,42,43,43,44,44,45,45,46,46,47,47,48,48,49,49,50,50,51,51,52,52,53,53,54,54,56,56,57,57,58,58,59,59,60,60,61,61,62,62,63,63,64,64,65,65,66,66,67,67,68,68,69,69,71,71,72,72,73,73,74,74,75,75,76,76,77,77,78,78,79,79,80,80,81,81,82,82,84,84,85,85,86,86,87,87,89,89,91,91,92,92,93,93,94,94,95,95,96,96,97,97,98,98,99,99,100,100,101,101,102,102,104,104,105,105,106,106,107,107,108,108,109,109,111,111,112,112,113,113,114,114,115,115,117,117,119,119,120,120,121,121,122,122],"right_children":[2,4,6,8,10,12,14,16,18,20,22,24,26,28,30,32,34,36,38,40,42,44,46,48,50,52,54,56,58,60,62,64,-1,66,68,70,72,74,76,78,80,82,84,86,88,90,92,94,96,98,100,102,104,106,108,-1,110,112,114,116,118,120,122,124,126,128,130,132,134,136,-1,138,140,142,144,146,148,150,152,154,156,158,160,-1,162,164,166,168,-1,170,-1,172,174,176,178,180,182,184,186,188,190,192,194,-1,196,198,200,202,204,206,-1,208,210,212,214,216,-1,218,-1,220,222,224,226,-1,-1,-1,-1,-1,-1,-1,-1,-1,-1,-1,-1,-1,-1,-1,-1,-1,-1,-1,-1,-1,-1,-1,-1,-1,-1,-1,-1,-1,-1,-1,-1,-1,-1,-1,-1,-1,-1,-1,-1,-1,-1,-1,-1,-1,-1,-1,-1,-1,-1,-1,-1,-1,-1,-1,-1,-1,-1,-1,-1,-1,-1,-1,-1,-1,-1,-1,-1,-1,-1,-1,-1,-1,-1,-1,-1,-1,-1,-1,-1,-1,-1,-1,-1,-1,-1,-1,-1,-1,-1,-1,-1,-1,-1,-1,-1,-1,-1,-1,-1,-1,-1,-1,-1],"split_conditions":[8E0,5.61257E-3,5.61257E-3,2.3917526E-1,5E0,2.3214285E-1,6E0,1.6E1,1.6E1,1E0,1.6E1,1.1E1,1.6E1,3.3333334E-1,5E0,1.500844E1,1.8E1,5E0,5E0,3E0,1.004512E0,3E0,6E0,2.0320855E-1,1.8709677E-1,1.0201268E0,-6.5530665E-2,5E0,1.5068494E-1,6E-1,2.6751593E-1,1.5E1,3.762041E-2,1.6072554E1,1.3110618E1,1.500844E1,2.6E3,1E0,5.256644E-1,2.3333333E0,1E0,4.465352E-1,4E2,1E0,1.500844E1,5.2180057E0,1.9822242E0,6.403712E0,1.6E1,3.5897437E-1,7.8E1,1.4046723E1,1.9822242E0,5.5480227E0,4.180143E1,3.70137E-2,5.0164466E0,9.1E1,1.6E0,4.008287E0,4.008287E0,1.0855596E1,2.4919195E0,1.4043908E1,8.572099E0,2.1988375E-1,1.7E1,7.6E1,7.3333335E0,1.5E1,3.7724014E-2,1.500844E1,1.2211672E0,1.6488701E-2,2.3996153E1,5.9777665E0,4.66538E2,-8.371595E1,2.514395E0,1.6E1,3.3333334E-1,6.5655136E0,1.6072554E1,-1.0094318E-1,1.6E1,-1.2E1,6.35291E1,3E-1,3.6965042E-2,1.4E3,3.678568E-2,2.5925925E-1,5.121342E2,2.6240693E-2,5.892899E2,1.500844E1,-8E-1,2.15E2,4.7253793E2,2.3804287E1,1.2E1,8.5535085E-1,5E0,3.7051648E-2,2.0757115E0,1.33E2,-1.6346386E-1,2.361809E-1,7.673062E1,1.5E3,3.5145976E-2,4.5904045E1,2.0681265E-1,9.831944E-1,7.4666667E0,4E0,3.563967E-2,3.8773022E0,2.8573131E-2,2.5508635E1,6.4152513E0,1.4707524E1,2.6351145E-1,-8.499245E-3,3.7521068E-2,-5.8313757E-2,-2.81638E-2,-5.621952E-2,-3.0304523E-2,3.7219226E-2,-1.3562941E-2,-1.087413E-1,-6.707429E-2,-4.6083428E-2,-1.01089805E-1,1.9886307E-2,-9.217409E-3,-1.6641166E-2,3.588611E-2,-1.4714077E-2,2.2979667E-2,-1.1720299E-3,3.754048E-2,-7.965621E-3,-3.0777564E-2,-3.045605E-2,-5.8655612E-2,-5.9978243E-2,1.3832456E-2,1.935083E-2,3.7189797E-2,2.5464632E-2,3.3489265E-2,2.924106E-2,1.933421E-2,2.6171228E-2,5.0288797E-3,-9.9639185E-3,-9.6793406E-2,2.2008525E-2,-3.0063929E-2,2.1874126E-2,8.586157E-3,-1.3699623E-2,3.435949E-2,1.209124E-2,-1.1924669E-2,8.400253E-3,-1.548429E-2,1.367609E-4,-2.8501835E-2,2.1204818E-2,-1.4151552E-2,-5.3713575E-2,-1.0686096E-2,-7.2407514E-2,-1.4271199E-2,-1.1367292E-1,-0E0,-3.7835024E-2,3.5237063E-2,-4.162975E-2,-7.3225774E-2,-1.02954336E-1,-0E0,-8.288342E-2,-1.3282171E-2,-7.1054116E-2,-1.0455093E-1,-1.9208726E-2,-5.7175346E-2,1.1535928E-2,-9.734492E-2,-2.125203E-2,-5.8801692E-2,-3.5094324E-2,-4.5846417E-3,6.6619384E-4,-6.979226E-2,-6.79911E-2,4.3550152E-3,-1.07037805E-1,-6.0723767E-2,-6.713182E-2,-3.690656E-2,-4.739942E-2,9.36455E-3,-0E0,-1.0667863E-1,-4.609167E-3,1.1832458E-2,2.0542216E-2,-1.581151E-2,3.395065E-4,-6.451799E-2,2.0802004E-2,-1.4200574E-2,-0E0,-5.7056177E-2,2.706229E-2,-2.9936897E-2,-9.705825E-2,-2.6857782E-2,3.2852463E-2,-0E0,-0E0,-5.6617033E-2],"split_indices":[13,21,21,11,0,11,15,10,10,21,10,13,10,21,0,10,10,0,0,22,22,22,0,12,11,15,23,15,12,23,11,10,0,10,14,10,8,1,11,22,23,11,2,21,10,0,15,20,10,12,14,14,15,22,14,0,15,14,23,0,0,10,22,10,14,12,10,6,13,10,0,10,14,1,9,0,2,24,22,10,21,13,10,0,10,24,14,23,0,8,0,11,2,20,4,10,24,6,2,9,13,15,0,0,15,6,23,12,6,8,0,6,11,21,22,0,0,22,0,7,0,10,21,0,0,0,0,0,0,0,0,0,0,0,0,0,0,0,0,0,0,0,0,0,0,0,0,0,0,0,0,0,0,0,0,0,0,0,0,0,0,0,0,0,0,0,0,0,0,0,0,0,0,0,0,0,0,0,0,0,0,0,0,0,0,0,0,0,0,0,0,0,0,0,0,0,0,0,0,0,0,0,0,0,0,0,0,0,0,0,0,0,0,0,0,0,0,0,0,0,0,0,0,0,0,0,0],"split_type":[0,0,0,0,0,0,0,0,0,0,0,0,0,0,0,0,0,0,0,0,0,0,0,0,0,0,0,0,0,0,0,0,0,0,0,0,0,0,0,0,0,0,0,0,0,0,0,0,0,0,0,0,0,0,0,0,0,0,0,0,0,0,0,0,0,0,0,0,0,0,0,0,0,0,0,0,0,0,0,0,0,0,0,0,0,0,0,0,0,0,0,0,0,0,0,0,0,0,0,0,0,0,0,0,0,0,0,0,0,0,0,0,0,0,0,0,0,0,0,0,0,0,0,0,0,0,0,0,0,0,0,0,0,0,0,0,0,0,0,0,0,0,0,0,0,0,0,0,0,0,0,0,0,0,0,0,0,0,0,0,0,0,0,0,0,0,0,0,0,0,0,0,0,0,0,0,0,0,0,0,0,0,0,0,0,0,0,0,0,0,0,0,0,0,0,0,0,0,0,0,0,0,0,0,0,0,0,0,0,0,0,0,0,0,0,0,0,0,0,0,0,0,0,0,0,0,0],"sum_hessian":[3.2572643E4,2.8558172E4,4.014472E3,1.3860602E4,1.469757E4,3.137239E3,8.77233E2,4.597276E3,9.263325E3,1.3151032E4,1.546538E3,1.8074667E3,1.3297722E3,5.479933E2,3.2923965E2,2.8708328E3,1.726443E3,6.700891E3,2.5624346E3,1.0646389E4,2.5046436E3,1.0447811E3,5.017568E2,1.1614084E3,6.460582E2,9.1094104E2,4.1883118E2,3.6470865E2,1.8328464E2,1.9499379E2,1.3424586E2,2.556346E3,3.14487E2,1.4930161E3,2.3342686E2,5.8578643E3,8.4302655E2,2.3182039E3,2.4423064E2,5.013432E3,5.6329565E3,4.5485925E2,2.0497842E3,4.0261212E2,6.42169E2,3.871531E2,1.1460368E2,4.6744376E2,6.9396466E2,4.2217474E2,2.238835E2,2.6599603E2,6.44945E2,1.3765152E2,2.8117966E2,3.3303958E2,3.166907E1,1.0286079E1,1.7299857E2,1.478085E2,4.71853E1,7.340904E1,6.0836826E1,2.1435532E3,4.1279263E2,1.2295557E3,2.6346054E2,9.8736435E1,1.3469043E2,5.2445435E3,6.1332104E2,5.4454236E2,2.9848422E2,1.4484827E3,8.6972125E2,2.2136029E2,2.2870356E1,3.7354668E3,1.2779652E3,4.6362744E3,9.966822E2,2.9873233E2,1.5612692E2,4.63557E0,2.0451487E3,2.780714E2,1.24540695E2,5.656651E2,7.6503914E1,3.239137E2,6.323942E1,9.856912E0,1.0474677E2,4.078048E2,5.9638947E1,4.163064E2,2.776583E2,4.0022406E2,2.1950674E1,1.6251962E2,6.136387E1,2.9508389E1,2.3648766E2,8.5086815E1,5.598582E2,8.626412E1,5.1387398E1,1.05834885E2,1.7534477E2,7.4725037E0,2.4196566E1,7.396936E0,2.8891432E0,1.3663026E2,3.63683E1,1.18120865E2,2.9687635E1,4.0909466E1,6.2758317E0,1.2371828E1,6.1037216E1,1.3653758E1,4.7183067E1,1.9358154E3,2.0773773E2,1.7607277E2,2.3671986E2,4.5939224E2,7.701634E2,1.062551E2,1.5720543E2,2.64755E1,7.226093E1,1.2231362E2,1.2376813E1,4.8020576E3,4.4248584E2,5.109557E2,3.3586662E1,4.0500763E1,2.5798346E2,1.2198284E3,2.2865422E2,6.988734E2,1.708478E2,1.4660693E2,7.475336E1,1.2167867E0,2.1653568E1,2.5195293E1,3.7102715E3,3.7265714E2,9.0530804E2,3.2321921E3,1.4040824E3,2.6257254E2,7.341096E2,2.9060858E2,8.123731E0,1.477789E2,8.348021E0,1.3722126E3,6.729361E2,2.6235216E0,2.754479E2,8.949421E1,3.5046486E1,3.734115E2,1.9225362E2,1.4239194E2,1.8152176E2,8.402487E0,1.4544246E0,8.227273E1,2.2474043E1,3.7683533E2,3.0969482E1,5.8622417E1,1.0165306E0,3.9131277E2,2.4993649E1,8.728392E1,1.9037436E2,3.9732742E2,2.8966508E0,7.712812E0,1.4237863E1,1.1543219E2,4.7087433E1,2.3139668E1,3.82242E1,1.5730078E0,2.793538E1,1.8784222E2,4.8645428E1,1.4393643E2,4.1592175E2,8.079727E1,5.466844E0,4.7702473E1,3.6849222E0,3.442992E1,7.140497E1,6.0001945E1,1.1534282E2,3.9959264E0,3.4765773E0,1.1334027E0,6.263533E0,1.2971213E0,1.592022E0,1.1307103E2,2.3559233E1,2.5332355E1,1.1035946E1,6.0632923E1,5.7487938E1,1.01590605E1,3.0750406E1,4.9383407E0,7.433487E0,4.1211525E1,1.9825691E1,1.2520355E1,1.1334027E0,2.951163E1,1.7671436E1],"tree_param":{"num_deleted":"0","num_feature":"25","num_nodes":"227","size_leaf_vector":"1"}},{"base_weights":[2.2396943E-1,4.2796254E-1,-1.1873779E0,5.5661075E-2,7.8349036E-1,-1.5890553E0,2.9585877E-1,-5.3155214E-1,3.517428E-1,8.6245006E-1,1.2000833E-1,-2.13063E0,-7.916741E-1,8.0520487E-1,-5.2941346E-1,-1.5461192E-1,-1.1466856E0,5.4907006E-1,-1.575157E-1,9.608083E-1,4.4751942E-1,4.0917733E-1,-4.7057176E-1,-1.7798218E0,-2.749337E0,-4.481457E-1,-1.5311099E0,1.1820617E0,6.1537072E-2,-0E0,-1.2704599E0,-3.2278726E-1,3.7327223E-2,-1.4889681E0,-7.973028E-1,7.008453E-1,1.744669E-1,-5.153811E-2,-1.1366985E0,1.1757443E0,7.7053845E-1,-5.8700733E-2,5.615357E-1,8.199813E-1,1.5225081E-1,-1.8029502E-1,-1.1428267E0,-2.3129811E0,-1.4308596E0,-3.045828E0,-2.1994674E0,-1.1422709E0,-1.5584248E-1,-8.521934E-1,-1.8446523E0,3.7053593E-2,7.804881E-1,-2.1531456E0,2.1563347E-1,3.3819515E-1,-1.0385098E0,-2.0092397E0,-3.19633E-1,-1.2927638E-1,-1.3024694E0,-2.0849395E0,-1.0454829E0,-8.315803E-3,-1.0008469E0,5.8825547E-1,3.7689418E-2,6.200078E-1,-1.7088007E-2,1.6026203E-1,-4.017214E-1,-1.2758757E0,2.0175084E-1,1.2260257E0,1.0276431E0,8.6220956E-1,3.4657875E-1,-4.6394506E-1,5.2594995E-1,3.047771E-1,7.3076063E-1,1.1135831E0,1.636854E-1,6.9767903E-3,3.6665168E-2,-9.885918E-2,-2.2117953E0,-1.8991317E0,-3.381881E-1,-2.1329634E0,-3.4210162E0,-2.1890817E0,-1.1663251E0,-3.1316218E0,-1.3231771E0,-1.9245524E0,-3.0904086E0,-2.024322E0,-7.281224E-1,3.6730196E-2,-3.6288697E-1,-1.8089296E-1,-1.8685138E0,-2.4165316E0,-1.475506E0,-9.1009E-1,3.5805274E-2,-2.9373395E0,-0E0,4.559198E-1,-6.320872E-1,1.1456913E-1,3.532844E-2,-1.3687863E0,2.8245505E-2,-2.4327722E0,-4.1065028E-1,9.6016437E-1,-7.121024E-1,-8.204043E-3,3.722629E-2,-5.4795384E-2,-2.6891194E-2,-6.976105E-2,-4.3484308E-2,-1.5899602E-2,-5.8974255E-2,-1.7340463E-2,3.714996E-2,-1.09317E-2,-3.8347285E-2,2.3687638E-2,8.932693E-3,2.1332216E-2,-5.150883E-3,-3.0584482E-3,3.6757622E-2,-1.1361373E-3,3.7246443E-2,-7.691564E-3,-2.93471E-2,-5.5074528E-2,-2.8384825E-2,-5.792478E-2,1.3540854E-2,1.900062E-2,3.688928E-2,2.5078867E-2,3.3143185E-2,2.6635468E-2,-4.7078473E-4,7.175465E-3,3.7297413E-2,-1.1065233E-2,-8.920777E-2,2.0515736E-2,-1.4614869E-3,-3.1832237E-2,1.0610479E-2,-7.0856966E-2,2.2162905E-2,-1.3325778E-2,3.4023494E-2,1.1815334E-2,-1.1499815E-2,6.850328E-3,-1.8095596E-2,-1.3779811E-2,7.4374005E-3,1.0561236E-2,-8.8642016E-2,-7.487307E-2,-2.4605036E-2,-2.3598123E-2,1.4456477E-2,-6.7947984E-2,-1.31129E-2,-1.044085E-1,-0E0,-4.389411E-2,-8.0565274E-2,-7.255473E-2,-2.97948E-2,-9.464537E-2,-0E0,2.8264737E-3,-5.923606E-2,-6.033292E-2,2.7481979E-2,-9.862665E-2,-0E0,2.4272492E-2,-6.5668434E-2,-1.2979327E-2,-5.248525E-2,-3.2743268E-2,-3.268402E-3,-4.77879E-2,4.66715E-3,-6.1744485E-2,6.118913E-3,-8.2478866E-2,-3.694978E-2,-4.733181E-2,7.960007E-3,1.7749969E-2,-4.9645804E-2,-0E0,-9.903119E-2,-4.5247697E-3,1.1664223E-2,2.017329E-2,-1.522339E-2,-6.317942E-3,-9.469318E-2,2.043441E-2,-1.3671739E-2,-0E0,-5.3736355E-2,-8.789798E-2,-3.3122025E-2,2.059903E-2,-4.3416213E-2,3.25264E-2,-0E0,-0E0,-5.340707E-2],"categories":[],"categories_nodes":[],"categories_segments":[],"categories_sizes":[],"default_left":[0,0,0,0,0,0,0,0,0,0,0,0,0,0,0,0,0,0,0,0,0,0,0,0,0,0,0,0,0,0,0,0,0,0,0,0,0,0,0,0,0,0,0,0,0,0,0,0,0,0,0,0,0,0,0,0,0,0,0,0,0,0,0,0,0,0,0,0,0,0,0,0,0,0,0,0,0,0,0,0,0,0,0,0,0,0,0,0,0,0,0,0,0,0,0,0,0,0,0,0,0,0,0,0,0,0,0,0,0,0,0,0,0,0,0,0,0,0,0,0,0,0,0,0,0,0,0,0,0,0,0,0,0,0,0,0,0,0,0,0,0,0,0,0,0,0,0,0,0,0,0,0,0,0,0,0,0,0,0,0,0,0,0,0,0,0,0,0,0,0,0,0,0,0,0,0,0,0,0,0,0,0,0,0,0,0,0,0,0,0,0,0,0,0,0,0,0,0,0,0,0,0,0,0,0,0,0,0,0,0,0,0,0,0,0,0,0,0,0,0,0,0,0,0,0,0,0,0,0,0,0],"id":2,"left_children":[1,3,5,7,9,11,13,15,17,19,21,23,25,27,29,31,33,35,37,39,41,43,45,47,49,51,53,55,57,59,61,63,-1,65,67,69,71,73,75,77,79,81,83,85,87,89,91,93,95,97,99,101,103,105,107,-1,109,111,113,115,117,119,121,123,125,127,129,131,133,135,-1,137,139,141,143,145,147,149,151,153,155,157,159,161,163,165,167,169,-1,171,173,175,177,179,181,183,185,187,189,191,193,195,197,-1,199,201,203,205,207,209,-1,211,213,215,217,219,-1,221,-1,223,225,227,229,-1,-1,-1,-1,-1,-1,-1,-1,-1,-1,-1,-1,-1,-1,-1,-1,-1,-1,-1,-1,-1,-1,-1,-1,-1,-1,-1,-1,-1,-1,-1,-1,-1,-1,-1,-1,-1,-1,-1,-1,-1,-1,-1,-1,-1,-1,-1,-1,-1,-1,-1,-1,-1,-1,-1,-1,-1,-1,-1,-1,-1,-1,-1,-1,-1,-1,-1,-1,-1,-1,-1,-1,-1,-1,-1,-1,-1,-1,-1,-1,-1,-1,-1,-1,-1,-1,-1,-1,-1,-1,-1,-1,-1,-1,-1,-1,-1,-1,-1,-1,-1,-1,-1,-1,-1,-1,-1,-1],"loss_changes":[9.336848E3,3.7498965E3,2.44162E3,2.4070374E3,7.58208E2,1.3873042E3,3.676699E2,1.0743746E3,9.255414E2,5.267012E2,2.6379736E2,4.0690918E2,3.2909253E2,1.5029587E2,1.2949841E2,6.768058E2,2.072146E2,3.76313E2,2.654625E2,4.2516992E2,1.439903E2,1.0847185E2,9.7368965E1,2.2141211E2,1.00742676E2,1.7993037E2,8.363635E1,4.650116E0,6.1283665E1,6.981649E1,9.400993E1,4.8591818E2,0E0,2.2921692E2,1.3957404E2,2.926416E2,1.6419835E2,1.7246115E2,4.7908417E1,3.3050293E1,2.144646E2,1.0826529E2,8.6957214E1,7.517587E1,9.8455765E1,5.6397934E1,8.93857E1,8.349487E1,1.437096E2,5.7210938E1,4.951526E1,9.212857E1,1.7998857E2,8.857715E1,5.1784485E1,0E0,3.3982666E1,2.1568256E1,3.540397E1,2.6340183E1,3.379089E1,4.823169E1,3.1651482E1,4.2401306E2,8.570276E1,5.0395386E1,2.3923547E2,1.2899438E2,1.2057648E2,2.2843628E2,0E0,4.2326492E1,1.4025447E2,3.1088495E2,7.198439E1,3.7444946E1,1.2027809E1,5.194824E0,1.5700806E1,1.0367236E2,9.370663E1,6.023654E1,1.756631E1,5.3814476E1,3.0333496E1,9.94397E0,1.5918326E1,7.6286674E1,0E0,4.3323345E1,2.8801338E1,4.4397217E1,2.8380375E1,9.006909E1,1.4304138E1,6.068921E1,1.1477167E2,3.2908203E1,2.367828E1,5.018799E1,3.7102722E1,4.184012E1,5.1935417E1,0E0,1.00504395E2,4.06402E1,2.2842743E1,3.499994E1,3.2725098E1,1.240207E1,0E0,7.501671E0,4.4254017E-1,2.8977722E1,3.614864E1,3.893908E1,0E0,2.4639008E1,0E0,3.243582E1,2.2007853E1,2.3229866E0,3.620911E1,0E0,0E0,0E0,0E0,0E0,0E0,0E0,0E0,0E0,0E0,0E0,0E0,0E0,0E0,0E0,0E0,0E0,0E0,0E0,0E0,0E0,0E0,0E0,0E0,0E0,0E0,0E0,0E0,0E0,0E0,0E0,0E0,0E0,0E0,0E0,0E0,0E0,0E0,0E0,0E0,0E0,0E0,0E0,0E0,0E0,0E0,0E0,0E0,0E0,0E0,0E0,0E0,0E0,0E0,0E0,0E0,0E0,0E0,0E0,0E0,0E0,0E0,0E0,0E0,0E0,0E0,0E0,0E0,0E0,0E0,0E0,0E0,0E0,0E0,0E0,0E0,0E0,0E0,0E0,0E0,0E0,0E0,0E0,0E0,0E0,0E0,0E0,0E0,0E0,0E0,0E0,0E0,0E0,0E0,0E0,0E0,0E0,0E0,0E0,0E0,0E0,0E0,0E0,0E0,0E0,0E0,0E0,0E0],"parents":[2147483647,0,0,1,1,2,2,3,3,4,4,5,5,6,6,7,7,8,8,9,9,10,10,11,11,12,12,13,13,14,14,15,15,16,16,17,17,18,18,19,19,20,20,21,21,22,22,23,23,24,24,25,25,26,26,27,27,28,28,29,29,30,30,31,31,33,33,34,34,35,35,36,36,37,37,38,38,39,39,40,40,41,41,42,42,43,43,44,44,45,45,46,46,47,47,48,48,49,49,50,50,51,51,52,52,53,53,54,54,56,56,57,57,58,58,59,59,60,60,61,61,62,62,63,63,64,64,65,65,66,66,67,67,68,68,69,69,71,71,72,72,73,73,74,74,75,75,76,76,77,77,78,78,79,79,80,80,81,81,82,82,83,83,84,84,85,85,86,86,87,87,89,89,90,90,91,91,92,92,93,93,94,94,95,95,96,96,97,97,98,98,99,99,100,100,101,101,102,102,104,104,105,105,106,106,107,107,108,108,109,109,111,111,112,112,113,113,114,114,115,115,117,117,119,119,120,120,121,121,122,122],"right_children":[2,4,6,8,10,12,14,16,18,20,22,24,26,28,30,32,34,36,38,40,42,44,46,48,50,52,54,56,58,60,62,64,-1,66,68,70,72,74,76,78,80,82,84,86,88,90,92,94,96,98,100,102,104,106,108,-1,110,112,114,116,118,120,122,124,126,128,130,132,134,136,-1,138,140,142,144,146,148,150,152,154,156,158,160,162,164,166,168,170,-1,172,174,176,178,180,182,184,186,188,190,192,194,196,198,-1,200,202,204,206,208,210,-1,212,214,216,218,220,-1,222,-1,224,226,228,230,-1,-1,-1,-1,-1,-1,-1,-1,-1,-1,-1,-1,-1,-1,-1,-1,-1,-1,-1,-1,-1,-1,-1,-1,-1,-1,-1,-1,-1,-1,-1,-1,-1,-1,-1,-1,-1,-1,-1,-1,-1,-1,-1,-1,-1,-1,-1,-1,-1,-1,-1,-1,-1,-1,-1,-1,-1,-1,-1,-1,-1,-1,-1,-1,-1,-1,-1,-1,-1,-1,-1,-1,-1,-1,-1,-1,-1,-1,-1,-1,-1,-1,-1,-1,-1,-1,-1,-1,-1,-1,-1,-1,-1,-1,-1,-1,-1,-1,-1,-1,-1,-1,-1,-1,-1,-1,-1,-1],"split_conditions":[8E0,5.61257E-3,5.61257E-3,2.3917526E-1,5E0,2.3584905E-1,6E0,1.6E1,1.6E1,1E0,1.6E1,1.1E1,1.6E1,3.3333334E-1,5E0,1.500844E1,2.542373E-1,4E0,5E0,3E0,1.004512E0,3E0,5E-1,2.0186429E-1,1.8709677E-1,1.0201268E0,-6.5530665E-2,2.5E-1,1.5068494E-1,6E-1,2.6751593E-1,1.5E1,3.7327223E-2,2.8516185E-1,3E0,3.0262566E0,0E0,1E0,5.256644E-1,2.3333333E0,1E0,4.1786635E-1,3.104693E-1,1E0,1.500844E1,7E0,2.8728414E-1,6.403712E0,1.509434E-1,3.5897437E-1,5E0,2.2564415E1,1.9822242E0,5.5480227E0,4.180143E1,3.7053593E-2,2.538247E-1,9.1E1,1.6E0,4.008287E0,4.008287E0,2.6240693E-2,2.4919195E0,1.4043908E1,8.572099E0,2.0363636E-1,6.25E0,2.0572076E0,1.23E3,3E0,3.7689418E-2,7E0,1.500844E1,1.6488701E-2,2.3996153E1,5.605018E2,4.66538E2,-8.371595E1,2.514395E0,1.8E1,4.008287E0,6.5655136E0,1.6E1,4.2596744E2,4E2,-1.2E1,6.35291E1,6E-1,3.6665168E-2,4.924513E2,8.888889E-2,5.0334615E-1,1.6072554E1,2.6240693E-2,5.3370323E1,-9.86187E-3,1.2029651E1,2.15E2,1.3053385E1,4.008287E0,5.6E1,1E0,5E0,3.6730196E-2,2.0757115E0,2.264151E-1,1.0284318E0,3.8663346E-1,5.03869E-1,1.2556085E1,3.5805274E-2,4.5904045E1,4.1615167E0,9.831944E-1,2.7646549E0,4E0,3.532844E-2,3.8773022E0,2.8245505E-2,6.4152513E0,8.6E0,1.4707524E1,2.6351145E-1,-8.204043E-3,3.722629E-2,-5.4795384E-2,-2.6891194E-2,-6.976105E-2,-4.3484308E-2,-1.5899602E-2,-5.8974255E-2,-1.7340463E-2,3.714996E-2,-1.09317E-2,-3.8347285E-2,2.3687638E-2,8.932693E-3,2.1332216E-2,-5.150883E-3,-3.0584482E-3,3.6757622E-2,-1.1361373E-3,3.7246443E-2,-7.691564E-3,-2.93471E-2,-5.5074528E-2,-2.8384825E-2,-5.792478E-2,1.3540854E-2,1.900062E-2,3.688928E-2,2.5078867E-2,3.3143185E-2,2.6635468E-2,-4.7078473E-4,7.175465E-3,3.7297413E-2,-1.1065233E-2,-8.920777E-2,2.0515736E-2,-1.4614869E-3,-3.1832237E-2,1.0610479E-2,-7.0856966E-2,2.2162905E-2,-1.3325778E-2,3.4023494E-2,1.1815334E-2,-1.1499815E-2,6.850328E-3,-1.8095596E-2,-1.3779811E-2,7.4374005E-3,1.0561236E-2,-8.8642016E-2,-7.487307E-2,-2.4605036E-2,-2.3598123E-2,1.4456477E-2,-6.7947984E-2,-1.31129E-2,-1.044085E-1,-0E0,-4.389411E-2,-8.0565274E-2,-7.255473E-2,-2.97948E-2,-9.464537E-2,-0E0,2.8264737E-3,-5.923606E-2,-6.033292E-2,2.7481979E-2,-9.862665E-2,-0E0,2.4272492E-2,-6.5668434E-2,-1.2979327E-2,-5.248525E-2,-3.2743268E-2,-3.268402E-3,-4.77879E-2,4.66715E-3,-6.1744485E-2,6.118913E-3,-8.2478866E-2,-3.694978E-2,-4.733181E-2,7.960007E-3,1.7749969E-2,-4.9645804E-2,-0E0,-9.903119E-2,-4.5247697E-3,1.1664223E-2,2.017329E-2,-1.522339E-2,-6.317942E-3,-9.469318E-2,2.043441E-2,-1.3671739E-2,-0E0,-5.3736355E-2,-8.789798E-2,-3.3122025E-2,2.059903E-2,-4.3416213E-2,3.25264E-2,-0E0,-0E0,-5.340707E-2],"split_indices":[13,21,21,11,0,11,15,10,10,21,10,13,10,21,0,10,12,0,0,22,22,22,23,12,11,15,23,21,12,23,11,10,0,13,0,0,23,1,11,22,23,11,11,21,10,0,11,20,11,12,0,14,15,22,14,0,21,14,23,0,0,20,22,10,14,11,13,0,8,0,0,13,10,1,9,4,2,24,22,10,0,13,10,2,2,24,14,23,0,2,11,21,10,20,9,23,9,6,10,0,9,15,0,0,15,12,1,11,11,10,0,6,3,21,24,0,0,22,0,0,13,10,21,0,0,0,0,0,0,0,0,0,0,0,0,0,0,0,0,0,0,0,0,0,0,0,0,0,0,0,0,0,0,0,0,0,0,0,0,0,0,0,0,0,0,0,0,0,0,0,0,0,0,0,0,0,0,0,0,0,0,0,0,0,0,0,0,0,0,0,0,0,0,0,0,0,0,0,0,0,0,0,0,0,0,0,0,0,0,0,0,0,0,0,0,0,0,0,0,0,0,0,0,0,0,0,0,0,0,0,0],"split_type":[0,0,0,0,0,0,0,0,0,0,0,0,0,0,0,0,0,0,0,0,0,0,0,0,0,0,0,0,0,0,0,0,0,0,0,0,0,0,0,0,0,0,0,0,0,0,0,0,0,0,0,0,0,0,0,0,0,0,0,0,0,0,0,0,0,0,0,0,0,0,0,0,0,0,0,0,0,0,0,0,0,0,0,0,0,0,0,0,0,0,0,0,0,0,0,0,0,0,0,0,0,0,0,0,0,0,0,0,0,0,0,0,0,0,0,0,0,0,0,0,0,0,0,0,0,0,0,0,0,0,0,0,0,0,0,0,0,0,0,0,0,0,0,0,0,0,0,0,0,0,0,0,0,0,0,0,0,0,0,0,0,0,0,0,0,0,0,0,0,0,0,0,0,0,0,0,0,0,0,0,0,0,0,0,0,0,0,0,0,0,0,0,0,0,0,0,0,0,0,0,0,0,0,0,0,0,0,0,0,0,0,0,0,0,0,0,0,0,0,0,0,0,0,0,0,0,0,0,0,0,0],"sum_hessian":[3.2430166E4,2.8335953E4,4.0942124E3,1.3843398E4,1.4492555E4,3.2222053E3,8.720071E2,4.638928E3,9.204471E3,1.2949637E4,1.5429171E3,1.9171602E3,1.3050452E3,5.399771E2,3.3203E2,2.8781428E3,1.7607856E3,6.635309E3,2.5691611E3,1.046517E4,2.484467E3,1.0371111E3,5.0580603E2,1.2269626E3,6.901975E2,8.930902E2,4.1195493E2,3.5708737E2,1.8288971E2,1.949692E2,1.3706082E2,2.5705818E3,3.075609E2,8.86337E2,8.7444867E2,4.7195737E3,1.9157354E3,2.3201262E3,2.490349E2,4.9091597E3,5.5560103E3,4.5518936E2,2.0292777E3,3.967144E2,6.403967E2,3.551916E2,1.5061444E2,4.8201926E2,7.449434E2,4.4428168E2,2.4591585E2,2.6276932E2,6.3032086E2,1.32329E2,2.7962595E2,3.1138016E2,4.5707207E1,1.0631467E1,1.7225824E2,1.4692175E2,4.804744E1,7.591276E1,6.1148064E1,2.148378E3,4.222039E2,3.7561545E2,5.1072153E2,1.805492E2,6.938994E2,3.9273794E3,7.9219446E2,5.768991E2,1.3388362E3,1.4442764E3,8.7585E2,2.2629749E2,2.2737415E1,3.6544255E3,1.2547345E3,4.5654497E3,9.905607E2,2.699756E2,1.8521378E2,8.0960504E2,1.2196727E3,2.7256067E2,1.2415371E2,5.655478E2,7.484895E1,3.429835E2,1.2208114E1,7.629725E1,7.431719E1,4.17945E2,6.407425E1,1.8981909E2,5.551243E2,4.2187265E2,2.2409021E1,1.912003E2,5.4715534E1,8.194367E1,1.8082565E2,8.095072E1,5.493701E2,8.099323E1,5.133576E1,1.0645355E2,1.731724E2,8.262491E0,3.7444714E1,7.7497067E0,2.88176E0,1.3549423E2,3.676401E1,1.17852875E2,2.906887E1,4.1876087E1,6.171354E0,5.9105812E1,1.6806944E1,1.3413558E1,4.7734505E1,1.9451998E3,2.0317812E2,1.8173074E2,2.4047314E2,2.6943936E2,1.0617608E2,3.290662E2,1.8165533E2,1.24838394E2,5.5710804E1,2.1242668E2,4.8147275E2,2.3166487E3,1.6107307E3,5.1861066E2,5.8288456E1,1.2548448E3,8.399142E1,1.220647E3,2.2362938E2,7.020475E2,1.7380249E2,8.1050964E1,1.4524652E2,1.2569509E0,2.1480465E1,2.4912653E1,3.6295127E3,3.671373E2,8.8759717E2,4.436993E3,1.284561E2,8.8673584E2,1.0382493E2,2.616073E2,8.36827E0,1.4650655E2,3.870723E1,2.6564287E1,7.830407E2,2.0663226E0,1.2176064E3,2.6439488E0,2.6991672E2,8.886944E1,3.5284267E1,4.1665125E2,1.4889655E2,1.694257E2,1.7355777E2,2.5586188E0,9.649495E0,4.768746E1,2.8609789E1,4.8860443E1,2.5456753E1,3.86911E2,3.1033997E1,6.3057716E1,1.0165306E0,7.9510155E1,1.1030894E2,6.5165764E1,4.8995856E2,4.1897598E2,2.8966508E0,6.8415413E0,1.556748E1,1.8617227E2,5.028042E0,5.1666546E1,3.0489872E0,3.9511256E0,7.799255E1,1.4211551E2,3.871014E1,1.4012245E2,4.0924768E2,1.543887E1,6.555436E1,4.7480618E1,3.8551407E0,8.14223E1,2.5031248E1,1.6419885E2,8.973534E0,2.362208E0,5.9002833E0,1.1334027E0,6.6163044E0,1.3005366E0,1.5812232E0,1.11723595E2,2.3770645E1,3.2771713E1,3.9922996E0,5.9901142E1,5.7951733E1,1.01590605E1,3.1717028E1,4.1587376E1,1.7518436E1,7.8596625E0,8.947281E0,1.2280155E1,1.1334027E0,2.951163E1,1.8222878E1],"tree_param":{"num_deleted":"0","num_feature":"25","num_nodes":"231","size_leaf_vector":"1"}},{"base_weights":[2.1844941E-1,4.185709E-1,-1.1312865E0,5.4198924E-2,7.7097946E-1,-1.5043181E0,2.8872138E-1,-5.3135556E-1,3.3358738E-1,8.498576E-1,1.16733246E-1,-2.0008607E0,-7.585808E-1,7.927647E-1,-5.098361E-1,-1.6899905E-1,-1.1068038E0,5.3121865E-1,-1.6760969E-1,9.484909E-1,4.3758565E-1,4.000166E-1,-4.5324674E-1,-1.6793455E0,-2.560691E0,-4.3164957E-1,-1.4506644E0,1.1719037E0,5.8302395E-2,-0E0,-1.2108436E0,-3.2890204E-1,3.7029427E-2,-9.699945E-1,-1.9474248E0,6.8349916E-1,1.6188587E-1,-6.5980695E-2,-1.0919504E0,1.1653652E0,7.579405E-1,-5.705201E-2,5.501872E-1,8.074382E-1,1.4820884E-1,-2.1623085E-1,-1.2185091E0,-1.3312349E0,-2.1576927E0,-2.8054988E0,-2.0165336E0,-1.0884733E0,-1.5068913E-1,-2.2675493E0,-1.2153391E0,3.6768205E-2,7.684366E-1,-2.0418878E0,2.0920604E-1,3.3045283E-1,-9.906274E-1,-1.8941449E0,-3.0873087E-1,-1.4312501E-1,-1.2377234E0,-1.2202718E0,2.3991188E-1,-1.558469E-1,-2.0270708E0,5.7014096E-1,3.741147E-2,5.929029E-1,-2.1751301E-2,-3.2382953E-1,2.1123873E-1,-1.2302054E0,9.4187446E-2,1.216362E0,1.0157149E0,8.495206E-1,3.3833972E-1,-3.9642563E-1,6.0618466E-1,6.9534886E-1,2.5467685E-1,1.1024331E0,1.5906164E-1,6.7302897E-3,3.637715E-2,-4.92526E-1,3.652523E-2,-0E0,-1.4494337E0,-1.4778522E0,3.6491737E-2,-2.4142976E0,-1.5206003E0,-2.8660927E0,-4.396899E-1,-1.6869693E0,-2.7270386E0,-2.617821E0,-8.723531E-1,3.6442902E-2,-3.4996074E-1,-3.5679877E0,-1.8992294E0,-4.8235458E-1,-1.5629061E0,-8.695351E-1,3.5509005E-2,-2.7601614E0,-0E0,4.4582304E-1,-6.112742E-1,1.112789E-1,3.50277E-2,-1.3010566E0,2.7924052E-2,-9.622421E-2,-2.2229578E0,9.483407E-1,-6.845974E-1,-8.498808E-3,3.691607E-2,-5.1080734E-2,-2.5996827E-2,-4.9144503E-2,-2.6036434E-2,3.707725E-2,-1.2366626E-2,2.7972007E-2,-3.8524866E-2,-6.712548E-2,-4.3542244E-2,2.3069965E-2,8.592795E-3,2.059141E-2,-4.8023905E-3,-3.2000635E-3,3.6511596E-2,-1.1948742E-2,3.6833804E-2,-3.0541783E-2,8.01181E-3,-2.8489212E-2,-5.5976108E-2,-6.549119E-2,1.09282425E-2,1.8655345E-2,3.6600906E-2,2.469847E-2,3.2805763E-2,2.3691515E-2,3.7396543E-2,2.5623199E-2,4.619839E-3,-9.3129575E-3,-8.435704E-2,2.1332571E-2,-2.875029E-2,-8.13975E-2,2.1192597E-2,-8.6649903E-4,1.563994E-2,-1.2963975E-2,3.369683E-2,9.022412E-3,-2.1256497E-2,1.0159345E-2,-1.1331997E-2,-2.3987664E-2,5.1759183E-3,2.4929823E-2,-2.0746583E-2,-5.4883868E-2,-6.0507343E-3,-3.834528E-2,-7.603291E-2,-5.493242E-2,-8.353391E-2,-1.0361245E-2,-5.6829724E-2,-9.387083E-2,-7.142308E-2,-5.6020316E-2,3.6461547E-3,-6.0740367E-2,1.6762873E-2,6.2964554E-3,-8.490302E-2,1.1026298E-2,-8.4377006E-2,-8.463576E-2,-2.1686954E-2,-3.1203618E-2,-3.1646164E-3,-1.1354406E-1,-1.8023916E-2,-6.2635E-2,-0E0,-7.5318073E-3,-1.06183626E-1,-6.463536E-2,-3.351913E-2,1.7504474E-2,-4.7240246E-2,-0E0,-9.251861E-2,-4.6228236E-3,1.1614074E-2,1.9809421E-2,-1.4662854E-2,6.7370676E-4,-5.9295334E-2,2.0071842E-2,-1.31673105E-2,8.3157624E-4,-4.967313E-2,2.7307458E-2,-2.6573824E-2,-8.412272E-2,-2.4676451E-2,3.220861E-2,-0E0,-0E0,-5.0510217E-2],"categories":[],"categories_nodes":[],"categories_segments":[],"categories_sizes":[],"default_left":[0,0,0,0,0,0,0,0,0,0,0,0,0,0,0,0,0,0,0,0,0,0,0,0,0,0,0,0,0,0,0,0,0,0,0,0,0,0,0,0,0,0,0,0,0,0,0,0,0,0,0,0,0,0,0,0,0,0,0,0,0,0,0,0,0,0,0,0,0,0,0,0,0,0,0,0,0,0,0,0,0,0,0,0,0,0,0,0,0,0,0,0,0,0,0,0,0,0,0,0,0,0,0,0,0,0,0,0,0,0,0,0,0,0,0,0,0,0,0,0,0,0,0,0,0,0,0,0,0,0,0,0,0,0,0,0,0,0,0,0,0,0,0,0,0,0,0,0,0,0,0,0,0,0,0,0,0,0,0,0,0,0,0,0,0,0,0,0,0,0,0,0,0,0,0,0,0,0,0,0,0,0,0,0,0,0,0,0,0,0,0,0,0,0,0,0,0,0,0,0,0,0,0,0,0,0,0,0,0,0,0,0,0,0,0,0,0,0,0,0,0,0,0,0,0,0,0],"id":3,"left_children":[1,3,5,7,9,11,13,15,17,19,21,23,25,27,29,31,33,35,37,39,41,43,45,47,49,51,53,55,57,59,61,63,-1,65,67,69,71,73,75,77,79,81,83,85,87,89,91,93,95,97,99,101,103,105,107,-1,109,111,113,115,117,119,121,123,125,127,129,131,133,135,-1,137,139,141,143,145,147,149,151,153,155,157,159,161,163,165,167,169,-1,171,-1,173,175,177,-1,179,181,183,185,187,189,191,193,-1,195,197,199,201,203,205,-1,207,209,211,213,215,-1,217,-1,219,221,223,225,-1,-1,-1,-1,-1,-1,-1,-1,-1,-1,-1,-1,-1,-1,-1,-1,-1,-1,-1,-1,-1,-1,-1,-1,-1,-1,-1,-1,-1,-1,-1,-1,-1,-1,-1,-1,-1,-1,-1,-1,-1,-1,-1,-1,-1,-1,-1,-1,-1,-1,-1,-1,-1,-1,-1,-1,-1,-1,-1,-1,-1,-1,-1,-1,-1,-1,-1,-1,-1,-1,-1,-1,-1,-1,-1,-1,-1,-1,-1,-1,-1,-1,-1,-1,-1,-1,-1,-1,-1,-1,-1,-1,-1,-1,-1,-1,-1,-1,-1,-1,-1,-1,-1,-1],"loss_changes":[8.719777E3,3.6094424E3,2.209522E3,2.2618447E3,7.364404E2,1.2182979E3,3.4983408E2,9.296007E2,9.27746E2,5.1674316E2,2.4880708E2,3.4794922E2,2.9663477E2,1.4710446E2,1.1894683E2,6.1481616E2,1.9346606E2,3.767561E2,2.4741388E2,4.2232324E2,1.3785455E2,1.0464694E2,9.091791E1,2.037998E2,8.536426E1,1.6474599E2,7.503107E1,4.6595154E0,5.6717102E1,6.4973976E1,8.388579E1,4.1429977E2,0E0,4.5117407E2,3.1646729E1,3.0110547E2,1.5602446E2,1.7078355E2,4.4077393E1,3.321875E1,2.09156E2,1.0277562E2,8.510364E1,7.351836E1,9.5090385E1,1.5519301E2,3.330548E1,2.763435E2,7.883984E1,6.602173E1,4.4389282E1,8.297604E1,1.7174841E2,3.2035583E1,8.160831E1,0E0,3.265818E1,1.9293468E1,3.358682E1,2.5569437E1,3.1313793E1,4.42778E1,2.988163E1,3.9355194E2,6.791882E1,1.7748218E2,1.6683716E2,1.6041803E1,2.0744385E1,2.2216174E2,0E0,4.20513E1,1.438177E2,1.427879E2,7.835878E1,3.727249E1,1.5850597E1,5.196289E0,1.5641968E1,1.0374829E2,9.2572205E1,5.9059555E1,2.5693901E1,5.067224E1,5.086738E1,9.732147E0,1.5143318E1,7.236857E1,0E0,6.8162E1,0E0,1.21524315E1,4.5176453E1,1.3961108E2,0E0,7.1056885E1,6.546838E1,4.823047E1,1.3101971E1,1.2347479E2,2.4306458E1,2.2184402E1,6.3544632E1,0E0,9.215891E1,5.3493805E0,2.5409729E1,7.2353516E1,5.3207703E1,1.1542007E1,0E0,6.3800964E0,4.4089714E-1,2.76316E1,3.494223E1,3.691456E1,0E0,2.230877E1,0E0,1.1714857E1,4.8124603E1,2.2845383E0,3.2873062E1,0E0,0E0,0E0,0E0,0E0,0E0,0E0,0E0,0E0,0E0,0E0,0E0,0E0,0E0,0E0,0E0,0E0,0E0,0E0,0E0,0E0,0E0,0E0,0E0,0E0,0E0,0E0,0E0,0E0,0E0,0E0,0E0,0E0,0E0,0E0,0E0,0E0,0E0,0E0,0E0,0E0,0E0,0E0,0E0,0E0,0E0,0E0,0E0,0E0,0E0,0E0,0E0,0E0,0E0,0E0,0E0,0E0,0E0,0E0,0E0,0E0,0E0,0E0,0E0,0E0,0E0,0E0,0E0,0E0,0E0,0E0,0E0,0E0,0E0,0E0,0E0,0E0,0E0,0E0,0E0,0E0,0E0,0E0,0E0,0E0,0E0,0E0,0E0,0E0,0E0,0E0,0E0,0E0,0E0,0E0,0E0,0E0,0E0,0E0,0E0,0E0,0E0,0E0,0E0],"parents":[2147483647,0,0,1,1,2,2,3,3,4,4,5,5,6,6,7,7,8,8,9,9,10,10,11,11,12,12,13,13,14,14,15,15,16,16,17,17,18,18,19,19,20,20,21,21,22,22,23,23,24,24,25,25,26,26,27,27,28,28,29,29,30,30,31,31,33,33,34,34,35,35,36,36,37,37,38,38,39,39,40,40,41,41,42,42,43,43,44,44,45,45,46,46,47,47,48,48,49,49,50,50,51,51,52,52,53,53,54,54,56,56,57,57,58,58,59,59,60,60,61,61,62,62,63,63,64,64,65,65,66,66,67,67,68,68,69,69,71,71,72,72,73,73,74,74,75,75,76,76,77,77,78,78,79,79,80,80,81,81,82,82,83,83,84,84,85,85,86,86,87,87,89,89,91,91,92,92,93,93,95,95,96,96,97,97,98,98,99,99,100,100,101,101,102,102,104,104,105,105,106,106,107,107,108,108,109,109,111,111,112,112,113,113,114,114,115,115,117,117,119,119,120,120,121,121,122,122],"right_children":[2,4,6,8,10,12,14,16,18,20,22,24,26,28,30,32,34,36,38,40,42,44,46,48,50,52,54,56,58,60,62,64,-1,66,68,70,72,74,76,78,80,82,84,86,88,90,92,94,96,98,100,102,104,106,108,-1,110,112,114,116,118,120,122,124,126,128,130,132,134,136,-1,138,140,142,144,146,148,150,152,154,156,158,160,162,164,166,168,170,-1,172,-1,174,176,178,-1,180,182,184,186,188,190,192,194,-1,196,198,200,202,204,206,-1,208,210,212,214,216,-1,218,-1,220,222,224,226,-1,-1,-1,-1,-1,-1,-1,-1,-1,-1,-1,-1,-1,-1,-1,-1,-1,-1,-1,-1,-1,-1,-1,-1,-1,-1,-1,-1,-1,-1,-1,-1,-1,-1,-1,-1,-1,-1,-1,-1,-1,-1,-1,-1,-1,-1,-1,-1,-1,-1,-1,-1,-1,-1,-1,-1,-1,-1,-1,-1,-1,-1,-1,-1,-1,-1,-1,-1,-1,-1,-1,-1,-1,-1,-1,-1,-1,-1,-1,-1,-1,-1,-1,-1,-1,-1,-1,-1,-1,-1,-1,-1,-1,-1,-1,-1,-1,-1,-1,-1,-1,-1,-1,-1],"split_conditions":[8E0,5.61257E-3,5.61257E-3,2.3333333E-1,5E0,2.3584905E-1,6E0,1.6E1,1.6E1,1E0,1.6E1,1.1E1,1.6E1,3.3333334E-1,5E0,1.500844E1,1.8E1,4E0,5E0,3E0,1.004512E0,3E0,6E0,1.6E1,1.919192E-1,1.0201268E0,2.16E-1,2.5E-1,1.5068494E-1,6E-1,2.6751593E-1,1.5E1,3.7029427E-2,1.6072554E1,1.15E3,3.0262566E0,0E0,3.501509E-1,4.962325E-1,2.3333333E0,1E0,4.465352E-1,1.6E1,1E0,1.500844E1,5.2180057E0,3.0653598E0,1.500844E1,2.7391306E-1,3.9306173E-1,8.01981E0,1.4046723E1,1.9822242E0,-1.3163663E0,-6.5530665E-2,3.6768205E-2,2.538247E-1,9.1E1,1.6E0,4.008287E0,4.008287E0,1.0855596E1,2.4919195E0,1.4043908E1,8.572099E0,2.491351E0,1.7E1,-1.3163663E0,4.4417194E1,3E0,3.741147E-2,7E0,1.500844E1,4.008287E0,4.2905557E2,1.3359789E2,4.66538E2,-8.371595E1,2.514395E0,4.008287E0,3.3333334E-1,6.5655136E0,1.6072554E1,4E2,3.241644E-1,-1.2E1,8E-1,1.3E1,3.637715E-2,3.501509E-1,3.652523E-2,1.4046723E1,5.121342E2,6.872457E0,3.6491737E-2,-1.2807174E-1,-2.2E0,3.0262566E0,4.7253793E2,5.3086005E-2,-1.2E1,8.5535085E-1,2.535211E-1,3.6442902E-2,2.0757115E0,1.2470596E1,4.2307693E-1,5.7590674E2,8.369149E1,1.2556085E1,3.5509005E-2,4.5904045E1,2.0681265E-1,9.831944E-1,7.4666667E0,4E0,3.50277E-2,5.366059E2,2.7924052E-2,2.5508635E1,6.4152513E0,1.4707524E1,2.6351145E-1,-8.498808E-3,3.691607E-2,-5.1080734E-2,-2.5996827E-2,-4.9144503E-2,-2.6036434E-2,3.707725E-2,-1.2366626E-2,2.7972007E-2,-3.8524866E-2,-6.712548E-2,-4.3542244E-2,2.3069965E-2,8.592795E-3,2.059141E-2,-4.8023905E-3,-3.2000635E-3,3.6511596E-2,-1.1948742E-2,3.6833804E-2,-3.0541783E-2,8.01181E-3,-2.8489212E-2,-5.5976108E-2,-6.549119E-2,1.09282425E-2,1.8655345E-2,3.6600906E-2,2.469847E-2,3.2805763E-2,2.3691515E-2,3.7396543E-2,2.5623199E-2,4.619839E-3,-9.3129575E-3,-8.435704E-2,2.1332571E-2,-2.875029E-2,-8.13975E-2,2.1192597E-2,-8.6649903E-4,1.563994E-2,-1.2963975E-2,3.369683E-2,9.022412E-3,-2.1256497E-2,1.0159345E-2,-1.1331997E-2,-2.3987664E-2,5.1759183E-3,2.4929823E-2,-2.0746583E-2,-5.4883868E-2,-6.0507343E-3,-3.834528E-2,-7.603291E-2,-5.493242E-2,-8.353391E-2,-1.0361245E-2,-5.6829724E-2,-9.387083E-2,-7.142308E-2,-5.6020316E-2,3.6461547E-3,-6.0740367E-2,1.6762873E-2,6.2964554E-3,-8.490302E-2,1.1026298E-2,-8.4377006E-2,-8.463576E-2,-2.1686954E-2,-3.1203618E-2,-3.1646164E-3,-1.1354406E-1,-1.8023916E-2,-6.2635E-2,-0E0,-7.5318073E-3,-1.06183626E-1,-6.463536E-2,-3.351913E-2,1.7504474E-2,-4.7240246E-2,-0E0,-9.251861E-2,-4.6228236E-3,1.1614074E-2,1.9809421E-2,-1.4662854E-2,6.7370676E-4,-5.9295334E-2,2.0071842E-2,-1.31673105E-2,8.3157624E-4,-4.967313E-2,2.7307458E-2,-2.6573824E-2,-8.412272E-2,-2.4676451E-2,3.220861E-2,-0E0,-0E0,-5.0510217E-2],"split_indices":[13,21,21,11,0,11,15,10,10,21,10,13,10,21,0,10,10,0,0,22,22,22,0,10,11,15,12,21,12,23,11,10,0,10,8,0,23,11,11,22,23,11,10,21,10,0,13,10,12,12,22,14,15,24,23,0,21,14,23,0,0,10,22,10,14,14,10,24,14,0,0,13,10,0,2,7,2,24,22,0,21,13,10,2,11,24,23,10,0,11,0,14,2,20,0,23,24,0,2,22,24,15,11,0,15,13,11,4,6,10,0,6,11,21,22,0,0,4,0,7,0,10,21,0,0,0,0,0,0,0,0,0,0,0,0,0,0,0,0,0,0,0,0,0,0,0,0,0,0,0,0,0,0,0,0,0,0,0,0,0,0,0,0,0,0,0,0,0,0,0,0,0,0,0,0,0,0,0,0,0,0,0,0,0,0,0,0,0,0,0,0,0,0,0,0,0,0,0,0,0,0,0,0,0,0,0,0,0,0,0,0,0,0,0,0,0,0,0,0,0,0,0,0,0,0,0,0],"split_type":[0,0,0,0,0,0,0,0,0,0,0,0,0,0,0,0,0,0,0,0,0,0,0,0,0,0,0,0,0,0,0,0,0,0,0,0,0,0,0,0,0,0,0,0,0,0,0,0,0,0,0,0,0,0,0,0,0,0,0,0,0,0,0,0,0,0,0,0,0,0,0,0,0,0,0,0,0,0,0,0,0,0,0,0,0,0,0,0,0,0,0,0,0,0,0,0,0,0,0,0,0,0,0,0,0,0,0,0,0,0,0,0,0,0,0,0,0,0,0,0,0,0,0,0,0,0,0,0,0,0,0,0,0,0,0,0,0,0,0,0,0,0,0,0,0,0,0,0,0,0,0,0,0,0,0,0,0,0,0,0,0,0,0,0,0,0,0,0,0,0,0,0,0,0,0,0,0,0,0,0,0,0,0,0,0,0,0,0,0,0,0,0,0,0,0,0,0,0,0,0,0,0,0,0,0,0,0,0,0,0,0,0,0,0,0,0,0,0,0,0,0,0,0,0,0,0,0],"sum_hessian":[3.2282064E4,2.8114969E4,4.167095E3,1.382482E4,1.4290148E4,3.3006658E3,8.6642957E2,4.464159E3,9.36066E3,1.2751015E4,1.5391337E3,1.9795656E3,1.3211001E3,5.319355E2,3.3449408E2,2.7411218E3,1.7230376E3,6.714819E3,2.6458418E3,1.028635E4,2.4646655E3,1.0295126E3,5.0962112E2,1.2610946E3,7.1847095E2,8.993348E2,4.2176538E2,3.4954083E2,1.8239467E2,1.948851E2,1.39609E2,2.4620566E3,2.790651E2,1.4847423E3,2.3829529E2,4.7519663E3,1.9628525E3,2.3856938E3,2.6014798E2,4.8060244E3,5.480325E3,4.5547223E2,2.0091934E3,3.9088617E2,6.3862646E2,3.9108435E2,1.1853676E2,7.3331116E2,5.2778345E2,4.914032E2,2.2706776E2,2.6751352E2,6.318212E2,9.1445465E1,3.3031992E2,3.0449503E2,4.504581E1,1.0942697E1,1.7145197E2,1.4603745E2,4.8847645E1,7.8182106E1,6.142688E1,2.046067E3,4.1598965E2,1.2309333E3,2.5380898E2,1.0802958E1,2.2749232E2,3.9593318E3,7.926344E2,5.8739276E2,1.3754597E3,1.2378124E3,1.1478816E3,2.337126E2,2.6435383E1,3.5742178E3,1.2318065E3,4.4957056E3,9.8461975E2,3.0256293E2,1.5290932E2,1.3441686E3,6.6502484E2,2.6711362E2,1.2377253E2,5.6541547E2,7.321099E1,3.290309E2,6.2053455E1,1.9201849E1,9.933491E1,6.941735E2,3.913765E1,3.731349E2,1.5464856E2,4.7851318E2,1.2889984E1,1.5838391E2,6.868385E1,3.117411E1,2.3633942E2,7.9175964E1,5.5264526E2,1.7666739E1,7.377873E1,1.0794325E2,2.2237668E2,8.400939E0,3.664487E1,8.068229E0,2.8744676E0,1.3437515E2,3.7076805E1,1.17580696E2,2.8456753E1,4.2779446E1,6.068201E0,1.27577505E1,6.5424355E1,1.31761465E1,4.8250732E1,1.8579983E3,1.8806874E2,1.8187143E2,2.3411824E2,5.6017285E2,6.707605E2,1.0067983E2,1.5312914E2,5.1363583E0,5.6665998E0,1.6320532E2,6.4287E1,2.3246968E3,1.6346351E3,5.237851E2,6.3607704E1,1.288834E3,8.662577E1,1.1824545E3,5.5357807E1,4.8333527E1,1.0995481E3,1.6496754E2,6.874505E1,1.6593591E0,2.4776024E1,2.463525E1,3.5495825E3,3.6170615E2,8.701004E2,3.9119666E3,5.837391E2,2.5687323E2,7.277465E2,2.9365112E2,8.911801E0,1.4441125E2,8.498062E0,3.2690833E0,1.3408994E3,3.2091043E2,3.4411438E2,2.6638079E0,2.6444983E2,1.0794974E2,1.5822794E1,3.0490524E2,2.6051022E2,2.2599039E2,1.0304051E2,8.480414E0,1.0721435E1,7.517191E1,2.4162994E1,5.864922E2,1.0768136E2,1.4823338E2,2.2490149E2,3.8422787E1,1.1622578E2,3.0549588E2,1.7301732E2,3.4834187E0,9.406566E0,1.3815248E2,2.023143E1,1.9644412E0,6.671941E1,1.5402739E0,2.9633837E1,1.5083814E1,2.2125562E2,1.4263507E2,4.100102E2,1.5892866E1,1.7738725E0,6.670792E1,7.0708103E0,1.01661E2,6.282246E0,9.292502E1,1.2945164E2,2.337871E0,6.063068E0,1.1334027E0,6.9348264E0,1.2965312E0,1.5779364E0,1.10401115E2,2.3974045E1,2.5493856E1,1.1582949E1,5.9182705E1,5.8397995E1,8.613936E0,3.416551E1,4.9845457E0,7.7732043E0,4.5024128E1,2.040023E1,1.2042744E1,1.1334027E0,2.951163E1,1.8739101E1],"tree_param":{"num_deleted":"0","num_feature":"25","num_nodes":"227","size_leaf_vector":"1"}},{"base_weights":[2.1310392E-1,4.094095E-1,-1.0799577E0,5.27833E-2,7.586949E-1,-1.4278182E0,2.8199586E-1,-4.922467E-1,3.3550733E-1,8.3747476E-1,1.13673046E-1,-1.8858232E0,-7.279552E-1,7.807395E-1,-4.9115607E-1,-1.4501521E-1,-1.0415605E0,5.271415E-1,-1.4722086E-1,9.363924E-1,4.2785147E-1,3.9102635E-1,-4.3640786E-1,-1.5887179E0,-2.3978932E0,-4.160709E-1,-1.3784615E0,1.162124E0,5.572911E-2,-0E0,-1.1559408E0,-3.0114737E-1,3.6783945E-2,-1.2627902E0,-5.8622503E-1,6.1752146E-1,-8.193412E-2,-4.8062645E-2,-1.0334791E0,1.155315E0,7.455281E-1,-5.5508375E-2,5.3903633E-1,7.9506874E-1,1.4427726E-1,-1.6237865E-1,-1.0584054E0,-2.0552137E0,-1.2787379E0,-2.6203134E0,-1.8992248E0,-1.038928E0,-1.457389E-1,-2.131622E0,-1.1582748E0,3.6153805E-2,6.61811E-1,-1.9427114E0,2.0347375E-1,2.6565158E-1,-1.1458895E0,-1.7907859E0,-2.9833752E-1,-1.2135378E-1,-1.179844E0,-1.7953414E0,-8.726222E-1,1.8454881E-1,-7.917746E-1,5.4643166E-1,3.706326E-2,-4.334152E-1,5.701031E-1,1.5596871E-1,-3.8134244E-1,-7.3983866E-1,-1.6137304E0,1.2070754E0,1.0040128E0,8.3701265E-1,3.3026895E-1,-3.8248807E-1,5.9440917E-1,1.5099554E-1,6.4906514E-1,1.0915663E0,1.5444595E-1,6.5072346E-3,3.6100313E-2,2.8079536E-2,-8.71626E-1,-1.7399209E0,-3.103616E-1,-1.9008887E0,-2.9816096E0,-1.9506196E0,-1.0401955E0,-2.6745908E0,-4.2546946E-1,-2.1876118E0,-1.241538E0,-1.815291E0,-6.637366E-1,3.6166843E-2,-3.376044E-1,-3.3036308E0,-1.7922395E0,-4.657265E-1,-1.4811735E0,-6.21491E-1,3.419781E-2,-2.6057446E0,-0E0,4.3591774E-1,-5.879427E-1,3.9713506E-2,3.4918655E-2,6.7665845E-1,-1.5484086E0,-2.1621506E0,-3.4339443E-1,9.367394E-1,-6.586699E-1,-7.6673618E-3,3.6686122E-2,-4.8917554E-2,-2.4636272E-2,-6.202502E-2,-3.4132265E-2,-1.0530518E-2,-4.320965E-2,-7.5198007E-3,3.6399614E-2,-5.624384E-3,-3.1572577E-2,1.886539E-2,-9.702877E-3,-1.6071094E-2,3.5041295E-2,-1.3934347E-2,2.2306927E-2,-1.0959345E-3,3.6958E-2,-7.2551724E-3,-2.7862757E-2,-2.703486E-2,3.4168437E-2,-5.4585714E-2,-0E0,1.83149E-2,3.6323946E-2,2.4323149E-2,3.2476373E-2,2.8192574E-2,1.80336E-2,6.7330725E-3,3.690711E-2,-8.986763E-3,-7.9261415E-2,2.0963872E-2,-2.757576E-2,-4.6468128E-2,6.453774E-3,2.3288181E-2,1.1298022E-2,-1.2613698E-2,3.337887E-2,1.1024797E-2,-1.2269327E-2,8.007666E-3,-1.4421579E-2,-6.447225E-3,3.592625E-2,-4.412128E-2,-5.195455E-3,-6.7958325E-2,-2.276293E-2,-2.2080468E-2,1.4457019E-2,-6.046647E-2,-1.1302371E-2,-9.097993E-2,-0E0,-1.0395548E-1,-5.2079618E-2,-2.1337995E-2,-4.71072E-2,-8.7307304E-2,-6.705776E-2,-5.3526267E-2,3.5536364E-3,-3.1728715E-2,-7.4069105E-2,-1.2932611E-2,-5.378101E-2,2.4078477E-2,-5.8784883E-2,-1.15717845E-2,-4.821976E-2,-2.9771918E-2,-3.0643211E-3,-1.04638726E-1,-1.7571222E-2,-5.8930274E-2,-0E0,-7.2777406E-3,-9.8634146E-2,-6.0747486E-2,-3.19605E-2,-4.3647803E-2,8.40608E-3,-0E0,-8.690944E-2,-4.5387023E-3,1.1449388E-2,1.9450454E-2,-1.4128115E-2,-5.595721E-3,-8.684567E-2,4.181173E-3,-9.2360474E-2,-0E0,2.704769E-2,-0E0,-5.9436455E-2,-6.900596E-2,1.8764773E-2,-5.393992E-2,1.0244799E-2,3.189857E-2,-0E0,-0E0,-4.7881242E-2],"categories":[],"categories_nodes":[],"categories_segments":[],"categories_sizes":[],"default_left":[0,0,0,0,0,0,0,0,0,0,0,0,0,0,0,0,0,0,0,0,0,0,0,0,0,0,0,0,0,0,0,0,0,0,0,0,0,0,0,0,0,0,0,0,0,0,0,0,0,0,0,0,0,0,0,0,0,0,0,0,0,0,0,0,0,0,0,0,0,0,0,0,0,0,0,0,0,0,0,0,0,0,0,0,0,0,0,0,0,0,0,0,0,0,0,0,0,0,0,0,0,0,0,0,0,0,0,0,0,0,0,0,0,0,0,0,0,0,0,0,0,0,0,0,0,0,0,0,0,0,0,0,0,0,0,0,0,0,0,0,0,0,0,0,0,0,0,0,0,0,0,0,0,0,0,0,0,0,0,0,0,0,0,0,0,0,0,0,0,0,0,0,0,0,0,0,0,0,0,0,0,0,0,0,0,0,0,0,0,0,0,0,0,0,0,0,0,0,0,0,0,0,0,0,0,0,0,0,0,0,0,0,0,0,0,0,0,0,0,0,0,0,0,0,0,0,0,0,0,0,0,0,0],"id":4,"left_children":[1,3,5,7,9,11,13,15,17,19,21,23,25,27,29,31,33,35,37,39,41,43,45,47,49,51,53,55,57,59,61,63,-1,65,67,69,71,73,75,77,79,81,83,85,87,89,91,93,95,97,99,101,103,105,107,-1,109,111,113,115,117,119,121,123,125,127,129,131,133,135,-1,137,139,141,143,145,147,149,151,153,155,157,159,161,163,165,167,169,-1,171,173,175,177,179,181,183,185,187,189,191,193,195,197,-1,199,201,203,205,207,209,-1,211,213,215,217,219,-1,221,223,225,227,229,231,-1,-1,-1,-1,-1,-1,-1,-1,-1,-1,-1,-1,-1,-1,-1,-1,-1,-1,-1,-1,-1,-1,-1,-1,-1,-1,-1,-1,-1,-1,-1,-1,-1,-1,-1,-1,-1,-1,-1,-1,-1,-1,-1,-1,-1,-1,-1,-1,-1,-1,-1,-1,-1,-1,-1,-1,-1,-1,-1,-1,-1,-1,-1,-1,-1,-1,-1,-1,-1,-1,-1,-1,-1,-1,-1,-1,-1,-1,-1,-1,-1,-1,-1,-1,-1,-1,-1,-1,-1,-1,-1,-1,-1,-1,-1,-1,-1,-1,-1,-1,-1,-1,-1,-1,-1,-1,-1,-1,-1,-1],"loss_changes":[8.155296E3,3.4739727E3,2.0076719E3,2.1273184E3,7.150083E2,1.0774062E3,3.3296115E2,8.9790063E2,8.415208E2,5.0699902E2,2.345104E2,3.0221387E2,2.6888007E2,1.4388318E2,1.0953217E2,6.18318E2,1.8121387E2,3.5894568E2,2.2585722E2,4.1972363E2,1.3197488E2,1.0094197E2,8.625382E1,1.8111304E2,7.3132324E1,1.5124261E2,6.584973E1,4.716614E0,5.266645E1,6.0469635E1,7.520343E1,4.0880542E2,0E0,2.5043835E2,9.581012E1,2.4662671E2,1.9276503E2,1.5839024E2,4.0556213E1,3.3425293E1,2.0396484E2,9.7063255E1,8.408655E1,7.1929474E1,9.186005E1,4.939687E1,7.692125E1,6.2867188E1,1.20180786E2,5.6657715E1,3.8390747E1,7.583014E1,1.6396404E2,2.6954773E1,7.2800354E1,0E0,2.0377747E1,1.7388866E1,3.1690937E1,3.1081345E1,2.942318E1,4.0436188E1,2.8231928E1,3.8866553E2,6.7339966E1,8.683411E1,2.0807031E2,5.7727337E1,7.3359375E1,3.6529956E2,0E0,8.972271E1,5.3361397E1,2.9971375E2,6.619304E1,5.378772E1,2.7657715E1,5.2036133E0,1.5594727E1,1.0521362E2,9.158808E1,5.3503654E1,2.4473045E1,4.7296963E1,5.2223083E1,9.527344E0,1.5041591E1,7.177121E1,0E0,8.1675964E1,3.0401047E1,3.6852005E1,2.6329323E1,7.44209E1,1.1960693E1,5.4590027E1,9.767706E1,3.992749E1,1.2201385E1,4.5006042E1,3.0480637E1,3.5760193E1,4.630638E1,0E0,8.464542E1,3.6971588E0,2.2417221E1,6.475894E1,4.644525E1,8.008999E0,0E0,5.4790382E0,4.2658854E-1,2.6349716E1,3.1966774E1,3.7644714E1,0E0,1.5817738E0,2.2277649E1,2.7718842E1,2.0334702E1,2.2471828E0,2.993616E1,0E0,0E0,0E0,0E0,0E0,0E0,0E0,0E0,0E0,0E0,0E0,0E0,0E0,0E0,0E0,0E0,0E0,0E0,0E0,0E0,0E0,0E0,0E0,0E0,0E0,0E0,0E0,0E0,0E0,0E0,0E0,0E0,0E0,0E0,0E0,0E0,0E0,0E0,0E0,0E0,0E0,0E0,0E0,0E0,0E0,0E0,0E0,0E0,0E0,0E0,0E0,0E0,0E0,0E0,0E0,0E0,0E0,0E0,0E0,0E0,0E0,0E0,0E0,0E0,0E0,0E0,0E0,0E0,0E0,0E0,0E0,0E0,0E0,0E0,0E0,0E0,0E0,0E0,0E0,0E0,0E0,0E0,0E0,0E0,0E0,0E0,0E0,0E0,0E0,0E0,0E0,0E0,0E0,0E0,0E0,0E0,0E0,0E0,0E0,0E0,0E0,0E0,0E0,0E0,0E0,0E0,0E0,0E0,0E0,0E0],"parents":[2147483647,0,0,1,1,2,2,3,3,4,4,5,5,6,6,7,7,8,8,9,9,10,10,11,11,12,12,13,13,14,14,15,15,16,16,17,17,18,18,19,19,20,20,21,21,22,22,23,23,24,24,25,25,26,26,27,27,28,28,29,29,30,30,31,31,33,33,34,34,35,35,36,36,37,37,38,38,39,39,40,40,41,41,42,42,43,43,44,44,45,45,46,46,47,47,48,48,49,49,50,50,51,51,52,52,53,53,54,54,56,56,57,57,58,58,59,59,60,60,61,61,62,62,63,63,64,64,65,65,66,66,67,67,68,68,69,69,71,71,72,72,73,73,74,74,75,75,76,76,77,77,78,78,79,79,80,80,81,81,82,82,83,83,84,84,85,85,86,86,87,87,89,89,90,90,91,91,92,92,93,93,94,94,95,95,96,96,97,97,98,98,99,99,100,100,101,101,102,102,104,104,105,105,106,106,107,107,108,108,109,109,111,111,112,112,113,113,114,114,115,115,117,117,118,118,119,119,120,120,121,121,122,122],"right_children":[2,4,6,8,10,12,14,16,18,20,22,24,26,28,30,32,34,36,38,40,42,44,46,48,50,52,54,56,58,60,62,64,-1,66,68,70,72,74,76,78,80,82,84,86,88,90,92,94,96,98,100,102,104,106,108,-1,110,112,114,116,118,120,122,124,126,128,130,132,134,136,-1,138,140,142,144,146,148,150,152,154,156,158,160,162,164,166,168,170,-1,172,174,176,178,180,182,184,186,188,190,192,194,196,198,-1,200,202,204,206,208,210,-1,212,214,216,218,220,-1,222,224,226,228,230,232,-1,-1,-1,-1,-1,-1,-1,-1,-1,-1,-1,-1,-1,-1,-1,-1,-1,-1,-1,-1,-1,-1,-1,-1,-1,-1,-1,-1,-1,-1,-1,-1,-1,-1,-1,-1,-1,-1,-1,-1,-1,-1,-1,-1,-1,-1,-1,-1,-1,-1,-1,-1,-1,-1,-1,-1,-1,-1,-1,-1,-1,-1,-1,-1,-1,-1,-1,-1,-1,-1,-1,-1,-1,-1,-1,-1,-1,-1,-1,-1,-1,-1,-1,-1,-1,-1,-1,-1,-1,-1,-1,-1,-1,-1,-1,-1,-1,-1,-1,-1,-1,-1,-1,-1,-1,-1,-1,-1,-1,-1],"split_conditions":[8E0,5.61257E-3,5.61257E-3,2.3917526E-1,5E0,2.3584905E-1,6E0,1.6E1,1.6E1,1E0,1.6E1,1.1E1,1.6E1,3.3333334E-1,5E0,1.500844E1,2.94647E-1,5E0,5E0,3E0,1.004512E0,3E0,5E-1,2.0186429E-1,1.919192E-1,1.0201268E0,2.16E-1,5E0,1.5068494E-1,1E0,2.6751593E-1,1.5E1,3.6783945E-2,2.8516185E-1,3E0,1.500844E1,2.6E3,1E0,5.9777665E0,2.3333333E0,1E0,4.465352E-1,2.5632912E-1,1E0,1.500844E1,6E0,2.8728414E-1,6.403712E0,1.509434E-1,3.9306173E-1,7.1E1,2.2564415E1,1.9822242E0,-1.3163663E0,-6.5530665E-2,3.6153805E-2,5.0164466E0,9.1E1,1.6E0,4.008287E0,1.6631648E-1,2.6240693E-2,2.4919195E0,1.4043908E1,8.572099E0,2.0363636E-1,6E0,2.0572076E0,1.23E3,1.5E1,3.706326E-2,1.500844E1,1.2211672E0,1.6488701E-2,2.3996153E1,5.2180057E0,4.381736E-1,-8.371595E1,2.514395E0,1.6E1,4.008287E0,6.5655136E0,1.6072554E1,4.2596744E2,1.6E1,-1.2E1,6.540082E1,3E-1,3.6100313E-2,5.2180057E0,-2.8127167E-1,5.0334615E-1,1.6072554E1,2.6240693E-2,5.3370323E1,4.3339813E2,1.6E1,3.0262566E0,4.7253793E2,2.8974864E0,1.4E3,1E0,5E0,3.6166843E-2,2.0757115E0,1.2470596E1,4.2307693E-1,5.7590674E2,8.369149E1,5.815216E1,3.419781E-2,4.5904045E1,4.1615167E0,9.831944E-1,2.7646549E0,6.872457E0,3.4918655E-2,4.5821732E2,5.366059E2,5.983207E2,4.924513E2,1.4707524E1,2.6351145E-1,-7.6673618E-3,3.6686122E-2,-4.8917554E-2,-2.4636272E-2,-6.202502E-2,-3.4132265E-2,-1.0530518E-2,-4.320965E-2,-7.5198007E-3,3.6399614E-2,-5.624384E-3,-3.1572577E-2,1.886539E-2,-9.702877E-3,-1.6071094E-2,3.5041295E-2,-1.3934347E-2,2.2306927E-2,-1.0959345E-3,3.6958E-2,-7.2551724E-3,-2.7862757E-2,-2.703486E-2,3.4168437E-2,-5.4585714E-2,-0E0,1.83149E-2,3.6323946E-2,2.4323149E-2,3.2476373E-2,2.8192574E-2,1.80336E-2,6.7330725E-3,3.690711E-2,-8.986763E-3,-7.9261415E-2,2.0963872E-2,-2.757576E-2,-4.6468128E-2,6.453774E-3,2.3288181E-2,1.1298022E-2,-1.2613698E-2,3.337887E-2,1.1024797E-2,-1.2269327E-2,8.007666E-3,-1.4421579E-2,-6.447225E-3,3.592625E-2,-4.412128E-2,-5.195455E-3,-6.7958325E-2,-2.276293E-2,-2.2080468E-2,1.4457019E-2,-6.046647E-2,-1.1302371E-2,-9.097993E-2,-0E0,-1.0395548E-1,-5.2079618E-2,-2.1337995E-2,-4.71072E-2,-8.7307304E-2,-6.705776E-2,-5.3526267E-2,3.5536364E-3,-3.1728715E-2,-7.4069105E-2,-1.2932611E-2,-5.378101E-2,2.4078477E-2,-5.8784883E-2,-1.15717845E-2,-4.821976E-2,-2.9771918E-2,-3.0643211E-3,-1.04638726E-1,-1.7571222E-2,-5.8930274E-2,-0E0,-7.2777406E-3,-9.8634146E-2,-6.0747486E-2,-3.19605E-2,-4.3647803E-2,8.40608E-3,-0E0,-8.690944E-2,-4.5387023E-3,1.1449388E-2,1.9450454E-2,-1.4128115E-2,-5.595721E-3,-8.684567E-2,4.181173E-3,-9.2360474E-2,-0E0,2.704769E-2,-0E0,-5.9436455E-2,-6.900596E-2,1.8764773E-2,-5.393992E-2,1.0244799E-2,3.189857E-2,-0E0,-0E0,-4.7881242E-2],"split_indices":[13,21,21,11,0,11,15,10,10,21,10,13,10,21,0,10,12,0,0,22,22,22,23,12,11,15,12,15,12,23,11,10,0,13,0,10,8,1,0,22,23,11,12,21,10,0,11,20,11,12,14,14,15,24,23,0,15,14,23,0,21,20,22,10,14,11,13,0,8,10,0,10,14,1,9,0,11,24,22,10,0,13,10,2,10,24,14,23,0,0,23,21,10,20,9,2,10,0,2,0,8,15,0,0,15,13,11,4,6,14,0,6,3,21,24,20,0,2,4,4,2,10,21,0,0,0,0,0,0,0,0,0,0,0,0,0,0,0,0,0,0,0,0,0,0,0,0,0,0,0,0,0,0,0,0,0,0,0,0,0,0,0,0,0,0,0,0,0,0,0,0,0,0,0,0,0,0,0,0,0,0,0,0,0,0,0,0,0,0,0,0,0,0,0,0,0,0,0,0,0,0,0,0,0,0,0,0,0,0,0,0,0,0,0,0,0,0,0,0,0,0,0,0,0,0,0,0,0,0,0,0,0,0],"split_type":[0,0,0,0,0,0,0,0,0,0,0,0,0,0,0,0,0,0,0,0,0,0,0,0,0,0,0,0,0,0,0,0,0,0,0,0,0,0,0,0,0,0,0,0,0,0,0,0,0,0,0,0,0,0,0,0,0,0,0,0,0,0,0,0,0,0,0,0,0,0,0,0,0,0,0,0,0,0,0,0,0,0,0,0,0,0,0,0,0,0,0,0,0,0,0,0,0,0,0,0,0,0,0,0,0,0,0,0,0,0,0,0,0,0,0,0,0,0,0,0,0,0,0,0,0,0,0,0,0,0,0,0,0,0,0,0,0,0,0,0,0,0,0,0,0,0,0,0,0,0,0,0,0,0,0,0,0,0,0,0,0,0,0,0,0,0,0,0,0,0,0,0,0,0,0,0,0,0,0,0,0,0,0,0,0,0,0,0,0,0,0,0,0,0,0,0,0,0,0,0,0,0,0,0,0,0,0,0,0,0,0,0,0,0,0,0,0,0,0,0,0,0,0,0,0,0,0,0,0,0,0,0,0],"sum_hessian":[3.2128209E4,2.7894826E4,4.233384E3,1.3804358E4,1.4090467E4,3.3726511E3,8.607327E2,4.713495E3,9.090864E3,1.25551875E4,1.5352793E3,2.0366809E3,1.3359703E3,5.2399713E2,3.3673563E2,2.889851E3,1.8236439E3,6.5089214E3,2.5819426E3,1.0110042E4,2.4451458E3,1.0220594E3,5.132199E2,1.2927036E3,7.439773E2,9.0516644E2,4.308039E2,3.4207153E2,1.8192557E2,1.9478867E2,1.4194696E2,2.59578E3,2.9407117E2,1.22466E3,5.989838E2,5.669291E3,8.3963043E2,2.3240957E3,2.5784683E2,4.704109E3,5.4059326E3,4.5567447E2,1.9894713E3,3.8513702E2,6.3692236E2,3.582548E2,1.5496512E2,5.125297E2,7.801738E2,5.1016788E2,2.338094E2,2.7197696E2,6.3318945E2,9.446356E1,3.3634033E2,3.1185922E2,3.021232E1,1.1221567E1,1.7070401E2,1.5829779E2,3.649087E1,8.027145E1,6.167551E1,2.1567542E3,4.3902582E2,5.152359E2,7.094242E2,1.25103874E2,4.7387997E2,5.0874937E3,5.8179724E2,5.467652E2,2.928652E2,1.4400436E3,8.840521E2,1.738614E2,8.398543E1,3.4949136E3,1.2091951E3,4.4271714E3,9.787614E2,3.0445193E2,1.5122253E2,4.420271E2,1.5474442E3,2.6173438E2,1.2340265E2,5.6533093E2,7.159143E1,2.8206168E2,7.619314E1,7.969506E1,7.527005E1,4.4288284E2,6.964691E1,2.0143634E2,5.787375E2,4.9719824E2,1.29696455E1,1.598643E2,7.394509E1,8.649468E1,1.8548228E2,7.742106E1,5.5576843E2,1.8588852E1,7.58747E1,1.087132E2,2.2762712E2,7.551653E0,2.2660667E1,8.354272E0,2.8672955E0,1.332735E2,3.7430508E1,1.2820863E2,3.0089155E1,6.028641E0,3.046223E1,6.2938316E1,1.733313E1,1.294168E1,4.873383E1,1.9623602E3,1.9439388E2,1.9172552E2,2.473003E2,3.6182376E2,1.5341216E2,3.714834E2,3.3794077E2,8.776171E1,3.7342163E1,1.4447528E2,3.294047E2,4.6484995E3,4.3899405E2,5.151515E2,3.1613699E1,4.0983418E1,2.5188177E2,1.2215363E3,2.1850726E2,7.071188E2,1.7693336E2,1.6108253E2,1.2778861E1,7.42025E1,9.782923E0,2.4363125E1,3.4705505E3,3.5636563E2,8.5282947E2,3.0789524E3,1.348219E3,8.7788556E2,1.0087585E2,2.9519305E2,9.258904E0,1.4258786E2,8.634676E0,1.4660759E1,4.2736636E2,1.0511613E3,4.9628296E2,2.6831148E0,2.5905127E2,9.108376E1,3.2318882E1,3.7004974E2,1.952812E2,2.3350574E2,4.8555923E1,3.9648018E1,3.6545124E1,5.0387344E1,2.9307714E1,4.9830902E1,2.5439152E1,4.1098608E2,3.1896744E1,6.858875E1,1.0581539E0,2.2544697E1,1.7889165E2,3.597293E2,2.1900816E2,3.1847278E2,1.7872546E2,3.581409E0,9.388237E0,3.3526985E1,1.26337326E2,3.1387766E1,4.2557323E1,3.9153233E0,8.257935E1,1.4517717E2,4.0305115E1,1.4501997E2,4.1074844E2,1.6798359E1,1.7904935E0,6.8803894E1,7.0708103E0,1.0208212E2,6.6310835E0,9.592213E1,1.31705E2,4.181846E0,3.369807E0,1.1334027E0,7.2208695E0,1.2999345E0,1.5673609E0,1.09103714E2,2.416978E1,3.3172585E1,4.257923E0,1.25474655E2,2.7339847E0,1.1236503E0,4.904991E0,6.569186E0,2.3893044E1,6.0476986E1,2.4613276E0,5.495765E0,1.1837364E1,1.1808277E1,1.1334027E0,2.951163E1,1.9222198E1],"tree_param":{"num_deleted":"0","num_feature":"25","num_nodes":"233","size_leaf_vector":"1"}},{"base_weights":[2.0790236E-1,4.0045863E-1,-1.0328858E0,5.1405314E-2,7.4660766E-1,-1.3583747E0,2.7529517E-1,-4.7388855E-1,3.2759413E-1,8.252839E-1,1.1060339E-1,-1.7833138E0,-6.991785E-1,7.6885927E-1,-4.7368973E-1,-1.4028099E-1,-9.9430084E-1,5.1640135E-1,-1.4245564E-1,9.244945E-1,4.1832644E-1,3.8225543E-1,-4.2080998E-1,-1.4007956E0,-2.1265388E0,-4.0117645E-1,-1.3124716E0,1.1526176E0,5.2736588E-2,-1.18037395E-1,-1.3223102E0,-2.9070768E-1,3.6526337E-2,-8.698034E-1,-1.7553079E0,6.058843E-1,-7.921203E-2,-4.654548E-2,-9.8663545E-1,1.1455727E0,7.3328483E-1,1.33345E-1,6.0247505E-1,7.829366E-1,1.4045483E-1,-1.5718496E-1,-1.0108143E0,-1.2744488E0,-2.6390827E0,-2.423629E0,-1.7059804E0,-1.7455125E-1,-1.1133423E0,-7.458906E-1,-1.5642241E0,3.6239475E-2,7.412813E-1,-1.8537658E0,1.973924E-1,3.162988E-1,-7.7863914E-1,-1.0276407E0,-2.6549368E0,-1.1741371E-1,-1.1242723E0,-1.1028932E0,2.6951417E-1,-9.285723E-1,-1.9027044E0,5.3538895E-1,3.6799893E-2,-4.1720852E-1,5.587944E-1,1.5179464E-1,-3.6761764E-1,-1.1047363E0,2.0562486E-1,1.198144E0,9.9252087E-1,8.2467806E-1,3.2235932E-1,-5.4921305E-1,2.7516353E-1,2.1813619E-1,6.970475E-1,1.0809624E0,1.5003952E-1,6.2815435E-3,3.5833977E-2,-8.083262E-2,-1.959947E0,-1.6454725E0,-2.9910937E-1,-9.09879E-1,-1.755456E0,-2.760807E0,-1.2761902E0,-2.9201856E0,-2.2776854E0,-1.5339266E0,-2.5522637E0,-2.7365756E-1,3.6494534E-2,-1.4767629E0,1.3393006E-1,-1.2957455E-1,-1.6487211E0,-2.059426E0,-1.2412597E0,-8.3844995E-1,3.4940388E-2,-2.4700274E0,-0E0,4.2619872E-1,-5.6920415E-1,1.06197834E-1,3.445364E-2,8.674081E-1,-1.1043388E0,3.003941E-1,-1.347866E0,-2.876404E0,-0E0,-7.40508E-3,3.6426336E-2,-4.6335243E-2,-2.358589E-2,-4.6259295E-2,-2.4925888E-2,3.7038572E-2,-1.0149184E-2,-1.6526718E-2,-6.740396E-2,-5.8087077E-2,-0E0,1.8511321E-2,-9.359606E-3,-1.544844E-2,3.4760565E-2,-1.3422225E-2,2.1934107E-2,-1.0624013E-3,3.6688644E-2,-1.9523568E-2,-3.1768437E-3,1.6585054E-2,-3.5467394E-2,-5.3236637E-2,1.3457228E-2,1.7979175E-2,3.6057748E-2,-1.9332903E-2,3.0001948E-2,2.2919362E-2,3.6935426E-2,2.5090767E-2,4.232205E-3,-3.9671425E-2,-7.0918505E-3,-3.0182801E-2,9.692223E-3,1.3167458E-2,-1.4803433E-2,-6.6398755E-2,2.1154512E-2,-1.2274526E-2,3.3069007E-2,1.3751518E-2,-6.4961417E-3,9.906163E-3,-1.0924987E-2,-1.2506518E-2,7.4505415E-3,1.0683223E-2,-7.78743E-2,-6.375925E-2,-2.1837946E-2,-2.1178367E-2,1.415056E-2,-3.126853E-2,3.598599E-2,-4.4771068E-2,-7.805971E-2,-6.153591E-2,-9.171725E-2,-7.909166E-2,-0E0,1.6665384E-2,-8.936874E-2,-5.1010866E-2,-7.375167E-2,-5.545268E-2,-2.689193E-2,-8.4331684E-2,-2.4252957E-2,-3.518769E-2,-4.02783E-3,-7.97444E-2,-3.519664E-2,-7.2013654E-2,1.4277181E-2,-3.9120514E-2,5.1197736E-3,-5.4431293E-2,6.7012766E-3,-9.805674E-3,-6.688495E-2,-5.235137E-2,-2.70745E-2,-4.5282032E-2,1.7189827E-2,-0E0,-8.2030274E-2,-4.6331165E-3,1.1401214E-2,1.9096268E-2,-1.3617618E-2,9.691051E-4,-5.482471E-2,1.965919E-2,-1.2721914E-2,3.0882513E-2,-2.25836E-3,-4.2685058E-2,9.855259E-5,-5.80773E-2,2.1828186E-2,6.6040745E-3,-4.5958333E-2,-9.213204E-2,-2.4251447E-3],"categories":[],"categories_nodes":[],"categories_segments":[],"categories_sizes":[],"default_left":[0,0,0,0,0,0,0,0,0,0,0,0,0,0,0,0,0,0,0,0,0,0,0,0,0,0,0,0,0,0,0,0,0,0,0,0,0,0,0,0,0,0,0,0,0,0,0,0,0,0,0,0,0,0,0,0,0,0,0,0,0,0,0,0,0,0,0,0,0,0,0,0,0,0,0,0,0,0,0,0,0,0,0,0,0,0,0,0,0,0,0,0,0,0,0,0,0,0,0,0,0,0,0,0,0,0,0,0,0,0,0,0,0,0,0,0,0,0,0,0,0,0,0,0,0,0,0,0,0,0,0,0,0,0,0,0,0,0,0,0,0,0,0,0,0,0,0,0,0,0,0,0,0,0,0,0,0,0,0,0,0,0,0,0,0,0,0,0,0,0,0,0,0,0,0,0,0,0,0,0,0,0,0,0,0,0,0,0,0,0,0,0,0,0,0,0,0,0,0,0,0,0,0,0,0,0,0,0,0,0,0,0,0,0,0,0,0,0,0,0,0,0,0,0,0,0,0,0,0,0,0],"id":5,"left_children":[1,3,5,7,9,11,13,15,17,19,21,23,25,27,29,31,33,35,37,39,41,43,45,47,49,51,53,55,57,59,61,63,-1,65,67,69,71,73,75,77,79,81,83,85,87,89,91,93,95,97,99,101,103,105,107,-1,109,111,113,115,117,119,121,123,125,127,129,131,133,135,-1,137,139,141,143,145,147,149,151,153,155,157,159,161,163,165,167,169,-1,171,173,175,177,179,181,183,185,187,189,191,193,195,-1,197,199,201,203,205,207,209,-1,211,213,215,217,219,-1,221,223,225,227,229,-1,-1,-1,-1,-1,-1,-1,-1,-1,-1,-1,-1,-1,-1,-1,-1,-1,-1,-1,-1,-1,-1,-1,-1,-1,-1,-1,-1,-1,-1,-1,-1,-1,-1,-1,-1,-1,-1,-1,-1,-1,-1,-1,-1,-1,-1,-1,-1,-1,-1,-1,-1,-1,-1,-1,-1,-1,-1,-1,-1,-1,-1,-1,-1,-1,-1,-1,-1,-1,-1,-1,-1,-1,-1,-1,-1,-1,-1,-1,-1,-1,-1,-1,-1,-1,-1,-1,-1,-1,-1,-1,-1,-1,-1,-1,-1,-1,-1,-1,-1,-1,-1,-1,-1,-1,-1,-1,-1,-1],"loss_changes":[7.6380566E3,3.3431475E3,1.8300161E3,1.9996351E3,6.9423193E2,9.597622E2,3.170363E2,8.231658E2,8.023091E2,4.9743457E2,2.2130144E2,2.6786816E2,2.4462714E2,1.4083258E2,1.00949776E2,5.9095386E2,1.7147058E2,3.442207E2,2.0849655E2,4.1735352E2,1.26553375E2,9.736635E1,7.9166E1,1.4802734E2,1.2894727E2,1.4564235E2,5.930847E1,4.800354E0,4.9003567E1,6.995846E1,3.262712E1,3.7545422E2,0E0,4.250121E2,2.6902771E1,2.4296118E2,1.8157445E2,1.4842609E2,3.815387E1,3.366748E1,1.9890234E2,9.242838E1,5.2434753E1,7.0369644E1,8.87592E1,4.7358715E1,6.914026E1,1.5416052E2,7.4102173E0,3.4516113E1,5.8889526E1,9.503439E1,1.00721924E2,7.510021E1,4.254236E1,0E0,3.1103739E1,1.5776768E1,3.007508E1,2.404673E1,5.316672E1,3.7029472E1,1.1316071E1,3.7190094E2,6.0085876E1,1.5472766E2,1.6038329E2,1.6921974E1,1.5060364E1,3.4912817E2,0E0,8.4935234E1,5.1047546E1,2.8937045E2,6.51781E1,3.2141846E1,1.0910573E1,5.216797E0,1.5670044E1,1.046626E2,8.967013E1,3.7697617E1,4.8352364E1,4.6383907E1,2.7849915E1,9.329224E0,1.4361261E1,6.802613E1,0E0,3.8656734E1,2.38614E1,3.205475E1,2.460787E1,1.4553616E2,7.826721E1,5.723877E0,1.896221E1,3.2723145E1,4.3881836E1,7.284418E1,2.801297E1,7.990575E1,0E0,5.4062347E1,4.226258E1,3.1004107E1,1.9197311E1,3.1107574E1,2.7676788E1,1.0797665E1,0E0,4.744934E0,4.251065E-1,2.5128624E1,3.114972E1,3.4914124E1,0E0,3.4852934E0,3.0307724E1,1.5929707E1,2.13321E1,5.112442E0,0E0,0E0,0E0,0E0,0E0,0E0,0E0,0E0,0E0,0E0,0E0,0E0,0E0,0E0,0E0,0E0,0E0,0E0,0E0,0E0,0E0,0E0,0E0,0E0,0E0,0E0,0E0,0E0,0E0,0E0,0E0,0E0,0E0,0E0,0E0,0E0,0E0,0E0,0E0,0E0,0E0,0E0,0E0,0E0,0E0,0E0,0E0,0E0,0E0,0E0,0E0,0E0,0E0,0E0,0E0,0E0,0E0,0E0,0E0,0E0,0E0,0E0,0E0,0E0,0E0,0E0,0E0,0E0,0E0,0E0,0E0,0E0,0E0,0E0,0E0,0E0,0E0,0E0,0E0,0E0,0E0,0E0,0E0,0E0,0E0,0E0,0E0,0E0,0E0,0E0,0E0,0E0,0E0,0E0,0E0,0E0,0E0,0E0,0E0,0E0,0E0,0E0,0E0,0E0,0E0,0E0,0E0,0E0,0E0],"parents":[2147483647,0,0,1,1,2,2,3,3,4,4,5,5,6,6,7,7,8,8,9,9,10,10,11,11,12,12,13,13,14,14,15,15,16,16,17,17,18,18,19,19,20,20,21,21,22,22,23,23,24,24,25,25,26,26,27,27,28,28,29,29,30,30,31,31,33,33,34,34,35,35,36,36,37,37,38,38,39,39,40,40,41,41,42,42,43,43,44,44,45,45,46,46,47,47,48,48,49,49,50,50,51,51,52,52,53,53,54,54,56,56,57,57,58,58,59,59,60,60,61,61,62,62,63,63,64,64,65,65,66,66,67,67,68,68,69,69,71,71,72,72,73,73,74,74,75,75,76,76,77,77,78,78,79,79,80,80,81,81,82,82,83,83,84,84,85,85,86,86,87,87,89,89,90,90,91,91,92,92,93,93,94,94,95,95,96,96,97,97,98,98,99,99,100,100,101,101,103,103,104,104,105,105,106,106,107,107,108,108,109,109,111,111,112,112,113,113,114,114,115,115,117,117,118,118,119,119,120,120,121,121],"right_children":[2,4,6,8,10,12,14,16,18,20,22,24,26,28,30,32,34,36,38,40,42,44,46,48,50,52,54,56,58,60,62,64,-1,66,68,70,72,74,76,78,80,82,84,86,88,90,92,94,96,98,100,102,104,106,108,-1,110,112,114,116,118,120,122,124,126,128,130,132,134,136,-1,138,140,142,144,146,148,150,152,154,156,158,160,162,164,166,168,170,-1,172,174,176,178,180,182,184,186,188,190,192,194,196,-1,198,200,202,204,206,208,210,-1,212,214,216,218,220,-1,222,224,226,228,230,-1,-1,-1,-1,-1,-1,-1,-1,-1,-1,-1,-1,-1,-1,-1,-1,-1,-1,-1,-1,-1,-1,-1,-1,-1,-1,-1,-1,-1,-1,-1,-1,-1,-1,-1,-1,-1,-1,-1,-1,-1,-1,-1,-1,-1,-1,-1,-1,-1,-1,-1,-1,-1,-1,-1,-1,-1,-1,-1,-1,-1,-1,-1,-1,-1,-1,-1,-1,-1,-1,-1,-1,-1,-1,-1,-1,-1,-1,-1,-1,-1,-1,-1,-1,-1,-1,-1,-1,-1,-1,-1,-1,-1,-1,-1,-1,-1,-1,-1,-1,-1,-1,-1,-1,-1,-1,-1,-1,-1],"split_conditions":[8E0,5.61257E-3,5.61257E-3,2.3917526E-1,5E0,2.3584905E-1,6E0,1.6E1,1.6E1,1E0,1.6E1,1E1,1.6E1,3.3333334E-1,6E-1,1.500844E1,1.8E1,5E0,5E0,3E0,3.104693E-1,3E0,5E-1,7.541401E0,1.7985612E-1,1.1E1,-6.5530665E-2,2.5E-1,1.5068494E-1,5E0,1.7E1,1.5E1,3.6526337E-2,1.6072554E1,-2.939976E0,1.500844E1,2.6E3,1E0,5.256644E-1,2.3333333E0,1E0,1.004512E0,1.004512E0,1E0,1.500844E1,7E0,2.8728414E-1,1.6E1,2.1E3,1.2765957E-1,1.1551276E1,1.500844E1,4.6292585E-1,5.5480227E0,4.180143E1,3.6239475E-2,2.538247E-1,9.1E1,1.6E0,4.008287E0,2.7107048E0,1.6631648E-1,1.8E1,1.4043908E1,8.572099E0,2.1988375E-1,1.7E1,1.52E2,1.114812E1,1.5E1,3.6799893E-2,1.500844E1,1.2211672E0,1.6488701E-2,2.8516185E-1,-1.2E1,4.66538E2,-8.371595E1,-1.1728387E1,4.008287E0,3.3333334E-1,4.6067807E2,4.2596744E2,1.6E1,4E2,-1.2E1,4.180143E1,1.3E1,3.5833977E-2,4.924513E2,8.888889E-2,5.0334615E-1,1.6072554E1,1.500844E1,7.1E1,1.4120646E0,2.1205166E1,3E0,-5.0491333E-1,5.3086005E-2,1.45E2,1.6935484E-1,3.6494534E-2,4.2573948E1,3.5E1,2.264151E-1,1.0284318E0,2.0572076E0,4.66538E2,1.39E2,3.4940388E-2,4.5904045E1,2.0681265E-1,9.831944E-1,7.4666667E0,4E0,3.445364E-2,1.4707524E1,2.6240693E-2,6.6E1,1.4E1,4.2E0,-0E0,-7.40508E-3,3.6426336E-2,-4.6335243E-2,-2.358589E-2,-4.6259295E-2,-2.4925888E-2,3.7038572E-2,-1.0149184E-2,-1.6526718E-2,-6.740396E-2,-5.8087077E-2,-0E0,1.8511321E-2,-9.359606E-3,-1.544844E-2,3.4760565E-2,-1.3422225E-2,2.1934107E-2,-1.0624013E-3,3.6688644E-2,-1.9523568E-2,-3.1768437E-3,1.6585054E-2,-3.5467394E-2,-5.3236637E-2,1.3457228E-2,1.7979175E-2,3.6057748E-2,-1.9332903E-2,3.0001948E-2,2.2919362E-2,3.6935426E-2,2.5090767E-2,4.232205E-3,-3.9671425E-2,-7.0918505E-3,-3.0182801E-2,9.692223E-3,1.3167458E-2,-1.4803433E-2,-6.6398755E-2,2.1154512E-2,-1.2274526E-2,3.3069007E-2,1.3751518E-2,-6.4961417E-3,9.906163E-3,-1.0924987E-2,-1.2506518E-2,7.4505415E-3,1.0683223E-2,-7.78743E-2,-6.375925E-2,-2.1837946E-2,-2.1178367E-2,1.415056E-2,-3.126853E-2,3.598599E-2,-4.4771068E-2,-7.805971E-2,-6.153591E-2,-9.171725E-2,-7.909166E-2,-0E0,1.6665384E-2,-8.936874E-2,-5.1010866E-2,-7.375167E-2,-5.545268E-2,-2.689193E-2,-8.4331684E-2,-2.4252957E-2,-3.518769E-2,-4.02783E-3,-7.97444E-2,-3.519664E-2,-7.2013654E-2,1.4277181E-2,-3.9120514E-2,5.1197736E-3,-5.4431293E-2,6.7012766E-3,-9.805674E-3,-6.688495E-2,-5.235137E-2,-2.70745E-2,-4.5282032E-2,1.7189827E-2,-0E0,-8.2030274E-2,-4.6331165E-3,1.1401214E-2,1.9096268E-2,-1.3617618E-2,9.691051E-4,-5.482471E-2,1.965919E-2,-1.2721914E-2,3.0882513E-2,-2.25836E-3,-4.2685058E-2,9.855259E-5,-5.80773E-2,2.1828186E-2,6.6040745E-3,-4.5958333E-2,-9.213204E-2,-2.4251447E-3],"split_indices":[13,21,21,11,0,11,15,10,10,21,10,13,10,21,23,10,10,0,0,22,11,22,23,20,11,13,23,21,12,0,15,10,0,10,5,10,8,1,11,22,23,22,22,21,10,0,11,10,8,12,22,10,11,22,14,0,21,14,23,0,22,21,3,10,14,12,10,7,15,10,0,10,14,1,13,24,2,24,3,0,21,2,2,10,2,24,14,10,0,2,11,21,10,10,14,15,9,7,23,22,6,12,0,6,14,12,1,0,2,6,0,6,11,21,22,0,0,10,20,6,7,24,0,0,0,0,0,0,0,0,0,0,0,0,0,0,0,0,0,0,0,0,0,0,0,0,0,0,0,0,0,0,0,0,0,0,0,0,0,0,0,0,0,0,0,0,0,0,0,0,0,0,0,0,0,0,0,0,0,0,0,0,0,0,0,0,0,0,0,0,0,0,0,0,0,0,0,0,0,0,0,0,0,0,0,0,0,0,0,0,0,0,0,0,0,0,0,0,0,0,0,0,0,0,0,0,0,0,0,0,0],"split_type":[0,0,0,0,0,0,0,0,0,0,0,0,0,0,0,0,0,0,0,0,0,0,0,0,0,0,0,0,0,0,0,0,0,0,0,0,0,0,0,0,0,0,0,0,0,0,0,0,0,0,0,0,0,0,0,0,0,0,0,0,0,0,0,0,0,0,0,0,0,0,0,0,0,0,0,0,0,0,0,0,0,0,0,0,0,0,0,0,0,0,0,0,0,0,0,0,0,0,0,0,0,0,0,0,0,0,0,0,0,0,0,0,0,0,0,0,0,0,0,0,0,0,0,0,0,0,0,0,0,0,0,0,0,0,0,0,0,0,0,0,0,0,0,0,0,0,0,0,0,0,0,0,0,0,0,0,0,0,0,0,0,0,0,0,0,0,0,0,0,0,0,0,0,0,0,0,0,0,0,0,0,0,0,0,0,0,0,0,0,0,0,0,0,0,0,0,0,0,0,0,0,0,0,0,0,0,0,0,0,0,0,0,0,0,0,0,0,0,0,0,0,0,0,0,0,0,0,0,0,0,0],"sum_hessian":[3.1968805E4,2.7675383E4,4.293423E3,1.3781893E4,1.389349E4,3.4385918E3,8.5483124E2,4.7477095E3,9.034184E3,1.2362349E4,1.531141E3,2.088838E3,1.3497539E3,5.160648E2,3.3876642E2,2.8950466E3,1.8526632E3,6.4467246E3,2.5874587E3,9.936289E3,2.4260596E3,1.0146346E3,5.1650635E2,9.916531E2,1.0971848E3,9.1058234E2,4.391716E2,3.3469913E2,1.8136569E2,2.4035316E2,9.841326E1,2.6076775E3,2.8736914E2,1.5951592E3,2.5750397E2,5.606138E3,8.40586E2,2.3254915E3,2.619673E2,4.603484E3,5.332805E3,9.551146E2,1.470945E3,3.794631E2,6.3517145E2,3.590413E2,1.5746509E2,9.0241345E2,8.923962E1,6.3879047E2,4.5839432E2,6.927765E2,2.1780586E2,1.3754803E2,3.0162357E2,2.9114395E2,4.3555176E1,1.1469856E1,1.6989583E2,1.4441187E2,9.594131E1,8.265761E1,1.5755655E1,2.1607986E3,4.468788E2,1.3249923E3,2.7016684E2,4.1094135E1,2.1640982E2,5.0375493E3,5.68589E2,5.5073615E2,2.8984988E2,1.4358918E3,8.895996E2,2.3918654E2,2.2780766E1,3.4165723E3,1.186912E3,4.3597256E3,9.7307947E2,1.6260234E2,7.9251227E2,2.9321402E2,1.177731E3,2.5642618E2,1.230369E2,5.6518E2,6.9991455E1,3.4598724E2,1.3054047E1,8.180178E1,7.56633E1,5.161662E2,3.8624725E2,8.030764E1,8.9319725E0,1.3922685E2,4.995636E2,3.8426538E2,7.412894E1,6.4812225E2,4.4654224E1,1.691407E2,4.8665157E1,8.308281E1,5.446523E1,1.1571878E2,1.8590479E2,8.499769E0,3.5055405E1,8.609643E0,2.8602135E0,1.3218965E2,3.770618E1,1.171607E2,2.7251163E1,1.5065999E1,8.0875305E1,1.546412E1,6.719349E1,1.4642515E1,1.1131401E0,1.9708179E3,1.8998067E2,1.9632104E2,2.5055777E2,5.036722E2,8.213201E2,1.0463693E2,1.6552989E2,3.3634186E1,7.4599476E0,2.1296199E2,3.447823E0,4.596109E3,4.4144034E2,5.198048E2,3.0931337E1,4.130384E1,2.4854604E2,1.2223019E3,2.1358989E2,4.2474472E2,4.6485492E2,9.834729E0,2.293518E2,1.350785E0,2.142998E1,2.4096275E1,3.3924758E3,4.4495955E0,1.1824624E3,3.7979521E3,5.617736E2,2.5133624E2,7.2174316E2,4.498712E1,1.1761522E2,2.70933E1,7.6541895E2,2.2514737E2,6.8066666E1,2.1716893E0,1.1755592E3,2.701882E0,2.537243E2,6.8171974E1,5.4864937E1,3.0302203E2,2.62158E2,1.725792E2,1.7340807E2,2.5679388E0,1.0486108E1,5.213247E1,2.9669312E1,5.042813E1,2.523517E1,4.866027E2,2.9563519E1,2.9767856E2,8.856869E1,2.6990446E1,5.3317196E1,4.0554347E0,4.8765383E0,1.8916475E0,1.373352E2,1.2289018E2,3.7667343E2,2.550032E2,1.2926216E2,6.3517242E1,1.0611694E1,8.502524E1,5.63097E2,3.2315853E1,1.3682486E2,4.722576E0,4.394258E1,1.6912508E1,6.61703E1,5.055664E1,3.9085882E0,1.1130577E1,1.045882E2,7.1892456E1,1.1401233E2,6.1943054E0,2.3054638E0,1.1334027E0,7.47624E0,1.296053E0,1.5641603E0,1.0783149E2,2.435816E1,2.5632492E1,1.2073689E1,5.8368095E1,5.8792603E1,1.3683211E1,1.382787E0,6.3293537E1,1.758177E1,1.5384781E0,1.3925642E1,6.468205E0,6.072528E1,1.3262731E1,1.3797851E0],"tree_param":{"num_deleted":"0","num_feature":"25","num_nodes":"231","size_leaf_vector":"1"}},{"base_weights":[2.0285457E-1,4.3732643E-1,-7.577991E-1,1.0902509E-1,7.57475E-1,-1.1265162E0,3.0487186E-1,3.5565612E-1,-4.068151E-1,8.266867E-1,1.5739821E-1,-1.5453936E0,-5.3567076E-1,1.0441037E0,-0E0,2.6398546E-1,3.6535826E-2,-7.988758E-1,9.59092E-3,9.2912436E-1,4.2537388E-1,4.205414E-1,-3.4938657E-1,-1.2136528E0,-2.0091238E0,-2.5037664E-1,-1.1421046E0,1.1550741E0,-1.2331467E0,5.3912556E-1,-4.1820344E-1,3.8922954E-1,-7.012777E-1,-1.110121E0,-4.474184E-1,8.9308284E-2,-7.5146836E-1,1.1353229E0,7.4401397E-1,1.5167266E-1,6.0042655E-1,9.442709E-1,2.595367E-1,-1.1989133E-1,-1.0970205E0,-9.070111E-1,-1.6556149E0,-2.2834766E0,-1.6181685E0,-3.4325075E-1,3.647148E-2,-6.385966E-1,-1.3798302E0,1.1953635E0,4.9684224E-1,7.066489E-1,-2.2536738E0,2.405304E-1,3.657365E-2,3.556132E-1,-7.353625E-1,-3.5899427E-2,5.5949676E-1,-1.0713607E0,-3.4673208E-1,-1.4704161E0,-5.70134E-1,-2.2487823E-2,-8.08651E-1,1.8986043E-1,-5.9561116E-1,-4.6847117E-1,-1.4082791E0,1.1884713E0,9.848265E-1,8.305153E-1,3.4714124E-1,-4.6363083E-1,2.808412E-1,2.3126507E-1,6.9169545E-1,1.1653588E0,9.856821E-2,1.5629078E-1,3.5600442E-2,-3.698106E-1,3.5979606E-2,-0E0,-1.3469416E0,-1.0241958E0,3.5995737E-2,-2.0055356E0,-1.2243295E0,-2.517131E0,-2.0203831E0,-1.4280727E0,-2.2905996E0,-2.0091286E-1,-1.375238E0,-1.0626656E-1,-1.4767536E0,-1.5426725E0,-5.892073E-1,3.5989963E-2,-0E0,-6.953681E-2,7.790582E-1,-0E0,2.730086E-2,-1.0150242E-1,-0E0,7.898085E-1,-5.7975452E-2,8.4340626E-1,-6.941331E-1,-3.358501E-1,-1.284014E0,-4.7740513E-3,3.6219593E-2,1.4790545E-2,3.7151616E-2,-5.770622E-2,-2.5798261E-2,-5.3249574E-3,-4.4330716E-2,-5.5159207E-2,-2.5694743E-2,8.646261E-3,-2.5246395E-2,2.235793E-3,-3.7415054E-2,-1.7637677E-2,-3.967797E-2,6.501521E-4,2.2564035E-2,-3.296639E-2,4.738186E-4,-1.8081933E-2,3.2501735E-2,-8.1273906E-2,-2.3460574E-2,1.7040355E-2,3.577395E-2,2.3927439E-2,3.1834915E-2,2.571174E-2,-2.7983354E-3,7.454559E-3,3.6481764E-2,-5.4616738E-2,-8.233705E-3,1.3968491E-2,-8.563648E-4,1.30633E-2,-1.2514508E-2,-6.3707724E-2,2.0996895E-2,-1.9773176E-2,3.585331E-2,1.2374681E-2,-2.6991887E-2,1.0806717E-2,-9.878223E-3,-1.8706415E-2,1.3983088E-2,-2.7275557E-2,1.7906712E-2,-1.397206E-2,-5.1161423E-2,-5.039529E-2,-2.2221789E-2,-6.6572584E-2,-4.3031644E-2,-2.8661802E-2,-6.101172E-2,1.6420681E-2,-7.6156594E-2,-2.9013325E-2,-6.449431E-2,-5.2472692E-2,-1.8929234E-2,-7.304246E-2,-1.6213812E-2,-9.413136E-3,3.704079E-2,-3.1466454E-2,-8.345885E-2,-1.7058587E-2,1.6538518E-2,-6.523708E-2,-2.8701356E-2,-7.127692E-2,-4.1288607E-2,-4.053724E-2,-4.3023718E-3,2.5639614E-2,-0E0,1.8482659E-2,-2.1237873E-2,3.030226E-2,-5.4052122E-2,-3.751855E-2,5.5581336E-3,3.5707098E-2,1.0494148E-2,-6.688253E-2,-3.4264247E-3,-1.8262134E-3,-4.6690635E-2,-4.2764723E-2,5.776638E-3],"categories":[],"categories_nodes":[],"categories_segments":[],"categories_sizes":[],"default_left":[0,0,0,0,0,0,0,0,0,0,0,0,0,0,0,0,0,0,0,0,0,0,0,0,0,0,0,0,0,0,0,0,0,0,0,0,0,0,0,0,0,0,0,0,0,0,0,0,0,0,0,0,0,0,0,0,0,0,0,0,0,0,0,0,0,0,0,0,0,0,0,0,0,0,0,0,0,0,0,0,0,0,0,0,0,0,0,0,0,0,0,0,0,0,0,0,0,0,0,0,0,0,0,0,0,0,0,0,0,0,0,0,0,0,0,0,0,0,0,0,0,0,0,0,0,0,0,0,0,0,0,0,0,0,0,0,0,0,0,0,0,0,0,0,0,0,0,0,0,0,0,0,0,0,0,0,0,0,0,0,0,0,0,0,0,0,0,0,0,0,0,0,0,0,0,0,0,0,0,0,0,0,0,0,0,0,0,0,0,0,0,0,0,0,0,0,0,0,0,0,0,0,0,0,0,0,0,0,0,0,0],"id":6,"left_children":[1,3,5,7,9,11,13,15,17,19,21,23,25,27,29,31,-1,33,35,37,39,41,43,45,47,49,51,53,55,57,59,61,63,65,67,69,71,73,75,77,79,81,83,85,87,89,91,93,95,97,-1,99,101,103,105,107,109,111,-1,113,115,117,119,121,123,125,127,129,131,133,135,137,139,141,143,145,147,149,151,153,155,157,159,161,-1,163,-1,165,167,169,-1,171,173,175,177,179,181,183,185,187,189,191,193,-1,-1,-1,195,-1,-1,-1,197,199,201,203,205,207,209,-1,-1,-1,-1,-1,-1,-1,-1,-1,-1,-1,-1,-1,-1,-1,-1,-1,-1,-1,-1,-1,-1,-1,-1,-1,-1,-1,-1,-1,-1,-1,-1,-1,-1,-1,-1,-1,-1,-1,-1,-1,-1,-1,-1,-1,-1,-1,-1,-1,-1,-1,-1,-1,-1,-1,-1,-1,-1,-1,-1,-1,-1,-1,-1,-1,-1,-1,-1,-1,-1,-1,-1,-1,-1,-1,-1,-1,-1,-1,-1,-1,-1,-1,-1,-1,-1,-1,-1,-1,-1,-1,-1,-1,-1],"loss_changes":[7.164414E3,2.6864053E3,2.446053E3,1.6064132E3,5.3644434E2,1.1438037E3,3.615653E2,6.734945E2,6.6741003E2,4.752417E2,1.7907509E2,4.1119434E2,3.3130597E2,1.1979346E2,2.5726715E2,9.3387524E2,0E0,2.2813843E2,1.19523895E2,3.499873E2,1.12387085E2,7.313937E1,7.717174E1,2.1052979E2,1.1331348E2,1.7809125E2,7.0636536E1,9.591248E0,4.6382275E1,9.956691E1,1.581271E2,4.9561987E2,1.1455066E2,2.1382227E2,1.5134622E2,1.23277405E2,3.21549E1,3.1585938E1,1.658855E2,7.350042E1,4.7395752E1,3.7166077E1,6.350688E1,1.1576515E2,2.9594734E1,2.3273297E2,9.181506E1,3.0855225E1,5.3060913E1,1.7949632E2,0E0,8.7603935E1,5.040332E1,1.4213867E0,2.328375E1,1.7072392E0,3.624283E1,5.8002686E1,0E0,9.61336E1,9.7985794E1,2.9869092E2,2.1813904E2,7.338849E1,8.53009E1,1.4636157E2,1.0528114E2,5.566788E1,5.7960968E1,1.4735927E2,7.1459114E1,2.7883148E1,3.8902466E1,5.534668E0,1.3739014E1,9.891455E1,7.3339874E1,3.837475E1,4.428883E1,3.844646E1,2.6635986E1,1.0138702E1,1.3909059E1,6.089513E1,0E0,6.356698E1,0E0,1.1558933E1,2.4466751E1,1.6173346E2,0E0,3.6319214E1,5.889734E1,2.5876465E1,3.7992065E1,9.1208496E1,2.1119263E1,1.7557635E2,6.148108E1,3.811184E1,2.2720978E1,4.0467285E1,2.3301825E1,0E0,0E0,0E0,1.826397E0,0E0,0E0,0E0,3.1496248E0,7.1888824E1,6.682537E1,2.0008064E1,4.9935658E1,8.772654E1,4.1384735E1,0E0,0E0,0E0,0E0,0E0,0E0,0E0,0E0,0E0,0E0,0E0,0E0,0E0,0E0,0E0,0E0,0E0,0E0,0E0,0E0,0E0,0E0,0E0,0E0,0E0,0E0,0E0,0E0,0E0,0E0,0E0,0E0,0E0,0E0,0E0,0E0,0E0,0E0,0E0,0E0,0E0,0E0,0E0,0E0,0E0,0E0,0E0,0E0,0E0,0E0,0E0,0E0,0E0,0E0,0E0,0E0,0E0,0E0,0E0,0E0,0E0,0E0,0E0,0E0,0E0,0E0,0E0,0E0,0E0,0E0,0E0,0E0,0E0,0E0,0E0,0E0,0E0,0E0,0E0,0E0,0E0,0E0,0E0,0E0,0E0,0E0,0E0,0E0,0E0,0E0,0E0,0E0,0E0,0E0],"parents":[2147483647,0,0,1,1,2,2,3,3,4,4,5,5,6,6,7,7,8,8,9,9,10,10,11,11,12,12,13,13,14,14,15,15,17,17,18,18,19,19,20,20,21,21,22,22,23,23,24,24,25,25,26,26,27,27,28,28,29,29,30,30,31,31,32,32,33,33,34,34,35,35,36,36,37,37,38,38,39,39,40,40,41,41,42,42,43,43,44,44,45,45,46,46,47,47,48,48,49,49,51,51,52,52,53,53,54,54,55,55,56,56,57,57,59,59,60,60,61,61,62,62,63,63,64,64,65,65,66,66,67,67,68,68,69,69,70,70,71,71,72,72,73,73,74,74,75,75,76,76,77,77,78,78,79,79,80,80,81,81,82,82,83,83,85,85,87,87,88,88,89,89,91,91,92,92,93,93,94,94,95,95,96,96,97,97,98,98,99,99,100,100,101,101,102,102,106,106,110,110,111,111,112,112,113,113,114,114,115,115,116,116],"right_children":[2,4,6,8,10,12,14,16,18,20,22,24,26,28,30,32,-1,34,36,38,40,42,44,46,48,50,52,54,56,58,60,62,64,66,68,70,72,74,76,78,80,82,84,86,88,90,92,94,96,98,-1,100,102,104,106,108,110,112,-1,114,116,118,120,122,124,126,128,130,132,134,136,138,140,142,144,146,148,150,152,154,156,158,160,162,-1,164,-1,166,168,170,-1,172,174,176,178,180,182,184,186,188,190,192,194,-1,-1,-1,196,-1,-1,-1,198,200,202,204,206,208,210,-1,-1,-1,-1,-1,-1,-1,-1,-1,-1,-1,-1,-1,-1,-1,-1,-1,-1,-1,-1,-1,-1,-1,-1,-1,-1,-1,-1,-1,-1,-1,-1,-1,-1,-1,-1,-1,-1,-1,-1,-1,-1,-1,-1,-1,-1,-1,-1,-1,-1,-1,-1,-1,-1,-1,-1,-1,-1,-1,-1,-1,-1,-1,-1,-1,-1,-1,-1,-1,-1,-1,-1,-1,-1,-1,-1,-1,-1,-1,-1,-1,-1,-1,-1,-1,-1,-1,-1,-1,-1,-1,-1,-1,-1],"split_conditions":[7E0,5.61257E-3,5.61257E-3,1.6E1,5E0,2.3584905E-1,1.6666667E-1,1.500844E1,2.835821E-1,1E0,1.6E1,1E1,1.6E1,1.4E1,4E0,1.5E1,3.6535826E-2,2.8516185E-1,5E0,3E0,3.104693E-1,2E0,6E0,1.6E1,1.7985612E-1,1.500844E1,-6.5530665E-2,1E1,6.4548583E0,3.0262566E0,4E0,2.4444444E-1,2.491351E0,2.94647E-1,5E0,1.8E1,5.9777665E0,2.3333333E0,1E0,1.004512E0,1.004512E0,1E0,1.500844E1,5.2180057E0,3.0653598E0,1.500844E1,2.3846154E-1,2.090909E-1,1.1E1,1.5E1,3.647148E-2,5.881028E0,4.0243903E-1,8E0,2.6E1,1.719044E1,2.6240693E-2,3E0,3.657365E-2,1E0,1.6E1,1.4043908E1,1.4043908E1,1.7198087E-1,4.828906E0,2.1195652E-1,3E0,5.79883E2,4E0,1.6072554E1,4.0685987E-1,5.2180057E0,3.2733813E-1,-8.371595E1,2.514395E0,1.8E1,4.008287E0,1.6023643E-1,1.6E1,1.6E1,4E2,-1.2E1,1.3021738E2,1.4E1,3.5600442E-2,4.124294E-1,3.5979606E-2,7.6E1,5.6599373E1,1.8305752E1,3.5995737E-2,1.6072554E1,4E0,3E0,1.1933789E1,5.3086005E-2,1.0284318E0,1.4043908E1,4.6951336E-1,5.3086005E-2,1.8305752E1,2.1033329E1,4.66538E2,3.5989963E-2,-0E0,-6.953681E-2,1.4794993E0,-0E0,2.730086E-2,-1.0150242E-1,-1.0751296E0,9E0,1.744E-1,2.5E0,2.2105263E-1,4.9933335E-1,5.463324E-3,-4.7740513E-3,3.6219593E-2,1.4790545E-2,3.7151616E-2,-5.770622E-2,-2.5798261E-2,-5.3249574E-3,-4.4330716E-2,-5.5159207E-2,-2.5694743E-2,8.646261E-3,-2.5246395E-2,2.235793E-3,-3.7415054E-2,-1.7637677E-2,-3.967797E-2,6.501521E-4,2.2564035E-2,-3.296639E-2,4.738186E-4,-1.8081933E-2,3.2501735E-2,-8.1273906E-2,-2.3460574E-2,1.7040355E-2,3.577395E-2,2.3927439E-2,3.1834915E-2,2.571174E-2,-2.7983354E-3,7.454559E-3,3.6481764E-2,-5.4616738E-2,-8.233705E-3,1.3968491E-2,-8.563648E-4,1.30633E-2,-1.2514508E-2,-6.3707724E-2,2.0996895E-2,-1.9773176E-2,3.585331E-2,1.2374681E-2,-2.6991887E-2,1.0806717E-2,-9.878223E-3,-1.8706415E-2,1.3983088E-2,-2.7275557E-2,1.7906712E-2,-1.397206E-2,-5.1161423E-2,-5.039529E-2,-2.2221789E-2,-6.6572584E-2,-4.3031644E-2,-2.8661802E-2,-6.101172E-2,1.6420681E-2,-7.6156594E-2,-2.9013325E-2,-6.449431E-2,-5.2472692E-2,-1.8929234E-2,-7.304246E-2,-1.6213812E-2,-9.413136E-3,3.704079E-2,-3.1466454E-2,-8.345885E-2,-1.7058587E-2,1.6538518E-2,-6.523708E-2,-2.8701356E-2,-7.127692E-2,-4.1288607E-2,-4.053724E-2,-4.3023718E-3,2.5639614E-2,-0E0,1.8482659E-2,-2.1237873E-2,3.030226E-2,-5.4052122E-2,-3.751855E-2,5.5581336E-3,3.5707098E-2,1.0494148E-2,-6.688253E-2,-3.4264247E-3,-1.8262134E-3,-4.6690635E-2,-4.2764723E-2,5.776638E-3],"split_indices":[13,21,21,10,0,11,21,10,11,21,10,13,10,15,0,10,0,13,0,22,11,22,0,10,11,10,23,15,22,0,22,11,14,12,13,10,0,22,23,22,22,21,10,0,13,10,12,12,22,10,0,22,11,0,6,9,20,15,0,21,10,10,10,11,0,11,0,4,0,10,11,0,11,24,22,10,0,11,10,10,2,24,7,10,0,11,0,6,7,9,0,10,15,7,10,22,1,10,23,22,9,14,2,0,0,0,23,0,0,0,24,23,11,22,12,21,19,0,0,0,0,0,0,0,0,0,0,0,0,0,0,0,0,0,0,0,0,0,0,0,0,0,0,0,0,0,0,0,0,0,0,0,0,0,0,0,0,0,0,0,0,0,0,0,0,0,0,0,0,0,0,0,0,0,0,0,0,0,0,0,0,0,0,0,0,0,0,0,0,0,0,0,0,0,0,0,0,0,0,0,0,0,0,0,0,0,0,0,0,0,0],"split_type":[0,0,0,0,0,0,0,0,0,0,0,0,0,0,0,0,0,0,0,0,0,0,0,0,0,0,0,0,0,0,0,0,0,0,0,0,0,0,0,0,0,0,0,0,0,0,0,0,0,0,0,0,0,0,0,0,0,0,0,0,0,0,0,0,0,0,0,0,0,0,0,0,0,0,0,0,0,0,0,0,0,0,0,0,0,0,0,0,0,0,0,0,0,0,0,0,0,0,0,0,0,0,0,0,0,0,0,0,0,0,0,0,0,0,0,0,0,0,0,0,0,0,0,0,0,0,0,0,0,0,0,0,0,0,0,0,0,0,0,0,0,0,0,0,0,0,0,0,0,0,0,0,0,0,0,0,0,0,0,0,0,0,0,0,0,0,0,0,0,0,0,0,0,0,0,0,0,0,0,0,0,0,0,0,0,0,0,0,0,0,0,0,0,0,0,0,0,0,0,0,0,0,0,0,0,0,0,0,0,0,0],"sum_hessian":[3.1805979E4,2.5567232E4,6.238745E3,1.2625096E4,1.2942138E4,4.6323354E3,1.60641E3,8.542869E3,4.0822263E3,1.1601947E4,1.3401897E3,2.7087034E3,1.9236318E3,4.677132E2,1.1386968E3,7.7240996E3,8.187696E2,2.1033408E3,1.9788855E3,9.239658E3,2.362289E3,8.835553E2,4.566343E2,1.5824402E3,1.1262633E3,1.3102788E3,6.133531E2,4.468692E2,2.0844007E1,4.9800522E2,6.406916E2,6.838437E3,8.8566284E2,1.1128313E3,9.9050964E2,1.7932479E3,1.8563763E2,4.365876E3,4.873782E3,9.2445276E2,1.4378362E3,2.0515012E2,6.784052E2,3.5129727E2,1.05337036E2,9.3738165E2,6.4505853E2,6.57479E2,4.687842E2,1.2335818E3,7.669705E1,1.9924355E2,4.1410953E2,4.1889404E2,2.7975159E1,6.953888E0,1.38901205E1,3.4801263E2,1.4999257E2,1.853045E2,4.553871E2,1.9541542E3,4.8842827E3,4.30967E2,4.546958E2,6.653292E2,4.4750204E2,4.5688748E2,5.336222E2,1.5655886E3,2.2765924E2,1.3199939E2,5.363825E1,3.2164387E3,1.1494375E3,3.998637E3,8.7514557E2,1.5860333E2,7.658494E2,2.8788773E2,1.1499485E3,1.6139656E2,4.3753544E1,6.124505E2,6.595474E1,2.9658768E2,5.4709625E1,1.9487747E1,8.584929E1,8.8892773E2,4.8453926E1,3.5282632E2,2.922322E2,3.4167105E2,3.1580798E2,3.6906165E2,9.9722565E1,1.0859629E3,1.4761887E2,1.2327136E2,7.597219E1,3.415462E2,7.256331E1,4.1687564E2,2.0183969E0,1.5690783E0,2.640608E1,1.0964117E0,5.857476E0,8.772482E0,5.1176376E0,1.2313575E2,2.2487689E2,1.2730019E2,5.8004307E1,2.654955E2,1.8989156E2,1.7794413E3,1.7471294E2,4.451573E3,4.3270947E2,8.3116264E1,3.4785074E2,3.972879E2,5.7407906E1,4.136209E2,2.5170831E2,1.0660794E2,3.408941E2,4.234649E2,3.3422573E1,3.7616006E2,1.5746213E2,1.207281E3,3.5830762E2,1.2533224E2,1.02327E2,1.2264473E2,9.354658E0,1.5831267E1,3.780698E1,2.3088596E1,3.19335E3,3.400034E2,8.094341E2,3.8880784E3,1.10558556E2,7.881022E2,8.7043396E1,1.7704042E1,1.4089929E2,4.8119333E2,2.846561E2,2.2036732E2,6.7520386E1,2.2367373E0,1.1477118E3,1.7109395E0,1.5968562E2,3.4494907E1,9.258635E0,4.3293784E2,1.7951263E2,2.2863669E2,6.7950966E1,7.2989306E0,1.2188816E1,2.6294558E1,5.955473E1,2.657684E2,6.2315936E2,2.534324E2,9.939391E1,2.2191335E2,7.031885E1,1.8773618E0,3.3979367E2,3.6332806E1,2.7947516E2,2.6135623E2,1.07705414E2,9.12447E1,8.477868E0,1.0081838E3,7.777912E1,1.2181469E2,2.5804176E1,7.3351036E1,4.9920326E1,3.0261488E1,4.57107E1,5.3639774E1,2.8790643E2,2.5204647E1,4.7358658E1,2.4272701E1,2.1333802E0,2.4332361E0,2.6844015E0,1.1440784E2,8.72791E0,3.809009E1,1.867868E2,7.274703E1,5.4553158E1,1.46502695E1,4.335404E1,2.1820396E2,4.729155E1,1.7393762E2,1.5953942E1],"tree_param":{"num_deleted":"0","num_feature":"25","num_nodes":"211","size_leaf_vector":"1"}},{"base_weights":[1.9794276E-1,4.2806116E-1,-7.2825205E-1,1.0614191E-1,7.4567497E-1,-1.0768322E0,2.9782847E-1,3.474789E-1,-3.9226398E-1,8.148302E-1,1.5334027E-1,-1.4700515E0,-5.1565355E-1,1.0337949E0,-0E0,2.574534E-1,3.629683E-2,-7.6585865E-1,9.309152E-3,9.1765875E-1,4.1590545E-1,4.1132858E-1,-3.3715233E-1,-1.157563E0,-1.9040695E0,-2.4183477E-1,-1.0907494E0,1.1457589E0,-1.1806223E0,5.2852154E-1,-4.0317106E-1,3.8036606E-1,-6.7315584E-1,-1.0596315E0,-4.310695E-1,8.682752E-2,-7.215615E-1,1.1261239E0,7.3200685E-1,1.47461E-1,5.889762E-1,9.329936E-1,2.5307286E-1,-1.1571334E-1,-1.0482498E0,-8.679761E-1,-1.5713937E0,-2.1593947E0,-1.5383337E0,-7.637381E-2,-1.0448781E0,-6.142875E-1,-1.3133425E0,1.1867154E0,4.8450506E-1,6.9534135E-1,-2.1312046E0,2.3435315E-1,3.631346E-2,3.4742254E-1,-7.051937E-1,-3.473493E-2,5.4838556E-1,-9.2968357E-1,-1.9619E-1,-1.3968351E0,-5.480833E-1,-2.1790173E-2,-7.7477634E-1,1.8483615E-1,-5.7182044E-1,-9.9930185E-1,-1.22773856E-1,1.1801723E0,9.7373366E-1,8.574595E-1,4.5254803E-1,-4.4695064E-1,2.7383217E-1,2.2522499E-1,6.796654E-1,1.1564912E0,9.4913684E-2,1.5201433E-1,3.5350632E-2,-3.5641453E-1,3.570392E-2,-0E0,-1.2824061E0,-9.783818E-1,3.5712294E-2,-1.8958939E0,-1.1677978E0,-1.7378641E0,-2.286971E0,-1.3600278E0,-2.163324E0,-1.6656372E-1,3.609692E-2,-1.3803917E0,1.3705316E-1,-1.0257696E-1,