tree
version=v4
num_class=1
num_tree_per_iteration=1
label_index=0
max_feature_idx=16
objective=binary sigmoid:1
feature_names=BAREI SEIBETSU_CODE BATAIJU BATAIJU_DIFF BATAIJU_DIFF_RATE FUTAN_JURYO TANSHO_NINKIJUN NINKI_DIFF_RATE chaku3mean ninki3mean chaku_std3 rentai_rate3 KISHU_CODE_te CHOKYOSHI_CODE_te WAKUBAN_te KISHU_CODE_3chaku_mean CHOKYOSHI_CODE_3chaku_mean
feature_infos=[2:12] [1:3] [0:999] [-538:542] [-1:0.99003984063745021] [480:650] [0:18] [-1:16] [1:99] [0:99] [0:99] [0:1] [0:1] [0:1] [0.2220846233230134:0.375] [1:99] [1:99]
tree_sizes=2935 3652 3956 2907 3844 2477 4679 3028 3662 3023 3321 3307 3728 3732 4183 3126 2675 4058 5168 3911 3226 3724 2904 3832 4602 3767 3750 4269 2083 2913 3331 4211 2164 3929 4105 3741 3912 3953 3740 2070 3606 4193 3536 2480 3326 4289 2901 3474 3526 4101 4286 3334 3825 4519 3655 2392 2874 2912 3084 4705 3029 4309 4037 4452 3128 3021 2913 4070 3205 3158 3450 2664 5076 3882 3021 3842 4065 3355 3957 3545 4415 5054 3885 3834 3582 3039 3420 4340 2922 3315 3699 2786 3110 4924 4050 3353 2895 3348 3946 4016 2485 2519 2948 2067 4761 4195 3492 3038 3536 2493 3689 4657 5426 3261 2412 3998 3522 3858 5366 4112 4663 4991 3285 3997 5299 3713 4631 4173 3481 2495 3033 4284 3951 4048 3578 4942 2896 3220 3619 3548 3288 4655 4015 3726 5807 3147 3890 3526 2987 5270 3583 5370 3720 2288 2594 4286 3247 4533 3255 4082 4407 3063 3774 3235 3312 3450 3909 4456 4499 4331 3434 3638 3660 4542 4779 2410 3763 3820 3201 3562 3893 3448 4141 2707 3688 4293 3346 4655 4309 5533 3110 3445 3788 5704 3705 4303 4019 4533 4765 5054

Tree=0
num_leaves=27
num_cat=0
split_feature=8 16 10 11 11 10 11 11 9 15 16 13 16 11 13 13 0 15 15 9 15 15 16 9 9 15
split_gain=18218.8 5370.45 2237.49 1888.25 837.088 359.312 616.41 232.42 1090.92 985.35 169.384 151.772 40.5891 35.9019 28.7431 10.9911 4.7391 329.336 143.884 13.5989 4.53597 4.45074 4.20478 3.19243 2.97954 0.592998
threshold=5.5833333333333348 4.5833333333333348 1.5664965809277263 1.0000000180025095e-35 0.58333333333333337 44.787150780561781 1.0000000180025095e-35 1.0000000180025095e-35 14.833333333333334 10.16666666666667 8.8333333333333339 0.18174649532710282 6.166666666666667 0.41666666666666669 0.29224548202456752 0.20789610389610394 4.5000000000000009 8.5833333333333339 8.1666666666666696 7.416666666666667 11.833333333333334 43.166666666666679 38.166666666666679 5.416666666666667 1.8333333333333337 12.16666666666667
decision_type=2 2 2 2 2 2 2 2 2 2 2 2 2 2 2 2 2 2 2 2 2 2 2 2 2 2
left_child=3 5 -3 10 13 6 -2 8 15 11 12 -10 -1 -5 -11 21 17 19 -18 -9 22 -4 -12 -19 -17 -20
right_child=1 2 7 4 -6 -7 -8 16 9 14 20 -13 -14 -15 -16 24 18 23 25 -21 -22 -23 -24 -25 -26 -27
leaf_value=-1.046379221027278 -1.0946975584398302 -1.1496172808325253 -1.1327405911418003 -1.0316740760307561 -0.99642764414980545 -1.0193814228811315 -1.0066979414751702 -1.0676620364460325 -1.0993322495606181 -1.1384953628888996 -1.0863642074993791 -1.0767329068094167 -1.0600326488182679 -1.0194730802242349 -1.1155619571023154 -1.1097815634932362 -1.0454380840828426 -1.1302470625289269 -1.1221711309060596 -1.0470947375793749 -1.1104299761169456 -1.1057418532433083 -1.1127872454787344 -1.1186991187245872 -1.1265250169679195 -1.109885939124897
leaf_weight=608.82314822077751 187.91347023844719 1312.4317564815283 529.9513596445322 963.98254673182964 1770.073131904006 539.03984078764915 116.19653989374638 138.95212988555431 351.7538296431303 331.01617559790611 121.35455913841724 1192.0238226205111 375.79309257864952 424.08137866854668 62.419283702969551 8.9747999310493451 56.722988367080688 54.140028908848763 28.01797816157341 57.655245617032051 5.4196572154760352 3.3686912655830374 3.362408682703971 62.966072887182236 650.81992939114571 9.9070571810007078
leaf_count=1858 776 7039 2643 2626 3429 1319 249 489 1490 1694 478 4449 1261 1038 288 40 170 268 134 175 25 14 16 295 3155 45
internal_value=-1.06889 -1.10403 -1.11617 -1.02207 -1.0102 -1.03419 -1.06075 -1.10377 -1.10656 -1.09266 -1.05578 -1.08185 -1.0515 -1.02786 -1.13496 -1.12911 -1.0825 -1.08486 -1.07535 -1.06119 -1.08852 -1.13251 -1.08733 -1.12442 -1.12629 -1.11982
internal_weight=9967.16 5694.27 4851.12 4272.89 3158.14 843.15 304.11 3538.69 3130.33 1937.21 1114.75 1543.78 984.616 1388.06 393.435 1193.11 408.362 313.713 94.648 196.607 130.137 533.32 124.717 117.106 659.795 37.925
internal_count=35463 24732 22388 10731 7093 2344 1025 15349 13773 7921 3638 5939 3119 3664 1982 5852 1576 1227 349 664 519 2657 494 563 3195 179
is_linear=0
shrinkage=1


Tree=1
num_leaves=33
num_cat=0
split_feature=11 8 6 9 6 10 10 10 10 6 7 16 12 16 8 13 16 6 6 7 7 13 13 12 6 6 13 13 16 16 16 8
split_gain=14964.4 3869.44 4731.01 3038.42 595.238 556.961 493.148 354.152 347.341 222.315 161.106 122.261 56.041 21.7227 40.2414 21.641 21.0761 17.6479 44.1963 30.4522 29.1594 11.8772 10.8504 5.30003 5.2245 59.9074 5.20283 4.33009 1.78876 1.29939 1.26298 0.408411
threshold=1.0000000180025095e-35 4.416666666666667 5.5000000000000009 14.583333333333334 3.5000000000000004 1.4571067811865477 40.970846478725683 4.8416064251843993 2.107525783562807 1.5000000000000002 1.8166666666666669 10.16666666666667 0.19573818806274948 6.8333333333333348 7.166666666666667 0.27206974743920564 8.5833333333333339 10.500000000000002 8.5000000000000018 0.060661764705882359 0.84523809523809534 0.19570968484011966 0.23239268680445155 0.27109094176851189 14.500000000000002 5.5000000000000009 0.28147218992840978 0.22912077826725405 36.166666666666679 25.166666666666668 44.333333333333336 6.416666666666667
decision_type=2 2 2 2 2 2 2 2 2 2 2 2 2 2 2 2 2 2 2 2 2 2 2 2 2 2 2 2 2 2 2 2
left_child=1 16 3 5 -2 31 8 24 13 -5 17 23 15 14 -4 22 -1 18 20 -19 -9 28 -8 -7 25 -6 -10 -11 -14 -13 -23 -3
right_child=4 2 6 9 7 11 12 10 26 27 -12 29 21 -15 -16 -17 -18 19 -20 -21 -22 30 -24 -25 -26 -27 -28 -29 -30 -31 -32 -33
leaf_value=0.077765231876883223 0.095064505508721128 -0.032467600022480565 -0.020659173501784426 0.092136866430141101 0.083693922947105481 0.017749784741309536 -0.01490391359791632 0.065463707069414401 -0.012453122159230282 0.055695543968983414 -0.023128780254039853 -0.030166043093831117 -0.0048812382601005474 -0.038066790118471985 -0.039266249780413105 0.00056699315102552716 0.05822303590694055 0.062320865278916129 0.015046502503871557 0.006783160030950303 0.010891086407041159 0.0044216797741844305 -0.0041196279669945199 0.026376716090241767 0.040069659400539359 0.070101297440570365 -0.0062091833768276872 0.063765142621743515 0.0053179584980932873 -0.014342042589178663 0.019674139480783805 -0.039117545538662257
leaf_weight=625.56951487064362 2215.0388323366642 174.45434781908989 237.55537964403629 301.81325279176235 657.57439008355141 169.45570437610149 445.18187832832336 97.862408623099327 625.29504445195198 241.06349056959152 35.269322052598 34.800288990139961 184.80512538552284 1062.9650101959705 210.92059600353241 130.9580739736557 86.051429718732834 13.277945175766943 27.127441063523293 28.274992242455482 11.643843695521353 451.59642449021339 114.7703183889389 184.26305805146694 10.425387188792227 738.67778985202312 179.81343828141689 628.15279920399189 13.30115285515785 19.653709307312965 5.2692975848913184 167.39980281889439
leaf_count=1604 4591 897 1165 680 1542 686 2134 276 3000 754 175 182 840 5759 1149 572 264 37 108 119 47 1930 518 709 34 1969 834 1823 57 96 20 915
internal_value=0.0381661 0.00969713 0.00128936 0.0394121 0.0848731 -0.00769341 -0.0187043 0.0708709 -0.0270948 0.0695888 0.034377 0.0159004 -0.00423073 -0.0355792 -0.0295448 -0.010192 0.0755292 0.0459924 0.0515341 0.0262823 0.0600835 0.00201788 -0.0127583 0.0223901 0.076359 0.0765796 -0.0111052 0.0616282 -0.00402251 -0.0253574 0.0047057 -0.0359161
internal_weight=10130.3 6295.11 5583.49 1921.06 3835.17 750.027 3662.43 1620.13 2316.55 1171.03 213.456 408.173 1345.88 1511.44 448.476 690.91 711.621 178.187 136.634 41.5529 109.506 654.972 559.952 353.719 1406.68 1396.25 805.108 869.216 198.106 54.454 456.866 341.854
internal_count=35486 26588 24720 6742 8898 3485 17978 4307 11907 3257 762 1673 6071 8073 2314 3224 1868 587 431 156 323 2847 2652 1395 3545 3511 3834 2577 897 278 1950 1812
is_linear=0
shrinkage=0.03


Tree=2
num_leaves=36
num_cat=0
split_feature=11 15 15 11 8 8 7 15 15 15 6 6 6 6 7 15 6 6 6 16 16 9 6 8 15 6 7 15 6 4 4 13 13 4 13
split_gain=13417.9 3627.58 2359.25 1264.28 1043.64 2467.3 325.766 266.841 207.316 562.765 91.0463 825.206 615.364 88.582 81.3819 78.6539 159.514 69.8937 55.7439 105.465 132.133 27.4296 22.7238 21.5629 15.4619 11.0243 9.56383 32.2989 9.12103 4.27306 5.63612 2.29879 1.98714 1.26399 0.801413
threshold=1.0000000180025095e-35 3.4166666666666674 8.8333333333333339 0.58333333333333337 43.833333333333336 6.5833333333333348 1.3666666666666669 6.8333333333333348 10.833333333333334 7.5833333333333348 15.500000000000002 2.5000000000000004 8.5000000000000018 3.5000000000000004 2.1000000000000005 13.41666666666667 9.5000000000000018 2.5000000000000004 12.500000000000002 7.166666666666667 58.416666666666671 8.4166666666666696 9.5000000000000018 15.583333333333334 7.5833333333333348 11.500000000000002 0.27922077922077926 34.500000000000007 10.500000000000002 0.016985214569058785 -0.009153366008964851 0.25813492063492072 0.24061071068743706 0.014440454124189065 0.26864661103791548
decision_type=2 2 2 2 2 2 2 2 2 2 2 2 2 2 2 2 2 2 2 2 2 2 2 2 2 2 2 2 2 2 2 2 2 2 2
left_child=1 17 4 6 5 13 8 -8 9 -2 11 -6 -13 -3 -5 16 29 21 19 22 -21 -1 -17 -7 28 -26 27 -10 -9 30 -4 -25 -15 -19 -12
right_child=3 2 15 14 10 23 7 24 26 -11 34 12 -14 32 -16 18 -18 33 -20 20 -22 -23 -24 31 25 -27 -28 -29 -30 -31 -32 -33 -34 -35 -36
leaf_value=0.073120754885593192 0.078611012993337517 0.047350202796172094 -0.023965031947058856 0.098265482200602272 0.077600896381113213 -0.027918589283134832 0.056036373007308397 0.02467552682014169 0.011491038528923582 0.034581935051503594 -0.035253958867184139 0.039436236614254196 -0.0067035448733446705 0.026701242529190747 0.067936369635851798 0.039944518085942841 -0.035637849274304828 0.071556772647623376 -0.032350670644708257 -0.027110211977562148 0.05269871687564423 0.10003023716432856 -0.0045486169491058669 -0.0086839568972478156 -0.0060364287240670363 -0.035628660392264762 0.0093531987738935899 0.052842824279705478 -0.023098410259778761 -0.026029894024987645 -0.014530091807222886 0.0076316176545310694 0.031317963487776587 0.050194859478234238 -0.0037781570588642736
leaf_weight=74.06975045800209 1374.8574755936861 341.7329231351614 78.986778378486633 1885.6799831986427 335.20917053520679 1144.9531538635492 155.84126576781273 18.449306756258014 39.106046512722969 328.71863797307014 13.69745208323002 783.75842295587063 387.24702680110931 455.04835358262062 100.27191832661629 48.950339794158936 913.63684742152691 309.54078118503094 72.848733425140381 128.03697234392166 20.680275142192841 186.35080790519714 11.311293601989744 15.980812788009645 68.692999869585037 13.889511689543722 29.985891819000244 33.893647834658623 2.9518150687217704 51.025768220424652 582.01369443535805 12.639749020338057 367.7907699495554 23.262268528342247 3.422028884291648
leaf_count=187 3127 1081 404 3285 797 6008 436 64 153 1093 73 2641 1760 1708 247 167 4930 820 390 662 65 343 53 77 298 73 119 97 15 264 2792 54 1327 74 16
internal_value=0.0369785 0.00979297 0.00251744 0.0796396 0.016005 0.00339805 0.063109 0.0313094 0.0676461 0.0701581 0.0353207 0.0361166 0.0241597 0.034331 0.0967842 -0.0247649 -0.0273124 0.0803722 -0.00991951 -0.00184044 -0.0155339 0.0928003 0.0311654 -0.0272752 -0.0056442 -0.0117392 0.0255281 0.0315507 0.01601 -0.0165525 -0.0157373 -0.000451284 0.0288367 0.0703083 -0.0311737
internal_weight=10414.5 6362.19 5768.97 4052.34 3861.48 2338.15 2066.39 259.825 1806.56 1703.58 1523.33 1506.21 1171.01 1164.57 1985.95 1907.49 1625.66 593.224 281.828 208.979 148.717 260.421 60.2616 1173.57 103.984 82.5825 102.986 72.9997 21.4011 712.026 661 28.6206 822.839 332.803 17.1195
internal_count=35700 26693 25269 9007 15542 10255 5475 886 4589 4220 5287 5198 4401 4116 3532 9727 8390 1424 1337 947 727 530 220 6139 450 371 369 250 79 3460 3196 131 3035 894 89
is_linear=0
shrinkage=0.03


Tree=3
num_leaves=26
num_cat=0
split_feature=6 11 15 11 6 10 11 15 6 15 15 10 10 10 15 10 15 15 15 13 13 13 10 15 13
split_gain=10992.2 3681.06 2568.89 1334.14 976.794 611.514 461.81 310.539 289.681 530.309 110.57 106.812 84.8462 70.5052 47.965 18.4717 15.5359 14.1323 105.372 9.93164 7.66074 7.43332 52.3063 3.74499 0.0634282
threshold=4.5000000000000009 0.41666666666666669 4.166666666666667 1.0000000180025095e-35 10.500000000000002 4.0138409955990966 0.58333333333333337 7.416666666666667 8.5000000000000018 7.8333333333333348 4.8333333333333348 42.709613782134561 5.0495097567963931 1.1236095644623239 14.500000000000002 1.3307163456488713 12.583333333333334 2.8333333333333335 7.5833333333333348 0.24061071068743706 0.23566395663956644 0.43295106901498531 1.0000000180025095e-35 34.500000000000007 0.18285992007776219
decision_type=2 2 2 2 2 2 2 2 2 2 2 2 2 2 2 2 2 2 2 2 2 2 2 2 2
left_child=3 2 21 5 8 15 7 -5 9 10 -4 19 -9 -10 -11 -1 -15 -3 -19 24 -13 22 -2 -6 -7
right_child=1 17 4 6 23 11 -8 12 13 14 -12 20 -14 16 -16 -17 -18 18 -20 -21 -22 -23 -24 -25 -26
leaf_value=0.033410355695255814 0.035510483357459113 0.094607700154457269 0.042663578579783965 0.074600809881334898 -0.027229136180981547 0 0.091704583620714028 0.042600185025085099 -0.026265024259437615 -0.013149111723325569 0.016666828802617464 0.059705804929813616 -0.0099649869261615176 -0.0058486921511023762 0.013272652082388292 0.022957454601335713 -0.025032119989119129 0.083731422562306909 0.052255922478689744 0.026428317464719832 0.068262604182240144 0.034715520462569135 0.065259852643961613 -0.016439279928457312 -0.0037746883786117999
leaf_weight=639.9481470733881 70.370715528726578 68.559338390827179 173.31577964127064 947.25264462828636 1627.6630451083183 6.8656138479709616 1665.6799096316099 206.79773886501789 246.47559821605682 736.3925978988409 1057.4622666835785 282.45106053352356 30.458598867058754 581.36380849778652 65.580896437168121 244.42448619008064 41.149062126874924 376.53201387822628 146.27251462638378 25.185267955064774 777.67598536610603 19.454091638326645 448.25043278932571 49.573598772287369 8.5254120081663114
leaf_count=2214 236 112 565 2049 8518 31 2774 622 1291 3499 4137 774 134 2665 269 929 212 726 399 96 1904 63 1193 249 40
internal_value=0.0349675 0.00676719 -0.00142267 0.0682457 -0.00871921 0.0492795 0.0814226 0.0668735 0.00180681 0.00801268 0.0203837 0.0642317 0.0357125 -0.0126681 -0.0109373 0.0305844 -0.00720297 0.0775672 0.0750989 0.0150598 0.0660695 0.0605157 0.0613571 -0.0269381 -0.00219031
internal_weight=10543.7 5708.42 5117.05 4835.26 4578.98 1985.08 2850.19 1184.51 2901.74 2032.75 1230.78 1100.7 237.256 868.988 801.973 884.373 622.513 591.364 522.805 40.5763 1060.13 538.075 518.621 1677.24 15.391
internal_count=35701 24134 22897 11567 21405 5988 5579 2805 12638 8470 4702 2845 756 4168 3768 3143 2877 1237 1125 167 2678 1492 1429 8767 71
is_linear=0
shrinkage=0.03


Tree=4
num_leaves=35
num_cat=0
split_feature=8 15 10 15 6 10 16 6 6 7 6 6 7 10 16 16 6 6 10 10 12 12 7 13 10 7 15 10 12 7 6 13 15 15
split_gain=10188.5 5396.16 1505.23 996.456 977.06 748.428 731.324 155.941 75.0028 71.313 107.977 71.0979 63.7367 58.7274 257.789 96.6697 52.5689 43.7517 268.66 19.8719 14.9927 8.74427 8.29113 7.65602 7.56302 7.08649 6.98768 6.76998 5.81602 5.03445 4.4933 4.28125 0.827012 7.01002
threshold=6.5833333333333348 5.5833333333333348 4.4984562605386751 4.5833333333333348 6.5000000000000009 44.146215871531609 7.416666666666667 2.5000000000000004 3.5000000000000004 -0.17914438502673793 10.500000000000002 13.500000000000002 -0.060661764705882346 6.0092450142112996 3.8333333333333335 10.41666666666667 11.500000000000002 4.5000000000000009 1.4571067811865477 44.557078869326254 0.15406593406593408 0.27770104358502151 -0.6568627450980391 0.19129136029411767 6.6248212027472233 0.55050505050505061 8.4166666666666696 43.633573742918379 0.33965467130262555 0.47727272727272735 6.5000000000000009 0.1703301127214171 12.16666666666667 9.1666666666666696
decision_type=2 2 2 2 2 2 2 2 2 2 2 2 2 2 2 2 2 2 2 2 2 2 2 2 2 2 2 2 2 2 2 2 2 2
left_child=3 5 26 8 13 17 9 -8 -1 31 -11 27 32 22 -15 -16 -7 23 -19 -13 -20 -12 -4 -2 -25 -14 -3 -6 -22 -24 -10 -5 33 -9
right_child=1 2 4 6 11 16 7 12 30 10 21 19 25 14 15 -17 -18 18 20 -21 28 -23 29 24 -26 -27 -28 -29 -30 -31 -32 -33 -34 -35
leaf_value=0.082328049428348066 0.0027653216184640428 -0.032380448133086728 0.023993248127133111 0.057536830347121252 -0.0049424483788479637 0.06889772586864365 0.050027696951410745 0.034412571668398256 0.07270168615251113 0.057484584821127095 0.029145221839878794 -0.0081867310109333541 0.016453040154981821 0.074790090846640234 0.028468515168611302 -0.0015042405099582915 0.025460203039069103 -0.038122186912242229 0.046863950063781225 -0.033887770798832387 0.026853982672091447 0.0026429329033438856 0.0023203608254214136 0.034224790664179126 0.0691366317328828 0.0078237413574611669 -0.037037720028496021 -0.012553785686215015 0.0096221349615668236 -0.016124392630956011 0.064175446232051847 0.067041099558807993 0.011498014573821973 0.016838835313864146
leaf_weight=1373.983388826251 7.6521571874618521 773.82157242298126 11.708488926291464 155.29081875085831 140.86401456594467 966.72908180952072 210.46479013562202 214.7789019048214 516.16615210473537 1307.1442066580057 94.00147545337677 35.950261637568474 193.61320465803146 100.54264749586582 536.27862846851349 115.73142196238041 29.585312262177467 70.738658919930458 37.500574067234993 197.89482127130032 155.37675482034683 15.825528845191 45.415478944778442 73.940840840339661 8.8651808500289899 194.23473374545574 1036.8569495975971 743.78867840766907 28.088262125849724 16.830884709954262 275.65243670344353 946.57987158000469 7.7842140197753897 33.842395573854446
leaf_count=2447 32 4212 41 400 643 2270 550 696 1095 3342 337 172 723 215 1827 488 111 397 119 1076 573 64 188 252 18 758 5825 3543 113 80 662 2153 29 130
internal_value=0.0336759 0.00322275 -0.0154054 0.0618904 0.00290634 0.0539716 0.0516371 0.0275462 0.0778165 0.0597858 0.0550585 -0.0153495 0.0200893 0.0276365 0.030143 0.0231083 0.0676648 0.0181111 0.0122263 -0.030116 0.0285788 0.0256554 0.00166909 0.0364189 0.0391008 0.0122399 -0.0350829 -0.0113826 0.0244449 -0.0023687 0.069856 0.0657822 0.0317523 0.0322177
internal_weight=10673.5 5134.16 3755.68 5539.36 1945.01 1378.48 3373.56 854.718 2165.8 2518.84 1416.97 1118.5 644.253 826.508 752.553 652.01 996.314 382.162 291.704 233.845 220.966 109.827 73.9549 90.4582 82.806 387.848 1810.68 884.653 183.465 62.2464 791.819 1101.87 256.406 248.621
internal_count=35581 22195 18310 13386 8273 3885 9182 2886 4204 6296 3743 5434 2336 2839 2530 2315 2381 1504 1202 1248 805 401 309 302 270 1481 10037 4186 686 268 1757 2553 855 826
is_linear=0
shrinkage=0.03


Tree=5
num_leaves=22
num_cat=0
split_feature=15 16 11 8 11 6 11 8 6 9 9 9 6 6 7 6 7 6 7 8 6
split_gain=7892.65 4699.06 2739.15 2943.95 973.261 841.834 684.513 189.998 160.36 124.34 162.682 96.2068 95.2535 78.8856 63.7794 31.6313 19.9741 19.09 12.821 10.6697 2.98156
threshold=5.166666666666667 5.5833333333333348 0.58333333333333337 3.4166666666666674 1.0000000180025095e-35 7.5000000000000009 0.58333333333333337 16.583333333333339 6.5000000000000009 5.8333333333333348 16.833333333333339 15.833333333333334 2.5000000000000004 8.5000000000000018 0.27922077922077926 12.500000000000002 0.47727272727272735 10.500000000000002 0.68333333333333346 42.500000000000007 3.5000000000000004
decision_type=2 2 2 2 2 2 2 2 2 2 2 2 2 2 2 2 2 2 2 2 2
left_child=6 4 3 -3 7 9 11 8 -2 18 -11 12 -1 -14 -4 -7 -6 20 -5 -9 -16
right_child=1 2 14 5 16 15 -8 19 -10 10 -12 -13 13 -15 17 -17 -18 -19 -20 -21 -22
leaf_value=0.063728257435854682 0.033908281201924642 0.082621513431114707 0.076842119996059208 -0.0086162951205252421 0.076488564070279111 -0.02596897076809877 0.0837810780074075 0.00074739638419175501 0.0018699558200766892 -0.0081008926249645681 0.015348899728481968 0.065400025807293483 0.051796169523470784 0.032144501635257311 0.063463642174711996 -0.03356469439239048 0.064162941053479958 0.0065549772534999051 -0.018200046094306404 0.046739286068347388 0.046391540579116909
leaf_weight=532.26633378863335 310.65956443548203 285.24877677857876 295.54641664028168 570.05312590301037 705.19996011257172 1523.3914201110601 1269.0986660718918 5.9649470895528784 260.18706576526165 473.45242699980736 603.17375563085079 858.33783182501793 1038.2005669921637 242.54159931838512 46.800165802240372 829.16386437416077 245.49467515945435 10.217525184154509 174.14932276308537 413.91362500190735 78.368181958794594
leaf_count=1168 1021 553 511 2503 1295 7995 1942 26 1159 2184 2245 1950 2737 827 93 4645 538 36 814 1214 198
internal_value=0.0317444 0.0122312 -0.00344389 -0.0104356 0.0517068 -0.0168215 0.0655522 0.0307991 0.0193868 -0.00148651 0.00501093 0.0568527 0.0527557 0.048126 0.0686829 -0.028672 0.073408 0.0502187 -0.0109206 0.0461605 0.053465
internal_weight=10771.4 6830.98 4889.56 4458.63 1941.42 4173.38 3940.44 990.725 570.847 1820.83 1076.63 2671.35 1813.01 1280.74 430.932 2352.56 950.695 135.386 744.202 419.879 125.168
internal_count=35654 27030 21777 20939 5253 20386 8624 3420 2180 7746 4429 6682 4732 3564 838 12640 1833 327 3317 1240 291
is_linear=0
shrinkage=0.03


Tree=6
num_leaves=43
num_cat=0
split_feature=6 11 15 11 16 15 15 10 16 16 4 16 16 11 16 11 15 15 7 15 10 7 16 16 13 4 4 15 15 10 13 10 10 0 0 16 4 0 12 10 10 2
split_gain=8516.57 4377.52 1191.69 1003.23 891.898 539.741 214.558 213.589 193.484 152.645 138.035 364.076 296.531 83.9607 94.4159 83.3272 65.1928 61.2815 49.2156 41.0073 34.1149 33.0352 31.7024 26.4784 18.166 16.2632 51.2906 12.604 17.3165 9.89161 9.00908 26.9775 8.03153 3.63512 2.75268 2.25711 2.06988 1.47073 1.39541 1.09652 5.33059 0.0857313
threshold=4.5000000000000009 1.0000000180025095e-35 8.4166666666666696 1.0000000180025095e-35 7.8333333333333348 8.1666666666666696 7.166666666666667 44.711362285567837 6.166666666666667 7.416666666666667 -0.012072483482316361 9.4166666666666696 3.8333333333333335 0.58333333333333337 4.8333333333333348 0.58333333333333337 34.500000000000007 35.833333333333336 0.37980769230769235 2.4166666666666674 1.6663331665265237 0.26136363636363641 11.583333333333334 34.500000000000007 0.3218356626028348 0.022354744136460557 0.004618962280252604 67.333333333333357 14.833333333333334 45.258516544095578 0.38251926203435366 5.1422346211470673 45.010491381180962 2.5000000000000004 6.5000000000000009 37.500000000000007 -0.0083857810906789471 2.5000000000000004 0.41502420935493228 1.3307163456488713 45.981876917838257 451.50000000000006
decision_type=2 2 2 2 2 2 2 2 2 2 2 2 2 2 2 2 2 2 2 2 2 2 2 2 2 2 2 2 2 2 2 2 2 2 2 2 2 2 2 2 2 2
left_child=3 2 4 10 7 9 19 30 -8 18 22 12 -12 14 -7 -11 32 -18 -3 -5 33 -15 -1 -10 37 26 -14 28 -16 -22 31 -2 -4 -6 -26 -25 -13 -9 -27 -19 -41 -32
right_child=1 5 16 6 20 13 8 24 23 15 11 36 25 21 27 -17 17 39 -20 -21 29 -23 -24 35 34 38 -28 -29 -30 -31 41 -33 -34 -35 -36 -37 -38 -39 -40 40 -42 -43
leaf_value=0.016929492259025361 0.0085028900891331739 0.074430001119123804 -0.031706899766874234 0.081615388359102189 -0.019529316476924598 0.049220369328532576 0.067906875381625778 0.037419514669424496 0.034081752438289835 0.028143977090664615 0.070958800590361318 -0.0033003804786391937 0.045216736770761365 0.070587559022134913 -0.0065673023205097868 0.067522937511959064 0.042713279821904357 -0.022460751927840659 0.058478840012961907 0.071085962220202553 -0.019663154760497528 0.024650725978159004 -0.033624578353686201 -0.019444368905517335 0.020523214671594507 0.014384414387814088 0.027583026055188864 0.049234883885325251 0.025469923024443668 -0.01129485394908103 0 0.040497229422063769 -0.026472630907072869 -0.028987948877915237 0 0.0011088925175722355 0.0093409451005103117 0.031207625996208976 0.036320490487962161 -0.022432142952968172 -0.0050573008451094605 -0.0039459094747445909
leaf_weight=117.99241907894611 993.24740323424339 491.50159879028797 1073.6985748410225 533.2040024548769 79.728839725255966 37.495389059185982 313.73904497921467 187.27333405613899 227.38801139593124 170.57166323065758 432.1566856354475 8.2095638662576658 1101.2173291146755 27.314325392246246 167.32321728765965 71.449224427342415 17.696784928441048 30.731140166521072 359.36570559442043 1987.5117102563381 252.53971561789513 37.452863350510597 11.04239661991596 6.1398849785327894 107.94022631645203 30.022863626480103 189.64340354502201 3.1092632114887229 15.448381990194319 327.84051634371281 16.062802165746689 23.960396736860275 545.35269591212273 281.3111185580492 6.4757411777973166 7.4430308490991592 219.87160764634609 301.14018857479095 6.0573072433471671 30.649381697177887 45.627942681312561 35.492204263806343
leaf_count=427 4104 908 6054 783 407 97 594 595 645 541 849 37 3048 48 729 134 58 165 798 3488 1295 113 61 28 376 112 637 7 53 1503 70 83 2884 1520 26 27 848 1013 17 163 214 157
internal_value=0.0307844 0.00558596 -0.00916335 0.0586215 0.00364453 0.0521106 0.0695846 0.0168042 0.0522887 0.0617443 0.0426496 0.0446081 0.0492337 0.0153803 0.0064204 0.0401229 -0.0283642 -0.00707909 0.0678048 0.0733566 -0.0196831 0.0452586 0.0121472 0.0316335 0.031089 0.0420875 0.0426727 -0.00226974 -0.00357232 -0.0150153 0.0086974 0.00932502 -0.0299798 -0.0270418 0.0193934 -0.00682087 0.00874255 0.0337224 0.0197564 -0.0159106 -0.0126269 -0.00305667
internal_weight=10929.4 5737.8 4356.77 5191.64 2613.01 1381.03 3075.43 1671.59 554.71 1092.89 2116.21 1987.18 1759.1 288.143 223.376 242.021 1743.76 124.705 850.867 2520.72 941.42 64.7672 129.035 240.971 602.829 1326.94 1290.86 185.881 182.772 580.38 1068.76 1017.21 1619.05 361.04 114.416 13.5829 228.081 488.414 36.0802 107.008 76.2773 51.555
internal_count=35716 24115 20687 11601 11149 3428 5565 6424 1294 2381 6036 5548 4663 1047 886 675 9538 600 1706 4271 4725 161 488 700 2010 3814 3685 789 782 2798 4414 4187 8938 1927 402 55 885 1608 129 542 377 227
is_linear=0
shrinkage=0.03


Tree=7
num_leaves=27
num_cat=0
split_feature=6 11 8 9 16 15 11 8 11 16 10 11 11 11 7 10 12 16 10 9 13 10 10 7 11 8
split_gain=7947.49 2917.62 1866.01 2181.26 1401.92 649.536 416.421 383.018 348.062 316.748 419.127 163.714 74.4671 69.2496 61.6418 111.95 52.1134 25.9503 26.9302 10.4271 8.77471 4.03303 5.83124 2.56258 1.30396 0.795916
threshold=7.5000000000000009 1.0000000180025095e-35 3.1666666666666674 11.41666666666667 7.8333333333333348 7.8333333333333348 0.41666666666666669 7.166666666666667 0.41666666666666669 6.166666666666667 0.97140452079103179 0.58333333333333337 1.0000000180025095e-35 0.41666666666666669 -0.057189542483660122 1.5664965809277263 0.30098513800424637 11.16666666666667 44.199034441190221 13.583333333333334 0.25572652561636655 4.5944283290283296 2.4972191289246477 -0.30384615384615382 1.0000000180025095e-35 11.41666666666667
decision_type=2 2 2 2 2 2 2 2 2 2 2 2 2 2 2 2 2 2 2 2 2 2 2 2 2 2
left_child=1 2 -1 9 5 8 14 13 19 10 -4 12 -7 -6 21 -16 20 18 -11 -2 -5 22 -3 -8 -9 -12
right_child=4 6 3 16 7 11 23 24 -10 17 25 -13 -14 -15 15 -17 -18 -19 -20 -21 -22 -23 -24 -25 -26 -27
leaf_value=0.093827987463249482 0.016299072563812435 0.061242549334737495 -0.015992303368898571 0.035526654313060103 -0.0034386685810015799 -0.019952553614897818 0.073546666949330111 -0.03463130328734372 0.071142712445790443 -0.014837824779362843 0.032458076014244733 0.06271130977433681 0.013669602303050228 0.034064931575665529 0.062720063833367187 0.034152806408755544 0.049901738465137159 -0.029976843541433661 0.039755552783023895 0.023752421862179234 0.042476203075609717 0.046545964961271107 0.052302794279236245 0.069323257533887378 -0.024511380867377232 0.01617354836402321
leaf_weight=341.61346054077148 617.3873670399189 382.66291519999504 291.08698034286499 515.65164543688297 234.2845381051302 540.92848506569862 1146.3237850815058 1370.5537780076265 130.42093151807785 814.98436857759953 357.33274506032467 23.456039324402809 64.775642544031143 53.376304477453232 184.15387791395187 422.92881332337856 744.20268435776234 112.73550662398338 6.9903112202882758 284.63964450359344 457.69758054614067 90.193957924842834 247.61268688738346 1512.4023704528809 43.484873324632645 13.313254311680792
leaf_count=519 2367 761 1256 1576 1072 2862 1783 7904 223 3849 1173 45 241 148 364 1175 1827 603 21 1034 1255 231 566 2545 215 48
internal_value=0.0296145 0.0465263 0.0271438 0.0202346 -0.00880492 0.0107803 0.0642823 -0.0279414 0.0254231 -0.00499427 0.0108507 -0.0132031 -0.0162909 0.00351021 0.0503974 0.0429567 0.0436912 -0.0162435 -0.0142894 0.0187079 0.0388656 0.0565573 0.0578664 0.0711824 -0.0343588 0.031999
internal_weight=11005.2 7641.89 3655.61 3314 3363.31 1661.61 3986.28 1701.7 1032.45 1596.44 661.733 629.16 605.704 287.661 1327.55 607.083 1717.55 934.71 821.975 902.027 973.349 720.47 630.276 2658.73 1414.04 370.646
internal_count=35663 19552 12127 11608 16111 6772 7425 9339 3624 6950 2477 3148 3103 1220 3097 1539 4658 4473 3870 3401 2831 1558 1327 4328 8119 1221
is_linear=0
shrinkage=0.03


Tree=8
num_leaves=33
num_cat=0
split_feature=11 8 10 8 6 6 11 7 15 15 7 7 15 15 7 6 15 15 9 9 6 7 15 15 13 6 15 15 9 15 4 13
split_gain=7901.31 2720.03 3208.96 1141.41 914.132 1381.86 653.925 167.535 320.755 142.804 82.2439 74.9419 262.636 42.8641 39.0378 52.5944 27.7351 252.374 15.9696 22.6647 16.8488 14.3534 15.1848 9.39846 5.42788 2.84738 2.45651 2.37309 1.63998 1.21717 0.976407 0.420915
threshold=1.0000000180025095e-35 4.8333333333333348 45.0505864175977 3.5833333333333335 12.500000000000002 5.5000000000000009 0.41666666666666669 0.07417582417582419 7.416666666666667 3.4166666666666674 0.39230769230769241 -0.41421568627450972 6.8333333333333348 2.5833333333333335 1.8166666666666669 8.5000000000000018 12.16666666666667 3.4166666666666674 8.8333333333333339 3.5833333333333335 4.5000000000000009 1.5357142857142858 35.166666666666679 10.16666666666667 0.1833621683967705 6.5000000000000009 41.166666666666679 14.500000000000002 2.4166666666666674 14.500000000000002 -0.0038387857353374588 0.18450768782032587
decision_type=2 2 2 2 2 2 2 2 2 2 2 2 2 2 2 2 2 2 2 2 2 2 2 2 2 2 2 2 2 2 2 2
left_child=1 3 11 -1 5 16 7 9 13 -2 -8 18 -13 -9 -12 -16 17 -4 19 28 -20 22 -10 -6 26 29 -7 -26 -3 -14 -22 -18
right_child=6 2 4 -5 23 24 10 8 21 -11 14 12 25 -15 15 -17 31 -19 20 -21 30 -23 -24 -25 27 -27 -28 -29 -30 -31 -32 -33
leaf_value=0.086024649823152929 0.071704695633164589 -0.031878920102686094 0.072327109329319073 0.017997189757834011 -0.022673152177735831 -0.00068223381724790615 0.069906308013143917 0.076369982713525755 0.00026854203885747402 0.044382029221423418 0.063181963531567173 -0.011354128474442508 -0.028647415227020172 0.041642517711631584 0.052922796987333508 0.012772554816311199 0.010059898040759329 0.041666664725087739 0.033915352682752906 -0.0082653391674496236 -0.0085382682659227785 -0.014189574854254691 0.034554604294852839 -0.035230558407312561 0.0040154579639862216 -0.032762814692875411 -0.023587518256732352 -0.005274708951963328 -0.018324297437296425 -0.01350803002608901 -0.00032382964390823601 0.028526541076772119
leaf_weight=490.22588138282299 232.67906579375267 49.277087241411209 331.71105948090553 408.58386752009392 157.93718285858631 272.92539109289646 2203.0552440434694 38.376035541296005 125.40548969805241 776.70073446631432 473.54788586497307 855.57276546955109 280.70406951010227 403.41161188483238 225.58982557058334 36.959055289626122 8.0970658957958204 963.7690737247467 11.251837849617003 220.32434895634651 27.405842036008835 55.32515075802803 12.039440199732779 122.38759060204029 719.66602690517902 1343.4093066006899 3.4121371507644644 22.040464743971825 33.917984172701836 15.386289805173872 39.853033572435379 51.399247840046883
leaf_count=790 378 252 561 1398 832 1228 3412 60 497 1883 832 4028 1479 1020 457 120 31 2522 37 997 131 250 35 731 2987 7865 19 103 157 75 182 163
internal_value=0.0282779 0.00681508 -0.00104967 0.0551882 0.0227362 0.0287952 0.0583719 0.0431171 0.0308283 0.0507748 0.0668764 -0.0229964 -0.0249006 0.0448925 0.0576851 0.0474546 0.0486284 0.0495902 -0.0104488 -0.0135687 0.00125466 -0.00131451 0.00371641 -0.028368 0.00234663 -0.0319403 -0.00115726 0.00369227 -0.0269924 -0.0280098 -0.0041865 0.0267171
internal_weight=11012.3 6429.26 5530.45 898.81 2653.35 2373.02 4583.09 1643.94 634.558 1009.38 2939.15 2877.1 2495.07 441.788 736.097 262.549 1354.98 1295.48 382.03 303.519 78.5107 192.77 137.445 280.325 1018.04 1639.5 276.338 741.706 83.1951 296.09 67.2589 59.4963
internal_count=35512 26568 24380 2188 9177 7614 8944 4123 1862 2261 4821 15203 13447 1080 1409 577 3277 3083 1756 1406 350 782 532 1563 4337 9419 1247 3090 409 1554 313 194
is_linear=0
shrinkage=0.03


Tree=9
num_leaves=27
num_cat=0
split_feature=6 8 11 11 10 11 8 11 10 8 7 7 16 16 16 7 7 13 8 7 7 13 13 13 13 13
split_gain=6986.05 2586.54 1758.39 1084.35 605.15 188.112 161.013 156.502 150.589 281.236 128.716 69.8645 50.4435 61.822 39.1038 15.6018 35.4853 13.2851 7.12533 5.12907 16.6327 3.30165 2.82862 27.5678 1.46974 0.101427
threshold=5.5000000000000009 3.4166666666666674 0.41666666666666669 1.0000000180025095e-35 45.616629366087373 0.58333333333333337 2.4166666666666674 0.41666666666666669 43.166342152331303 11.16666666666667 4.416666666666667 0.10555555555555557 35.500000000000007 1.5833333333333337 5.416666666666667 -0.069047619047619038 1.0625000000000002 0.21550865821994028 37.500000000000007 0.21825396825396828 0.6515151515151516 0.1796742584745763 0.32402716695429501 0.1833621683967705 0.41522988505747133 0.31437556154537288
decision_type=2 2 2 2 2 2 2 2 2 2 2 2 2 2 2 2 2 2 2 2 2 2 2 2 2 2
left_child=1 -1 3 8 5 7 -4 12 9 17 15 -5 13 -3 -7 -8 -17 -2 -14 -13 -21 -6 23 -10 -24 -25
right_child=2 4 6 11 21 14 10 -9 22 -11 -12 19 18 -15 -16 16 -18 -19 -20 20 -22 -23 24 25 -26 -27
leaf_value=0.069432591040472821 -0.01372664051053704 0.072172315964776662 0.074418402439749953 0.046932263534508682 0.038992369512085019 0.064048230811675932 0.062021790901337137 0.043077134412616437 -0.010329985147292749 -0.036918677947325965 -0.017784012266560251 0.03506207932793879 -0.0064401415088149675 0.014861460675261355 0.034107706726929671 0.050556960231838838 0.016834865489923433 -0.0086385791957880164 -0.034410155402519363 0.033648161700117772 0.017789068769179038 0.046782255738945074 0.0030682667071306059 -0.00049341763117419506 -0.0031527411708015016 -0.0024532127637280012
leaf_weight=2821.2978985607624 969.37625221908092 16.478840470314026 223.20541545748711 202.04519312083721 143.21686519682407 91.627702385187149 55.30195826292038 195.5151220113039 406.93899074196815 475.21184056997299 30.963724806904793 49.314743921160698 26.508146688342094 1648.4571709632874 87.760592177510262 98.995778277516365 45.238728851079941 999.11226271092892 14.403094992041586 94.240133449435234 224.20741121470928 1252.3434438705444 81.56182761490345 729.8185006827116 55.392769932746887 33.8633983284235
leaf_count=4255 4974 23 316 502 390 140 98 435 2003 2940 121 136 113 5687 199 206 136 4833 82 278 753 2946 339 3213 233 147
internal_value=0.0273368 0.0480836 -2.48025e-05 -0.00593484 0.0307337 0.020441 0.0560856 0.017627 -0.0117996 -0.0161986 0.0379585 0.0325756 0.0146689 0.0154897 0.0498373 0.0468037 0.0403754 -0.0111651 -0.0175891 0.0245009 0.0226669 0.0460328 -0.00354936 -0.00402872 0.000330035 -0.000622646
internal_weight=11072.4 6297.61 4774.79 4321.08 3476.31 2080.75 453.706 1901.36 3751.28 2443.7 230.5 569.807 1705.85 1664.94 179.388 199.536 144.235 1968.49 40.9112 367.762 318.448 1395.56 1307.58 1170.62 136.955 763.682
internal_count=35498 14270 21228 20351 10015 6679 877 6340 18682 12747 561 1669 5905 5710 339 440 342 9807 195 1167 1031 3336 5935 5363 572 3360
is_linear=0
shrinkage=0.03


Tree=10
num_leaves=30
num_cat=0
split_feature=8 15 10 11 11 6 10 7 11 11 6 6 6 6 10 11 10 7 11 7 13 4 13 11 13 11 13 7 4
split_gain=8561.55 3255.32 1398.61 449.163 1213.09 314.772 206.073 67.738 222.631 61.0653 60.1257 51.9554 65.2422 164.797 43.5015 33.4728 22.4153 15.3604 14.4168 10.4116 9.36916 5.93672 3.87515 2.76616 2.00443 1.48304 1.30891 0.71813 0.600633
threshold=4.8333333333333348 7.8333333333333348 41.993385201587252 0.41666666666666669 1.0000000180025095e-35 5.5000000000000009 44.579514462303301 2.4500000000000006 0.41666666666666669 1.0000000180025095e-35 8.5000000000000018 15.500000000000002 13.500000000000002 11.500000000000002 4.7491392863563799 0.58333333333333337 2.9719601443879751 6.7500000000000009 1.0000000180025095e-35 1.3666666666666669 0.22107416064598387 0.012009615384615388 0.22044030210509405 0.41666666666666669 0.25900974025974033 1.0000000180025095e-35 0.40205479452054799 1.7750000000000001 0.0081136236463579241
decision_type=2 2 2 2 2 2 2 2 2 2 2 2 2 2 2 2 2 2 2 2 2 2 2 2 2 2 2 2 2
left_child=7 2 3 4 21 6 9 8 -1 27 14 12 13 18 16 -10 -7 -9 -4 23 -8 28 -14 -11 -23 -15 -22 -3 -2
right_child=1 5 11 -5 -6 10 20 17 15 19 -12 -13 22 25 -16 -17 -18 -19 -20 -21 26 24 -24 -25 -26 -27 -28 -29 -30
leaf_value=0.05020371478087296 -0.015077083102660947 -0.028315094265921086 0.042669734252137964 0.054508373832761851 0.04211566362468798 -0.031329695520926876 0.0064948902986323026 0.043617485013132715 0.05573020033984475 0 -0.030919683133637837 -0.024296404781158371 -0.007438489165650322 -0.005037494704346568 -0.0090215973053097212 0.065810512687952433 -0.012143442686018493 0.01536527100557147 0.063839684167093638 -0.024538593300125179 0.02027070316643299 -0.011567080779081133 0.011944112668252734 0.012122243976951818 -0.00550581031386494 0.013521892885542197 0.0067830547462797673 -0.012221730514377978 -0.011355951157073222
leaf_weight=1818.4939411729574 993.89822442829609 215.63888585567474 1722.2896132022142 147.33561329543591 466.91161015629768 227.83573786914349 79.46707858145237 205.71568857133389 452.1884241849184 73.638550221920013 1426.513937741518 9.9697312414646131 21.230509728193283 66.148847863078117 236.34698089957237 2163.4454547464848 82.117592751979828 24.191025331616402 38.786722227931023 13.006051689386366 185.37568385899067 170.2286092042923 14.82483686506748 22.325616866350174 107.99791404604912 2.3941031396388999 15.190698206424711 11.495656564831732 132.94767141342163
leaf_count=4061 4864 1135 4410 278 1124 1313 285 463 813 267 8417 55 105 306 1087 3128 396 72 65 59 575 836 60 67 492 7 51 57 647
internal_value=0.0265764 0.00427148 0.0216036 0.00425672 0.000258627 -0.0217907 -0.00301155 0.0575705 0.0584211 -0.0188634 -0.0276359 0.0402511 0.040625 0.0414122 -0.0189657 0.0641013 -0.0263985 0.0408541 0.043189 -0.000109898 0.0159071 -0.0136494 0 0.00311046 -0.00934989 -0.00377274 0.0194367 -0.0276892 -0.0146751
internal_weight=11148 6483.92 3894.96 2019.32 1871.98 2588.95 616.138 4664.03 4434.13 336.105 1972.81 1875.64 1865.67 1829.62 546.3 2615.63 309.953 229.907 1761.08 108.97 280.033 1405.07 36.0553 95.9642 278.227 68.543 200.566 227.135 1126.85
internal_count=35495 26958 13249 8241 7963 13709 2496 8537 8002 1585 11213 5008 4953 4788 2796 3941 1709 535 4475 393 911 6839 165 334 1328 313 626 1192 5511
is_linear=0
shrinkage=0.03


Tree=11
num_leaves=30
num_cat=0
split_feature=15 8 11 11 6 10 11 6 6 11 9 9 4 4 9 6 6 6 4 4 4 6 11 6 9 6 13 13 13
split_gain=6151.92 2803.95 932.325 678.538 626.796 623.667 585.623 334.577 135.61 127.699 74.1767 19.3086 18.6141 21.6728 18.3986 12.7246 38.8858 122.636 12.6275 11.8385 6.93253 9.41177 6.08324 2.95914 2.76998 1.41344 1.41189 0.331301 0.185061
threshold=6.416666666666667 7.166666666666667 0.58333333333333337 0.58333333333333337 3.5000000000000004 5.3332926424530411 1.0000000180025095e-35 3.5000000000000004 12.500000000000002 1.0000000180025095e-35 7.8333333333333348 2.8333333333333335 -0.0079286500078579267 0.0038986502918287942 4.416666666666667 15.500000000000002 12.500000000000002 8.5000000000000018 0.017130699534133015 -0.0040941701029199766 0.0074766616356420155 9.5000000000000018 0.41666666666666669 13.500000000000002 6.5833333333333348 1.5000000000000002 0.2309625048318516 0.26276497695852535 0.1981121574389457
decision_type=2 2 2 2 2 2 2 2 2 2 2 2 2 2 2 2 2 2 2 2 2 2 2 2 2 2 2 2 2
left_child=2 3 4 9 12 -3 15 10 18 11 22 25 -1 19 -13 16 17 -6 24 -14 -8 -22 -7 -11 -9 -2 -18 28 -17
right_child=1 5 -4 -5 6 7 20 8 -10 23 -12 14 13 -15 -16 27 26 -19 -20 -21 21 -23 -24 -25 -26 -27 -28 -29 -30
leaf_value=0.042650438010664551 0.028794148561412949 -0.033817888602558167 0.063656570599755352 0.055541284936847159 0.024852662586383346 -0.019314201565986719 0.052894669898601178 -0.01639607692509357 -0.031524308618513519 0.026489391612610994 0.02983285309910224 0.015927219535908019 0.044159760312658003 0.046527502272458748 0.0045367135253698114 -0.013670195801772813 -0.00066592236326021412 0.0057736951550250923 0.018174369800222419 0.056312951004240677 0.046494852161704944 0.021444658900801571 0.0036587007327778804 0.0078985912759399687 -0.0071488802419387683 0.016987072207859999 0.0059342087828241985 0 0
leaf_weight=277.16035957634449 33.213843837380409 1343.6804042458534 1798.3215677589178 546.41677764058113 1263.7220326960087 30.834654033184052 529.30090732872486 35.600378796458244 264.02864295244217 679.12307961285114 244.60040830075741 167.5770658403635 128.92839600145817 518.45785938203335 592.51714494824409 5.4343430548906309 68.785230621695518 405.58261647820473 15.898360192775725 992.14336201548576 201.99843038618565 22.189883068203926 12.04429844021797 13.524750560522078 863.66845671832561 58.653691500425339 42.598358914256096 4.6437800079584113 5.0272725820541382
leaf_count=630 93 8221 2557 916 4078 143 1051 171 1565 1883 674 574 281 1116 2578 30 327 1711 59 1883 427 64 39 50 3886 196 185 22 23
internal_value=0.0256891 0.000507389 0.045384 0.0268118 0.0380068 -0.0190562 0.0282158 -0.00549809 -0.0125905 0.0165998 0.0234326 0.00875313 0.0509922 0.0523572 0.00710501 0.0188572 0.0190951 0.0202413 -0.00706683 0.0549826 0.0504259 0.0442549 -0.0122413 0.0261815 -0.00756609 0.0218429 0.00162168 -0.00676785 -0.00950664
internal_weight=11165.7 4901.38 6264.29 2091.03 4465.97 2810.36 2549.28 1466.68 1179.2 1544.61 287.479 851.962 1916.69 1639.53 760.094 1795.79 1780.69 1669.3 915.167 1121.07 753.489 224.188 42.879 692.648 899.269 91.8675 111.384 15.1054 10.4616
internal_count=35433 21048 14385 6290 11828 14758 7918 6537 5681 5374 856 3441 3910 3280 3152 6376 6301 5789 4116 2164 1542 491 182 1933 4057 289 512 75 53
is_linear=0
shrinkage=0.03


Tree=12
num_leaves=34
num_cat=0
split_feature=8 15 10 10 6 10 11 11 15 6 11 6 6 11 13 12 12 6 13 13 4 13 15 15 13 12 8 12 4 12 14 13 11
split_gain=6978.32 3556.72 765.188 679.324 673 371.782 275.494 243.97 148.384 122.105 82.0414 54.8509 17.6203 45.8824 17.5387 7.28827 7.06757 6.98379 5.25365 4.33509 22.4155 4.323 3.83687 3.77543 3.68898 2.20503 1.71031 1.03734 3.21461 0.371959 0.154162 0.090409 0.0322214
threshold=5.416666666666667 5.166666666666667 6.4903703492039311 2.8479344402135331 8.5000000000000018 7.0553192529232183 1.0000000180025095e-35 0.58333333333333337 3.8333333333333335 2.5000000000000004 0.41666666666666669 10.500000000000002 4.5000000000000009 0.41666666666666669 0.18285992007776219 0.3899765316205534 0.29588260696252994 15.500000000000002 0.42656862745098045 0.2534404393662017 0.0089485906470211426 0.1759026614554253 3.4166666666666674 3.1666666666666674 0.17182539682539685 0.18358931201346521 42.833333333333336 0.18770088863679338 0.011695950875486383 0.32992950445780639 0.24415479559946343 0.30866708385481861 0.41666666666666669
decision_type=2 2 2 2 2 2 2 2 2 2 2 2 2 2 2 2 2 2 2 2 2 2 2 2 2 2 2 2 2 2 2 2 2
left_child=6 5 3 -3 9 10 -1 8 23 24 14 32 15 17 27 16 -5 -14 26 25 -21 -7 -9 -8 -4 -16 -11 28 -2 -29 -20 -17 -6
right_child=1 2 4 12 11 21 7 22 -10 18 -12 -13 13 -15 19 31 -18 -19 30 20 -22 -23 -24 -25 -26 -27 -28 29 -30 -31 -32 -33 -34
leaf_value=0.037383783002875225 0.014703966072464535 -0.034489067950045027 0.018088302145687848 0.012463550181898988 -0.0085505548283469138 0.042192093166617824 0.061962785777762423 0.062834234340172893 0.039257943692450267 0.019195072551564728 0.061914949616520658 -0.02647786329056976 -0.0050581489851026029 0.025181532390592443 0.023738695120821829 -0.0092819989110132072 -0.0018183896945782282 -0.020273823284423977 0 0.017252816822529958 0.03738400747044196 0.053095835576333329 0.058371258851637221 0.052256465474756895 0.033907079534512455 0.01334237928957872 0.01096468695394673 0.0012413705473745523 -0.0054642701132566387 0.0083804508708399603 0.0033101713853133088 -0.00025020705643851707 0
leaf_weight=1255.4542725086212 31.419214814901352 1558.3069278001785 26.771600753068924 124.25409132242203 236.50215883553028 88.972457900643349 335.26817119121552 810.50457879900932 1242.3368593901396 35.300443187355995 41.575523182749748 460.2606840133667 622.94843293726444 44.754325702786446 37.849568009376526 16.838096767663959 36.590262413024902 29.186498641967773 35.206384867429733 178.02512882649899 77.60351887345314 916.19835942983627 1561.3260815888643 163.22287066280842 288.7864433825016 122.99084047973156 778.9156222641468 51.234192460775375 6.0661230087280265 11.55283087491989 12.614432752132414 9.113817170262335 2.3898767977952948
leaf_count=3414 120 9469 86 433 1145 222 519 1103 2770 120 63 2627 3009 125 134 69 137 173 128 600 218 1825 2358 292 738 444 2777 206 27 42 44 36 10
internal_value=0.0250988 0.0025207 -0.0115108 -0.022579 0.00287929 0.0412809 0.0498285 0.0536102 0.0449463 0.016731 0.0215047 -0.0203991 -0.00152733 -0.00374824 0.0180822 0.00657443 0.00903805 -0.00581506 0.0108117 0.020825 0.023603 0.0522034 0.0599348 0.0589557 0.0327212 0.0161058 0.0113814 0.00630103 0.0106035 0.00313607 0.000462228 -0.00735027 -0.00850075
internal_weight=11250.3 5882.23 4318.74 2441.99 1876.75 1563.49 5368.11 4112.66 1740.83 1177.59 558.317 699.153 883.686 696.889 516.741 186.796 160.844 652.135 862.037 416.469 255.629 1005.17 2371.83 498.491 315.558 160.84 814.216 100.272 37.4853 62.787 47.8208 25.9519 238.892
internal_count=35483 25027 21126 13451 7675 3901 10456 7042 3581 3893 1854 3782 3982 3307 1791 675 570 3182 3069 1396 818 2047 3461 811 824 578 2897 395 147 248 172 105 1155
is_linear=0
shrinkage=0.03


Tree=13
num_leaves=34
num_cat=0
split_feature=16 8 10 15 6 6 6 9 15 8 8 7 7 6 6 9 9 8 7 7 2 7 6 2 12 7 7 5 9 10 6 7 9
split_gain=4980.42 3336.73 1275.67 952.286 494.503 237.864 94.309 50.7353 563.179 43.4498 42.9819 35.1293 25.6373 24.3278 32.6614 20.488 36.0836 20.3531 17.0078 21.9138 14.5818 12.8594 12.7887 12.2613 11.0881 4.81905 9.52669 4.22603 4.1239 3.95356 2.47753 1.54786 1.16663
threshold=8.5833333333333339 4.5833333333333348 5.2173941556879457 4.416666666666667 2.5000000000000004 10.500000000000002 13.500000000000002 14.16666666666667 6.416666666666667 3.4166666666666674 12.583333333333334 -0.54195804195804176 0.47727272727272735 10.500000000000002 5.5000000000000009 8.4166666666666696 11.41666666666667 13.833333333333334 -0.90454545454545443 0.34848484848484856 441.50000000000006 -0.087121212121212113 3.5000000000000004 476.50000000000006 0.16817480928420714 2.3666666666666671 0.13809523809523813 577.50000000000011 6.5833333333333348 48.750000000000007 1.5000000000000002 -0.53589743589743577 16.416666666666668
decision_type=2 2 2 2 2 2 2 2 2 2 2 2 2 2 2 2 2 2 2 2 2 2 2 2 2 2 2 2 2 2 2 2 2
left_child=1 12 7 13 30 15 10 8 11 -7 31 20 -1 14 22 18 -17 -8 -5 21 -3 -20 -2 -13 -12 26 -10 -11 -21 -19 -4 -6 -15
right_child=3 2 4 5 6 9 17 -9 25 27 24 23 -14 32 -16 16 -18 29 19 28 -22 -23 -24 -25 -26 -27 -28 -29 -30 -31 -32 -33 -34
leaf_value=0.055486633297984048 0.049379566695530695 0 0.059104479651967572 -0.03421923705239973 0.057599091187442115 0.046033806763346792 0.028950969349754885 -0.028723689539232426 -0.0095347570944905122 -0.035064058770166079 0.018559092024277739 0.011483395444447908 0.049368321070369314 0.0080319060313443335 0.018686107321497804 -0.028372742307558551 -0.012064735475579728 0.014252446302742305 -0.0014072194221421933 -0.013465416474984671 0.032710624971914952 -0.011244347821217046 0.029946526538904301 0.018529498169978807 0.025739916681543736 -0.022106193286825223 -0.015445908723342758 -0.026913037603297493 -0.024186255019000565 -0.015463641024451719 0.051627312288307296 0.039121033573855428 -0.0057518374974778533
leaf_weight=3119.4650502502918 160.58379888534546 15.265951648354529 340.06064765155315 24.268418058753014 18.15385976433754 5.0318199992179862 10.454482540488241 47.788426592946053 662.10289806127548 668.10748618841171 295.54689870774746 522.48749195039272 1040.1596590876579 13.183543279767038 63.107057318091393 179.45323553681374 427.83442367613316 2.4772712737321845 336.15780539810658 211.29884800314903 152.84722410142422 192.58956095576286 57.138906717300415 458.00307972729206 1088.3973582088947 52.543125435709953 454.48360452055931 123.56422832608223 52.350303843617439 65.614064201712608 284.32950311899185 121.86955650150776 5.9651630371808997
leaf_count=5129 293 54 568 130 35 10 33 297 3207 4263 1098 1899 1947 49 201 1064 1877 9 1376 937 409 873 148 1525 3305 270 2384 752 295 360 540 326 25
internal_value=0.0238104 0.0345119 0.0168676 -0.0133339 0.0331589 -0.0201224 0.0242753 0.00151071 0.00215916 -0.0332659 0.0259315 0.0170824 0.0539761 0.0367195 0.0389523 -0.0127293 -0.0169718 -0.00740351 -0.00952095 -0.00868453 0.0299298 -0.00506136 0.044577 0.0148208 0.0242426 -0.0124785 -0.0119793 -0.0338653 -0.0157909 -0.0137577 0.0558356 0.0421209 0.00217674
internal_weight=11272.7 8752.05 4592.43 2520.63 2226.9 2220.66 1602.51 2365.52 2317.73 796.704 1523.97 1148.6 4159.62 299.978 280.83 1423.95 607.288 78.5458 816.665 792.397 168.113 528.747 217.723 980.491 1383.94 1169.13 1116.59 791.672 263.649 68.0913 624.39 140.023 19.1487
internal_count=35688 23395 16319 12293 6274 11577 5166 10045 9748 5025 4764 3887 7076 716 642 6552 2941 402 3611 3481 463 2249 441 3424 4403 5861 5591 5015 1232 369 1108 361 74
is_linear=0
shrinkage=0.03


Tree=14
num_leaves=38
num_cat=0
split_feature=15 11 11 16 6 6 11 10 10 7 11 7 16 16 7 12 10 7 10 13 16 7 6 7 12 13 10 2 6 7 10 6 10 7 12 7 12
split_gain=5326.79 1786.61 960.152 848.586 358.374 315.399 295.55 212.003 97.923 78.7151 31.7306 76.1777 129.954 44.4143 28.0454 26.4712 22.6955 17.5696 16.2534 13.7986 12.819 11.1108 9.02293 8.62509 7.09682 6.91324 5.95705 5.44441 24.8105 5.26403 3.82933 3.4517 3.09975 2.86286 2.20748 1.81874 0.199326
threshold=6.8333333333333348 1.0000000180025095e-35 0.58333333333333337 5.8333333333333348 10.500000000000002 6.5000000000000009 0.58333333333333337 3.2829089846240636 42.979321619633168 0.19090909090909094 0.41666666666666669 0.069047619047619066 7.8333333333333348 4.166666666666667 0.24038461538461542 0.2101223335377905 4.2815672430289302 1.3666666666666669 7.2876732428628985 0.14471906316856212 35.166666666666679 -0.074175824175824162 12.500000000000002 -0.060661764705882346 0.17485711985832733 0.26729534456642678 0.97140452079103179 508.50000000000006 2.5000000000000004 -0.45804195804195796 44.146215871531609 13.500000000000002 5.3332926424530411 -0.21825396825396823 0.30440321240653562 -0.61324786324786318 0.32717312238588842
decision_type=2 2 2 2 2 2 2 2 2 2 2 2 2 2 2 2 2 2 2 2 2 2 2 2 2 2 2 2 2 2 2 2 2 2 2 2 2
left_child=2 3 4 8 9 16 10 -8 27 19 11 13 17 -3 29 -6 35 -13 -16 -1 -15 -12 26 32 -10 -21 -7 28 -2 -9 -25 -30 -18 -31 -29 -5 -17
right_child=1 6 -4 5 15 22 7 14 24 -11 21 12 -14 20 18 36 23 -19 -20 25 -22 -23 -24 30 -26 -27 -28 34 31 33 -32 -33 -34 -35 -36 -37 -38
leaf_value=0.029224212322801955 0.026083699884024581 0.048103575732535916 0.05753476443362715 -0.0049202953935160451 0.011722000679792522 -0.031329980968452124 0.055742394716459004 0.027702834734648248 0.019720311892148842 0.027165108502019527 0.037080308716112627 0.024882616574917412 -0.025473988900918405 0.018980837893955257 -0.030956673302644584 -0.0028513833108682533 -0.00046456947533128016 0.0019746934981278936 0.035432398534811227 0.035872271119514819 -0.015836787569125502 0.020527658439406897 -0.032558653615559235 -0.014464846528940895 0.031988796039586785 0.039306022689067015 -0.025627786524038566 0.018327294339053831 0.0021908118914643381 0.019107287135476197 0.0014272389124880375 -0.0099963819319777245 -0.024722968406052464 -0.0046309909361445696 0 -0.011856238790027 -0.0069330374322095984
leaf_weight=238.11814911663532 40.47908216714859 53.815425708889961 1965.8459399938583 57.477368667721748 245.30965328216553 337.82372631132603 396.08490608632565 15.862087100744246 82.028050273656845 935.65560705959797 78.656552225351334 107.94470104575157 99.717471435666084 254.17617055773735 27.906559959053997 128.90766134858131 10.24640727043152 45.994955018162727 2.5022146552801123 1597.3361640870571 8.2199817746877653 104.59894432127476 610.56981718540192 13.061355516314505 205.91386912763119 1769.1841637194157 802.68125993013382 38.791114181280136 293.90022890269756 5.4808981716632834 322.89784273505211 20.916980236768723 16.188345357775688 11.830273762345316 8.2517851144075376 349.39812684059143 30.106127202510834
leaf_count=702 115 105 2774 257 1011 2146 593 34 293 2629 171 310 474 745 109 576 50 165 5 4071 35 291 4014 69 600 4046 4617 153 1285 12 1176 117 86 36 34 1682 135
internal_value=0.0233215 -0.00237858 0.0397746 -0.0141027 0.0326973 -0.0221775 0.0286201 0.0475946 0.015326 0.0351083 0.0169516 0.0133169 0.00093441 0.023121 -0.00277501 0.00552933 -0.0061062 0.0182886 -0.0235845 0.0371537 0.0177202 0.0279579 -0.0292133 -0.00055391 0.028678 0.0376968 -0.0273691 0.00564854 0.00423498 0.0155544 0.000679264 0.00125699 -0.0167733 0.00187948 0.0153898 -0.0109644 -0.00385015
internal_weight=11333.9 4423.42 6910.46 3210.63 4944.62 2520.34 1212.79 459.667 690.281 4540.29 753.124 569.869 253.657 316.212 63.582 404.323 769.269 153.94 30.4088 3604.64 262.396 183.255 1751.07 362.394 287.942 3366.52 1140.5 402.339 355.296 33.1733 335.959 314.817 26.4348 17.3112 47.0429 406.875 159.014
internal_count=35723 19779 15944 16694 13170 14097 3085 789 2597 11448 2296 1834 949 885 196 1722 3320 475 114 8819 780 462 10777 1381 893 8117 6763 1704 1517 82 1245 1402 136 48 187 1939 711
is_linear=0
shrinkage=0.03


Tree=15
num_leaves=28
num_cat=0
split_feature=9 8 10 8 6 6 10 10 7 7 7 12 16 6 13 12 8 7 8 7 7 7 7 7 7 13 13
split_gain=1165.26 4816.87 915.324 697.978 519.814 835.339 163.535 820.918 136.177 62.4143 47.5284 28.5359 174.176 25.2487 21.9218 15.5425 15.4601 18.9994 14.9239 8.97901 7.27919 5.72408 4.64433 2.27498 2.01883 1.50892 3.22761
threshold=9.8333333333333339 5.416666666666667 6.5743120962686392 6.166666666666667 1.5000000000000002 10.500000000000002 44.557078869326254 1.4571067811865477 -0.13809523809523808 0.78888888888888908 -0.54195804195804176 0.37958435833047788 8.5833333333333339 8.5000000000000018 0.32021126760563384 0.54281697341513302 13.833333333333334 -0.41421568627450972 33.833333333333336 -0.59411764705882342 0.39230769230769241 0.6515151515151516 4.166666666666667 0.34848484848484856 -0.46410256410256406 0.32249915998655981 0.20083540888335411
decision_type=2 2 2 2 2 2 2 2 2 2 2 2 2 2 2 2 2 2 2 2 2 2 2 2 2 2 2
left_child=1 9 3 23 -4 14 7 -3 11 19 -8 12 -9 -11 -6 -13 17 -5 -7 -1 24 -19 -10 -2 -21 26 -20
right_child=2 6 4 16 5 18 10 8 22 13 -12 15 -14 -15 -16 -17 -18 21 25 20 -22 -23 -24 -25 -26 -27 -28
leaf_value=0.050027939156167572 0.033761886875026875 -0.038259002261884639 0.050908851620146231 -0.0026299059174262045 0.020607877294465567 0.026916228950611774 -0.010839098332290383 0.021932267170946245 -0.004271344385780456 0.040057406228783891 0.047537801837422775 0.030538196096758632 -0.019447203903008293 0.024855602009946423 0.028730859585268637 -0.0061904849416612772 -0.035545514430138342 -0.023092889373269841 -0.025996734736708445 0.049268516188628063 0.040487137547428199 -0.032417702379582962 -0.016269688919399065 0.023764952755308499 0.045608010029660459 -0.013454554952692906 -0.019354815936834649
leaf_weight=946.06646265089512 185.80218951404095 631.7680437117815 390.43795709311962 41.693563669919968 1506.986959785223 4.2348238825798026 14.499721974134443 330.11275446414948 836.61510241031647 890.88260358572006 58.508003935217857 109.02631829679012 124.95741306245327 130.40050059556961 416.47338016331196 9.6471102237701398 120.97447580099106 661.31257720291615 236.00209873914719 646.13034501671791 360.01945295929909 93.629250466823578 31.370002776384354 65.481435686349869 2285.3993762433529 36.655233666300774 201.22370657324791
leaf_count=1603 532 3799 700 195 4761 12 59 1084 3817 1817 129 301 616 364 1106 35 864 4050 1414 1115 778 616 151 207 4354 186 1112
internal_value=0.0226323 0.0296587 0.00948378 -0.012782 0.0188175 0.0135687 -0.00819834 -0.00976952 0.00271169 0.045115 0.0355487 0.0140526 0.0104864 0.038172 0.0223963 0.027275 -0.0249293 -0.023237 -0.0218549 0.0467718 0.0458119 -0.0243304 -0.00475773 0.0313802 0.0464416 -0.0224096 -0.0230595
internal_weight=11366.3 7405.4 3960.91 1168.89 2792.01 2401.58 2146.5 2073.5 1441.73 5258.9 73.0077 573.744 455.07 1021.28 1923.46 118.673 917.61 796.635 478.116 4237.62 3291.55 754.942 867.985 251.284 2931.53 473.881 437.226
internal_count=35777 20022 15755 6464 9291 8591 9991 9803 6004 10031 188 2036 1700 2181 5867 336 5725 4861 2724 7850 6247 4666 3968 739 5469 2712 2526
is_linear=0
shrinkage=0.03


Tree=16
num_leaves=24
num_cat=0
split_feature=11 16 6 6 6 8 10 9 8 10 8 10 6 8 6 9 12 8 6 6 6 10 10
split_gain=3224.49 3345.36 1001.94 664.038 273.919 1139.11 424.104 91.0887 131.705 43.0182 57.7477 25.7885 22.8519 19.5578 14.8182 13.313 13.2172 8.16422 7.89634 7.05305 2.33391 1.20474 0.046045
threshold=0.58333333333333337 4.8333333333333348 2.5000000000000004 11.500000000000002 3.5000000000000004 5.166666666666667 4.0960461199756422 15.41666666666667 10.16666666666667 6.6248212027472233 2.5833333333333335 5.6073157915017022 2.5000000000000004 9.5833333333333339 2.5000000000000004 13.41666666666667 0.37654474923801612 9.1666666666666696 8.5000000000000018 15.500000000000002 5.5000000000000009 6.2092539874768535 41.507863302587026
decision_type=2 2 2 2 2 2 2 2 2 2 2 2 2 2 2 2 2 2 2 2 2 2 2
left_child=1 9 7 4 15 16 -7 8 13 10 -1 -2 -11 17 -12 22 -6 -3 -16 21 -14 -5 -4
right_child=11 2 3 19 5 6 -8 -9 -10 12 14 -13 20 -15 18 -17 -18 -19 -20 -21 -22 -23 -24
leaf_value=0.059869640449472239 0.053221308844944387 0.025571017818073038 0.017528341673236261 -0.02149730559010583 0.029133057945832042 -0.022396282853833056 0.00099146602140178842 0.039639360532709167 -0.029743631073051599 0.05646004949471 0.044284170322058287 0.028723456802214078 0.047888171581263489 -0.027605577430239635 0.038077801086748166 0.028320224277763976 0.016106498557730158 -0.010439757382061009 0.03029102015243227 -0.030426098113283031 0.040458515202547611 -0.025363196595524731 0.030720508212545072
leaf_weight=134.83766831457615 2353.0899206697941 659.14347928762436 399.4310288131237 619.31648242473602 841.21184651553631 1355.318607211113 1432.2871896475554 406.0291214287281 41.038153514266014 309.45985795557499 394.49910140037537 48.602557718753815 282.58947193622589 5.0329097509384146 902.69740131497383 182.58008597791195 92.952509939670563 4.027240738272666 216.80599524080753 169.4328141361475 216.05483938753605 291.15660037100315 7.3998886048793784
leaf_count=188 3412 1664 1179 3778 2194 7574 5711 862 222 478 749 110 546 29 2120 463 257 18 700 1139 587 1747 19
internal_value=0.0218822 0.0136029 0.00233347 -0.00301753 0.00224712 -0.000756423 -0.0103727 0.028206 0.0215717 0.0434209 0.0404556 0.0527502 0.0493767 0.0248079 0.0386684 0.0212326 0.0278876 0.0252918 0.0366249 -0.0240454 0.0448165 -0.0227929 0.0179166
internal_weight=11365 8963.3 6506.36 5391.09 4311.18 3721.77 2787.61 1115.27 709.242 2456.94 1648.84 2401.69 808.104 668.204 1514 589.411 934.164 663.171 1119.5 1079.91 498.644 910.473 406.831
internal_count=35746 32224 26856 24061 17397 15736 13285 2795 1933 5368 3757 3522 1611 1711 3569 1661 2451 1682 2820 6664 1133 5525 1198
is_linear=0
shrinkage=0.03


Tree=17
num_leaves=37
num_cat=0
split_feature=11 16 15 10 11 16 15 15 16 10 10 9 15 16 9 9 9 9 9 13 15 0 15 16 16 12 5 9 12 13 5 4 13 0 13 10
split_gain=4302.62 2528.32 541.141 537.592 371.591 439.214 202.228 150.548 66.1005 60.7319 53.888 72.4779 40.3142 35.4522 27.9157 77.1225 26.971 24.0475 22.898 9.4583 8.31463 7.26357 5.39474 4.52555 46.063 3.77266 3.30617 3.17481 2.63792 8.14701 2.60938 2.04464 3.34721 0.648283 0.21326 0.119307
threshold=1.0000000180025095e-35 7.166666666666667 3.8333333333333335 42.01322334996599 0.41666666666666669 7.8333333333333348 9.5833333333333339 6.166666666666667 4.5833333333333348 6.6666458331705725 45.028385500204521 4.416666666666667 9.8333333333333339 35.166666666666679 13.41666666666667 9.1666666666666696 15.833333333333334 9.8333333333333339 3.1666666666666674 0.30770370370370376 68.166666666666671 2.5000000000000004 5.5833333333333348 68.500000000000014 8.1666666666666696 0.30450202663578468 535.00000000000011 11.41666666666667 0.17761887827677306 0.28809589965466603 525.00000000000011 0.020502311895754521 0.21615895556573525 3.5000000000000004 0.071367521367521378 5.8972611465541744
decision_type=2 2 2 2 2 2 2 2 2 2 2 2 2 2 2 2 2 2 2 2 2 2 2 2 2 2 2 2 2 2 2 2 2 2 2 2
left_child=1 3 9 14 5 12 10 22 -6 -3 11 35 -2 -8 15 18 -15 -13 -1 -20 -14 -5 -7 24 -12 -25 30 -23 34 -30 -16 32 -28 -29 -17 -4
right_child=4 2 6 21 8 7 13 -9 -10 -11 23 17 20 16 26 28 -18 -19 19 -21 -22 27 -24 25 -26 -27 31 33 29 -31 -32 -33 -34 -35 -36 -37
leaf_value=0.021822226185957312 0.040551629602971491 0.014434046692254022 -0.0015768403617389128 0.038059450968727503 0.05423823122710339 0.030676228652173079 -0.032121751978363644 -0.012701197697687157 0.044959948944473728 0.048450141210837405 0.0045236321767306254 -0.01666850480660631 0.014080285759608381 -0.028655638888955049 -0.0082005015760881744 -0.0012312334736621555 0.0021413878959199769 -0.027128000135171641 0.014275745974874986 0.0071640553023515552 0.049911065432022873 0.015342037426981588 0.014713808348396985 0 -0.012030839339536813 0.026549095647614967 -0.0035580252065302285 0.034887715862461234 -0.0075034190366659627 0.0063314787502587091 0.018442633297039907 0.0023374835316606938 -0.023094646371174848 0.031027655872358981 0.0022174180045273833 0.00059382918178117392
leaf_weight=352.02573549747467 1316.4564627557993 94.246956750750542 218.50728839635849 619.27490565180779 1321.137148976326 102.22349108755589 832.34501449763775 226.97167052328587 1748.4511988759041 103.47315640747547 221.33746123313904 561.99056611955166 75.500401198863983 46.683968037366867 4.3751371651887876 5.7199247479438773 51.416554719209671 341.7765641361475 899.88835206627846 234.61553041636944 6.5743137001991263 17.763045608997345 37.549317926168442 11.072039693593981 459.88579457998276 5.4798674136400214 19.153962314128876 568.44878062605858 127.19995266199112 51.608395233750343 5.3490308374166489 3.5183822661638251 21.876705855131149 435.80889381468296 154.41020424664021 3.6474809199571601
leaf_count=973 2667 296 874 1460 1857 231 5404 930 2949 195 817 2978 235 289 26 30 222 2196 3257 879 12 62 105 44 2052 15 104 1446 629 230 22 16 132 1175 759 15
internal_value=0.021237 0.0052365 -0.0152321 0.0224043 0.0426468 0.0315967 -0.0186831 0.0022793 0.0489794 0.0325409 -0.0128361 -0.0169102 0.0392561 -0.0300851 0.0114177 0.0120561 -0.0123528 -0.0206827 0.0149998 0.0128391 0.0178778 0.0349542 0.0267361 -0.00620464 -0.00660938 0.00817138 -0.0093438 0.0330079 -0.000772238 -0.00333049 0.00401094 -0.0129416 -0.01499 0.033275 0.00190117 -0.00140426
internal_weight=11307.8 6472.9 2951.86 3521.04 4834.86 1765.28 2754.14 366.744 3069.59 197.72 1823.7 1125.92 1398.53 930.446 1879.74 1825.47 98.1005 903.767 1486.53 1134.5 82.0747 1641.3 139.773 697.775 681.223 16.5519 54.2732 1022.02 338.938 178.808 9.72417 44.5491 41.0307 1004.26 160.13 222.155
internal_count=35583 26597 15397 11200 8986 4180 14906 1266 4806 491 8991 6063 2914 5915 7057 6757 511 5174 5109 4136 247 4143 336 2928 2869 59 300 2683 1648 859 48 252 236 2621 789 889
is_linear=0
shrinkage=0.03


Tree=18
num_leaves=47
num_cat=0
split_feature=8 10 16 11 8 15 15 11 11 7 15 7 15 15 12 12 15 15 7 7 15 11 11 13 11 11 7 7 15 15 15 7 15 7 4 7 13 12 7 13 13 11 12 13 13 12
split_gain=3996.07 1933.44 1152.1 735.22 231.796 224.869 187.153 75.0761 314.934 73.276 59.1006 36.2523 31.4677 86.5868 31.12 34.2496 29.9012 24.3625 36.9109 21.9811 17.7898 15.9176 14.5574 11.9099 15.1677 92.0494 8.36543 9.9812 8.32843 20.57 7.48554 7.40971 7.32521 6.17268 5.19547 4.21943 3.53004 8.26484 3.48668 3.33551 1.02864 0.998198 0.852036 0.492448 1.50389 0.141547
threshold=6.5833333333333348 43.143171807818753 5.166666666666667 1.0000000180025095e-35 7.5833333333333348 7.8333333333333348 11.41666666666667 0.41666666666666669 1.0000000180025095e-35 0.26136363636363641 8.1666666666666696 4.5833333333333348 35.833333333333336 69.166666666666686 0.14342142527090881 0.19081753451367492 2.1666666666666674 16.166666666666668 1.4642857142857146 1.4642857142857146 34.500000000000007 1.0000000180025095e-35 0.41666666666666669 0.22974949586753388 0.41666666666666669 1.0000000180025095e-35 -0.53589743589743577 -0.17914438502673793 2.8333333333333335 7.5833333333333348 13.41666666666667 -0.095454545454545445 34.166666666666679 -0.16025641025641021 0.0046620299934796794 -0.069047619047619038 0.079520621193099925 0.10673348106365836 0.52272727272727282 0.21064432381401937 0.26642262628421803 1.0000000180025095e-35 0.11922530206112296 0.33225219731696037 0.30052221701307502 0.14342142527090881
decision_type=2 2 2 2 2 2 2 2 2 2 2 2 2 2 2 2 2 2 2 2 2 2 2 2 2 2 2 2 2 2 2 2 2 2 2 2 2 2 2 2 2 2 2 2 2 2
left_child=3 4 16 10 23 11 14 8 34 32 36 26 20 -14 43 21 -3 18 -11 31 -8 -16 -17 39 25 -25 -5 -28 -18 -30 -31 -10 -7 -9 -6 -12 -1 -38 -37 42 -15 -41 -2 44 -4 -44
right_child=1 2 6 5 7 9 12 33 19 17 35 -13 13 40 15 22 28 -19 -20 -21 -22 -23 -24 24 -26 -27 27 -29 29 30 -32 -33 -34 -35 -36 38 37 -39 -40 41 -42 -43 45 -45 -46 -47
leaf_value=0.0079482265892918125 -0.0032193536293450313 0.060804436892553645 -0.0042338470916658622 0.049669173167222344 -0.032363486376522539 0.031796052672200412 -0.034027446311600248 0.042260809976255767 0.028625548288111941 0.019766349226432615 0.011688787662707933 0.021092254793083094 -0.029206523083895038 0.021330840324840273 -0.0010875335079664466 0.010618892520310832 0.054382404195132177 0.039562456702780205 -0.0058388197264949131 -0.017774978563712934 0.0077337685436552703 0.044994841463374603 0.051035672493240314 -0.013582515160620524 0.024678476954081506 0.022960260652215334 0.048276308741174501 0.043679414061267713 0.043665439321718041 0.026785620887004449 0.048019109638819307 0.012323689779864531 0.045718351049335276 0.0053694796493371656 -0.027670811070218081 0.00015063213762190895 0.0075254567191819092 0.02318592454597726 0.0094620417362770957 -0.0028920096808965983 0.045285411424956179 0.0079588820788318321 -0.0046508035244374329 0.0020888484866467246 0.005319230103196692 -0.011225152069570218
leaf_weight=22.237975209951401 29.656873390078545 100.7442179620266 208.80986589193344 769.52569244801998 986.88099998235703 360.20665445923805 128.68459963798523 11.849772334098818 59.740789249539375 114.65212160348892 153.56669338047504 59.824580028653145 53.683007404208183 13.622358649969103 315.64672942459583 1161.0384401082993 70.14647151529789 25.95371125638485 87.053850367665291 13.42072609066963 8.2858373671770078 5.8911423385143271 7.5577916502952567 184.84443531930447 20.772954329848289 91.992476105690002 952.09069369733334 2041.043636277318 597.8218949586153 137.90407967567444 23.709932759404182 63.483872205018997 57.543913334608078 9.5564639866352064 515.53105299174786 92.748756915330887 38.082021847367287 1395.0279381871223 66.573838844895363 26.326075434684753 13.415900081396101 9.5745232403278333 21.973039075732231 7.4241309911012641 12.411649659276007 159.61831840872765
leaf_count=81 162 137 1004 1174 6459 774 803 23 160 306 565 141 283 50 1365 3893 109 55 303 65 31 11 10 949 52 264 1501 3524 1202 397 50 224 101 31 3288 403 139 4090 272 135 35 33 114 30 49 813
internal_value=0.0203822 0.000600715 0.0168491 0.0364636 -0.0205067 0.0429504 0.00364355 -0.0260778 -0.0268204 0.0263915 0.020041 0.0457309 -0.0224672 -0.00700385 0.00697918 0.0085653 0.0442708 0.0124125 0.00859318 0.0165432 -0.031246 -1.33258e-05 0.0109493 -0.00345418 0.000496367 -0.0012925 0.0461089 0.0451673 0.0421561 0.0409173 0.0303614 0.0206353 0.03389 0.0281049 -0.0307927 0.00802896 0.0225956 0.0227962 0.00426333 -0.00831505 0.0354779 0 -0.00974568 -0.0032196 -0.00354135 -0.0106238
internal_weight=11308.2 5072.02 2866.8 6236.13 2205.22 4467.89 1936.47 1660.46 1639.06 645.41 1768.24 3822.48 217.692 80.7213 1718.78 1490.13 930.327 227.66 201.706 136.645 136.97 321.538 1168.6 544.759 297.61 276.837 3762.66 2993.13 829.582 759.436 161.614 123.225 417.751 21.4062 1502.41 312.889 1455.35 1433.11 159.323 247.149 27.0383 35.9006 211.248 228.646 221.222 181.591
internal_count=35660 22231 9459 13429 12772 7879 7564 10250 10196 1539 5550 6340 1202 368 6362 5279 1895 664 609 449 834 1376 3903 2522 1265 1213 6199 5025 1758 1649 447 384 875 54 9747 1240 4310 4229 675 1257 85 168 1089 1083 1053 927
is_linear=0
shrinkage=0.03


Tree=19
num_leaves=36
num_cat=0
split_feature=6 11 16 11 15 16 9 8 8 9 9 7 8 16 16 7 16 16 16 13 13 13 8 7 15 13 9 7 13 16 7 12 7 7 13
split_gain=3717.37 1323.85 1198.79 1026.59 338.584 150.539 108.069 145.77 78.5259 68.3219 48.4909 40.3593 28.2332 290.597 39.6612 14.5252 8.98567 35.0339 51.7814 6.62169 6.25862 7.01394 6.18531 5.96014 5.82878 5.58995 23.1247 3.56165 3.45188 2.9157 2.44856 2.82289 1.41309 0.535274 0.2707
threshold=7.5000000000000009 0.41666666666666669 7.166666666666667 1.0000000180025095e-35 6.166666666666667 5.416666666666667 12.833333333333334 8.4166666666666696 13.16666666666667 6.416666666666667 12.583333333333334 0.70714285714285718 54.250000000000007 6.166666666666667 6.5833333333333348 4.416666666666667 12.833333333333334 11.583333333333334 8.1666666666666696 0.41522988505747133 0.11647727272727275 0.22432133061396728 9.8333333333333339 -0.12132352941176469 7.416666666666667 0.20261717413616151 13.833333333333334 0.06458333333333334 0.38401629869379267 39.166666666666679 1.5357142857142858 0.26289917208752223 0.58571428571428574 0.94444444444444453 0.31437556154537288
decision_type=2 2 2 2 2 2 2 2 2 2 2 2 2 2 2 2 2 2 2 2 2 2 2 2 2 2 2 2 2 2 2 2 2 2 2
left_child=1 2 6 12 10 19 7 -1 22 15 28 27 13 -2 -15 33 17 18 -6 24 -14 -22 -9 -3 32 29 -27 -11 -4 -18 -26 -32 -5 -7 -23
right_child=3 23 4 5 16 9 -8 8 -10 11 -12 -13 20 14 -16 -17 25 -19 -20 -21 21 34 -24 -25 30 26 -28 -29 -30 -31 31 -33 -34 -35 -36
leaf_value=0.029651664666099958 0.0031187895460613665 0.049320392710429081 0.011520499913715275 0.054660309577699455 0.00019157471448279332 0.005197241418400788 0.038757099943562273 -0.0082236463409395451 0.034094512129195773 0.035739238128699953 0.027766402248950668 0.003629077475753677 -0.019263660350609151 -0.0034108889575174862 -0.027055348362495766 -0.023555607130357668 -0.018239032856834304 -0.035275398458042964 -0.01514691259899089 0.014701914075308322 -0.013653408484078266 -0.0068810959205573667 -0.02449499164412915 0.045463225959812795 0.038036248027407044 -0.012217233158775714 0.018273105274941037 0.024441689192728985 -0.0043976732280738918 0 0.025022889841428964 0 0.042539705951433658 0 -0.0099033129826974833
leaf_weight=2218.2051843702793 420.93047127127647 1390.1099427193403 428.62731075286865 107.9304628521204 311.64094918966293 23.06746643781662 1281.6375279277563 57.831369876861572 38.378485798835754 100.99687294661999 255.69559617340565 70.163851171731949 95.687449306249619 71.020349383354187 1151.8067389428616 26.206621542572975 22.697403907775879 50.21087934076786 524.78641884028912 9.8065929114818555 388.44838346540928 314.73871979117393 43.819091439247131 1418.4791955649853 33.723990008234978 46.088451102375984 41.216505616903305 85.933304354548454 9.3587195724248868 16.26965120434761 6.5466213524341565 4.1854405105113983 78.165243074297905 60.096054211258888 113.41923935711384
leaf_count=5487 1893 2053 1357 169 1218 74 2700 265 100 237 625 248 567 359 7630 110 117 281 2432 24 2060 1502 234 2248 74 229 131 248 36 73 16 14 146 206 515
internal_value=0.0200073 0.0307144 0.0219364 -0.00759096 0.00117037 0.0274391 0.0316615 0.0277777 -0.00169512 0.0151484 0.0173194 0.0235896 -0.0159265 -0.0183123 -0.0257105 -0.00445624 -0.00986573 -0.0109399 -0.00940278 0.0459134 -0.0115796 -0.0106201 -0.0157004 0.0473999 0.0470422 -0.00206117 0.00188139 0.030863 0.0111028 -0.0114711 0.033238 0.013646 0.0499843 0.0014143 -0.0077728
internal_weight=11317.9 8155.05 5346.46 3162.87 1706.59 606.823 3639.87 2358.23 140.029 366.464 693.682 257.094 2556.05 1643.76 1222.83 109.37 1012.91 886.638 836.427 240.358 912.294 816.606 101.65 2808.59 230.552 126.272 87.305 186.93 437.986 38.9671 44.4561 10.7321 186.096 83.1635 428.158
internal_count=35678 19586 15285 16092 6499 1566 8786 6086 599 1123 2018 733 14526 9882 7989 390 4481 3931 3650 443 4644 4077 499 4301 419 550 360 485 1393 190 104 30 315 280 2017
is_linear=0
shrinkage=0.03


Tree=20
num_leaves=29
num_cat=0
split_feature=11 15 8 15 6 16 10 9 6 6 6 8 10 15 7 8 6 10 15 6 8 9 6 8 10 8 7 10
split_gain=3044.97 2777.15 1087.01 904.567 314.689 273.898 117.751 115.336 72.1721 330.059 92.6286 84.3817 62.7201 51.1113 104.713 46.5245 38.4183 31.4752 29.264 24.5322 134.253 7.24574 7.20112 6.42515 6.27372 4.59327 1.47528 0.578266
threshold=0.41666666666666669 7.416666666666667 3.1666666666666674 4.8333333333333348 5.5000000000000009 6.8333333333333348 3.17859624443807 7.5833333333333348 14.500000000000002 7.5000000000000009 5.5000000000000009 5.8333333333333348 7.0945599899431757 3.8333333333333335 2.3666666666666671 7.416666666666667 3.5000000000000004 45.616629366087373 15.16666666666667 10.500000000000002 4.166666666666667 10.583333333333334 6.5000000000000009 50.750000000000007 1.9428090415820636 2.8333333333333335 -0.060661764705882346 5.7637996218446714
decision_type=2 2 2 2 2 2 2 2 2 2 2 2 2 2 2 2 2 2 2 2 2 2 2 2 2 2 2 2
left_child=1 3 25 12 7 6 21 23 9 10 17 -12 22 -2 26 -8 -14 -5 -9 20 -11 -6 -1 24 -4 -3 -15 -21
right_child=13 2 4 8 5 -7 15 18 -10 19 11 -13 16 14 -16 -17 -18 -19 -20 27 -22 -23 -24 -25 -26 -27 -28 -29
leaf_value=0.0345398355978161 0.050500404667594055 0.041184355265840591 -0.013969267483729666 0.019848021650163996 -0.01593117849943565 -0.030233680686349719 0.034782934662472419 0.0072067995888159828 -0.021104056385568844 0.04150808222503205 0.024344821337324792 -0.00097552528333228481 0.048951897495054894 0.045657317285908883 0.014879948358252447 0.0023533570697099686 0.03559558493963548 0.029424290759148701 0.030233093573171478 -0.011125447789316817 -0.0048390387155778126 -0.027998377898636295 0.028722448567274902 -0.032516343760699465 -0.006720269019528196 0.069093809572210355 0.042038681245352955 -0.0068585775431061801
leaf_weight=1074.8025867491961 1116.5171970874071 17.20656506717205 235.3686515390873 984.23656767606735 205.41836562752724 1459.6394501626492 47.591952413320541 298.62548239529133 56.714079946279526 62.946678131818771 183.36868539452553 325.22569116950035 522.61738279461861 892.46811287105083 124.33885529637337 236.09767714142799 375.40336953103542 494.74612547457218 60.719267815351486 210.52539065480232 464.94823761284351 74.45946829020977 381.77581018209457 12.715799316763876 247.83307380974293 130.08897390961647 902.6173752695322 95.740595400333405
leaf_count=2320 1575 31 1047 2744 1062 9664 145 953 339 136 497 1340 844 1389 312 1038 864 1156 166 1133 2090 479 1097 83 998 192 1514 466
internal_value=0.019478 0.0100267 -0.0128425 0.0232553 -0.0169262 -0.0233739 -0.00553182 -0.00162895 0.0119526 0.0126349 0.0192812 0.00812446 0.037049 0.0451673 0.0420247 0.00800221 0.0434477 0.0230894 0.011254 -0.00316975 0.000698744 -0.0193366 0.0330564 -0.0110282 -0.0103348 0.0663355 0.0438789 -0.0099159
internal_weight=11294.8 8258.82 3025.76 5233.05 2878.47 2023.21 563.567 855.262 2878.45 2821.74 1987.58 508.594 2354.6 3035.94 1919.42 283.69 898.021 1478.98 359.345 834.161 527.895 279.878 1456.58 495.918 483.202 147.296 1795.09 306.266
internal_count=35674 30884 15858 15026 15635 12388 2724 3247 9901 9562 5737 1837 5125 4790 3215 1183 1708 3900 1119 3825 2226 1541 3417 2128 2045 223 2903 1599
is_linear=0
shrinkage=0.03


Tree=21
num_leaves=34
num_cat=0
split_feature=16 6 15 16 8 8 8 9 7 15 15 12 16 12 0 15 10 7 6 10 15 7 6 13 13 9 9 0 15 7 0 0 10
split_gain=2733.8 2678.44 967.095 439.024 236.01 437.94 282.669 74.6758 17.0622 11.452 9.92099 8.67106 12.7179 9.28347 7.30411 6.30608 12.1272 5.0165 4.56264 4.53558 9.6914 3.20686 2.62225 2.06161 1.81477 1.75279 5.91005 1.70774 1.01071 0.622908 0.52771 0.719083 0.0475516
threshold=4.166666666666667 5.5000000000000009 7.166666666666667 6.416666666666667 7.416666666666667 5.416666666666667 39.166666666666679 9.1666666666666696 -0.22649572649572647 7.8333333333333348 4.5833333333333348 0.2914272631936547 15.500000000000002 0.31395311014122834 4.5000000000000009 36.833333333333336 2.2586347517122234 -0.35504201680672265 6.5000000000000009 41.415184919252972 67.333333333333357 2.2250000000000005 2.5000000000000004 0.19710030437510168 0.28809589965466603 9.5833333333333339 4.416666666666667 8.5000000000000018 34.166666666666679 -0.75961538461538447 7.5000000000000009 2.5000000000000004 41.147303457373205
decision_type=2 2 2 2 2 2 2 2 2 2 2 2 2 2 2 2 2 2 2 2 2 2 2 2 2 2 2 2 2 2 2 2 2
left_child=9 3 11 23 5 21 -6 8 28 10 -1 12 25 14 -13 16 -10 -7 22 -9 -21 29 -11 -2 -25 26 -3 -27 -4 -5 31 -15 -17
right_child=1 2 7 4 6 17 -8 19 15 18 -12 13 -14 30 -16 32 -18 -19 -20 20 -22 -23 -24 24 -26 27 -28 -29 -30 -31 -32 -33 -34
leaf_value=0.048106960578400554 0.038865791108349271 0.020462701521269437 -0.0026762391307393676 0.038373632248168019 -0.026847018468891603 -0.0062926484198818512 0.014352371024220616 -0.026475069996616356 -0.011045754641536161 0.048255615340843265 0.043272286975147803 0.014935923400389997 0.026985360389556196 0.0058394053604860392 0 0.00018071949954940868 -0.019632182899469212 -0.015467274266379529 0.030833679324540588 -0.022746095054474284 0.0047778015896984931 0.019282797660630093 0.037075954852164125 0.036467562970540261 0.033246868974472245 0.0085888294350376163 0.010052917234221278 -0.0071729580002630111 0.0082174437142961687 0.031496691694797394 -0.0046576413349413955 0.0017303042094184578 -0.0031252346205943764
leaf_weight=1384.7551285177469 416.11160415410995 61.053255140781403 106.57603932917118 78.49440997838974 201.73807400465012 113.49453236162663 572.10556529462337 735.20616793632507 338.11177831143141 85.592789486050606 1029.490355566144 122.15920519828796 41.693717077374458 57.990509748458862 36.540837094187737 23.260525524616245 314.98664356768131 140.8529250472784 93.437432289123535 673.72919845581055 9.5663927644491178 35.809957057237625 133.72728380560875 985.12072272598743 923.22108468413353 633.51752948760986 609.26395201683044 3.4623413830995551 6.2009308487176886 1087.2584308683872 5.4792963713407508 251.46649135649204 3.3005781024694434
leaf_count=2183 826 162 508 145 1086 449 1637 5144 1849 136 1942 395 138 194 147 113 1669 618 287 3881 45 87 291 1990 1900 2546 2144 16 26 2261 22 929 17
internal_value=0.0190905 0.0107737 -0.00702242 0.02654 0.0169919 0.0241074 0.00355234 -0.02036 -0.0128769 0.0452572 0.0460765 0.0091426 0.010396 0.00549498 0.0114401 -0.0146745 -0.0152565 -0.0115315 0.0387101 -0.0245072 -0.0223105 0.0316797 0.0417744 0.0356749 0.0349434 0.00982381 0.0110748 0.00844502 -0.00174663 0.0320179 0.00237749 0.00261329 0
internal_weight=11314.8 8587.77 4033.57 4554.21 2229.75 1455.91 773.844 2210.94 792.436 2727 2414.25 1822.63 1348.99 473.636 158.7 679.66 653.098 254.347 312.758 1418.5 683.296 1201.56 219.32 2324.45 1908.34 1307.3 670.317 636.98 112.777 1165.75 314.936 309.457 26.5611
internal_count=35783 30944 19945 10999 6283 3560 2723 13252 4182 4839 4125 6693 5006 1687 542 3648 3518 1067 714 9070 3926 2493 427 4716 3890 4868 2306 2562 534 2406 1145 1123 130
is_linear=0
shrinkage=0.03


Tree=22
num_leaves=26
num_cat=0
split_feature=6 11 11 8 10 16 15 11 16 15 10 10 8 8 8 11 16 9 16 15 16 16 15 9 8
split_gain=3317.78 1124.27 912.446 521.142 269.087 380.226 187.669 87.3266 696.959 535.476 51.9589 161.36 38.9323 81.9501 31.991 30.8959 26.1129 16.3345 8.85381 24.692 3.42945 97.7711 3.03043 2.90525 0.208344
threshold=6.5000000000000009 1.0000000180025095e-35 0.58333333333333337 6.5833333333333348 42.858924119358356 5.5833333333333348 5.8333333333333348 0.41666666666666669 4.416666666666667 6.166666666666667 0.87965281125489481 2.9056810222284128 3.8333333333333335 11.16666666666667 1.8333333333333337 1.0000000180025095e-35 2.1666666666666674 12.41666666666667 2.5833333333333335 9.1666666666666696 41.833333333333336 8.8333333333333339 39.833333333333336 9.1666666666666696 5.5833333333333348
decision_type=2 2 2 2 2 2 2 2 2 2 2 2 2 2 2 2 2 2 2 2 2 2 2 2 2
left_child=2 3 7 -2 10 16 23 8 12 15 -5 -12 -1 24 -4 -10 -6 22 -9 -20 21 -7 -8 -3 -14
right_child=1 6 14 4 5 20 17 18 9 -11 11 -13 13 -15 -16 -17 -18 -19 19 -21 -22 -23 -24 -25 -26
leaf_value=0.047832409189164114 0.012759869288082879 0.040128996397255076 0.051322130802902134 -0.035694342765507391 0.068122545037564916 -0.0081627349510103153 0.0116580977039088 0.049918608056789139 0.023266373511704217 0.0018398383143790947 -0.0346526421674931 -0.0076768569815838638 0.025034998442771871 0.043987428789388237 0.043228466141976431 0.032470679038767727 0.023068299178797921 0.040475974376969308 0.03548264704309409 0.0087765425676434583 -0.0019159781792678597 -0.029003151918370735 0.033179997700097455 0.050322133064055516 0.029702905599911931
leaf_weight=390.79661597311497 571.55429431796074 279.0769579410553 863.06090170145035 512.54954273253679 12.430487796664236 460.1191348284483 414.58379009366035 44.73529714345932 1267.6107719242573 1593.5795877873898 473.71580780297518 351.28632252663374 306.01483327150345 572.94962219893932 1274.7680872231722 490.81739121675491 221.41926112771034 19.526381656527519 443.62544552981853 37.62174154818058 17.54216156899929 370.42600679397583 6.9217929542064658 87.660239145159721 184.49334442615509
leaf_count=625 2112 515 1172 3845 19 2208 1285 63 3285 5916 3320 2055 706 986 1978 976 679 41 806 100 87 2306 16 145 467
internal_value=0.0183515 -0.00446775 0.029959 -0.0129564 -0.0190464 -0.0078733 0.0269043 0.0233012 0.0220047 0.0144585 -0.0280493 -0.0232259 0.039356 0.0361709 0.0465324 0.0258696 0.0258708 0.0135705 0.0350268 0.0334796 -0.0172327 -0.0175174 0.0121602 0.0427772 0.0269086
internal_weight=11268.9 3798.81 7470.07 2991.04 2419.49 1081.94 807.769 5332.24 4806.26 3352.01 1337.55 825.002 1454.25 1063.46 2137.83 1758.43 233.85 441.032 525.982 481.247 848.087 830.545 421.506 366.737 490.508
internal_count=35713 18633 17080 16631 14519 5299 2002 13930 12961 10177 9220 5375 2784 2159 3150 4261 698 1342 969 906 4601 4514 1301 660 1173
is_linear=0
shrinkage=0.03


Tree=23
num_leaves=35
num_cat=0
split_feature=16 15 6 6 6 6 6 9 9 15 15 6 15 9 5 10 10 9 15 15 5 15 12 0 0 15 10 12 13 13 12 12 12 0
split_gain=2289.54 637.882 374.962 270.01 900.352 117.65 94.5036 49.9668 64.7322 45.6679 43.3564 43.1151 88.6244 38.4113 17.9968 7.53106 58.4083 56.7969 24.7209 16.3718 5.90801 5.41106 5.29895 6.32143 4.73553 2.20028 2.13418 1.39498 1.29333 0.920032 0.404621 3.10051 0.194701 0.158235
threshold=9.5833333333333339 10.41666666666667 6.5000000000000009 13.500000000000002 8.5000000000000018 9.5000000000000018 4.5000000000000009 6.166666666666667 1.4166666666666667 2.4166666666666674 6.8333333333333348 5.5000000000000009 2.5833333333333335 15.583333333333334 582.50000000000011 4.8416064251843993 3.17859624443807 17.166666666666668 9.8333333333333339 8.4166666666666696 587.50000000000011 4.416666666666667 0.37958435833047788 2.5000000000000004 4.5000000000000009 3.1666666666666674 7.0553192529232183 0.22524509803921572 0.16990566037735852 0.18053048535900526 0.15207517174814059 0.20584720443875376 0.22524509803921572 6.5000000000000009
decision_type=2 2 2 2 2 2 2 2 2 2 2 2 2 2 2 2 2 2 2 2 2 2 2 2 2 2 2 2 2 2 2 2 2 2
left_child=1 3 11 4 7 6 26 8 -1 -4 -11 12 -2 -9 -8 16 18 19 -14 -17 -7 -13 23 28 -24 -19 -3 -28 -6 32 -31 -32 -5 -25
right_child=2 5 9 29 22 20 14 13 -10 10 -12 21 15 -15 -16 17 -18 25 -20 -21 -22 -23 24 33 -26 -27 27 -29 -30 30 31 -33 -34 -35
leaf_value=0.040460241417069526 0.051794116458239697 0.021925574296274238 0.049940578174095286 -0.0035783749128458619 0.0020500747796412589 -0.024581250226772107 -0.012367150089960777 0.022348612948993898 0.030564121332969749 -0.014925874845203796 -0.032064444630918572 0 0.013219094093469051 0.029784202113435132 0.028997562886842951 -0.0037535820634401144 -0.028841373167893713 0.024177663331793969 -0.011209407122968924 -0.040054898335887795 0.0090863354527323074 -0.018935987370057531 -0.011069804355495995 0.0043164203087861794 0.0045994327910826444 0.0053062100300129223 0.0018750805289704127 0.01610336482023593 -0.0029482313718550901 -0.0039113688798478562 -0.0038153188709391752 -0.015149326502028777 0 0.0013343045995112539
leaf_weight=738.96938924491405 32.794277727603912 134.48937253654003 5.5379431247711173 71.508584909141064 58.887885756790638 216.91809286177158 192.2689733505249 1089.8044978678226 4025.0231136977673 175.1231827288866 719.42028620094061 12.497937127947806 240.15570290386677 1719.561949416995 8.6221049353480321 18.944333106279373 39.819480836391449 6.0276171565055838 41.982132390141487 36.773319497704506 3.0012667477130881 90.031771197915077 44.867733232676983 921.16945203393698 23.957733795046806 153.21993125975132 15.760551154613493 23.813303098082542 153.00929349660873 45.369726330041885 59.604177199304104 46.190284386277199 10.722400881350039 47.654090337455273
leaf_count=1234 46 355 9 410 285 1489 965 3324 8824 893 5154 41 731 4000 23 69 183 12 209 195 15 451 200 4060 91 485 50 64 692 252 325 263 53 222
internal_value=0.0180115 0.0234816 -0.0155392 0.0254588 0.0263019 -0.0065615 0.00359224 0.0301946 0.0321136 -0.0281907 -0.0287632 0.00137222 0.00464237 0.0269195 -0.0103084 0.00161572 0.00454786 -0.00263762 0.00945142 -0.028525 -0.0239469 -0.0163782 0.00267975 0.00316835 -0.00519804 0.00635414 0.0197739 0.0113621 -0.00141515 -0.0062624 -0.00780403 -0.00914022 -0.00300829 0.0042022
internal_weight=11223.5 9651.17 1572.33 9056.3 8822.91 594.874 374.954 7573.36 4763.99 900.081 894.543 672.247 569.717 2809.37 200.891 536.923 321.957 214.965 282.138 55.7177 219.919 102.53 1249.55 1180.72 68.8255 159.248 174.063 39.5739 211.897 233.395 151.164 105.794 82.231 968.824
internal_count=35674 27196 8478 24235 22932 2961 1457 17382 10058 6056 6047 2422 1930 7324 988 1884 1123 761 940 264 1504 492 5550 5259 291 497 469 114 977 1303 840 588 463 4282
is_linear=0
shrinkage=0.03


Tree=24
num_leaves=42
num_cat=0
split_feature=15 8 11 8 10 10 10 11 10 6 16 7 16 6 6 6 7 6 16 9 11 6 16 9 6 6 11 6 6 12 7 9 9 4 4 12 6 7 7 12 12
split_gain=3354.95 1050.23 861.509 795.58 535.009 932.614 338.784 307.111 552.199 199.145 206.974 109.468 134.464 88.3169 92.1579 73.186 58.6926 34.0843 22.9316 20.611 14.8432 14.3827 14.0978 13.4286 11.848 10.8669 10.1628 8.469 7.41095 6.24321 3.90026 3.36582 21.57 3.0461 2.14628 2.05624 1.43576 1.36882 3.7594 0.148082 0.0103185
threshold=6.8333333333333348 8.4166666666666696 0.41666666666666669 3.4166666666666674 6.4288914274887627 1.9428090415820636 42.172919807635964 1.0000000180025095e-35 1.3307163456488713 9.5000000000000018 4.8333333333333348 -0.074175824175824162 5.8333333333333348 10.500000000000002 6.5000000000000009 2.5000000000000004 0.70714285714285718 6.5000000000000009 2.5833333333333335 3.5833333333333335 0.58333333333333337 1.5000000000000002 38.500000000000007 6.5833333333333348 9.5000000000000018 7.5000000000000009 0.41666666666666669 8.5000000000000018 13.500000000000002 0.2188049917386457 0.06458333333333334 2.1666666666666674 5.416666666666667 0.0037383308178210077 -0.017353660831921698 0.070849420849420863 13.500000000000002 0.37980769230769235 -0.11437908496732024 0.4142656937708053 0.21536389324041408
decision_type=2 2 2 2 2 2 2 2 2 2 2 2 2 2 2 2 2 2 2 2 2 2 2 2 2 2 2 2 2 2 2 2 2 2 2 2 2 2 2 2 2
left_child=2 7 3 27 5 17 26 19 -9 10 -8 31 18 14 15 -6 36 30 -13 21 -4 -2 34 -14 29 -24 -3 -1 -18 33 -5 -10 -33 -21 -12 -26 -7 38 -23 -31 -39
right_child=1 6 20 4 13 16 9 8 11 -11 22 12 23 -15 -16 -17 28 -19 -20 24 -22 37 25 -25 35 -27 -28 -29 -30 39 -32 32 -34 -35 -36 -37 -38 40 -40 -41 -42
leaf_value=0.049515510960528301 0.025008045951768292 -0.033363922034407391 0.039303232231711123 -0.01139014247720371 0.043246136306934337 0.028359015403744484 0.030596810948621336 0.047596164876236427 0.0045811294435106169 -0.025110031176504861 -0.028826683431576513 0.053840771145427929 -0.022676813964865955 0.0028322054900981213 0.016350964814776759 0.028314602931813693 0.011491309089640427 -0.02139756900676372 0.013303717131551674 -0.000647290275751052 0.046202943590696648 0.0055590419915614265 0.015456564214986626 -0.006650977318262803 0.001437788684816748 -0.026744949204120631 0 0.065427709215972921 -0.014794636251687933 0.0026224931161131339 -0.0056774769638561909 0.0098491020321672187 0.027478010363891681 -0.0061483132406086327 -0.0083166870703341878 -0.0097025087469039609 0.016678945741871114 0.010680109790534156 -0.0079621471671036514 0.0073122965846798898 0.0040975316552575658
leaf_weight=691.6415029168129 36.822201833128929 866.54423101991415 473.84958143532276 433.65647068619728 578.52789498865604 965.43294204771519 160.19268934428692 448.30265444517136 20.13809297978878 428.47166898846626 5.0460849702358237 13.925686702132223 184.61152809858322 104.29041855037212 294.84275257587433 667.90044273436069 199.11365485191345 377.96802335977554 129.37788219749928 221.14200726151466 1884.7939460724592 52.817622393369675 36.234985023736954 72.419800817966461 10.830846406519411 5.080496981739997 7.1251454055309287 55.589370802044868 8.3293624967336637 210.05359149724245 181.16156077384949 121.64240506291389 149.12524409592152 171.31671463698149 599.30719411373138 207.07005858421326 27.390002876520157 18.516520068049431 26.613409265875816 14.823633931577204 26.546835392713547
leaf_count=1061 94 6539 801 1531 968 2559 372 676 52 2759 28 20 723 446 919 1500 621 1882 332 1013 2755 175 128 302 62 31 23 86 41 893 633 312 362 820 2472 1252 116 65 102 57 96
internal_value=0.0172582 -0.00374903 0.0300997 0.0225001 0.0169667 0.00724146 -0.0187725 0.0110647 0.0216964 -0.00860984 0.000146282 0.00481137 -0.00530547 0.0298972 0.031706 0.0352982 0.0250337 -0.0142425 0.0177967 -0.00107198 0.0448468 0.00866507 -0.00739784 -0.018321 -0.00299657 0.00904875 -0.03307 0.0508252 0.010226 -0.000815178 -0.00976752 0.0188071 0.019734 -0.00313438 -0.00858483 -0.00900769 0.0280841 0.00343143 0.000613102 0.00309546 0.00762673
internal_weight=11188.6 4244.1 6944.49 4585.84 3838.61 2193.05 2108 2136.1 1139.54 1234.33 805.861 691.241 400.335 1645.56 1541.27 1246.43 1200.27 992.786 143.304 996.553 2358.64 161.317 645.669 257.031 835.237 41.3155 873.669 747.231 207.443 617.336 614.818 290.906 270.768 392.459 604.353 217.901 992.823 124.494 79.431 224.877 45.0634
internal_count=35679 19760 15919 12363 11216 7383 12352 7408 2779 5790 3031 2103 1377 3833 3387 2468 3337 4046 352 4629 3556 532 2659 1025 4097 159 6562 1147 662 2783 2164 726 674 1833 2500 1314 2675 438 277 950 161
is_linear=0
shrinkage=0.03


Tree=25
num_leaves=34
num_cat=0
split_feature=11 6 16 10 11 9 6 11 7 7 9 16 10 10 6 7 6 10 9 2 9 9 16 4 7 4 4 4 6 2 9 13 4
split_gain=3007.96 1186.85 1020.34 352.803 279.508 141.139 195.569 74.3963 64.141 62.4965 40.4806 62.0853 36.351 36.0652 21.5244 21.0654 17.3141 11.5349 11.5288 8.87678 7.22563 16.5397 4.74988 5.71809 3.23752 2.82057 2.44141 2.28219 2.25614 1.49619 1.31418 0.705341 0.256689
threshold=1.0000000180025095e-35 9.5000000000000018 6.166666666666667 3.4496731711975954 0.41666666666666669 13.833333333333334 3.5000000000000004 0.58333333333333337 0.86607142857142871 -0.21825396825396823 5.166666666666667 8.1666666666666696 3.2829089846240636 7.1876162601899782 10.500000000000002 0.5634920634920636 7.5000000000000009 0.87965281125489481 6.416666666666667 469.50000000000006 2.1666666666666674 7.5833333333333348 35.833333333333336 0.015010729613733906 0.42261904761904767 -0.0077071577071577066 0.0088593685615054076 -0.0042149677992449472 11.500000000000002 486.50000000000006 2.5833333333333335 0.22295168067226895 -0.0075901601567000794
decision_type=2 2 2 2 2 2 2 2 2 2 2 2 2 2 2 2 2 2 2 2 2 2 2 2 2 2 2 2 2 2 2 2 2
left_child=1 2 3 20 9 10 -7 8 -6 -2 22 17 -3 26 -11 -9 29 -12 -13 -18 25 30 23 -4 -5 -1 -14 -27 -16 -8 -22 -24 -23
right_child=4 12 5 24 7 6 16 15 -10 14 11 18 13 -15 28 -17 19 -19 -20 -21 21 32 31 -25 -26 27 -28 -29 -30 -31 -32 -33 -34
leaf_value=0.0090788783144483097 0.032423974821936867 -0.023263739141374341 -0.0013750153180766753 0.035553810682276199 0.036022180460376772 0.022303366831610948 -5.7192305095847719e-06 0.044761503782932893 0.012075726830555583 0.022265270114362416 -0.011077173860264342 -0.012974464411093588 -0.0036587974048205162 -0.017514255300707118 0.014253014130947494 0.036976255816896918 -0.005675977759967918 -0.00047100171221620802 -0.025204824751640709 -0.019345226954737168 0.021917775043480803 0 -0.0048727557840969977 -0.010391798333950625 0.01669816083798974 0.00025410933359159839 0.0043581485690189735 0.021895710129503629 0.0043854089239039069 -0.003871437822622547 0.012430546876463368 -0.020544460826499571 0.0030677801429150487
leaf_weight=37.262644827365875 714.06129558384418 866.04490192234516 534.23487351089716 1286.3985622823238 539.55595266819 394.2344514131546 318.91537506878376 1804.8491560965776 130.34772850573063 972.43052932620049 158.49818319827318 113.04829160869122 115.75721340626478 570.77355015277863 38.851157248020172 490.17331130802631 103.31611187756062 234.24283222109079 281.59383589029312 85.803211316466331 23.302083134651184 45.342352479696274 11.233236625790598 73.270302355289459 16.910605624318123 7.5333335101604453 44.993423156440258 109.37563790380955 76.812502861022949 134.06963481009007 690.5119770616293 15.641403317451475 134.60165718197823
leaf_count=101 1436 6043 2103 2725 968 951 1139 2686 329 2347 758 600 711 3375 122 838 489 1079 1803 437 56 188 57 320 55 21 262 258 291 489 2122 85 536
internal_value=0.0167785 0.00334567 0.0107914 0.024917 0.0348212 -0.00271249 0.00568666 0.0405075 0.0314324 0.0254321 -0.00885551 -0.0134072 -0.0190431 -0.0139803 0.0207906 0.0431286 -0.00448771 -0.00484478 -0.0218188 -0.0121046 0.0118976 0.0107553 -0.00314655 -0.00252711 0.0353451 0.018214 -0.00121635 0.0207696 0.00805083 -0.00122194 0.0128125 -0.01548 0.00240337
internal_weight=11174 6406.91 4809.34 2351.24 4767.08 2458.1 1036.34 2964.93 669.904 1802.16 1421.76 787.383 1597.57 731.524 1088.09 2295.02 642.104 392.741 394.642 189.119 1047.93 893.758 634.38 607.505 1303.31 154.172 160.751 116.909 115.664 452.985 713.814 26.8746 179.944
internal_count=35780 26763 16372 6062 9017 10310 3505 4821 1297 4196 6805 4240 10391 4348 2760 3524 2554 1837 2403 926 3282 2902 2565 2423 2780 380 973 279 413 1628 2178 142 724
is_linear=0
shrinkage=0.03


Tree=26
num_leaves=34
num_cat=0
split_feature=8 6 10 11 11 11 10 10 7 7 9 4 9 10 7 7 9 4 13 13 7 7 12 4 7 7 12 11 12 4 4 13 12
split_gain=3480.27 1278.12 762.936 348.658 337.765 294.218 343.786 213.178 100.892 77.9649 37.2596 25.7229 17.1311 14.2102 10.5273 28.2703 5.59809 5.47734 5.06206 10.3559 4.15161 3.70836 3.66195 2.75915 1.82591 4.24855 1.57232 0.985542 1.6284 0.236768 1.14929 0.487119 0.144349
threshold=5.8333333333333348 6.5000000000000009 6.5743120962686392 1.0000000180025095e-35 0.41666666666666669 1.0000000180025095e-35 4.1497721826524154 2.4719640003162362 0.70714285714285718 0.68333333333333346 3.8333333333333335 -0.017075793195196177 9.1666666666666696 43.767006490827789 -0.41421568627450972 3.5833333333333335 7.416666666666667 0.016210756255594521 0.25813492063492072 0.34227483217862659 0.060661764705882359 -0.4686274509803921 0.33276836158192097 0.0074766616356420155 0.58571428571428574 0.40833333333333338 0.18969723558271051 0.41666666666666669 0.21030044811403975 -0.004123728871203618 0.0088593685615054076 0.19710030437510168 0.19965605140023748
decision_type=2 2 2 2 2 2 2 2 2 2 2 2 2 2 2 2 2 2 2 2 2 2 2 2 2 2 2 2 2 2 2 2 2
left_child=4 2 3 17 14 6 -3 -6 24 12 22 -4 16 29 -1 -16 23 21 -15 -20 -14 -2 32 -7 25 -9 -12 28 -11 31 -31 -8 -5
right_child=1 5 11 10 7 9 13 8 -10 27 26 -13 20 18 15 -17 -18 -19 19 -21 -22 -23 -24 -25 -26 -27 -28 -29 -30 30 -32 -33 -34
leaf_value=0.029048622820412845 -0.016755183393982478 -0.028584766836908235 -0.024280199462730676 -0.0030423847679300654 0.044078258490028013 0.013075854450007423 -0.0027219958180106064 0.030809609570453478 -0.0032122699244011657 0 0.020181356018344924 0.025621360685379839 0.042745982281781156 -0.0089068655008998059 0.025131110564417039 0.0042575298929732651 0.02361416317297307 -0.012007821240973623 -0.0013846225595747078 -0.013873305909114984 0.023286752784225324 -0.023364953450247267 0.011555404866650959 -0.0015293344482468652 0.0063931549597787251 0.011122608118983357 0.030824163179878732 -0.015946318345796 -0.010241614291206763 0.00066953284302123401 0.0085365730237257926 0.0034341080051718252 0
leaf_weight=775.53194577991962 164.27827233076096 1315.5081631839275 7.988550826907157 13.968954578042029 2374.2303667962551 25.501877576112747 16.604939945042133 301.40998646616936 112.14722761511803 32.219489857554436 45.562478348612785 1802.6718055456877 55.464851811528206 693.30690956115723 1988.9557027369738 64.21165069937706 52.433192297816277 82.689750403165817 274.85476744920015 78.135457441210747 28.043621376156807 392.55977591127157 34.387232601642609 14.594604104757307 6.9250270575284949 16.758575186133385 131.82610113918781 16.239761918783188 33.944374263286591 54.033173814415932 32.037717871367931 25.441089250147343 39.390323519706726
leaf_count=1667 788 9386 42 47 3582 78 99 553 311 136 118 4211 120 3655 4916 195 145 398 1222 345 89 2056 92 52 16 38 292 65 146 309 168 137 122
internal_value=0.0166017 -0.000458091 0.0141315 -0.0083348 0.0331301 -0.0148831 -0.0180512 0.0405188 0.0210657 0.0154761 0.0204828 0.0253714 0.0267425 -0.00621242 0.0257641 0.0244953 0.0169408 -0.0203421 -0.0073751 -0.00426516 0.0369191 -0.0215023 0.00402542 0.00712191 0.0295171 0.0299047 0.0283872 -0.00826448 -0.00572297 0.00303412 0.0040068 0.000299237 -0.00039868
internal_weight=11103.9 5463.69 2715.32 904.663 5640.17 2748.36 2489.92 2811.47 437.241 258.442 265.135 1810.66 176.038 1174.41 2828.7 2053.17 92.5297 639.528 1046.3 352.99 83.5085 556.838 87.7465 40.0965 325.094 318.169 177.389 82.4036 66.1639 128.117 86.0709 42.046 53.3593
internal_count=35596 24318 8166 3913 11278 16152 15321 4500 918 831 671 4253 484 5935 6778 5111 275 3242 5222 1567 209 2844 261 130 607 591 410 347 282 713 477 236 169
is_linear=0
shrinkage=0.03


Tree=27
num_leaves=39
num_cat=0
split_feature=16 15 6 11 8 8 11 11 8 8 15 15 9 11 16 6 9 6 6 6 7 7 6 6 13 11 13 6 6 7 9 7 13 4 4 8 8 16
split_gain=2700.15 1828.97 534.049 475.313 395.583 341.307 288.313 170.94 169.138 277.94 157.171 111.65 89.7297 67.5177 36.8974 45.5934 32.2748 16.7379 16.0434 16.7589 13.0571 12.576 10.531 7.40866 6.17201 5.70997 4.69298 2.63262 1.54078 1.5168 1.00878 0.90986 0.865376 0.691816 0.498129 82.4345 16.5743 0.0628168
threshold=5.5833333333333348 6.5833333333333348 5.5000000000000009 1.0000000180025095e-35 2.8333333333333335 3.1666666666666674 0.41666666666666669 1.0000000180025095e-35 43.833333333333336 7.5833333333333348 7.166666666666667 2.1666666666666674 5.8333333333333348 0.41666666666666669 6.8333333333333348 9.5000000000000018 5.166666666666667 9.5000000000000018 2.5000000000000004 9.5000000000000018 5.2500000000000009 -0.44949494949494945 8.5000000000000018 4.5000000000000009 0.35866806685919322 0.58333333333333337 0.23031374007936509 3.5000000000000004 4.5000000000000009 0.11805555555555557 16.416666666666668 -0.53137254901960773 0.29924213609219891 -0.014051599315519282 -0.012072483482316361 5.166666666666667 4.8333333333333348 42.500000000000007
